tree
version=v4
num_class=1
num_tree_per_iteration=1
label_index=0
max_feature_idx=38
objective=regression
feature_names=NO2_cmaq O3_cmaq hour dayofweek month NO2_cmaq_lag3 NO2_cmaq_lag6 NO2_cmaq_lag12 NO2_cmaq_lag24 NO2_cmaq_lag48 NO2_cmaq_lag71 NO_cmaq_lag3 NO_cmaq_lag6 NO_cmaq_lag12 NO_cmaq_lag24 NO_cmaq_lag48 NO_cmaq_lag71 O3_cmaq_lag3 O3_cmaq_lag6 O3_cmaq_lag12 O3_cmaq_lag24 O3_cmaq_lag48 O3_cmaq_lag71 NO_cmaq_roll3_mean NO_cmaq_roll3_std NO_cmaq_roll6_mean NO_cmaq_roll6_std NO_cmaq_roll12_mean NO_cmaq_roll12_std NO_cmaq_roll24_mean NO_cmaq_roll24_std NO_cmaq_roll48_mean NO_cmaq_roll48_std NO_cmaq_roll71_mean NO_cmaq_roll71_std station_emb_0 station_emb_1 station_emb_2 station_emb_3
feature_infos=[0.155364:79.970357297599989] [29.334975813:212.36742982000001] [0:23] [0:6] [1:9] [0.155364:79.970357297599989] [0.155364:79.970357297599989] [0.155364:79.970357297599989] [0.155364:79.970357297599989] [0.155364:79.970357297599989] [0.155364:79.970357297599989] [0.0030060466260201139:1.0746009049855836] [0.0030060466260201139:1.0746009049855836] [0.0030060466260201139:1.0746009049855836] [0.0030060466260201139:1.0746009049855836] [0.0030060466260201139:1.0746009049855836] [0.0030060466260201139:1.0746009049855836] [29.334975813:212.36742982000001] [29.334975813:212.36742982000001] [29.334975813:212.36742982000001] [29.334975813:212.36742982000001] [30.011780915999999:212.36742982000001] [30.011780915999999:212.36742982000001] [0.0030060466260201139:1.0746009049855836] [0:0.50505582399904114] [0.0030060466260201139:1.0746009049855836] [0:0.47913802481103018] [0.0031014631968616807:1.0746009049855836] [0:0.45684018174234414] [0.0031491714822824909:1.0746009049855836] [0:0.41010758195688651] [0.01088291252853167:0.90375926498969672] [2.8199173786061973e-05:0.38123002746480505] [0.018066391917287948:0.76814421455100768] [0.00075568875932179546:0.35415330470653017] [-0.72265535593032837:1.9865289926528931] [-1.4085162878036499:1.2916492223739624] [-2.038433313369751:1.0195598602294922] [-1.9552310705184937:0.22807519137859344]
tree_sizes=5460 5726 5730 5719 5737 5751 5745 5767

Tree=0
num_leaves=63
num_cat=0
split_feature=4 11 33 36 34 4 16 16 16 25 3 37 30 34 15 4 4 3 4 38 37 16 14 11 14 3 37 12 3 30 34 2 12 29 11 3 15 15 11 14 4 34 18 15 16 16 3 38 4 16 16 38 15 30 3 14 37 16 12 3 34 15
split_gain=144.737 30.2272 17.3776 10.2952 9.01181 8.12419 9.68717 10.0138 6.71411 5.72759 4.99304 4.46636 3.18462 3.05375 5.38909 4.18873 3.57062 2.97941 4.00473 2.97521 4.59386 3.48211 3.04031 2.96286 2.95019 8.56767 2.85755 2.76336 2.75041 4.52149 3.36559 3.23452 2.64308 2.45054 2.42879 2.32954 2.27283 2.30909 2.11756 2.79213 2.08632 1.90501 1.83541 1.80621 1.78507 1.75247 1.74046 1.72236 1.85822 1.69767 1.68657 2.1026 1.65373 1.60341 2.15965 1.59306 1.57398 1.57336 1.51623 1.49453 2.13339 3.36452
threshold=4.5000000000000009 0.35451846769643164 0.7189812312913535 -0.86584007740020741 0.20490021034042932 6.5000000000000009 0.41465208871679066 0.08038751980250726 0.51571677180167497 0.11711141327575109 1.5000000000000002 -0.80224061012268055 0.086914011245155867 0.083820206783854892 0.19456233520349361 7.5000000000000009 7.5000000000000009 5.5000000000000009 3.5000000000000004 0.16104960814118388 0.42897074669599539 0.44111342400370207 0.24402737869083305 0.21773352075866123 0.48256701367980909 1.0000000180025095e-35 -0.80224061012268055 0.87509938138378407 2.5000000000000004 0.090997409495314652 0.12479071060415549 5.5000000000000009 0.58810826462300447 0.08476201697038567 0.41432351079199065 5.5000000000000009 0.094055447253229785 0.14235970989075322 0.30662116971681347 0.46493578988421086 5.5000000000000009 0.23270203917726037 50.076522600000011 0.42856248038810546 0.03869925387940875 0.23611916805884622 1.0000000180025095e-35 0.16104960814118388 8.5000000000000018 0.045289682453118915 0.070965647038249646 0.16104960814118388 0.049392461471823405 0.046888649693844597 1.5000000000000002 0.39306409176672591 -0.80224061012268055 0.11026515779199934 0.45860088817907002 5.5000000000000009 0.065632995891300172 0.080728501549434117
decision_type=2 2 2 2 2 2 2 2 2 2 2 2 2 2 2 2 2 2 2 2 2 2 2 2 2 2 2 2 2 2 2 2 2 2 2 2 2 2 2 2 2 2 2 2 2 2 2 2 2 2 2 2 2 2 2 2 2 2 2 2 2 2
left_child=3 9 4 8 5 6 7 34 59 13 -9 -8 -13 14 50 -15 56 24 33 20 23 35 36 -11 44 -26 -6 41 30 31 -7 42 -32 -19 -3 43 -22 -38 39 -24 -12 -28 -30 53 -5 -41 -4 48 -17 -25 -2 -52 -35 54 -21 -34 -16 -20 -33 -1 61 -61
right_child=1 2 46 17 26 28 11 10 -10 19 40 12 -14 15 16 47 -18 18 57 21 22 -23 38 49 25 -27 27 -29 29 -31 32 58 55 52 -36 -37 37 -39 -40 45 -42 -43 -44 -45 -46 -47 -48 -49 -50 -51 51 -53 -54 -55 -56 -57 -58 -59 -60 60 -62 -63
leaf_value=0.19771005797197219 0.19688299041142746 0.22631058360717857 0.23809367352599917 0.19293893777869722 0.20073592928538958 0.19861096638372233 0.20032391747280742 0.21127887940017206 0.21625909560146495 0.19995888252219307 0.199024901853119 0.21462268262370657 0.22567651610756384 0.19439415072311508 0.20195759760214246 0.19905100811125306 0.19638590218630717 0.19344681978516387 0.20539245984468196 0.20056671637443038 0.20127039242182446 0.20135700953113847 0.20188870346608126 0.21199322724426281 0.22119179911971262 0.19209371220969279 0.2141496938816411 0.20370743636674776 0.21361451321487074 0.20309515872494177 0.20305915948768871 0.21296840105950499 0.20471510427691894 0.19511690224790984 0.20902157518013212 0.21461897493760521 0.21286778206908202 0.20621828356238525 0.19803406010958102 0.20289470534838866 0.20488845747974729 0.22238646248263116 0.19626609569857306 0.20092016856138406 0.19465309695345745 0.21390265831583588 0.22282792554876357 0.21436364962564233 0.21090531087898462 0.20270166104642579 0.20032936798265563 0.20941185430134124 0.20264691070501198 0.21719935360415046 0.21120626586877711 0.21759702820728366 0.21376346263633283 0.19823324851369731 0.22606128234237222 0.19908727367425011 0.19617458772241725 0.2144936249243849
leaf_weight=1389 338 74 43 2240 33 397 36 236 54 1749 235 162 109 470 35 217 50 614 155 81 146 272 421 51 39 72 154 39 31 266 476 41 42 141 28 116 186 438 201 58 428 129 30 104 4717 96 33 26 39 1363 833 69 151 46 116 56 146 152 48 81 95 63
leaf_count=1389 338 74 43 2240 33 397 36 236 54 1749 235 162 109 470 35 217 50 614 155 81 146 272 421 51 39 72 154 39 31 266 476 41 42 141 28 116 186 438 201 58 428 129 30 104 4717 96 33 26 39 1363 833 69 151 46 116 56 146 152 48 81 95 63
internal_value=0.199379 0.203705 0.207849 0.195347 0.20726 0.206274 0.209101 0.206718 0.198914 0.202015 0.205033 0.216871 0.219069 0.199877 0.201202 0.197285 0.208213 0.194623 0.196912 0.202888 0.202427 0.205847 0.20466 0.201335 0.19423 0.202317 0.214749 0.216185 0.203608 0.20701 0.202151 0.213951 0.204599 0.19524 0.221565 0.208485 0.206886 0.2082 0.202452 0.203996 0.20281 0.217904 0.205083 0.206434 0.194101 0.209757 0.231465 0.202102 0.200857 0.203037 0.199895 0.201024 0.199011 0.208794 0.206832 0.212076 0.211481 0.201848 0.22003 0.198338 0.201991 0.205828
internal_weight=20756 10793 3126 9963 3050 2695 1308 1001 1682 7667 899 307 271 2223 1471 752 231 8281 1213 5444 4709 735 1546 3163 7068 111 355 322 1387 416 971 150 574 906 102 463 770 624 776 575 663 283 61 347 6957 154 76 282 256 1414 1240 902 292 243 197 98 181 307 89 1628 239 144
internal_count=20756 10793 3126 9963 3050 2695 1308 1001 1682 7667 899 307 271 2223 1471 752 231 8281 1213 5444 4709 735 1546 3163 7068 111 355 322 1387 416 971 150 574 906 102 463 770 624 776 575 663 283 61 347 6957 154 76 282 256 1414 1240 902 292 243 197 98 181 307 89 1628 239 144
is_linear=0
shrinkage=1


Tree=1
num_leaves=63
num_cat=0
split_feature=4 12 33 37 35 16 16 25 4 16 15 14 12 37 35 23 3 16 14 3 14 33 32 4 38 30 33 1 14 15 25 16 23 25 3 16 14 31 32 32 15 12 21 3 29 14 12 32 3 15 32 4 23 3 23 0 35 15 3 15 4 32
split_gain=130.73 27.4996 15.9413 6.59545 10.0181 8.15249 5.75848 5.57644 4.90693 7.93653 7.09498 5.36815 3.8779 3.35802 4.3238 3.27559 4.20527 3.26786 3.18772 3.17289 6.074 3.15066 2.90496 2.80237 6.01828 2.77069 2.49048 2.29142 2.20303 2.19255 2.08078 2.07768 2.03698 1.91871 1.90718 2.1868 1.88364 1.82199 1.83758 1.8106 4.03804 1.7543 1.74963 1.72591 1.71645 1.70428 1.7008 1.67559 1.54787 1.65125 1.50062 1.5 2.90446 1.54491 1.46856 1.46185 1.44985 1.63539 1.68142 1.35815 1.33011 1.31346
threshold=4.5000000000000009 0.35761677164653205 0.7189812312913535 -0.80224061012268055 -1.0000000180025095e-35 0.095183839893433306 0.051340981272211185 0.11711141327575109 6.5000000000000009 0.41465208871679066 0.3745619163194796 0.59771640890474298 0.49359785330933165 0.42897074669599539 -0.49410644173622126 0.053510541248984363 5.5000000000000009 0.045289682453118915 0.24402737869083305 1.0000000180025095e-35 0.48256701367980909 0.29356828595123013 0.11498617710382364 6.5000000000000009 0.16104960814118388 0.035642032091891047 0.57232039042180871 82.492385690000006 0.30956560662630983 0.30674326128318369 0.11918238884945391 0.51571677180167497 0.48065253593188279 0.47405824477629516 3.5000000000000004 0.51571677180167497 0.11702698956401043 0.084580257201950657 0.075223000498795364 0.079718425220404746 0.20981551720741584 0.48458392124152888 51.781911239500005 1.5000000000000002 0.21183200656385023 0.087181579822196362 0.22275321064004944 0.046108108256407057 2.5000000000000004 0.056796800382976541 0.017385002537881587 3.5000000000000004 0.038447404777938107 5.5000000000000009 0.12765505969343813 32.759205600000008 -0.69810837507247914 0.30674326128318369 1.5000000000000002 0.24096782346755105 6.5000000000000009 0.049519688516799949
decision_type=2 2 2 2 2 2 2 2 2 2 2 2 2 2 2 2 2 2 2 2 2 2 2 2 2 2 2 2 2 2 2 2 2 2 2 2 2 2 2 2 2 2 2 2 2 2 2 2 2 2 2 2 2 2 2 2 2 2 2 2 2 2
left_child=6 7 3 33 5 29 32 23 9 55 12 25 -10 14 21 -8 19 -16 27 20 54 56 -13 39 61 -11 -23 30 36 -5 -15 -21 51 47 50 -36 -14 -18 44 40 48 -6 -32 -4 45 -39 60 -3 49 -2 -12 -1 53 -53 -17 -7 -9 58 -58 -49 -19 -25
right_child=1 2 43 4 41 8 15 13 10 11 34 22 28 18 17 16 37 46 -20 31 -22 26 -24 24 -26 -27 -28 -29 -30 -31 42 -33 -34 -35 35 -37 -38 38 -40 -41 -42 -43 -44 -45 -46 -47 -48 59 -50 -51 -52 52 -54 -55 -56 -57 57 -59 -60 -61 -62 -63
leaf_value=-0.0063217592861439095 0.0045688587915216714 0.014364055858459325 0.03571955030784011 0.015772517157685278 0.0053472533052066496 0.0054178145275741831 -0.0049833830439598775 0.0046914182046821915 0.0032141390014711079 0.011545493497058404 0.01248989798114053 0.022726736011717357 0.01570955185203015 0.019206568389828947 0.013155611497966355 -0.0027466559831155826 -0.0035474576610362248 0.0012416332739771212 0.0027164982176631765 -0.003875491752701762 0.020456638336181641 0.00096079382282267852 0.005507012873299813 0.0022068306967932068 0.015274856442754919 0.025743861587946879 0.011219258102937602 -0.0071829967890624652 0.01758202774845995 0.028719105911167234 0.010406778435291126 0.0082071846144066915 0.0046816291644218118 -0.0011812635193411349 0.021834631496368766 0.0023125185281969609 0.0031528619176242503 0.009884532762225718 -0.0013261978675993538 -0.0053039541156442074 0.0098587035953280455 0.00022138732235070388 0.0053520894379788407 0.020865510133179752 0.018563328006050803 0.0015472843005128278 0.002203592220499863 0.0068482332429001952 -0.0045592465241547347 -0.0022028703773656045 0.00047182449883707438 -0.00098673428454604316 -0.0054072920117125894 0.009765960073665432 0.0027453278239785036 0.013432080913590242 0.0019547423880708049 0.02198180055076426 0.010529467277488979 0.00088688503985925979 -0.0021465008997207358 -0.0013145992176466594
leaf_weight=2938 141 40 48 63 451 258 1790 743 103 43 28 33 56 37 51 385 147 476 799 3041 35 783 95 672 77 171 64 27 200 68 259 36 47 214 26 32 64 88 173 272 83 265 505 33 22 202 753 176 294 249 359 122 659 46 178 73 84 22 179 209 740 437
leaf_count=2938 141 40 48 63 451 258 1790 743 103 43 28 33 56 37 51 385 147 476 799 3041 35 783 95 672 77 171 64 27 200 68 259 36 47 214 26 32 64 88 173 272 83 265 505 33 22 202 753 176 294 249 359 122 659 46 178 73 84 22 179 209 740 437
internal_value=-0.000304817 0.00380421 0.00777744 0.00719167 0.00839898 0.0105182 -0.00413876 0.00221019 0.00950028 0.0127045 0.00701588 0.0180462 0.0116524 0.00306172 0.00226482 -0.00318568 -0.00243855 0.000659826 0.00496948 -0.00308646 0.000246134 0.00399394 0.00994647 9.68751e-05 0.00175774 0.0228909 0.00173593 0.00714355 0.0143685 0.0224929 0.00762647 -0.00373413 -0.00566313 0.00267984 0.00260855 0.0110638 0.00901265 0.00132892 0.00280691 -0.00179897 -0.000556 0.00345011 0.00706566 0.0296679 0.00509867 0.00407721 0.000336166 0.00462402 -0.00181977 0.00024537 0.00134135 -0.00579227 -0.00391119 0.00195746 -0.00101029 0.00718531 0.00585437 0.00888622 0.00779077 0.00361207 -0.000820225 0.000819216
internal_weight=20764 10855 3108 3027 2388 1672 9909 7747 1541 673 868 342 423 5522 3895 6097 4307 2020 1627 3675 598 1875 128 2225 1186 214 847 828 320 131 801 3077 3812 639 445 58 120 632 485 1039 767 716 764 81 312 290 1969 425 684 390 387 3765 827 168 563 331 1028 285 263 385 1216 1109
internal_count=20764 10855 3108 3027 2388 1672 9909 7747 1541 673 868 342 423 5522 3895 6097 4307 2020 1627 3675 598 1875 128 2225 1186 214 847 828 320 131 801 3077 3812 639 445 58 120 632 485 1039 767 716 764 81 312 290 1969 425 684 390 387 3765 827 168 563 331 1028 285 263 385 1216 1109
is_linear=0
shrinkage=0.05


Tree=2
num_leaves=63
num_cat=0
split_feature=4 23 33 36 34 16 15 11 16 38 37 12 4 16 37 3 3 15 14 16 16 3 4 3 14 14 30 14 3 3 15 14 14 23 15 14 35 34 15 14 16 16 12 4 14 23 16 30 16 16 12 34 32 34 11 16 14 16 14 15 16 3
split_gain=118.483 25.1742 12.8525 8.8795 8.07337 5.1763 5.97843 5.11034 5.00718 4.57993 5.47603 3.85128 3.60372 8.0807 4.18795 3.72571 3.16946 2.93431 3.29598 2.88294 2.74866 2.47193 3.81984 2.30047 2.24586 2.73122 2.22271 2.12841 7.31085 2.03914 2.00047 2.02839 1.94451 1.83262 1.72739 1.72164 1.83825 1.70523 1.81317 1.79922 1.66292 2.7227 1.63273 1.61839 1.59035 2.0367 1.58892 2.66063 1.52484 1.50254 1.9112 1.46505 1.44815 1.43979 1.41623 1.40436 1.36992 1.49174 2.06891 1.36351 1.35607 1.34908
threshold=4.5000000000000009 0.35821161286306646 0.7189812312913535 -0.86584007740020741 0.21192984470456663 0.097568654307503236 0.37806509186730825 0.039149534310845342 0.51571677180167497 0.16104960814118388 0.42897074669599539 0.21773352075866123 6.5000000000000009 0.41465208871679066 -0.80224061012268055 1.5000000000000002 2.5000000000000004 0.30379067987496466 0.33633392769838444 0.58001918321960733 0.38582720038691165 4.5000000000000009 3.5000000000000004 1.0000000180025095e-35 0.041844074195796381 0.24402737869083305 0.065593227265451595 0.48256701367980909 1.0000000180025095e-35 3.5000000000000004 0.12769581652901563 0.17631902142294723 0.18701915211031764 0.48065253593188279 0.24096782346755105 0.16298680782263783 -1.0000000180025095e-35 0.17127416757380853 0.42856248038810546 0.065298515601075316 0.4005030014178827 0.44111342400370207 0.48458392124152888 5.5000000000000009 0.33202743996396061 0.30545987192818108 0.55135247818940292 0.051969257321083047 0.11026515779199934 0.064301107322091586 0.87509938138378407 0.12255164656990512 0.017385002537881587 0.1065080970092696 0.34059620089057679 0.49126503463298787 0.27195849775880027 0.045289682453118915 0.10336867066967481 0.24553051045255822 0.03869925387940875 2.5000000000000004
decision_type=2 2 2 2 2 2 2 2 2 2 2 2 2 2 2 2 2 2 2 2 2 2 2 2 2 2 2 2 2 2 2 2 2 2 2 2 2 2 2 2 2 2 2 2 2 2 2 2 2 2 2 2 2 2 2 2 2 2 2 2 2 2
left_child=3 7 4 8 5 6 16 -2 -1 10 11 51 13 15 -15 42 26 18 30 34 37 27 33 -6 -12 32 -3 60 -29 52 31 -14 35 -23 61 36 -26 38 39 -11 -22 53 -7 -17 59 -46 47 -16 -24 -25 -51 -9 -19 -42 -47 -31 57 -13 -59 -27 -5 -20
right_child=1 2 -4 21 23 12 -8 9 -10 20 24 56 17 14 46 43 -18 29 19 -21 40 22 48 49 25 44 -28 28 -30 55 -32 -33 -34 -35 -36 -37 -38 -39 -40 -41 41 -43 -44 -45 45 54 -48 -49 -50 50 -52 -53 -54 -55 -56 -57 -58 58 -60 -61 -62 -63
leaf_value=-0.0011143926713242215 -0.0043908251891665783 0.011827577932906154 0.028547477211271016 -0.0061420623625589943 0.023782489869514839 0.013605884372587973 0.025443059983460799 0.00041765877644619722 0.014794775726748447 -0.00055655845611983414 -0.0039297795796301221 0.012992253438911259 0.012100980551588501 0.00035739716311747381 0.011795283209434466 -0.00026560228337802193 0.019317994211265385 0.011616411618888378 0.0082711396417990725 0.022552352646986643 -0.0060529427751898762 -0.0043986816713226561 0.0059755915001376862 0.0007345945516135544 0.0083726064489410452 0.0054382943591061873 -0.001228790702477384 0.019389404222751275 -0.0069076644211280638 0.015548818155720429 -0.00052447528129018716 0.0016991606465929631 0.01010986618560982 0.0079345929045831001 0.0021971461146442902 -0.0033108346178038518 0.0034972157014671254 0.016725668056831493 -0.0002615743147825796 0.0096768488167803847 0.023331844029219256 0.0016516902283696896 0.004057421232573688 0.0049594607754122645 0.0057164949953278192 -0.0031967480858484062 0.0093914083995909059 0.023713404986030254 -0.001238479503360258 0.016102755785157737 0.0036014349879445254 -0.0023454722045081118 -0.0007176358668566353 0.0071341513710863448 0.0052348425950516364 0.0025860760516176625 0.0011413981442667449 -0.0025823615147601234 0.0047153615182567912 -0.0026625352710570125 -0.004628626125487618 0.018257954471358442
leaf_weight=1636 294 56 70 2197 57 149 69 2442 51 49 86 46 86 44 76 229 47 25 193 36 50 1061 147 24 333 68 78 39 82 37 228 103 230 31 101 59 461 51 71 348 23 272 64 420 429 141 53 122 146 176 37 597 495 34 77 48 606 112 731 220 4536 41
leaf_count=1636 294 56 70 2197 57 149 69 2442 51 49 86 46 86 44 76 229 47 25 193 36 50 1061 147 24 333 68 78 39 82 37 228 103 230 31 101 59 461 51 71 348 23 272 64 420 429 141 53 122 146 176 37 597 495 34 77 48 606 112 731 220 4536 41
internal_value=-0.000293905 0.00359721 0.00736106 -0.00393833 0.00688173 0.00605411 0.0129201 0.00207629 -0.00063344 0.00232859 0.00187522 0.000896937 0.00538098 0.00744343 0.0145863 0.00499896 0.0081461 0.00366794 0.00567871 0.00910701 0.00567986 -0.00461503 -0.0026884 0.0147638 0.00398338 0.00432061 0.0042276 -0.00500435 0.00156825 0.00104896 0.00262858 0.00643226 0.00602975 -0.00404856 0.00766214 0.00492961 0.00554193 0.00804376 0.00709765 0.00841378 0.00244276 0.0037339 0.0107369 0.00311579 0.00234092 0.00371672 0.0170806 0.0191388 0.00238087 0.0125948 0.0139312 -0.000125148 -0.000124653 0.0136701 -0.000218617 0.00822868 0.00297461 0.00422424 0.00374579 -0.000749839 -0.00512247 0.010021
internal_weight=20920 10994 3164 9926 3094 2800 250 7830 1687 7536 6638 4534 2550 1157 295 862 181 1393 788 371 898 8239 1385 294 2104 2018 134 6854 121 605 417 189 1083 1092 335 853 794 519 468 397 379 329 213 649 935 647 251 198 293 237 213 3039 520 57 218 85 1495 889 843 288 6733 234
internal_count=20920 10994 3164 9926 3094 2800 250 7830 1687 7536 6638 4534 2550 1157 295 862 181 1393 788 371 898 8239 1385 294 2104 2018 134 6854 121 605 417 189 1083 1092 335 853 794 519 468 397 379 329 213 649 935 647 251 198 293 237 213 3039 520 57 218 85 1495 889 843 288 6733 234
is_linear=0
shrinkage=0.05


Tree=3
num_leaves=63
num_cat=0
split_feature=4 12 15 36 16 23 16 37 35 3 15 15 4 16 34 15 4 3 3 4 4 37 38 16 37 16 3 25 14 14 3 27 32 12 38 3 15 37 15 15 14 12 4 12 36 16 16 38 34 16 12 37 34 4 4 31 32 3 3 4 23 16
split_gain=109.277 23.2161 9.92741 7.60488 5.85426 4.96271 4.81252 4.8117 7.69319 4.49743 4.27853 3.92079 3.58222 4.4278 2.7251 4.09567 3.4749 2.56398 2.49755 3.13664 2.32309 2.60028 2.27602 3.03601 2.69786 2.32474 2.03846 1.87635 1.86404 6.23828 1.80133 1.77815 1.74812 1.6836 1.6465 1.58653 2.31676 2.32215 1.58122 2.01908 2.9069 3.65278 1.55958 1.67731 1.74276 1.55874 1.54492 1.55159 1.52976 1.48329 1.84881 1.47349 1.40569 1.39391 1.38614 2.18909 2.33301 1.6549 1.37655 1.95103 1.6349 1.3284
threshold=4.5000000000000009 0.35761677164653205 0.59862822403330695 -0.86584007740020741 0.6682364455844646 0.1232330162353976 0.51571677180167497 -0.80224061012268055 -1.0000000180025095e-35 3.5000000000000004 0.39003234279466126 0.37806509186730825 6.5000000000000009 0.29628354513556326 0.083820206783854892 0.19456233520349361 7.5000000000000009 2.5000000000000004 4.5000000000000009 3.5000000000000004 7.5000000000000009 -0.80224061012268055 0.16104960814118388 0.44111342400370207 0.42897074669599539 0.045289682453118915 1.0000000180025095e-35 0.47405824477629516 0.48256701367980909 0.58337768817812374 1.5000000000000002 0.066667580798652717 0.046108108256407057 0.48458392124152888 -1.0000000180025095e-35 3.5000000000000004 0.30674326128318369 -0.80224061012268055 0.095738652688237377 0.26811569336177682 0.54458460582375134 0.47989366602990208 5.5000000000000009 0.30956560662630983 -0.25348418205976481 0.033787402691678993 0.060295637982156751 0.16104960814118388 0.17127416757380853 0.27226337963882508 0.52199122419156663 0.42897074669599539 0.0353640249017299 2.5000000000000004 6.5000000000000009 0.29907204199586279 0.20110213713247732 5.5000000000000009 5.5000000000000009 6.5000000000000009 0.16880599249568615 0.59428676158747329
decision_type=2 2 2 2 2 2 2 2 2 2 2 2 2 2 2 2 2 2 2 2 2 2 2 2 2 2 2 2 2 2 2 2 2 2 2 2 2 2 2 2 2 2 2 2 2 2 2 2 2 2 2 2 2 2 2 2 2 2 2 2 2 2
left_child=3 5 7 6 9 14 -1 27 10 26 11 38 13 -12 15 46 -16 -15 28 31 21 -17 24 58 25 -7 -4 32 -5 -30 -6 -20 -3 -10 -27 36 -18 -38 -9 -40 41 -41 43 44 48 -33 -2 51 -26 50 -14 -48 -53 -47 -44 61 57 -57 59 -24 -61 -56
right_child=1 2 4 18 30 22 -8 8 33 -11 12 -13 49 17 16 20 35 -19 19 -21 -22 -23 23 -25 42 34 -28 -29 29 -31 -32 45 -34 -35 -36 -37 37 -39 39 40 -42 -43 54 -45 -46 53 47 -49 -50 -51 -52 52 -54 -55 55 56 -58 -59 -60 60 -62 -63
leaf_value=-0.0011328751339305264 -0.0028918966941411193 0.013470608939710277 0.013856005506200154 -0.0048709421853628601 0.030198722254366629 0.011943127973969446 0.014933386786530415 0.016368410735117897 0.004920171579441239 0.017862636117431208 0.0029394153208859202 0.029197585738203941 -0.0028507959159711996 0.021412138236790071 -0.0045237726120447566 0.00093909181305207312 -0.0020027969528229965 0.0083210368778964035 -0.0056187312359153819 0.0019983854289952812 -0.0030219462133296159 0.012989076617448872 0.013577578891043184 0.0013776903055836903 0.012193266122069743 0.00045964445867767071 0.00079780825917437977 -0.001386719589071298 0.018440930442129438 -0.0065932881871336394 0.016631698427954689 -0.0067166852362264516 0.0031769487130068209 -7.5231100473662524e-05 0.0029198763878737679 -0.0027153295504521264 0.00054478022580345474 0.01336121042367331 0.0079581621130835646 0.0067339238477870829 0.0066374933886792237 0.023153717346389647 0.0083303110925480716 -0.0068161448394810711 0.00036649992909330414 -0.0018356656626656049 -0.00034773560298836118 0.0083431875831644301 -0.0022154167015105484 0.00033887657378842167 0.011893095545572779 0.0086365932903003581 0.00018669494214312485 0.0048740545470340587 0.0068931893548231067 -0.0024129726739277033 0.012016773215007215 0.0068022158409117676 0.012704510036378337 0.010254409048659138 0.0015732248469842653 -0.00014623053637998447
leaf_weight=1610 296 46 43 6835 63 53 48 119 444 123 113 31 30 90 550 64 93 64 581 308 46 149 73 277 70 1825 98 222 37 76 40 118 399 272 1084 129 60 86 411 50 92 105 250 54 233 321 739 71 25 222 73 101 96 102 517 242 42 61 117 79 173 77
leaf_count=1610 296 46 43 6835 63 53 48 119 444 123 113 31 30 90 550 64 93 64 581 308 46 149 73 277 70 1825 98 222 37 76 40 118 399 272 1084 129 60 86 411 50 92 105 250 54 233 321 739 71 25 222 73 101 96 102 517 242 42 61 117 79 173 77
internal_value=-0.000279892 0.003472 0.00709026 -0.0037617 0.0148199 0.00199792 -0.000667748 0.00607095 0.00723821 0.0108754 0.00939425 0.0117602 0.00616503 0.0104562 0.00015452 0.00142514 -0.00200747 0.0159717 -0.00437399 -0.00247108 0.00716782 0.00936842 0.00286838 0.00548189 0.00245384 0.00156549 0.0047801 0.00236791 -0.00476564 0.00160376 0.02493 -0.00369799 0.00424101 0.00302248 0.00137642 0.0017533 0.00416523 0.00809418 0.0110645 0.0101053 0.0136781 0.017857 0.00412875 0.00134939 0.00269371 -0.00163524 0.000283658 0.00121709 0.00840151 0.0026397 0.00759876 0.000676541 0.00451888 -0.000217719 0.0050217 0.00414081 0.000973044 -0.00055777 0.00805398 0.00637978 0.00429471 0.00598067
internal_weight=20918 10882 3150 10036 367 7732 1658 2783 2116 264 1400 808 592 267 2480 1562 918 154 8378 1430 259 213 5252 719 4533 2962 141 667 6948 113 103 1122 445 716 2909 368 239 146 777 658 247 155 1571 382 328 541 1303 1007 95 325 103 936 197 423 1189 939 345 303 442 325 252 594
internal_count=20918 10882 3150 10036 367 7732 1658 2783 2116 264 1400 808 592 267 2480 1562 918 154 8378 1430 259 213 5252 719 4533 2962 141 667 6948 113 103 1122 445 716 2909 368 239 146 777 658 247 155 1571 382 328 541 1303 1007 95 325 103 936 197 423 1189 939 345 303 442 325 252 594
is_linear=0
shrinkage=0.05


Tree=4
num_leaves=63
num_cat=0
split_feature=4 23 15 36 37 38 4 14 15 12 23 3 11 3 3 34 15 3 4 4 29 32 4 23 38 37 3 34 12 12 15 15 14 3 12 14 14 34 34 3 15 37 14 11 31 3 23 14 14 30 3 4 36 4 23 4 11 14 32 34 37 15
split_gain=94.9742 19.1159 8.7746 6.97248 4.29995 6.23541 4.13444 5.37771 4.2343 3.88339 3.794 3.64061 6.36761 3.84085 2.37803 2.36785 3.63384 2.22566 2.74313 2.12464 2.03273 2.01213 2.00889 1.77918 1.73466 2.43931 1.89139 2.01837 1.9201 1.84935 1.68453 3.71144 1.65281 6.0058 1.62659 1.54814 1.81043 1.54423 1.47532 1.44796 2.37221 1.6258 1.42825 1.33973 1.33866 1.31084 1.29114 3.68102 2.8606 1.28957 1.51101 1.42694 1.24693 1.40899 1.33136 1.25481 1.23113 1.2 1.1805 1.43542 1.17722 1.22751
threshold=4.5000000000000009 0.35821161286306646 0.59862822403330695 -0.86584007740020741 -0.80224061012268055 -0.8462354689836501 6.5000000000000009 0.54145360458525316 0.3745619163194796 0.56251011605964329 0.1232330162353976 1.0000000180025095e-35 0.57719791151878452 3.5000000000000004 3.5000000000000004 0.056162911253457494 0.19456233520349361 5.5000000000000009 3.5000000000000004 7.5000000000000009 0.078735742636433612 0.048361618354514267 7.5000000000000009 0.48555850648790416 0.16104960814118388 0.42897074669599539 5.5000000000000009 0.096478047208537157 0.13574582928187681 0.21773352075866123 0.22441353881808263 0.42182345538140403 0.48256701367980909 1.0000000180025095e-35 0.049788548723423899 0.24402737869083305 0.18701915211031764 0.21192984470456663 0.085285521814964863 3.5000000000000004 0.30674326128318369 -0.80224061012268055 0.27195849775880027 0.030836555107351511 0.41731043361630732 1.0000000180025095e-35 0.10482525533803301 0.076887383529932782 0.068265309213729392 0.070315722817005807 1.0000000180025095e-35 6.5000000000000009 -0.16530410945415494 6.5000000000000009 0.15950241559266984 5.5000000000000009 0.082171593389833583 0.16298680782263783 0.036549990124206184 0.028950893246699454 -0.80224061012268055 0.14054863257277342
decision_type=2 2 2 2 2 2 2 2 2 2 2 2 2 2 2 2 2 2 2 2 2 2 2 2 2 2 2 2 2 2 2 2 2 2 2 2 2 2 2 2 2 2 2 2 2 2 2 2 2 2 2 2 2 2 2 2 2 2 2 2 2 2
left_child=3 10 4 34 21 23 7 14 9 -8 15 12 -4 37 30 16 43 32 20 -18 -19 -3 38 -6 25 29 27 58 -29 52 -7 -32 -5 -34 -1 36 57 -13 60 40 -24 56 -31 -2 -33 -44 -36 48 -48 -37 -51 -52 53 -12 -54 -56 -42 -27 59 -26 -17 -62
right_child=1 2 11 17 5 6 8 -9 -10 -11 24 13 -14 -15 -16 22 19 18 -20 -21 -22 -23 39 -25 26 35 -28 28 -30 42 31 44 33 -35 46 49 -38 -39 -40 -41 41 -43 45 -45 -46 -47 47 -49 -50 50 51 -53 54 -55 55 -57 -58 -59 -60 -61 61 -63
leaf_value=0.011834944340472039 -0.0058214859063835476 0.010820027650735373 0.0049843411265800787 -0.0045639829889625051 0.0046866745575015519 0.011707694877237152 0.0056934263858110365 0.0053204177698435292 0.0019209134798655486 0.015207925794380052 0.0015250489340001428 0.00068351766442473249 0.029892856081326802 0.016826358508571223 0.0011203360344682421 -0.0033733932000975459 0.011847127238707617 -0.0052910778777299425 0.0018404572768687451 -0.0031745766193188468 -0.00035981148353059873 0.0010383862096010922 -0.0015333939441724829 -0.00056781605223324069 0.012262595861486845 0.0047725614156241252 0.0098379127227534099 0.014223721525976779 0.00036003731480273825 0.0040748077416887822 0.025652403750665766 0.024978155188728125 0.017497889425318974 -0.0062451408022925967 -0.0025227197659842206 0.00054051545556393205 0.0093058699033165392 0.014006340400926 -0.0042080196092342493 -0.0023769787859557003 0.0081687627839190629 0.01268213193930955 0.0066236311186324143 0.0012765310034316419 0.010915561372160236 -8.6853164639287138e-05 0.0045545263683394064 -0.00092857916766213994 0.023377126703659695 0.012909330077905288 0.00771067570475098 0.00099536164767212334 0.0059562952682266348 -0.0021639679090720799 -0.0041948376381017198 0.0026129628992944123 -0.0060415033940915712 -0.0030428846942430194 0.015167892919409842 0.0019921274358210596 -0.0026917318550036535 0.0065188996870108335
leaf_weight=26 71 58 39 6943 478 132 277 213 329 175 436 87 75 118 28 124 125 592 318 29 323 562 114 243 53 459 156 27 333 855 107 20 39 84 640 432 226 29 541 145 35 83 85 1044 110 506 127 846 24 47 122 225 170 637 99 214 27 55 42 95 57 99
leaf_count=26 71 58 39 6943 478 132 277 213 329 175 436 87 75 118 28 124 125 592 318 29 323 562 114 243 53 459 156 27 333 855 107 20 39 84 640 432 226 29 541 145 35 83 85 1044 110 506 127 846 24 47 122 225 170 637 99 214 27 55 42 95 57 99
internal_value=-0.00026829 0.00323376 0.00656703 -0.00352802 0.00561455 0.00668931 0.00864526 0.0117297 0.00623617 0.00937714 0.00191212 0.0140446 0.0213715 0.010475 0.0151684 0.000305228 0.00181891 -0.00412016 -0.00215999 0.00901836 -0.00355031 0.00195344 -0.00126283 0.00291574 0.00267199 0.0023155 0.00497857 0.00360028 0.00139981 0.001481 0.0162344 0.0187556 -0.0044622 0.00128314 -0.000573021 0.00391524 0.00557618 0.00401422 -0.00268319 0.0016236 0.00386331 0.00810623 0.00276834 0.00082455 0.013079 0.000878276 -0.000770093 0.000354963 0.0075462 0.00242724 0.00449593 0.00335637 0.000284659 -0.000664983 0.00239432 0.000459697 0.00198042 0.00393628 0.00776959 0.00567007 0.000263006 0.00315348
internal_weight=20810 10848 3080 9962 2732 2112 1391 610 781 452 7768 348 114 234 397 2494 1269 8299 1233 154 915 620 1225 721 5274 4568 706 550 360 3002 369 237 7066 123 1663 1566 740 116 821 404 259 145 1446 1115 130 591 1637 997 151 826 394 347 1556 1073 483 313 62 514 190 148 280 156
internal_count=20810 10848 3080 9962 2732 2112 1391 610 781 452 7768 348 114 234 397 2494 1269 8299 1233 154 915 620 1225 721 5274 4568 706 550 360 3002 369 237 7066 123 1663 1566 740 116 821 404 259 145 1446 1115 130 591 1637 997 151 826 394 347 1556 1073 483 313 62 514 190 148 280 156
is_linear=0
shrinkage=0.05


Tree=5
num_leaves=63
num_cat=0
split_feature=4 23 33 36 37 35 16 16 3 4 16 14 12 38 37 25 34 16 35 11 16 14 3 4 3 30 3 32 23 14 3 23 29 12 30 16 14 4 16 16 3 23 34 12 3 16 34 4 16 11 34 16 14 34 4 23 3 30 16 3 34 12
split_gain=85.7036 18.0401 9.72695 6.99201 4.43822 6.99606 6.49425 4.06376 3.61011 3.46459 5.42408 3.60616 3.38462 3.21684 4.00901 3.34981 3.19722 2.3928 2.3034 4.73731 2.64867 2.50741 2.14872 2.71994 2.08552 1.98567 1.81435 1.89863 1.75603 1.75062 5.29856 1.60881 1.55527 1.49337 1.38326 1.35968 1.3332 1.52687 1.32837 2.09066 1.31411 1.28757 1.28699 1.2765 1.26591 1.24566 1.23334 1.22691 1.22239 1.21273 1.19504 1.31172 1.18448 1.16662 1.24078 1.15634 1.21649 1.1552 1.14844 1.14737 1.33364 1.12706
threshold=4.5000000000000009 0.35821161286306646 0.66343930667706608 -0.86584007740020741 -0.80224061012268055 1.0000000180025095e-35 0.095183839893433306 0.51571677180167497 1.5000000000000002 6.5000000000000009 0.41465208871679066 0.59771640890474298 0.039149534310845342 0.16104960814118388 0.42897074669599539 0.21550383681285787 0.20490021034042932 0.38582720038691165 1.5211035013198855 0.30487346440694801 0.56586959705662843 0.041844074195796381 5.5000000000000009 3.5000000000000004 5.5000000000000009 0.046888649693844597 2.5000000000000004 0.11058080697910656 0.48065253593188279 0.48256701367980909 1.0000000180025095e-35 0.48555850648790416 0.072851174965807231 0.49359785330933165 0.0026059576222455913 0.066726367685422103 0.27195849775880027 6.5000000000000009 0.4005030014178827 0.44111342400370207 1.0000000180025095e-35 0.48065253593188279 0.12479071060415549 0.73893086780224626 1.5000000000000002 0.03869925387940875 0.12374559960872322 7.5000000000000009 0.11026515779199934 0.26387500146438486 0.17127416757380853 0.32599404738373366 0.14566829048213084 0.014601755262184416 2.5000000000000004 0.47088762902866371 1.0000000180025095e-35 0.034549304722091147 0.10128836398755635 2.5000000000000004 0.013617673111858996 0.41432351079199065
decision_type=2 2 2 2 2 2 2 2 2 2 2 2 2 2 2 2 2 2 2 2 2 2 2 2 2 2 2 2 2 2 2 2 2 2 2 2 2 2 2 2 2 2 2 2 2 2 2 2 2 2 2 2 2 2 2 2 2 2 2 2 2 2
left_child=3 12 4 7 28 6 -6 -1 -4 10 44 25 -2 14 15 46 26 50 19 20 21 -16 29 32 -10 -12 42 33 57 45 -31 55 -24 -28 -23 41 37 40 -19 -40 52 -34 -11 -13 -8 -5 -14 -44 -25 -22 51 -15 -17 54 -47 56 -7 -3 -58 60 -56 -49
right_child=1 2 8 22 5 31 9 -9 24 16 11 43 13 17 18 36 -18 38 -20 -21 49 34 23 48 -26 -27 27 -29 -30 30 -32 -33 35 -35 -36 -37 -38 -39 39 -41 -42 -43 47 -45 -46 53 -48 61 -50 -51 -52 -53 -54 -55 59 -57 58 -59 -60 -61 -62 -63
leaf_value=-0.00081187395256008047 -0.0035665843218744722 0.0086692482636466922 0.028703212333543195 -0.0053197658890755117 0.019292595047136277 0.0067938303085833375 0.010377920914241778 0.013390194911223192 -0.00036554209402073987 -0.00090668766610583085 0.0097120165748863802 0.014367642757054922 0.00028358455100942881 0.0054335820421169854 -0.0053838100421126009 0.018437350732274354 0.011838231506997412 -0.0057997267097234725 0.0020371752226940143 -0.0036545933337836737 -0.0011388328105791426 0.0025402953796964584 -0.0050320923136188758 0.0050100518787633969 0.017716275040919965 0.02113613286658245 0.0056907779764910436 0.0049715786034398727 -0.0013176938598682625 0.016573402080684901 -0.0058585162867199293 -0.00055685080234140448 -0.0049952849453389226 0.022001197706494068 0.010445462690006206 0.0027798960377511226 0.00081804241412871716 0.0020359268873292565 0.011759158010993686 0.0011916560743396221 0.0044403158666731102 0.0071309750080108649 0.00016225721646586191 0.0025962431105922483 0.0037244012661955951 -0.0049607452278245525 -0.002268734411631453 -0.00060411357447843659 -0.0011817090353594187 0.007919592581654214 0.014590878612138924 0.014896056400611996 0.0072493898133709003 -0.0042762918778516843 -0.00060422855276095729 0.011156469261781737 0.0089182396061582171 0.0024461204171376794 -0.00022692894474801861 -0.0044903503204969794 0.0083052520283517697 0.0083530753026662893
leaf_weight=1606 285 101 59 2268 128 164 105 52 23 180 49 37 2361 434 30 35 163 50 1248 123 122 63 556 163 52 170 23 142 248 40 77 260 176 36 455 152 590 507 56 285 299 25 115 61 224 292 592 44 156 53 47 40 73 3823 395 55 41 285 211 170 47 174
leaf_count=1606 285 101 59 2268 128 164 105 52 23 180 49 37 2361 434 30 35 163 50 1248 123 122 63 556 163 52 170 23 142 248 40 77 260 176 36 455 152 590 507 56 285 299 25 115 61 224 292 592 44 156 53 47 40 73 3823 395 55 41 285 211 170 47 174
internal_value=-0.000260027 0.00307819 0.00626867 -0.003332 0.00568301 0.00667255 0.00847562 -0.000366453 0.0194502 0.00756651 0.0103451 0.0150126 0.00178108 0.0019853 0.00159798 0.000750164 0.00551977 0.00476747 0.00340253 0.00541666 0.0069599 0.00867009 -0.00392156 -0.00199015 0.0121712 0.0185801 0.00407732 0.00810396 0.00196522 -0.00425505 0.00181052 0.00260024 -0.00338415 0.0156429 0.00948402 -0.000788531 0.0026709 0.00386694 0.00181112 0.00292708 0.00614783 -0.00348704 0.00249963 0.00704055 0.00584786 -0.0043565 -0.000228089 0.00434088 0.00198211 0.00160458 0.00698616 0.0062321 0.0108751 -0.00389433 -0.00227901 0.00434301 0.0034422 0.00407445 0.00126098 -0.000999482 0.00034316 0.0065452
internal_weight=20896 10898 3150 9998 3016 2382 1651 1658 134 1523 646 317 7748 7463 6551 4457 877 912 2094 846 723 548 8340 1228 75 219 714 201 634 7112 117 731 909 59 518 353 1504 914 391 341 407 201 513 98 329 6995 2953 333 319 175 521 474 108 4727 904 471 416 386 252 612 442 218
internal_count=20896 10898 3150 9998 3016 2382 1651 1658 134 1523 646 317 7748 7463 6551 4457 877 912 2094 846 723 548 8340 1228 75 219 714 201 634 7112 117 731 909 59 518 353 1504 914 391 341 407 201 513 98 329 6995 2953 333 319 175 521 474 108 4727 904 471 416 386 252 612 442 218
is_linear=0
shrinkage=0.05


Tree=6
num_leaves=63
num_cat=0
split_feature=4 23 33 34 4 16 16 16 4 34 4 16 15 33 3 15 37 38 14 33 12 3 16 33 14 3 23 4 34 15 30 23 7 15 12 30 30 12 23 11 4 3 33 30 3 14 4 11 35 16 30 3 34 15 23 23 16 12 3 23 16 3
split_gain=80.8419 16.1519 9.63884 5.60752 4.48501 5.04031 6.1415 3.56851 3.50824 4.061 3.76821 3.14923 3.1407 3.25889 3.08612 2.86869 2.66743 4.66915 2.692 2.63917 2.45013 2.80917 2.3701 2.22603 2.15679 2.12483 2.67477 2.11211 1.86973 3.6138 2.20456 3.68338 1.84782 1.83582 2.08578 1.61863 1.61835 1.60821 1.58876 2.56351 1.58338 1.59535 1.55123 1.53043 1.56579 3.42988 1.51829 1.51027 1.51004 2.45508 1.71236 1.50201 1.50185 1.82278 1.49616 1.45268 1.44808 1.201 1.18045 1.14309 1.18722 1.14079
threshold=4.5000000000000009 0.35821161286306646 0.7189812312913535 0.21192984470456663 6.5000000000000009 0.41465208871679066 0.08038751980250726 0.050660039907521652 5.5000000000000009 0.09265753876715635 6.5000000000000009 0.14438850885439045 0.20981551720741584 0.25196659824807616 1.5000000000000002 0.28168953612744269 0.42897074669599539 -1.0000000180025095e-35 0.24402737869083305 0.27866863592210112 0.067356818038375496 5.5000000000000009 0.049392461471823405 0.40033340014850211 0.27195849775880027 5.5000000000000009 0.065224666543028553 5.5000000000000009 0.093490013882039036 0.25227505549897744 0.085254948205625805 0.47088762902866371 12.647066502400003 0.080728501549434117 0.84739672038450842 0.051969257321083047 0.054964891223133409 0.17631902142294723 0.1385424379368628 0.16355172803791862 8.5000000000000018 1.0000000180025095e-35 0.40033340014850211 0.011991163386640939 1.0000000180025095e-35 0.48256701367980909 5.5000000000000009 0.41432351079199065 -1.0000000180025095e-35 0.59428676158747329 0.0015975482297828916 5.5000000000000009 0.080542345021937675 0.20981551720741584 0.48065253593188279 0.12765505969343813 0.22722307636760702 0.48458392124152888 1.5000000000000002 0.23009394528202143 0.16298680782263783 3.5000000000000004
decision_type=2 2 2 2 2 2 2 2 2 2 2 2 2 2 2 2 2 2 2 2 2 2 2 2 2 2 2 2 2 2 2 2 2 2 2 2 2 2 2 2 2 2 2 2 2 2 2 2 2 2 2 2 2 2 2 2 2 2 2 2 2 2
left_child=7 8 3 4 5 6 47 54 9 12 11 -10 38 -14 57 -7 17 20 48 -19 21 -12 -11 24 -13 43 -27 -17 29 36 31 -30 -33 -5 -35 -29 -6 -22 61 -40 41 -20 -37 -9 45 55 -16 -3 49 50 -18 -43 53 -28 -1 -45 59 -8 -4 -41 -61 -2
right_child=1 2 58 33 28 15 14 25 10 22 16 23 13 -15 46 27 18 19 40 -21 37 -23 -24 -25 -26 26 52 35 30 -31 -32 32 -34 34 -36 42 -38 -39 39 56 -42 51 -44 44 -46 -47 -48 -49 -50 -51 -52 -53 -54 -55 -56 -57 -58 -59 -60 60 -62 -63
leaf_value=-0.004584428715734115 0.00010725547356738488 0.021235841407563866 0.028254169172191243 0.0022439332806416567 0.017352453466896001 0.00055026510963216422 0.010912873991365944 -0.0039413902588163446 -0.0018418797735903101 0.0051111091427931878 0.0025378345969345488 0.0079567025449527023 0.0099795533137997453 -0.0011517464071512224 -0.00090258347493896933 -0.0013571281405165793 -0.00080561570883277934 0.005279663713216802 0.007935448385436427 0.00093294984973605699 -0.0026300873418706725 0.021519242633472793 -0.0041358466767038608 0.012013524618462055 0.002721689807428285 -0.0031267793822847712 0.0024451267731753924 0.0096626374813049681 0.0025463214531822546 -0.0029580975247098366 0.0019494534406165887 0.0083081314234711139 0.018325165824757683 0.015646479360619994 0.0043038285300135617 0.0057842863427305762 0.0030946256069000811 0.00049739811313528393 0.0086311017959053785 -0.0038993330846230191 0.0081033014637582456 -0.0026813692081879619 0.019977888264149042 -0.0023422639238380705 -0.0027471043844829704 0.015792463223139444 0.0040396538143064459 0.0074383644287341413 0.0035726216702486381 -2.2538796671338986e-05 0.011681598176946865 0.0047470586612647359 -0.0015888450922454988 0.012338794433578317 0.0043000082795818647 0.0035066334954333596 0.0095568218611572914 0.0025001980231276581 0.015803741183481181 0.0054034189127459388 -0.003895208780438854 -0.0044011522728679559
leaf_weight=3709 514 68 47 42 34 44 175 2143 143 78 171 362 192 100 251 20 31 727 55 672 931 22 621 137 431 461 276 81 286 274 627 171 63 214 50 22 48 736 129 150 68 326 154 404 2473 33 408 28 415 74 240 86 177 56 48 144 38 56 32 101 52 193
leaf_count=3709 514 68 47 42 34 44 175 2143 143 78 171 362 192 100 251 20 31 727 55 672 931 22 621 137 431 461 276 81 286 274 627 171 63 214 50 22 48 736 129 150 68 326 154 404 2473 33 408 28 415 74 240 86 177 56 48 144 38 56 32 101 52 193
internal_value=-0.000248458 0.00296919 0.00596322 0.00552594 0.00482599 0.00696809 0.00519646 -0.00325617 0.001742 3.3108e-05 0.00240042 0.00506602 0.00152585 0.00616746 0.00390044 0.0124099 0.00177235 0.00100955 0.00369203 0.00319175 -0.000631792 0.00470152 -0.003104 0.0061282 0.00511144 -0.00251613 -0.00036788 0.0142938 0.00296323 -0.000202228 0.00394571 0.00635274 0.011005 0.0119535 0.0134983 0.0155118 0.00900641 -0.00124927 0.000374318 0.00262737 0.000974944 -6.30185e-05 0.0182037 -0.0029171 -0.00219835 0.000137404 0.00215725 0.0172116 0.00560471 0.00804911 0.0102532 -0.00113078 0.00213085 0.00411394 -0.00447092 -0.000805327 0.000356169 0.00887344 0.023211 -0.000797708 0.0022431 -0.00112347
internal_weight=20914 10990 3195 3116 2810 1307 986 9924 7795 2168 5627 1073 1469 292 890 321 4554 3259 1295 1399 1860 193 699 930 793 6167 970 277 1503 356 1147 520 234 306 264 257 82 1667 1177 470 535 467 176 5197 3054 581 659 96 760 345 271 412 509 332 3757 548 341 231 79 303 153 707
internal_count=20914 10990 3195 3116 2810 1307 986 9924 7795 2168 5627 1073 1469 292 890 321 4554 3259 1295 1399 1860 193 699 930 793 6167 970 277 1503 356 1147 520 234 306 264 257 82 1667 1177 470 535 467 176 5197 3054 581 659 96 760 345 271 412 509 332 3757 548 341 231 79 303 153 707
is_linear=0
shrinkage=0.05


Tree=7
num_leaves=63
num_cat=0
split_feature=4 11 33 36 4 16 16 34 16 4 34 4 16 15 15 36 16 37 38 15 33 4 10 34 15 12 15 23 11 16 16 38 30 23 7 15 15 15 14 15 30 12 23 15 15 11 11 11 37 14 15 12 33 34 12 16 34 16 4 12 32 16
split_gain=71.4598 14.3025 7.83054 4.96648 4.21412 5.35671 5.67138 3.65467 3.51297 3.05608 3.42722 3.18452 3.02366 2.9732 2.84069 2.71998 2.207 2.17251 4.45555 2.79554 2.39677 2.08613 2.12005 2.03533 2.26731 2.01389 2.10319 1.97352 1.96203 1.88792 1.70624 1.70369 1.67807 3.57863 2.16689 1.60765 7.3367 2.38884 2.39422 1.47462 1.4318 1.42883 1.65144 1.34971 1.78382 1.32297 1.27592 1.55141 1.27358 1.25742 1.2442 1.23912 1.23744 2.62995 4.8249 1.20316 1.21242 1.19915 1.15799 1.13502 1.11753 1.10577
threshold=4.5000000000000009 0.35451846769643164 0.7189812312913535 -0.86584007740020741 6.5000000000000009 0.41465208871679066 0.08038751980250726 0.20490021034042932 0.51571677180167497 5.5000000000000009 0.09174349203532009 6.5000000000000009 0.14438850885439045 0.20981551720741584 0.28168953612744269 -0.16530410945415494 0.08038751980250726 0.42897074669599539 1.0000000180025095e-35 0.24553051045255822 0.27866863592210112 7.5000000000000009 10.229195891200002 0.094341613990651954 0.25227505549897744 0.16639608304829523 0.32208677022401727 0.10131714379192018 0.066856956208822343 0.29283730516444689 0.031293677297265052 0.16104960814118388 0.089699015858935541 0.47088762902866371 11.854169624000003 0.044031394005699345 0.078907791274055908 0.07602236402306288 0.030836555107351511 0.3745619163194796 0.053407511578845109 0.79266017993818416 0.41567809311516729 0.32599404738373366 0.62014811518869595 0.096699811983334952 0.079973609004155261 0.10404755421994627 -0.80224061012268055 0.17631902142294723 0.58810826462300447 0.30956560662630983 0.036174526070595243 0.0063878438023974348 0.042619624866185236 0.056780072168273639 0.038098868236752237 0.51571677180167497 8.5000000000000018 0.17631902142294723 0.028447002932263706 0.29283730516444689
decision_type=2 2 2 2 2 2 2 2 2 2 2 2 2 2 2 2 2 2 2 2 2 2 2 2 2 2 2 2 2 2 2 2 2 2 2 2 2 2 2 2 2 2 2 2 2 2 2 2 2 2 2 2 2 2 2 2 2 2 2 2 2 2
left_child=3 9 4 8 5 6 39 23 -1 10 13 12 -11 55 -7 -15 27 18 28 21 46 -19 -23 24 40 -14 -27 -12 60 -17 -5 52 33 -25 -35 -33 37 38 -37 -3 -6 42 -16 -21 50 -22 -20 -48 -9 58 -45 -47 53 54 -32 -2 -57 -50 -34 -30 -13 -51
right_child=1 2 -4 30 7 14 -8 48 -10 11 16 17 25 15 41 29 -18 19 20 43 45 22 -24 32 -26 26 -28 -29 59 -31 31 35 49 34 -36 36 -38 -39 -40 -41 -42 -43 -44 44 -46 51 47 -49 57 61 -52 -53 -54 -55 -56 56 -58 -59 -60 -61 -62 -63
leaf_value=-0.00096985470104671864 -0.0022427458796172146 0.011977371568156576 0.022523800294790695 -0.0049118528071172849 0.016379370457272873 0.0021571754266579563 0.0039976930129842492 0.0003743079641172963 0.01289280212305962 -0.0018391577977541406 -0.0065920542017871373 0.0002760398880345747 0.0011775678233635937 0.013762775287032129 0.006853662333614602 0.0068790742165874691 -0.0042583520227912073 0.0088821543887911362 -0.001795349174532138 -0.0019089388945540287 0.01329975424589412 -0.00011158748430774568 0.0094040102730779101 0.0021482363718408407 -0.0026573191849436142 0.0049055715009334484 0.010562484324712868 0.0071706283689391892 -0.0023786587592624989 -0.0027130529113199523 -0.0013011586940344635 -0.004000193685033294 0.0074330947004198206 0.0072754173781086479 0.017920250481213717 -0.006040126729655911 -0.0030255434754168932 0.019088293533576162 0.0082611279242805081 0.024557555384106106 0.001815095247907771 0.0050107038918543951 0.016204843696545471 0.0034800593080381824 -0.0030473296100703572 -0.00075266626857128189 0.011586973629891873 0.0047257182632353349 0.013620150272960447 -0.0016654448937551362 0.013762329053133727 0.0041921132853319654 -0.0037837941814544696 -0.0027403089060605347 0.027376827326687898 0.003937255538072797 -7.3574160959775968e-05 0.0038650335880314433 -0.005483851367607713 0.00028718348529468301 0.0077325640947069271 0.0036112187420263703
leaf_weight=1653 339 66 67 1807 27 65 930 31 47 147 37 100 178 80 57 125 554 302 62 221 21 188 85 302 284 415 272 88 914 87 44 430 131 161 68 37 611 38 140 36 45 44 275 365 104 481 96 581 136 254 32 172 4872 308 22 285 556 41 20 709 101 163
leaf_count=1653 339 66 67 1807 27 65 930 31 47 147 37 100 178 80 57 125 554 302 62 221 21 188 85 302 284 415 272 88 914 87 44 430 131 161 68 37 611 38 140 36 45 44 275 365 104 481 96 581 136 254 32 172 4872 308 22 285 556 41 20 709 101 163
internal_value=-0.000238454 0.00280245 0.00561012 -0.00304894 0.00524876 0.00719627 0.00522523 0.00352376 -0.000586593 0.00163408 3.42969e-05 0.00225455 0.00479057 0.0013898 0.0118088 0.00590709 -0.0029043 0.00168851 0.000995705 0.00341757 0.00310332 0.00601874 0.00285114 0.00263752 -0.000648192 0.00591724 0.00714528 0.00309687 -0.000637 0.00294268 -0.00355273 -0.00317501 0.00370187 0.00572257 0.0104363 -0.00152091 -0.000230241 0.00771362 0.0052716 0.0164174 0.0072767 0.0134773 0.0145994 0.00134601 0.00278182 0.000947041 0.00506993 0.00569866 0.00972313 0.00181279 0.00430886 0.000549787 -0.00357103 -0.000799401 0.00825817 0.000271966 0.00128562 0.0113605 0.00572224 -0.0012141 0.00402285 0.000397136
internal_weight=20909 10900 3203 10009 3136 1473 1032 1663 1700 7697 2151 5546 1012 1472 441 292 679 4534 3237 1297 1413 575 273 1455 356 865 687 125 1824 212 8309 6502 1099 531 229 1256 826 215 177 102 72 376 332 722 501 674 739 677 208 568 397 653 5246 374 66 1180 841 177 151 1623 201 417
internal_count=20909 10900 3203 10009 3136 1473 1032 1663 1700 7697 2151 5546 1012 1472 441 292 679 4534 3237 1297 1413 575 273 1455 356 865 687 125 1824 212 8309 6502 1099 531 229 1256 826 215 177 102 72 376 332 722 501 674 739 677 208 568 397 653 5246 374 66 1180 841 177 151 1623 201 417
is_linear=0
shrinkage=0.05


end of trees

feature_importances:
NO_cmaq_lag71=67
dayofweek=56
month=52
NO_cmaq_lag48=49
NO_cmaq_lag24=42
NO_cmaq_lag6=32
NO_cmaq_roll71_std=32
NO_cmaq_roll3_mean=29
station_emb_2=22
NO_cmaq_lag3=18
NO_cmaq_roll24_std=17
NO_cmaq_roll71_mean=14
station_emb_3=14
NO_cmaq_roll48_std=13
station_emb_1=9
station_emb_0=8
NO_cmaq_roll6_mean=6
NO_cmaq_roll24_mean=4
NO_cmaq_roll48_mean=3
NO2_cmaq_lag12=2
NO2_cmaq=1
O3_cmaq=1
hour=1
NO2_cmaq_lag71=1
O3_cmaq_lag6=1
O3_cmaq_lag48=1
NO_cmaq_roll12_mean=1

parameters:
[boosting: gbdt]
[objective: regression]
[metric: rmse]
[tree_learner: serial]
[device_type: cuda]
[data_sample_strategy: bagging]
[data: ]
[valid: ]
[num_iterations: 2000]
[learning_rate: 0.05]
[num_leaves: 63]
[num_threads: 0]
[seed: 42]
[deterministic: 0]
[force_col_wise: 0]
[force_row_wise: 1]
[histogram_pool_size: -1]
[max_depth: -1]
[min_data_in_leaf: 20]
[min_sum_hessian_in_leaf: 0.001]
[bagging_fraction: 0.8]
[pos_bagging_fraction: 1]
[neg_bagging_fraction: 1]
[bagging_freq: 1]
[bagging_seed: 400]
[bagging_by_query: 0]
[feature_fraction: 0.9]
[feature_fraction_bynode: 1]
[feature_fraction_seed: 30056]
[extra_trees: 0]
[extra_seed: 12879]
[early_stopping_round: 0]
[early_stopping_min_delta: 0]
[first_metric_only: 0]
[max_delta_step: 0]
[lambda_l1: 0]
[lambda_l2: 0]
[linear_lambda: 0]
[min_gain_to_split: 0]
[drop_rate: 0.1]
[max_drop: 50]
[skip_drop: 0.5]
[xgboost_dart_mode: 0]
[uniform_drop: 0]
[drop_seed: 17869]
[top_rate: 0.2]
[other_rate: 0.1]
[min_data_per_group: 100]
[max_cat_threshold: 32]
[cat_l2: 10]
[cat_smooth: 10]
[max_cat_to_onehot: 4]
[top_k: 20]
[monotone_constraints: ]
[monotone_constraints_method: basic]
[monotone_penalty: 0]
[feature_contri: ]
[forcedsplits_filename: ]
[refit_decay_rate: 0.9]
[cegb_tradeoff: 1]
[cegb_penalty_split: 0]
[cegb_penalty_feature_lazy: ]
[cegb_penalty_feature_coupled: ]
[path_smooth: 0]
[interaction_constraints: ]
[verbosity: -1]
[saved_feature_importance_type: 0]
[use_quantized_grad: 0]
[num_grad_quant_bins: 4]
[quant_train_renew_leaf: 0]
[stochastic_rounding: 1]
[linear_tree: 0]
[max_bin: 255]
[max_bin_by_feature: ]
[min_data_in_bin: 3]
[bin_construct_sample_cnt: 200000]
[data_random_seed: 175]
[is_enable_sparse: 1]
[enable_bundle: 1]
[use_missing: 1]
[zero_as_missing: 0]
[feature_pre_filter: 1]
[pre_partition: 0]
[two_round: 0]
[header: 0]
[label_column: ]
[weight_column: ]
[group_column: ]
[ignore_column: ]
[categorical_feature: ]
[forcedbins_filename: ]
[precise_float_parser: 0]
[parser_config_file: ]
[objective_seed: 16083]
[num_class: 1]
[is_unbalance: 0]
[scale_pos_weight: 1]
[sigmoid: 1]
[boost_from_average: 1]
[reg_sqrt: 0]
[alpha: 0.9]
[fair_c: 1]
[poisson_max_delta_step: 0.7]
[tweedie_variance_power: 1.5]
[lambdarank_truncation_level: 30]
[lambdarank_norm: 1]
[label_gain: ]
[lambdarank_position_bias_regularization: 0]
[eval_at: ]
[multi_error_top_k: 1]
[auc_mu_weights: ]
[num_machines: 1]
[local_listen_port: 12400]
[time_out: 120]
[machine_list_filename: ]
[machines: ]
[gpu_platform_id: -1]
[gpu_device_id: -1]
[gpu_use_dp: 0]
[num_gpu: 1]

end of parameters

pandas_categorical:[]
