tree
version=v4
num_class=1
num_tree_per_iteration=1
label_index=0
max_feature_idx=20
objective=regression
feature_names=NO2_cmaq O3_cmaq hour dayofweek month NO2_cmaq_lag3 NO2_cmaq_lag6 NO2_cmaq_lag12 NO2_cmaq_lag24 NO2_cmaq_lag48 NO2_cmaq_lag71 O3_cmaq_lag3 O3_cmaq_lag6 O3_cmaq_lag12 O3_cmaq_lag24 O3_cmaq_lag48 O3_cmaq_lag71 station_emb_0 station_emb_1 station_emb_2 station_emb_3
feature_infos=[0.155364:79.970357297599989] [29.334975813:212.36742982000001] [0:23] [0:6] [1:9] [0.155364:79.970357297599989] [0.155364:79.970357297599989] [0.155364:79.970357297599989] [0.155364:79.970357297599989] [0.155364:79.970357297599989] [0.155364:79.970357297599989] [29.334975813:212.36742982000001] [29.334975813:212.36742982000001] [29.334975813:212.36742982000001] [29.334975813:212.36742982000001] [30.011780915999999:212.36742982000001] [30.011780915999999:212.36742982000001] [-0.72265535593032837:1.9865289926528931] [-1.4085162878036499:1.2916492223739624] [-2.038433313369751:1.0195598602294922] [-1.9552310705184937:0.22807519137859344]
tree_sizes=5421 5674 5653 5718 5725 5656 5678 5683 5696 5724 5722 5754

Tree=0
num_leaves=63
num_cat=0
split_feature=4 19 20 4 4 19 19 17 20 16 20 5 7 10 10 16 13 14 5 4 4 1 15 4 9 15 6 10 7 13 8 8 15 0 13 4 16 0 4 4 7 11 13 14 10 9 15 4 14 14 11 5 9 4 4 4 8 4 1 20 5 10
split_gain=144.737 15.2147 33.567 7.06298 26.2292 3.1993 5.90247 2.85386 2.72414 2.35188 2.22422 1.74053 2.32682 1.62078 1.59231 2.83968 1.82013 1.72681 1.51566 1.51083 1.73496 1.32292 1.25338 1.22431 1.20388 2.12993 1.14623 1.14464 0.99357 0.942482 1.12602 0.922363 0.917064 0.959737 0.91234 1.29867 0.891934 0.886121 0.871143 0.85473 0.826249 0.812601 0.806062 0.781309 0.749735 0.749194 1.16359 0.736457 0.765139 0.734428 0.715483 0.775608 0.695495 0.690124 0.68479 2.07812 0.683236 0.655075 0.64403 0.619998 0.619182 0.61906
threshold=4.5000000000000009 -0.80224061012268055 -0.8462354689836501 5.5000000000000009 6.5000000000000009 -0.80224061012268055 0.42897074669599539 1.0000000180025095e-35 -1.6099548935890196 62.551750755000008 -1.0000000180025095e-35 8.9783264296000009 8.2102247040000034 9.1076467152000031 46.719835175200011 51.935140075000007 45.274219770000009 45.280777171500006 3.2352585056000005 5.5000000000000009 6.5000000000000009 59.688225486500009 53.855532178500006 5.5000000000000009 19.329417148800001 51.334893935000004 42.234803230400011 41.880765396800008 15.478567869600001 42.044542000500009 1.8612268224000006 32.74541304320001 48.635900456000009 21.192371807200004 53.212482823500004 8.5000000000000018 53.693968445000003 7.8368078008000017 2.5000000000000004 6.5000000000000009 26.350488621600004 71.316073653500013 56.362372495000002 44.023948754500005 6.1900915824000018 19.594764736800006 51.733533104500005 3.5000000000000004 72.522574676500014 62.425433668000004 51.486229457000007 16.641480592000004 16.490651337600003 3.5000000000000004 6.5000000000000009 5.5000000000000009 3.9132575856000007 8.5000000000000018 48.43543497000001 -0.8462354689836501 29.983001576000003 8.6102879456000032
decision_type=2 2 2 2 2 2 2 2 2 2 2 2 2 2 2 2 2 2 2 2 2 2 2 2 2 2 2 2 2 2 2 2 2 2 2 2 2 2 2 2 2 2 2 2 2 2 2 2 2 2 2 2 2 2 2 2 2 2 2 2 2 2
left_child=5 10 8 9 24 38 7 47 19 11 43 12 37 36 15 17 22 -6 41 61 -21 -11 -17 -12 25 -5 28 -15 32 -27 -31 -32 33 -18 52 50 -13 -4 -1 -25 44 -19 -20 -2 -26 46 -44 48 -7 -30 51 -36 -34 -8 55 60 -24 -10 -28 -55 -45 -3
right_child=1 2 3 4 14 6 53 -9 57 21 23 13 -14 27 -16 16 26 18 42 20 -22 -23 56 39 40 29 58 -29 49 30 31 -33 34 -35 35 -37 -38 -39 -40 -41 -42 -43 45 54 -46 -47 -48 -49 -50 -51 -52 -53 -54 59 -56 -57 -58 -59 -60 -61 -62 -63
leaf_value=0.19320134306518399 0.20384966939993765 0.19905259866046732 0.1951793986524431 0.2277766857387655 0.21534767165392546 0.19517573854338896 0.1940763791753464 0.19891380214434323 0.20051936669010009 0.19458542241442361 0.20000693499420663 0.19757802766731539 0.20621696730778866 0.21218776515517934 0.20228232902919233 0.2007725817972868 0.21500780886771426 0.21315806524563555 0.20464571473586204 0.20692176080605593 0.20276796921587759 0.20606218487880085 0.21609554132234943 0.20523905159578257 0.22241229832148587 0.20842056387154523 0.20306898634922069 0.20317535812058324 0.20107709202207585 0.22517644412899629 0.21680757824311639 0.2270254087989011 0.2093588649289117 0.20429177549648045 0.2089448163166647 0.20879789718981506 0.20634785212848913 0.20291166912895725 0.19483540765394744 0.20232882683861775 0.22328721489755668 0.20319865325273273 0.21759636281246625 0.19788547381791879 0.21299492815625068 0.20559129612624757 0.2056598326982767 0.19783800155280609 0.20267447433033656 0.21042178725368035 0.19949522858733978 0.20150668550393663 0.2002798190344228 0.19435996511946918 0.19866583394980727 0.20377114284596715 0.20795477434288401 0.19712032693809989 0.21128906573114986 0.19706565566292175 0.20482068375549642 0.2030888663774954
leaf_weight=1540 113 283 88 69 118 1212 2507 1682 1658 83 438 41 261 195 174 24 48 187 203 338 981 36 76 335 24 23 31 43 245 59 277 24 135 37 57 88 99 64 1734 1022 28 23 49 400 177 69 35 406 35 23 153 91 25 419 952 316 39 155 103 428 35 143
leaf_count=1540 113 283 88 69 118 1212 2507 1682 1658 83 438 41 261 195 174 24 48 187 203 338 981 36 76 335 24 23 31 43 245 59 277 24 135 37 57 88 99 64 1734 1022 28 23 49 400 177 69 35 406 35 23 153 91 25 419 952 316 39 155 103 428 35 143
internal_value=0.199379 0.203705 0.205036 0.208423 0.209701 0.195347 0.195974 0.197464 0.201586 0.204611 0.201057 0.205597 0.203353 0.208048 0.206856 0.207284 0.205793 0.209846 0.208698 0.202996 0.203832 0.198057 0.211166 0.202305 0.218194 0.21969 0.205072 0.210559 0.204431 0.218233 0.21886 0.217622 0.20551 0.210343 0.204762 0.203455 0.20378 0.198435 0.194067 0.203047 0.21524 0.212067 0.206711 0.199824 0.214119 0.209452 0.212623 0.195988 0.195386 0.201879 0.201893 0.204371 0.20794 0.194493 0.199556 0.200685 0.213335 0.200229 0.209387 0.195727 0.198443 0.200407
internal_weight=20756 10793 7182 3624 2714 9963 6689 3335 3558 910 3611 791 413 378 2033 1859 1175 684 566 1745 1319 119 139 1795 681 452 1036 238 902 383 360 301 634 85 549 389 140 152 3274 1357 229 210 356 1816 201 153 84 1653 1247 268 301 148 160 3354 1703 751 115 1813 134 847 435 426
internal_count=20756 10793 7182 3624 2714 9963 6689 3335 3558 910 3611 791 413 378 2033 1859 1175 684 566 1745 1319 119 139 1795 681 452 1036 238 902 383 360 301 634 85 549 389 140 152 3274 1357 229 210 356 1816 201 153 84 1653 1247 268 301 148 160 3354 1703 751 115 1813 134 847 435 426
is_linear=0
shrinkage=1


Tree=1
num_leaves=63
num_cat=0
split_feature=4 19 17 4 4 3 3 4 3 19 0 7 19 19 19 19 1 3 3 16 3 4 16 10 13 6 3 4 4 4 4 13 1 16 6 0 10 10 8 3 3 14 9 6 0 4 14 5 3 4 4 6 14 14 5 0 17 20 7 13 7 1
split_gain=130.878 13.349 32.1032 6.02497 20.4015 11.4067 4.55648 3.86665 3.05892 2.90525 2.50433 3.20895 2.33165 3.70219 2.23579 1.93812 1.7065 1.67159 1.86828 1.64832 1.62061 1.65491 1.50669 2.85109 1.53636 1.4742 1.4187 1.24684 1.22327 1.41317 1.18811 1.10851 1.10441 1.05478 1.13344 1.04292 1.59516 1.03573 0.994837 0.983285 0.971432 0.96755 1.17875 1.07173 0.94831 0.936076 1.37675 1.80211 1.15111 0.900598 0.878892 0.863574 0.857643 0.798839 0.790977 0.769586 0.761947 1.46748 0.750458 1.22591 0.735931 0.889328
threshold=4.5000000000000009 -0.80224061012268055 -1.0000000180025095e-35 5.5000000000000009 6.5000000000000009 1.0000000180025095e-35 5.5000000000000009 3.5000000000000004 3.5000000000000004 0.42897074669599539 8.1299476544000022 7.0083175008000014 -0.80224061012268055 0.42897074669599539 -1.0000000180025095e-35 -1.4767409861087797 82.492385690000006 5.5000000000000009 3.5000000000000004 59.617850955000002 1.0000000180025095e-35 6.5000000000000009 51.935140075000007 41.880765396800008 45.274219770000009 46.885890101600005 1.5000000000000002 5.5000000000000009 5.5000000000000009 6.5000000000000009 5.5000000000000009 69.110282943000001 69.110282943000001 52.276152435000007 2.3571411776000004 16.654133812800001 9.1076467152000031 48.61073746320001 2.3619245056000007 5.5000000000000009 2.5000000000000004 45.09768816150001 13.181967805600001 1.4346349424000002 34.280382998400007 8.5000000000000018 50.96426284950001 19.234522700800003 5.5000000000000009 7.5000000000000009 6.5000000000000009 32.759205600000008 82.492385690000006 47.240554907000003 32.759205600000008 15.745553841600003 1.0000000180025095e-35 -1.6099548935890196 16.889614790400003 53.16354032600001 5.2159706016000014 51.668966108500008
decision_type=2 2 2 2 2 2 2 2 2 2 2 2 2 2 2 2 2 2 2 2 2 2 2 2 2 2 2 2 2 2 2 2 2 2 2 2 2 2 2 2 2 2 2 2 2 2 2 2 2 2 2 2 2 2 2 2 2 2 2 2 2 2
left_child=6 15 3 8 5 -5 12 31 10 -4 11 -3 -1 14 -14 27 22 18 35 37 21 30 23 41 26 45 -24 -2 -11 -30 -17 32 52 -13 -35 -7 -37 44 -36 -10 -27 -6 51 -44 -12 46 47 -26 58 -25 -29 60 56 -47 -45 -42 -8 -58 59 -48 61 -43
right_child=1 2 9 4 16 17 7 -9 39 28 19 33 13 -15 -16 20 -18 -19 -20 -21 -22 -23 24 49 25 40 -28 50 29 -31 -32 -33 -34 34 38 36 -38 -39 -40 -41 55 42 43 54 -46 53 48 -49 -50 -51 -52 -53 -54 -55 -56 -57 57 -59 -60 -61 -62 -63
leaf_value=-0.0057692707709696874 0.00020775396745283527 -0.0044752250923161081 0.00033398061752092827 0.031930600328866493 0.015301574305429276 0.012304453119606134 -0.0048303279287156926 0.0028065761640906975 -0.0062299592420458801 0.00091921019015537035 0.010314388832527778 0.00050267703492533073 -0.0041053607494413898 -0.005284214429517594 -0.0012786926870682882 0.0038868098977893114 -0.00076676259901541392 0.02094661230221391 0.0049644605729912148 -4.5582049183155363e-05 -0.00056366238719671548 0.00026002191767400627 0.0028673346789452273 -0.0001851664458808955 0.011345019779171737 0.0063958078224889267 0.014020906643555412 0.005403099165053808 0.0068255249783396726 0.0030121547628260553 0.013266639805065011 0.005963526321857265 0.008302652267739177 0.00017178470186670039 0.015703952935183663 0.023365452738284179 0.013395506620407106 0.0027281342391771348 0.0071883368377073445 0.0016160645238731221 0.020957138918099867 0.015434678602057673 0.01494961540643999 0.0046346811893662179 0.017344932143504806 -0.0005126639502122998 0.0073362799351035781 0.0020662424792901855 0.0098802686024170652 0.0065574493034196522 0.0024935795670574155 0.005340634716833991 0.0033614112605708981 0.0097413496908282868 0.012772780118717087 0.0087294491812248114 -0.0052182203565520804 0.0012479684573445619 -0.00045854584375283104 0.00092810576155174596 0.015139026406700951 0.002055165433773288
leaf_weight=2802 455 91 1842 109 98 253 674 374 51 452 183 55 1423 2813 1376 93 67 80 61 38 1453 196 39 80 127 55 106 347 320 1009 53 33 20 34 54 67 100 33 94 184 31 23 40 175 65 22 127 89 52 130 1030 38 43 139 36 22 174 177 185 181 164 27
leaf_count=2802 455 91 1842 109 98 253 674 374 51 452 183 55 1423 2813 1376 93 67 80 61 38 1453 196 39 80 127 55 106 347 320 1009 53 33 20 34 54 67 100 33 94 184 31 23 40 175 65 22 127 89 52 130 1030 38 43 139 36 22 174 177 185 181 164 27
internal_value=-0.00030443 0.0038081 0.00505017 0.0083907 0.00955404 0.0171299 -0.00413938 -0.00159577 0.00479914 0.00172622 0.00657374 0.00350597 -0.00459132 -0.00400319 -0.00271576 0.00133288 0.00708163 0.0142542 0.0131412 0.00972806 0.000165219 0.0032619 0.00734641 0.00900409 0.00620226 0.00552389 0.011021 0.00247696 0.00316615 0.00393035 0.00729182 -0.00306452 -0.00333835 0.00657049 0.00840416 0.0143287 0.0173954 0.0110498 0.0102954 -8.66896e-05 0.0110508 0.0107565 0.00987098 0.00744571 0.0121571 0.00487649 0.00414369 0.00752182 0.00280484 0.00398883 0.00322677 0.0122866 -0.00355635 0.00834018 0.00602317 0.0158815 -0.00384656 -0.00195749 0.00205855 0.00357044 0.01352 0.00820974
internal_weight=20764 10855 7228 3605 2723 670 9909 1495 882 3623 647 328 8414 5612 2799 3627 2053 561 481 319 1795 342 1986 811 1175 1030 145 1832 1781 1329 146 1121 1088 237 182 420 167 281 148 235 108 601 503 251 248 922 761 216 545 210 1377 252 1068 161 211 53 1025 351 493 308 214 50
internal_count=20764 10855 7228 3605 2723 670 9909 1495 882 3623 647 328 8414 5612 2799 3627 2053 561 481 319 1795 342 1986 811 1175 1030 145 1832 1781 1329 146 1121 1088 237 182 420 167 281 148 235 108 601 503 251 248 922 761 216 545 210 1377 252 1068 161 211 53 1025 351 493 308 214 50
is_linear=0
shrinkage=0.05


Tree=2
num_leaves=63
num_cat=0
split_feature=4 20 19 18 18 4 4 20 4 4 4 7 4 4 1 16 10 7 4 14 0 8 6 4 4 0 15 4 8 16 16 10 16 6 15 4 16 10 13 14 11 5 15 14 0 9 11 0 8 15 12 4 8 10 16 10 9 9 18 5 10 1
split_gain=118.605 12.3319 19.0778 10.5724 8.51192 2.80807 9.85125 2.22626 1.99249 8.75568 1.84035 1.60781 1.35981 1.46455 1.27939 1.14364 1.11208 1.44793 1.09727 1.06889 1.05327 1.01036 0.915041 0.91368 2.88056 1.00853 0.875509 0.849055 0.784142 0.847266 0.735658 0.732198 1.01154 0.858497 0.766142 0.835529 0.685238 1.3181 0.84897 0.66062 0.660203 0.728139 0.659293 0.656581 0.638978 0.929157 0.63335 0.642962 0.611959 1.10635 0.643636 0.609389 0.604808 0.600651 0.59944 0.709754 0.571576 0.636902 0.570183 0.561998 0.566787 0.610145
threshold=4.5000000000000009 0.16104960814118388 0.42897074669599539 -0.25348418205976481 -0.86584007740020741 5.5000000000000009 6.5000000000000009 1.0000000180025095e-35 5.5000000000000009 6.5000000000000009 3.5000000000000004 43.74152801040001 5.5000000000000009 6.5000000000000009 82.492385690000006 61.722695372000011 11.971674712800002 3.2319939784000007 5.5000000000000009 70.15786439350002 3.0345564656000006 1.9648517856000003 31.295070329600005 6.5000000000000009 5.5000000000000009 29.983001576000003 58.406501322000004 6.5000000000000009 43.84911240160001 53.861320084000006 61.943003843500009 39.431196763200006 51.672301245500002 40.828487849600009 48.716052690500007 8.5000000000000018 51.575572457500009 45.189819919200012 45.274219770000009 55.465544537000007 49.58557335550001 24.661748795200001 65.191445930000015 49.830604830500008 16.654133812800001 20.563876405600006 51.381829265000007 29.983001576000003 6.085153087200001 53.438314195500006 47.594849906500009 8.5000000000000018 51.223033408800013 41.880765396800008 52.41469017850001 31.012983918400007 7.7608865928000013 39.556325987200005 1.0000000180025095e-35 3.0303644624000006 33.213383535200002 50.689154288500013
decision_type=2 2 2 2 2 2 2 2 2 2 2 2 2 2 2 2 2 2 2 2 2 2 2 2 2 2 2 2 2 2 2 2 2 2 2 2 2 2 2 2 2 2 2 2 2 2 2 2 2 2 2 2 2 2 2 2 2 2 2 2 2 2
left_child=4 2 7 5 -1 15 44 23 16 -10 19 14 30 -14 28 42 17 -3 -9 -6 -18 -21 -17 24 25 -2 -13 -20 31 -30 -5 32 -8 34 -34 40 37 52 -38 -35 41 -36 -4 -42 48 -46 47 -40 49 -7 -51 -48 59 56 55 -25 -22 -58 -12 -11 61 -61
right_child=1 8 3 12 10 6 11 18 9 36 58 26 13 -15 -16 22 20 -19 27 21 53 -23 -24 54 -26 -27 -28 -29 29 -31 -32 -33 33 39 35 -37 38 -39 46 -41 43 -43 -44 -45 45 -47 51 -49 -50 50 -52 -53 -54 -55 -56 -57 57 -59 -60 60 -62 -63
leaf_value=-0.00070521475633503628 -0.0012360015639670593 -0.0064119477898202607 0.0065134835827748349 0.0013254253851761222 -0.0051532435667727226 0.026565621314304219 0.0097069180520721002 0.00030620608592658063 0.015164396450224117 0.011858091622269125 -0.0029003592667233308 0.0098394248703563662 0.0066224299304719486 0.0028217931102975744 -0.0034050826824480493 -0.0054059727326560732 -0.0034602109264233148 0.0039296810482284689 0.0052541124175416783 0.0026214735294777859 0.0033938945017628918 -0.0046647806589802101 0.0075393014680594202 0.0012597215903392698 0.0036930111510645814 0.0037880620657744116 0.020276473442572752 0.0024059153419234412 0.01470045284525949 0.0027920820843428378 -0.0049462135187086633 0.0022655165086135918 0.010871322278874185 0.0045335438778588118 0.011907025870168583 0.0091358307826643181 0.0097155805039047111 0.0025329298104577683 0.0081159262977771023 0.014544648786282375 0.0095761135332286373 0.0026355202278743189 -0.0017279766356715792 0.0010310044988254795 0.025277499576994017 0.016132711784028617 0.0015727615001124981 0.002764688481268044 0.012259046862855918 0.021378695425288433 0.012377199781910769 0.0071670813806599294 0.015587983576750215 0.0033297415438573808 -0.0012200495883567749 -0.0016807184259662424 0.013863472367180898 0.0039353191934060304 -0.0049950151713472786 0.012101649329628027 0.0017204993803738391 0.0056406130191291974
leaf_weight=1687 807 40 364 397 5984 28 236 458 347 83 1659 54 336 1032 31 43 20 220 351 87 24 105 20 761 671 114 32 1028 59 20 53 92 49 26 40 72 81 98 152 45 25 45 26 223 51 61 241 89 82 29 63 61 33 40 1065 281 84 20 404 63 41 87
leaf_count=1687 807 40 364 397 5984 28 236 458 347 83 1659 54 336 1032 31 43 20 220 351 87 24 105 20 761 671 114 32 1028 59 20 53 92 49 26 40 72 81 98 152 45 25 45 26 223 51 61 241 89 82 29 63 61 33 40 1065 281 84 20 404 63 41 87
internal_value=-0.000293166 0.00359842 0.00285157 0.00566642 -0.00394098 0.0083648 0.00949829 0.00100382 0.00735316 0.00829611 -0.00460352 0.00717264 0.002971 0.00375528 0.00658767 0.00495433 0.00445698 0.00233866 0.00242663 -0.00503542 0.00738658 -0.0013632 -0.00129636 0.000297218 0.00120125 -0.00061413 0.013723 0.00313087 0.00692004 0.0116857 0.000586766 0.00647868 0.00698802 0.00576581 0.00496624 0.00425179 0.00597998 0.00758156 0.00494049 0.0108786 0.00319578 0.00699858 0.00596405 0.00189241 0.0172677 0.0202969 0.00422819 0.00613974 0.0155882 0.0178632 0.0152146 0.00270274 0.00919317 0.00867786 -0.00038585 0.000466762 0.0103492 0.0119542 -0.00331056 0.00842299 0.00693025 0.00835425
internal_weight=20920 10994 9170 3634 9926 1816 1363 5536 1824 1376 8239 1049 1818 1368 963 453 448 260 1837 6176 188 192 63 3699 1592 921 86 1379 932 79 450 853 761 525 454 405 1029 405 624 71 333 85 390 248 314 112 543 241 202 120 92 302 307 168 2107 1042 128 104 2063 274 191 150
internal_count=20920 10994 9170 3634 9926 1816 1363 5536 1824 1376 8239 1049 1818 1368 963 453 448 260 1837 6176 188 192 63 3699 1592 921 86 1379 932 79 450 853 761 525 454 405 1029 405 624 71 333 85 390 248 314 112 543 241 202 120 92 302 307 168 2107 1042 128 104 2063 274 191 150
is_linear=0
shrinkage=0.05


Tree=3
num_leaves=63
num_cat=0
split_feature=19 17 0 7 6 10 3 8 3 3 6 0 13 3 14 13 3 5 7 7 9 13 9 14 14 7 10 0 8 6 1 7 2 6 16 0 9 20 11 11 15 16 1 9 3 13 15 13 6 1 14 16 14 16 6 3 16 9 15 9 3 14
split_gain=12.2861 11.0923 6.02185 7.5292 5.68799 4.91869 3.71603 2.66284 2.81214 2.31391 2.28935 2.35407 2.23058 1.63474 1.58427 1.81192 1.53067 1.46559 1.46466 1.31895 1.45976 1.17428 1.4724 1.30297 1.12075 1.21075 1.06103 1.02223 1.01648 1.01237 0.998105 0.968026 0.855106 0.893528 0.854103 0.835066 0.824346 0.801811 0.795779 0.896178 0.963891 0.959135 0.789098 0.774076 1.56115 0.759189 0.823462 0.710779 0.839262 0.705113 0.69876 0.68534 0.6661 0.663326 0.94284 0.658754 0.598935 0.593462 0.592521 0.722353 0.741707 0.66393
threshold=-0.80224061012268055 1.0000000180025095e-35 27.775818672800003 38.738109484800013 43.756470260800008 13.678881198400003 1.0000000180025095e-35 45.62926275600001 1.0000000180025095e-35 1.0000000180025095e-35 10.706443968000004 11.880351753600003 51.584119359500001 5.5000000000000009 50.96426284950001 52.913758391000009 1.0000000180025095e-35 3.1857331704000007 9.1092898072000015 20.449407976800007 11.156501461600003 52.545230660000009 1.5865922336000002 72.522574676500014 48.742935975500011 10.842046608800002 0.97145342800000012 14.899951844800002 9.702944125600002 24.177663760800005 53.364367985500003 0.89475540000000009 6.5000000000000009 9.2327043776000028 53.338760650500006 8.7476881008000031 0.97628289440000016 -1.0000000180025095e-35 66.716390702000012 56.356673906000005 52.774814306500005 48.574840359500008 50.689154288500013 36.757902086400009 3.5000000000000004 55.474025678500006 46.35536459450001 64.297158094000011 26.778024926400004 47.060573326000004 74.134416551000029 52.706084769000007 48.558581812000007 49.998776022000008 20.457699706400003 4.5000000000000009 56.355578552000004 27.575594024000004 52.862066712000008 6.3997689536000015 2.5000000000000004 62.700929921499998
decision_type=2 2 2 2 2 2 2 2 2 2 2 2 2 2 2 2 2 2 2 2 2 2 2 2 2 2 2 2 2 2 2 2 2 2 2 2 2 2 2 2 2 2 2 2 2 2 2 2 2 2 2 2 2 2 2 2 2 2 2 2 2 2
left_child=14 2 3 4 5 10 12 8 32 17 11 18 -6 24 35 -16 28 -5 55 20 52 22 56 27 30 53 -8 -24 -13 -15 -3 -7 33 -4 -21 -1 -11 -17 39 40 41 -33 -30 44 57 46 -43 48 -22 -34 -20 -23 -10 -26 -55 -2 -12 -9 -28 60 -60 -62
right_child=1 13 7 9 6 31 26 43 19 36 21 16 -14 29 15 37 -18 -19 50 34 47 51 23 -25 25 -27 58 -29 42 -31 -32 38 49 -35 -36 -37 -38 -39 -40 -41 -42 45 -44 -45 -46 -47 -48 -49 -50 -51 -52 -53 -54 54 -56 -57 -58 -59 59 -61 61 -63
leaf_value=-0.0022202121792242835 -0.0036420923888028272 0.0011242443380439077 0.019948523192087543 0.019857714678425509 0.0093789364849562341 -0.0015280994178862597 -0.0058219924419704097 0.014432734726487021 -0.0054440117269926834 -0.0033519723797853663 0.0042255987470828892 0.0004460674293901927 0.027676101149089877 0.00048674561917151269 -0.0012274826195683834 -0.0039274519248264361 0.00052959555447501625 0.0077515536900609741 -0.00075245158265568131 0.018510660631000066 0.0018803677702740409 -0.0043972443723503283 0.0028498896368459536 0.013236293474910782 -0.0005403985656431213 -0.00029327389750648155 0.00012767303269356489 0.011403042746660038 0.017986576379863201 0.0043886601680652336 -0.0034995730892366456 0.0021408010168965873 -0.00079476467587731104 0.009511336914020712 0.0059566843595045306 0.00018312161835867821 0.0059502696256031259 -0.0021503847079241633 -0.0017940725091898789 0.0060033906947557624 -0.00038073656332052955 0.0089010318439151793 0.0060066038143954115 0.013220243095694221 -0.00027856221866040006 0.0074974428036359833 4.025816788069076e-05 0.0097272469793361696 0.0080498641385541615 0.011725988797843458 0.0061118334376563631 0.00054218972275854268 0.00082294779982338751 -0.0027702012055767578 0.00039461763821391053 0.00030782969739540653 -0.0022125912278456845 0.0055436015461704565 0.0085071422124694141 0.01239599996346938 -0.0010094778154487326 0.0088541964030203722
leaf_weight=492 1001 953 37 50 36 106 22 57 53 25 48 30 31 898 2589 1371 447 50 751 20 208 85 335 40 668 2015 41 39 27 204 133 431 22 46 42 1362 503 1182 69 321 177 37 28 119 42 215 90 55 75 23 39 404 212 1788 271 118 146 28 84 44 59 24
leaf_count=492 1001 953 37 50 36 106 22 57 53 25 48 30 31 898 2589 1371 447 50 751 20 208 85 335 40 668 2015 41 39 27 204 133 431 22 46 42 1362 503 1182 69 321 177 37 28 119 42 215 90 55 75 23 39 404 212 1788 271 118 146 28 84 44 59 24
internal_value=-0.000278755 0.000860672 0.00226574 0.00165272 0.00104206 0.000614621 0.00728949 0.00577806 0.00436824 0.00683065 -0.000389557 -0.0012422 0.0178448 -0.000556965 -0.00170772 -0.00215952 0.00169912 0.0138046 -0.00206189 0.00306193 0.00234791 0.00150771 0.00297479 0.00465914 -0.000890897 -0.00122271 0.00470845 0.0037418 0.00784946 0.00120906 0.000557976 0.00307159 0.0111549 0.0141641 0.0100064 -0.000454656 0.00550982 -0.0031047 0.00343545 0.00371935 0.00294759 0.0037097 0.0118877 0.0103227 0.00760777 0.00568688 0.00262174 0.0045262 0.00351539 0.00560473 -0.000413582 -0.000316403 -0.000430444 -0.00190948 -0.00235366 -0.00322557 -0.000619637 0.0115045 0.00562778 0.00669652 0.00519486 0.00184267
internal_weight=20918 13922 6992 5953 5325 4984 341 1039 793 628 3538 2441 67 6930 6996 5142 532 100 1909 665 603 1097 608 414 5828 4742 274 374 85 1102 1086 1446 128 83 62 1854 528 2553 1340 1271 950 773 55 246 127 342 127 338 283 45 790 489 265 2727 2059 1119 194 85 252 211 167 83
internal_count=20918 13922 6992 5953 5325 4984 341 1039 793 628 3538 2441 67 6930 6996 5142 532 100 1909 665 603 1097 608 414 5828 4742 274 374 85 1102 1086 1446 128 83 62 1854 528 2553 1340 1271 950 773 55 246 127 342 127 338 283 45 790 489 265 2727 2059 1119 194 85 252 211 167 83
is_linear=0
shrinkage=0.05


Tree=4
num_leaves=63
num_cat=0
split_feature=4 20 19 18 18 4 4 3 3 4 20 4 4 3 3 3 4 4 16 1 3 4 4 3 14 10 16 8 14 8 12 3 4 4 6 3 4 13 5 3 0 7 16 1 12 13 6 15 13 4 16 12 15 15 11 16 10 13 12 3 3 14
split_gain=102.738 9.87466 16.7523 9.31049 7.29665 3.05672 8.06317 6.04212 2.71909 3.36938 1.89542 1.71408 7.42177 4.14136 1.58643 1.42964 1.1113 1.48029 1.08295 1.01779 0.962376 2.57168 3.02315 0.855484 1.05157 0.834525 0.991846 1.02217 0.987763 0.927314 1.08719 0.830126 0.80244 0.79566 0.788831 0.788639 1.81658 0.746646 0.735049 0.733004 0.713119 1.34365 0.725414 0.700972 0.721439 0.694718 0.683609 0.682691 0.789912 0.678962 0.672989 0.664425 0.649429 0.801494 0.622495 0.647528 0.873847 0.824965 0.745794 0.601419 0.728174 0.693877
threshold=4.5000000000000009 0.16104960814118388 0.42897074669599539 -0.25348418205976481 -0.86584007740020741 5.5000000000000009 6.5000000000000009 1.0000000180025095e-35 5.5000000000000009 3.5000000000000004 1.0000000180025095e-35 5.5000000000000009 6.5000000000000009 1.0000000180025095e-35 5.5000000000000009 3.5000000000000004 5.5000000000000009 6.5000000000000009 62.551750755000008 82.492385690000006 1.0000000180025095e-35 6.5000000000000009 5.5000000000000009 5.5000000000000009 47.101550951000014 40.571150452800005 52.976376128000005 36.815189030400006 64.787647015000019 16.125843483200004 60.579122240000011 5.5000000000000009 5.5000000000000009 6.5000000000000009 1.9910075504000002 2.5000000000000004 2.5000000000000004 71.316073653500013 16.641480592000004 3.5000000000000004 9.5039981696000009 7.0083175008000014 58.380760503000012 68.305370497000027 68.305370497000027 47.596438955000004 6.6158539128000013 46.627502155000009 45.470204708500006 1.5000000000000002 53.779631802000004 57.458709958000007 45.713961215000005 58.406501322000004 82.492385690000006 52.231819061500012 40.571150452800005 45.274219770000009 43.507347026000012 5.5000000000000009 3.5000000000000004 51.794725703500006
decision_type=2 2 2 2 2 2 2 2 2 2 2 2 2 2 2 2 2 2 2 2 2 2 2 2 2 2 2 2 2 2 2 2 2 2 2 2 2 2 2 2 2 2 2 2 2 2 2 2 2 2 2 2 2 2 2 2 2 2 2 2 2 2
left_child=4 2 10 5 14 15 7 -7 35 37 20 18 13 -13 -1 40 -5 -18 -3 25 21 22 -2 24 -22 26 27 29 -28 30 52 38 -12 -34 -23 36 49 43 -9 -37 41 -4 -42 44 50 -26 -30 -16 -49 -6 -10 -52 -8 -54 55 56 -14 -57 -59 60 61 -15
right_child=1 11 3 16 8 6 19 31 9 -11 32 12 54 59 47 -17 17 -19 -20 -21 23 34 -24 -25 45 -27 28 -29 46 -31 -32 -33 33 -35 -36 39 -38 -39 -40 -41 42 -43 -44 -45 -46 -47 -48 48 -50 -51 51 -53 53 -55 -56 57 -58 58 -60 -61 -62 -63
leaf_value=-0.0012921231543157584 0.0013892679802860498 0.0051101830938607125 -0.0023211714650935421 0.00061131398447535263 -0.0044053537098875375 0.030536474365937084 0.016811261609074705 0.0094451327634354435 -0.0057039734041878822 0.0023228873949755666 0.00044040843836208273 0.026409655820839761 0.0087052363620976989 0.014801783957273551 -0.0049532476502160234 -0.00052148033061931876 0.0064406277097624511 0.0025801318442009234 -0.001808405325204176 -0.002584622135119779 0.0018158372020104969 0.0060296720289326729 0.011532165534979056 0.0015752393213988522 0.00083951215719228517 0.0029299942099088286 0.0054868124523667749 0.015274927018617747 0.0069646753836423159 0.0036922185472212732 0.017919652016522982 0.019488085882785996 0.004992312595650957 0.0021834421606809762 -0.0014606951878653328 -0.0060117070183002899 -0.0033244320816946632 0.005243158591506274 0.015030415776694559 -0.0043221542064902502 0.010076956791862893 0.0068572941692157958 -0.0002023717730116914 0.0051459035437021947 0.0052880371268838643 -0.0015011009584653765 0.019881069660186768 -0.0053034458952468076 0.0048878181264712592 -0.0062598768581743364 -0.0033930322804800262 0.0050128245502710344 0.0056368085435917941 0.013393435123461216 -0.001027975450269878 0.01019212865877004 0.0035853371022124617 0.0095370643063722171 0.0033154926235845518 0.017187400852761617 0.0032067504454532576 0.0089682745294306764
leaf_weight=1417 187 363 59 440 951 57 21 150 432 318 454 57 296 95 24 116 326 1042 67 28 393 39 121 599 399 108 468 64 20 80 36 39 333 1038 356 1598 2418 23 97 1073 121 123 20 21 20 1543 21 21 201 1026 394 25 137 44 35 60 116 54 446 41 29 110
leaf_count=1417 187 363 59 440 951 57 21 150 432 318 454 57 296 95 24 116 326 1042 67 28 393 39 121 599 399 108 468 64 20 80 36 39 333 1038 356 1598 2418 23 97 1073 121 123 20 21 20 1543 21 21 201 1026 394 25 137 44 35 60 116 54 446 41 29 110
internal_value=-0.000275504 0.00336114 0.00269525 0.00533456 -0.00367158 0.00787063 0.00903409 0.0156715 -0.00427733 -0.00211075 0.000947472 0.00677866 0.00766066 0.0141437 -0.000648669 0.0042398 0.00279708 0.0035001 0.00403217 0.0068173 0.00028768 0.00194927 0.00537398 -0.000110443 -0.000542873 0.00708082 0.00758394 0.00950961 0.00613875 0.00834929 0.0099147 0.0127089 0.00226236 0.00286568 -0.00072114 -0.00465539 -0.0042436 -0.00365162 0.0116385 -0.00533298 0.00594973 0.00388186 0.0086189 -0.00388097 -0.00409861 -0.0010202 0.0135804 0.00305773 0.00392378 -0.00536779 -0.00431921 -0.00289149 0.00848807 0.0075224 0.00552325 0.00575914 0.00726371 0.00465221 0.00398742 0.0116013 0.0106225 0.0116716
internal_weight=20810 10848 9079 3617 9962 1809 1370 343 8299 1233 5462 1769 1339 332 1663 439 1808 1368 430 1027 3637 703 308 2934 2335 999 891 382 509 318 238 286 1825 1371 395 7066 4395 915 247 2671 323 182 141 892 871 1942 41 246 222 1977 851 419 202 181 1007 972 412 560 500 275 234 205
internal_count=20810 10848 9079 3617 9962 1809 1370 343 8299 1233 5462 1769 1339 332 1663 439 1808 1368 430 1027 3637 703 308 2934 2335 999 891 382 509 318 238 286 1825 1371 395 7066 4395 915 247 2671 323 182 141 892 871 1942 41 246 222 1977 851 419 202 181 1007 972 412 560 500 275 234 205
is_linear=0
shrinkage=0.05


Tree=5
num_leaves=63
num_cat=0
split_feature=4 19 17 18 4 4 3 3 4 3 20 0 7 16 3 3 3 7 9 6 18 3 4 16 11 3 10 16 6 4 7 3 8 4 14 9 0 5 8 16 15 14 4 4 8 3 15 5 3 4 9 10 3 16 3 4 0 10 6 3 14 15
split_gain=92.7088 8.68948 20.8287 7.30872 4.16383 16.2641 8.14485 2.65052 3.346 2.28498 1.8546 1.59601 2.18492 1.79585 1.41151 1.51238 1.35151 1.27081 1.39648 1.23098 1.19232 1.28885 1.53337 1.17471 1.10032 1.07369 1.34074 2.30033 1.08061 1.0516 1.04435 1.01324 0.991921 0.98913 0.958574 0.99463 0.985821 1.02105 0.95808 1.00763 0.925789 0.913098 0.911555 1.19949 0.894645 1.23247 0.966677 1.02617 0.885295 0.872633 1.272 0.832752 0.815897 0.809758 0.778738 1.59638 0.75087 0.683963 0.79609 0.666427 0.754267 0.660148
threshold=4.5000000000000009 -0.80224061012268055 1.0000000180025095e-35 -0.86584007740020741 5.5000000000000009 6.5000000000000009 1.0000000180025095e-35 5.5000000000000009 3.5000000000000004 3.5000000000000004 -1.6099548935890196 9.866514169600002 7.0083175008000014 59.617850955000002 5.5000000000000009 3.5000000000000004 5.5000000000000009 51.077788784000006 10.726323968800003 1.4086703224000001 -0.16530410945415494 1.0000000180025095e-35 6.5000000000000009 52.276152435000007 82.492385690000006 5.5000000000000009 43.581050180800013 51.935140075000007 51.077788784000006 5.5000000000000009 14.086074235200003 1.5000000000000002 2.2284668296000008 5.5000000000000009 43.783777667500011 19.594764736800006 18.702813421600005 2.6171950904000005 21.455874800800004 49.788444498000011 45.125631466500003 65.29706023750002 5.5000000000000009 6.5000000000000009 25.502370669600001 3.5000000000000004 47.898777270500005 6.8229070448000009 5.5000000000000009 7.5000000000000009 24.890007700800005 48.61073746320001 1.0000000180025095e-35 61.504941745000004 2.5000000000000004 2.5000000000000004 25.950564736800008 7.3255199424000006 15.733669908000001 3.5000000000000004 78.608574486000009 46.496767336500007
decision_type=2 2 2 2 2 2 2 2 2 2 2 2 2 2 2 2 2 2 2 2 2 2 2 2 2 2 2 2 2 2 2 2 2 2 2 2 2 2 2 2 2 2 2 2 2 2 2 2 2 2 2 2 2 2 2 2 2 2 2 2 2 2
left_child=3 20 4 16 9 6 -6 54 -9 11 42 12 -3 51 15 38 -1 24 -19 -14 21 22 33 -21 25 26 27 34 30 -22 44 -30 -25 -2 -7 36 37 -36 56 -40 -37 -32 -4 -44 45 46 -29 -48 -11 50 -27 52 57 -50 55 -5 -8 -13 -59 -56 -61 -18
right_child=1 2 10 7 5 17 14 8 -10 48 -12 13 19 -15 -16 -17 61 18 -20 23 29 -23 -24 32 -26 49 -28 28 31 -31 41 -33 -34 -35 35 40 -38 -39 39 -41 -42 -43 43 -45 -46 -47 47 -49 53 -51 -52 -53 -54 -55 59 -57 -58 58 -60 60 -62 -63
leaf_value=-0.0010361707500314949 0.0034657007676730982 -0.0027981837065453874 0.00065334134775659315 -0.0050954099876582021 0.026665378870083051 0.014829682161024147 0.0094355101637061574 -0.00347181091328921 0.0024800812270854337 -0.0061888661957345903 0.0003670211069133312 0.0093115834937760097 -0.0034097946699148452 -0.0024751626554747677 0.01803399654371398 0.0035825200285762547 -0.0039961317709336676 0.01358108212123945 0.00044174102009632272 0.00028323751247050813 4.7259913962616007e-05 -0.00034589417755515094 0.00024798968575190551 0.014303881353777598 -0.001099643909300749 0.015926238505302795 0.00067191216437535587 0.015339486779287335 0.0033724791860419955 0.0028040654740802817 0.00050434451026725184 0.016216568911776825 0.0062552132877657929 0.011913786133130391 0.011761273974500429 0.0086755570733015805 0.01407343503424751 0.0049842018309219221 0.010743866762700114 0.018619843195451218 0.0009638680308893488 0.010460617249831557 0.0058344622699234303 0.0024113671351519844 0.00097990766463405257 0.0011473009048495442 0.0024387514689788946 0.0085171363444621947 0.0027868282851539082 0.0060863828251384346 0.0046582682010455016 0.0024192419906778795 0.0086779208892960921 -0.0057192683439044392 -0.0057585539987512575 -0.0031835145093000272 0.0190737349499779 0.026144205033779146 0.012205626852810384 -0.004334897205322855 0.0054658978967927398 0.0039126171594375076
leaf_weight=1409 82 107 437 1965 114 49 248 909 319 50 1807 29 32 35 84 60 30 91 26 49 463 1470 201 59 65 70 159 34 28 1368 292 34 109 60 89 68 76 148 74 90 91 25 343 1008 117 105 105 205 158 159 39 35 154 34 1606 2457 22 21 20 1064 20 219
leaf_count=1409 82 107 437 1965 114 49 248 909 319 50 1807 29 32 35 84 60 30 91 26 49 463 1470 201 59 65 70 159 34 28 1368 292 34 109 60 89 68 76 148 74 90 91 25 343 1008 117 105 105 205 158 159 39 35 154 34 1606 2457 22 21 20 1064 20 219
internal_value=-0.000266532 0.003199 0.00419968 -0.00346803 0.00685538 0.00781305 0.014451 -0.00407079 -0.00192568 0.00388469 0.00149669 0.00542881 0.00317727 0.00815517 0.012042 0.0110231 -0.000436059 0.00559932 0.0106612 0.00574503 0.00120698 0.000298067 0.0030579 0.00709505 0.00529684 0.00551648 0.00503289 0.00550588 0.00403526 0.00210696 0.00358723 0.010416 0.00908183 0.00703531 0.00817332 0.0074823 0.0091182 0.00752918 0.0120518 0.015066 0.00426195 0.00128954 0.00263836 0.00328044 0.0048741 0.00588884 0.00733612 0.00645833 -0.000262725 0.00844867 0.0118946 0.0095917 0.0107124 0.00128054 -0.00444117 -0.0040331 0.0102208 0.0151882 0.0193449 -0.00511199 -0.00415407 0.00295976
internal_weight=20896 10898 7254 9998 3659 2767 692 8340 1228 892 3595 650 356 294 578 494 1658 2075 117 249 3644 1813 343 217 1958 1893 1625 1466 945 1831 883 62 168 142 521 472 313 237 434 164 159 317 1788 1351 566 449 344 310 242 268 109 259 224 192 7112 4422 270 70 41 2690 1084 249
internal_count=20896 10898 7254 9998 3659 2767 692 8340 1228 892 3595 650 356 294 578 494 1658 2075 117 249 3644 1813 343 217 1958 1893 1625 1466 945 1831 883 62 168 142 521 472 313 237 434 164 159 317 1788 1351 566 449 344 310 242 268 109 259 224 192 7112 4422 270 70 41 2690 1084 249
is_linear=0
shrinkage=0.05


Tree=6
num_leaves=63
num_cat=0
split_feature=4 19 17 4 4 3 3 4 3 19 15 3 3 19 19 20 13 1 20 16 10 13 3 3 4 12 4 14 5 14 4 3 0 6 16 3 14 3 14 12 11 1 10 14 4 4 4 12 15 15 3 13 10 10 12 13 0 14 15 4 7 15
split_gain=87.9083 8.73487 20.1067 3.97965 14.5305 8.06783 3.06655 2.55075 1.88857 1.84985 1.61717 1.32295 1.34663 1.30868 2.58734 1.26279 1.21969 1.20705 1.1052 1.073 1.89331 1.27224 1.23311 0.987007 1.08687 0.951375 1.06114 1.13127 1.6779 0.954104 0.938426 0.890407 0.88862 0.925397 1.06215 1.0829 1.17736 0.879204 0.855723 0.835165 0.825017 0.769262 1.02764 0.791403 0.752748 0.734545 1.13437 0.729125 1.06007 0.727648 1.19571 0.722197 0.794779 0.710107 0.706705 1.1599 0.705169 0.851901 0.69029 0.684258 0.685783 0.66908
threshold=4.5000000000000009 -0.80224061012268055 -1.0000000180025095e-35 5.5000000000000009 6.5000000000000009 1.0000000180025095e-35 5.5000000000000009 3.5000000000000004 3.5000000000000004 0.84229862689971935 64.209132266500021 5.5000000000000009 3.5000000000000004 -0.80224061012268055 0.42897074669599539 -1.0000000180025095e-35 68.305370497000027 82.492385690000006 -1.0000000180025095e-35 52.371187154000005 40.571150452800005 45.274219770000009 1.5000000000000002 1.0000000180025095e-35 6.5000000000000009 43.507347026000012 8.5000000000000018 49.362663909000005 19.234522700800003 48.665733148500003 5.5000000000000009 2.5000000000000004 48.780707562400003 37.686609699200012 61.722695372000011 2.5000000000000004 65.29706023750002 5.5000000000000009 44.255647533500003 57.458709958000007 67.402802727000008 63.447952516000001 7.7258948536000016 53.125768280000003 5.5000000000000009 5.5000000000000009 6.5000000000000009 63.450457304000004 51.014075937500003 50.703110237000004 1.0000000180025095e-35 71.316073653500013 2.1161028768000003 10.386172852000003 62.425433668000004 61.16502473900001 25.091208788800003 76.32036133150001 44.056476646 7.5000000000000009 2.5366882904000003 60.078569999500004
decision_type=2 2 2 2 2 2 2 2 2 2 2 2 2 2 2 2 2 2 2 2 2 2 2 2 2 2 2 2 2 2 2 2 2 2 2 2 2 2 2 2 2 2 2 2 2 2 2 2 2 2 2 2 2 2 2 2 2 2 2 2 2 2
left_child=6 18 3 8 5 -5 13 40 10 -4 16 12 41 -1 15 -15 32 19 23 20 38 22 -21 24 30 31 27 28 -27 -28 -2 -23 33 34 35 36 39 -10 -6 -3 51 42 43 -7 -20 -11 -47 -40 -49 -41 -51 52 56 -18 55 58 57 -8 -44 -22 -61 -45
right_child=1 2 9 4 17 11 7 -9 37 45 -12 -13 -14 14 -16 -17 53 -19 44 21 59 25 -24 -25 -26 26 29 -29 -30 -31 -32 -33 -34 -35 -36 -37 -38 -39 47 49 -42 -43 54 61 -46 46 -48 48 -50 50 -52 -53 -54 -55 -56 -57 -58 -59 -60 60 -62 -63
leaf_value=-0.0046340133358375619 0.0027914510923437775 0.0033216863384110209 0.00033384792944365514 0.025751370461499792 0.013337867786247397 0.019733249098141444 -0.0026547516275446238 0.0023370184676080453 -0.0058478253227019425 0.00083502269290106805 -0.0025281536317760906 0.016828245818614959 0.0032969432804038968 -0.0011915343181088621 -0.0043888387125311122 -0.003308806259823108 -0.0070614523495788929 -0.00097804489626508707 0.00018589843181222344 0.00097643311167784684 -0.00024033072832945653 0.0041123065684511555 0.011958204188103816 -0.00032847971881991745 0.00018129722072333888 0.010545925291080494 -0.00029674145079104967 0.0017268541697620908 0.00025378855485045775 0.0092459085017468374 0.011081393171440471 0.01384714210162992 0.014566505533135075 0.01237222505909092 -0.0014104246427807227 0.011127564837381747 -0.0068434306560084231 0.001562675357025157 0.0071704552883512023 0.0022686996629844155 0.0063151641390644586 0.0060922980537482848 0.0060222374352936949 0.0096411625121746378 0.0025492931171511002 0.0056606311405683896 0.0023326948455422536 0.0037616855360101914 0.017983133880127417 0.018311344099878196 0.0069342794310715472 0.0060648248895354903 -0.0036958827755342312 0.0051977131427043965 0.0029658654788363493 0.005601660172725397 0.0072935300091138263 0.0055977763457072749 0.016111234028622592 0.011536750254163054 0.0034773143304569127 0.017663425534236721
leaf_weight=2833 90 171 1830 118 78 59 202 366 51 451 62 95 59 1415 2814 1402 27 69 447 34 89 48 103 1486 189 99 33 569 66 127 55 46 33 53 51 89 20 186 523 35 26 60 21 71 1368 341 1028 20 38 34 72 23 780 21 32 62 26 37 88 34 118 41
leaf_count=2833 90 171 1830 118 78 59 202 366 51 451 62 95 59 1415 2814 1402 27 69 447 34 89 48 103 1486 189 99 33 569 66 127 55 46 33 53 51 89 20 186 523 35 26 60 21 71 1368 341 1028 20 38 34 72 23 780 21 32 62 26 37 88 34 118 41
internal_value=-0.000254531 0.0030993 0.00409027 0.00668505 0.00761668 0.0138199 -0.00339244 -0.00127621 0.00380266 0.00145639 0.00516316 0.0114255 0.0103844 -0.00375748 -0.00331649 -0.00224528 0.00595006 0.00552524 0.00109419 0.00574684 0.00703364 0.00471739 0.0092328 0.000223545 0.00267956 0.00409127 0.00358816 0.00278389 0.00642907 0.00727774 0.00593591 0.00887616 0.00660796 0.00610771 0.00540428 0.00622981 0.00491686 -3.19893e-05 0.00842048 0.00567073 -0.00248502 0.0113479 0.012191 0.0150467 0.00196723 0.0025851 0.00316164 0.00776031 0.0130792 0.00851956 0.0105835 -0.00269926 -0.00289215 -0.00169807 0.00978555 0.0110617 -0.000526454 -0.00137716 0.0141675 0.00324142 0.00528008 0.0125779
internal_weight=20914 10990 7355 3705 2800 706 9924 1460 905 3650 668 588 493 8464 5631 2817 606 2094 3635 2025 900 1125 137 1820 334 988 894 734 165 160 145 94 558 525 472 421 332 237 659 312 1094 434 374 171 1815 1820 1369 581 58 141 106 1068 1045 48 203 171 265 239 109 241 152 112
internal_count=20914 10990 7355 3705 2800 706 9924 1460 905 3650 668 588 493 8464 5631 2817 606 2094 3635 2025 900 1125 137 1820 334 988 894 734 165 160 145 94 558 525 472 421 332 237 659 312 1094 434 374 171 1815 1820 1369 581 58 141 106 1068 1045 48 203 171 265 239 109 241 152 112
is_linear=0
shrinkage=0.05


Tree=7
num_leaves=63
num_cat=0
split_feature=4 19 20 18 4 4 15 20 11 4 19 13 16 10 6 4 9 10 7 0 6 14 12 9 16 10 7 4 4 4 5 4 10 9 15 0 14 16 16 14 12 7 15 16 12 4 14 6 18 14 0 13 19 1 11 0 14 13 4 6 7 0
split_gain=77.0167 7.61435 17.2684 4.9414 2.71579 11.9133 1.72392 1.37385 1.25361 1.24964 1.12317 1.03033 1.11488 1.87566 1.23102 1.06227 1.04197 0.949762 1.63713 1.45243 0.981061 1.12941 1.18245 0.871296 0.953524 0.982077 0.84241 0.82821 0.819028 1.04179 0.792162 0.765882 0.716364 0.679496 1.66446 0.721974 0.674748 0.672157 0.662594 0.973284 0.953659 0.651177 0.637643 0.685225 0.624922 0.613978 0.604255 0.603501 0.577192 0.573214 0.566697 0.557873 0.555098 0.533769 0.610293 0.633267 0.69016 0.915049 1.14254 0.75352 0.964329 0.697076
threshold=4.5000000000000009 -0.80224061012268055 -0.8462354689836501 -0.86584007740020741 5.5000000000000009 6.5000000000000009 63.73947077550001 -1.6099548935890196 82.492385690000006 2.5000000000000004 -1.4767409861087797 43.201767797500004 51.771369929500004 35.574585833600004 51.077788784000006 7.5000000000000009 6.5803414688000013 8.7307543664000011 3.0255359376000004 3.1919439640000005 1.1099185328000003 65.916153140500015 52.050747034000004 48.763946140800009 55.028164581000006 41.880765396800008 2.1641922720000006 7.5000000000000009 5.5000000000000009 6.5000000000000009 3.2352585056000005 5.5000000000000009 1.8931828432000002 19.329417148800001 51.540749819000006 32.759205600000008 72.522574676500014 61.242841985000005 56.993600664000006 57.293944571500006 60.756250600500003 25.936931310400006 47.684997737000003 51.153730628000012 48.81266369850001 6.5000000000000009 60.117810369500006 2.3571411776000004 -1.0000000180025095e-35 43.783777667500011 14.097071181600002 46.550367051500004 -0.80224061012268055 58.335381832000003 59.557367980500011 25.950564736800008 49.437708417500012 47.596438955000004 8.5000000000000018 12.007931962400002 15.478567869600001 13.351685556000001
decision_type=2 2 2 2 2 2 2 2 2 2 2 2 2 2 2 2 2 2 2 2 2 2 2 2 2 2 2 2 2 2 2 2 2 2 2 2 2 2 2 2 2 2 2 2 2 2 2 2 2 2 2 2 2 2 2 2 2 2 2 2 2 2
left_child=3 10 7 -1 6 32 17 28 11 36 31 16 13 27 53 30 -7 18 -4 -19 -20 22 -22 24 25 42 -17 -13 37 -30 -15 -2 46 34 -34 38 -5 -3 40 -40 -36 -35 43 -21 -38 -33 -6 -28 52 -12 -16 -51 -11 54 55 56 -14 -58 59 -59 61 -61
right_child=1 2 4 9 5 8 -8 -9 -10 48 49 12 14 15 50 26 -18 19 20 23 21 -23 -24 -25 -26 -27 47 -29 29 -31 -32 45 33 41 35 -37 44 -39 39 -41 -42 -43 -44 -45 -46 -47 -48 -49 -50 51 -52 -53 -54 -55 -56 -57 57 58 -60 60 -62 -63
leaf_value=-0.00071606613958583162 0.00010097652524751371 0.0013063420236923118 -0.0042240114901206278 -0.0044480790568143785 0.020555479379076206 0.014094965499825777 -0.0025990370953936255 0.00039109426170637579 -0.0013427237821613544 -0.0034334280364645706 0.0038398495019014312 0.010613361982297792 0.0088908192255506661 0.0064223035491083689 0.012665261498226882 0.013154334313425824 0.0037572129472839434 -0.0015319204036271775 -0.0058669344014064834 0.010867985097631332 0.00015755703913340551 0.01597688099877401 0.0068604299963938619 0.00014804512627322126 -0.00023366219208886225 0.0033107743325546898 0.011960721687258532 0.0065526135226055401 0.0054074977765927413 0.0021756532310078353 -0.0032565180935377538 0.004295135110638032 0.020139105008604628 0.0091134200968620623 0.015719659755694438 0.018736489858094823 -0.0050400856813346898 -0.0040955811410265811 0.017765800100751222 0.0054927670036531281 0.0081656468599520405 0.017985922442344222 0.0091935240855255257 0.022738669849932197 0.0018869701119156826 0.0018714950519139305 0.010418201388702506 0.0028206365050674892 -0.0042411744336049847 0.0021166228767176489 0.0036599146872758866 -0.0004501327119184502 -0.0021760167412054232 0.0013800310874986794 -0.00089189593881283972 0.0021530792205654995 0.011229878812936597 0.00060154614517159654 0.0094194843786189683 0.011954475044214112 5.1725909221344268e-05 0.0024039677208277464
leaf_weight=1700 447 376 68 3783 49 65 93 1787 72 1766 99 227 114 29 58 31 39 52 22 31 109 22 166 37 30 58 21 281 328 1040 78 349 75 205 111 34 54 68 20 84 67 23 181 20 82 1040 21 129 879 248 25 1446 1745 211 55 202 46 200 74 56 52 29
leaf_count=1700 447 376 68 3783 49 65 93 1787 72 1766 99 227 114 29 58 31 39 52 22 31 109 22 166 37 30 58 21 281 328 1040 78 349 75 205 111 34 54 68 20 84 67 23 181 20 82 1040 21 129 879 248 25 1446 1745 211 55 202 46 200 74 56 52 29
internal_value=-0.000243198 0.00290246 0.00383607 -0.00317219 0.00624842 0.00701695 0.00384254 0.0013748 0.00514044 -0.0036747 0.00103187 0.00537129 0.00510847 0.00653967 0.00409311 0.00331618 0.0102183 0.00459514 0.00281962 0.00627516 0.00432108 0.00507575 0.00420365 0.00741233 0.00825226 0.00913012 0.00565095 0.00836716 0.00234494 0.00295054 -0.000633286 0.00190114 0.01272 0.0121779 0.0134429 0.0118536 -0.00432368 0.00047902 0.0110237 0.00785297 0.0128763 0.0100085 0.010585 0.0155232 -0.000863479 0.00248046 0.0175143 0.00410025 -0.00309535 0.00014176 0.00995281 -7.43621e-05 -0.00280848 0.00362501 0.0041971 0.00455919 0.00541039 0.00454219 0.00379369 0.00255835 0.005415 0.00869607
internal_weight=20909 10900 7271 10009 3672 2783 889 3599 2094 8309 3629 2022 1918 796 1122 288 104 796 387 409 319 297 275 357 320 290 181 508 1812 1368 107 1836 689 619 391 316 3919 444 282 104 178 228 232 51 136 1389 70 150 4390 1793 83 1694 3511 1039 828 773 571 457 411 337 137 85
internal_count=20909 10900 7271 10009 3672 2783 889 3599 2094 8309 3629 2022 1918 796 1122 288 104 796 387 409 319 297 275 357 320 290 181 508 1812 1368 107 1836 689 619 391 316 3919 444 282 104 178 228 232 51 136 1389 70 150 4390 1793 83 1694 3511 1039 828 773 571 457 411 337 137 85
is_linear=0
shrinkage=0.05


Tree=8
num_leaves=63
num_cat=0
split_feature=4 19 17 4 4 3 3 4 19 3 16 19 19 1 5 17 3 3 19 12 13 3 4 4 7 3 3 4 8 3 10 16 9 6 3 7 3 7 4 4 15 3 3 1 5 8 10 13 3 14 9 15 11 6 11 12 10 8 11 4 13 16
split_gain=70.2824 6.57487 15.4401 3.80746 12.0904 7.03046 3.1414 2.09192 1.67806 1.48028 1.57157 1.40773 2.09776 1.31375 1.15719 1.02006 0.987634 1.04559 0.893845 0.835213 0.853518 0.833281 0.97319 1.01514 0.816259 1.13286 0.911124 1.00155 0.954853 1.25644 1.05718 1.21083 0.948695 0.896745 0.916317 0.912801 0.841751 0.8003 0.772002 0.883641 0.769628 0.842314 0.905818 0.73976 0.721389 0.706932 0.951203 0.951279 0.719332 0.876057 0.696575 0.999551 0.70078 0.690131 0.643917 0.643434 0.906552 1.07309 0.634338 0.793456 0.679325 0.623669
threshold=4.5000000000000009 -0.80224061012268055 -1.0000000180025095e-35 5.5000000000000009 6.5000000000000009 1.0000000180025095e-35 5.5000000000000009 3.5000000000000004 0.84229862689971935 1.0000000180025095e-35 62.551750755000008 -0.80224061012268055 0.42897074669599539 82.492385690000006 2.1099928344000007 -0.49410644173622126 5.5000000000000009 3.5000000000000004 -1.4767409861087797 69.110282943000001 69.110282943000001 1.0000000180025095e-35 6.5000000000000009 5.5000000000000009 51.077788784000006 1.0000000180025095e-35 5.5000000000000009 7.5000000000000009 51.223033408800013 1.5000000000000002 40.571150452800005 51.935140075000007 29.805815054400004 51.077788784000006 2.5000000000000004 16.889614790400003 3.5000000000000004 21.856223347200004 5.5000000000000009 6.5000000000000009 63.73947077550001 3.5000000000000004 2.5000000000000004 68.305370497000027 22.240400855200004 13.682017668000002 25.676943309600002 61.625781080500012 2.5000000000000004 62.131668755000007 3.5638712560000005 53.36130177950001 50.073146240000007 3.0225934376000008 63.447952516000001 61.844607487000012 2.6294688464000004 31.279658220800005 51.158214120000004 8.5000000000000018 59.066247955000001 53.779631802000004
decision_type=2 2 2 2 2 2 2 2 2 2 2 2 2 2 2 2 2 2 2 2 2 2 2 2 2 2 2 2 2 2 2 2 2 2 2 2 2 2 2 2 2 2 2 2 2 2 2 2 2 2 2 2 2 2 2 2 2 2 2 2 2 2
left_child=6 18 3 9 5 -5 11 19 -4 14 40 -1 15 24 -3 -13 17 54 -2 20 43 22 23 -20 26 -26 28 32 30 -30 31 37 -28 35 -35 36 44 45 -10 -40 41 42 -11 61 58 48 47 -47 49 -6 -44 52 -52 -50 -7 56 -16 -58 -33 60 -60 -8
right_child=1 2 8 4 13 16 7 -9 38 10 -12 12 -14 -15 55 -17 -18 -19 21 -21 -22 -23 -24 -25 25 -27 27 -29 29 -31 -32 33 -34 34 -36 -37 -38 -39 39 -41 -42 -43 50 -45 -46 46 -48 -49 53 -51 51 -53 -54 -55 -56 -57 57 -59 59 -61 -62 -63
leaf_value=-0.0043048833856944866 0.001834249268626783 -0.0041251396457664671 0.00025484367354732494 0.02393037018431958 0.01335996397157942 0.011096179952545169 -0.0038043490690490493 0.0023765684026788303 0.00062187780024467322 0.0034369012288767834 -0.0041223136496483584 -0.0029203194070337168 -0.0038945959313259866 -0.0019096724814109838 0.014943007436851341 -0.0010143582762479836 0.015298523944477702 0.0029254962822758699 0.0020864253765797581 0.0074520622906477556 0.0058688835822977127 -0.00025355735615634786 0.00013730484740032505 0.010479485060347887 -0.00061822092623818516 0.011478389007970692 0.014046553052499007 0.0050794479313744124 0.0033327630853455048 0.015644421480422797 0.00063939241996503185 0.010171342079742721 0.0041127396418767816 0.0054130255790369123 0.018151332736015321 0.00076563004951787905 0.00071809783454112241 0.0018956497078339665 0.0052632081687540994 0.0022870909101054232 -0.0021696141412338387 0.00081906179217873401 0.016410980611544803 0.0068710419925905406 0.0021212663578954825 0.0060640326328575619 0.00081340477492576895 0.017396886986882791 -0.0022302212991884779 0.0028953968527882052 0.0050301674032158664 -0.00029933380053168341 0.017243669123854489 0.010588393732905389 0.0054663464693368372 0.017022521756589411 0.0025007492839926627 0.014521430417274437 0.0052371056907684795 0.0099731402597316218 -0.0022021710525711195 -0.0013500139925923973
leaf_weight=2827 1817 20 1794 115 120 365 531 367 452 272 89 1406 2848 67 31 1402 86 54 88 23 32 1467 192 61 24 100 82 166 40 43 183 90 34 48 20 265 126 69 329 1031 65 185 24 21 124 95 67 23 21 24 23 31 24 21 59 20 82 24 122 63 41 505
leaf_count=2827 1817 20 1794 115 120 365 531 367 452 272 89 1406 2848 67 31 1402 86 54 88 23 32 1467 192 61 24 100 82 166 40 43 183 90 34 48 20 265 126 69 329 1031 65 185 24 21 124 95 67 23 21 24 23 31 24 21 59 20 82 24 122 63 41 505
internal_value=-0.000232609 0.00278983 0.00365886 0.0059528 0.0068707 0.0126631 -0.00302309 -0.000896668 0.00133884 0.00310937 0.00209338 -0.00339382 -0.00293846 0.00497799 0.00720201 -0.0019687 0.0103657 0.00947824 0.00105106 -0.00197695 -0.0021761 0.000263965 0.00249037 0.00552251 0.00520747 0.00913711 0.00494924 0.00757035 0.00448871 0.00971109 0.00420391 0.00469107 0.0111349 0.00363919 0.00915959 0.00318746 0.00432135 0.00684026 0.00241207 0.00300705 0.00297991 0.00357869 0.00494375 -0.00241965 0.00535319 0.00775988 0.0055714 0.00827298 0.0099366 0.0116159 0.00896202 0.00667003 0.0112668 0.00417909 0.0103128 0.00864496 0.00742196 0.00522241 0.00662141 0.00520772 0.00336588 -0.00260798
internal_weight=20840 10878 7253 3647 2757 679 9962 1479 3606 890 713 8483 5656 2078 177 2808 564 478 3625 1112 1089 1808 341 149 2011 124 1887 282 1605 83 1522 1339 116 899 68 831 566 440 1812 1360 624 559 374 1057 440 371 185 118 186 144 102 78 47 42 424 157 137 106 316 226 163 1036
internal_count=20840 10878 7253 3647 2757 679 9962 1479 3606 890 713 8483 5656 2078 177 2808 564 478 3625 1112 1089 1808 341 149 2011 124 1887 282 1605 83 1522 1339 116 899 68 831 566 440 1812 1360 624 559 374 1057 440 371 185 118 186 144 102 78 47 42 424 157 137 106 316 226 163 1036
is_linear=0
shrinkage=0.05


Tree=9
num_leaves=63
num_cat=0
split_feature=4 20 19 19 3 4 3 4 4 4 4 20 3 4 4 4 4 19 19 7 13 12 16 8 7 1 17 15 11 16 4 4 3 0 3 4 7 15 4 4 12 3 5 19 19 4 6 5 5 4 14 3 1 3 7 13 13 16 9 3 3 3
split_gain=62.6103 6.14627 11.0085 5.56888 3.03813 2.20221 1.40126 3.43528 3.72164 1.45756 2.34698 1.35938 1.26168 2.22368 2.41353 1.10796 1.59368 1.10659 1.96387 0.975991 0.888593 0.886144 0.864467 0.852119 0.829646 0.785238 0.752821 0.716773 0.665275 0.660977 0.643946 2.6303 2.14953 0.702212 0.689081 0.633194 0.602351 0.591319 0.584805 0.691178 0.57597 0.559161 0.691034 0.557366 0.536388 0.528717 0.525598 0.525531 0.517796 0.817507 0.568035 0.506088 0.502914 0.620677 0.737177 0.500434 0.505868 0.494955 0.493364 0.49334 0.491495 0.587741
threshold=4.5000000000000009 0.16104960814118388 0.42897074669599539 0.84229862689971935 5.5000000000000009 3.5000000000000004 1.0000000180025095e-35 6.5000000000000009 5.5000000000000009 5.5000000000000009 6.5000000000000009 1.0000000180025095e-35 1.0000000180025095e-35 6.5000000000000009 5.5000000000000009 5.5000000000000009 6.5000000000000009 -0.80224061012268055 0.42897074669599539 51.077788784000006 62.700929921499998 69.110282943000001 61.943003843500009 11.112590887200001 43.74152801040001 69.110282943000001 -0.49410644173622126 46.35536459450001 82.492385690000006 53.576123666000008 6.5000000000000009 5.5000000000000009 1.0000000180025095e-35 29.983001576000003 1.5000000000000002 5.5000000000000009 7.6083210280000015 58.406501322000004 5.5000000000000009 6.5000000000000009 58.830317929500005 5.5000000000000009 15.733669908000001 0.84229862689971935 -0.80224061012268055 6.5000000000000009 2.7773640752000008 45.430125655200008 15.943416957600002 2.5000000000000004 76.32036133150001 3.5000000000000004 74.134416551000029 5.5000000000000009 15.478567869600001 65.29706023750002 58.523838665500008 62.551750755000008 8.0589802040000027 3.5000000000000004 1.0000000180025095e-35 3.5000000000000004
decision_type=2 2 2 2 2 2 2 2 2 2 2 2 2 2 2 2 2 2 2 2 2 2 2 2 2 2 2 2 2 2 2 2 2 2 2 2 2 2 2 2 2 2 2 2 2 2 2 2 2 2 2 2 2 2 2 2 2 2 2 2 2 2
left_child=4 2 11 6 17 20 7 8 -4 22 41 30 13 14 -3 23 -17 -1 26 -18 21 25 51 36 52 29 60 -22 35 -6 31 33 -33 -2 -35 59 -14 -26 -13 -40 48 42 -11 44 -7 -37 -15 -44 50 -50 -31 -8 53 54 55 56 -12 -38 -57 -5 -19 -62
right_child=1 12 3 28 5 43 9 -9 -10 10 24 38 15 46 -16 16 19 18 -20 -21 27 -23 -24 -25 37 -27 -28 -29 -30 40 -32 32 -34 34 -36 45 57 -39 39 -41 -42 -43 47 -45 -46 -47 -48 -49 49 -51 -52 -53 -54 -55 -56 58 -58 -59 -60 -61 61 -63
leaf_value=-0.0040296866401264364 -0.0014165599922995149 0.00752269411155873 0.0081368303353277337 0.0016864644274679258 -0.0040728524309329743 0.00081740203958291274 0.0049965422474018018 0.0046794168227327565 0.024441157579421998 0.0070353886559165859 0.005475032877889351 0.0002118687062674883 -0.0044068412066911138 0.0095166054764399075 0.020546385748633024 0.0085898255291282106 0.0038229570236414292 -0.00085029865149408588 -0.0037498496057569082 0.010490778975003258 -0.0042159155220724649 0.008114040298387408 -0.0039567631306559889 0.0048142046083784213 0.0063989839255292379 0.0070460797597964604 -0.0010612172848855149 0.0071221455466002233 -0.0045922222068267215 -0.00336809404156755 -0.00046381205113497638 0.0096846963934324407 0.0019999810078771057 0.0082811430978931896 1.6542300581932068e-05 0.004646226641063283 0.0034039806415367985 0.015373282879590989 0.0042782371054359133 0.0016628809534891533 0.006867974363267422 0.015497648580507797 0.014810604795355984 -0.0017996651818975808 0.0049637180733948186 0.0023276334966090937 0.0031548686885239127 0.0071096515833005474 -0.0016710658743977547 0.0074908378294536049 0.003718479193987385 0.00057584310465670651 -0.0021183833479881289 0.0079539700375713465 0.001205665610729165 0.0047117472880265935 0.0010509757766703843 -0.0039020118582993746 0.015077851930012307 -0.0022611569160612944 -0.003717177123504248 -0.00083477552639975392
leaf_weight=2861 795 92 84 304 467 130 208 189 60 137 336 439 57 41 58 289 786 288 2846 59 20 20 43 164 45 21 1393 46 35 322 2071 108 578 38 75 328 102 31 336 1018 20 44 72 64 195 982 156 32 80 35 31 94 27 131 157 22 80 30 24 107 919 219
leaf_count=2861 795 92 84 304 467 130 208 189 60 137 336 439 57 41 58 289 786 288 2846 59 20 20 43 164 45 21 1393 46 35 322 2071 108 578 38 75 328 102 31 336 1018 20 44 72 64 195 982 156 32 80 35 31 94 27 131 157 22 80 30 24 107 919 219
internal_value=-0.000225119 0.00261783 0.00208186 0.00423986 -0.00286819 -0.00075318 0.0061812 0.00911223 0.0149303 0.00552306 0.00638614 0.000669559 0.00525674 0.00797152 0.0125585 0.00462323 0.00538471 -0.00322813 -0.00282332 0.00428852 -0.00193208 -0.00230439 0.00267614 0.00217701 0.00507363 -0.00251788 -0.00188793 0.00368637 0.00223218 -0.00272819 0.000117637 0.000873084 0.00320982 -0.000892336 0.00279579 0.00237097 -0.000111345 0.0100596 0.00179772 0.00231189 -0.00144139 0.0103144 0.00936814 0.00246532 0.00330519 0.00290817 0.00447888 0.0124411 -0.00179649 0.00111734 -0.00274576 0.00362056 0.00458594 0.0048273 0.0041656 0.00517146 0.00462425 0.00174353 0.0101201 0.000658738 -0.0026955 -0.00316248
internal_weight=20841 10864 9030 3572 9977 1451 1816 333 144 1483 1138 5458 1834 347 150 1487 1134 8526 5665 845 1062 996 345 353 853 976 2819 66 1756 955 3665 1594 686 908 113 1721 189 76 1793 1354 488 285 241 389 325 1310 197 104 468 115 353 302 777 750 619 462 416 132 46 411 1426 1138
internal_count=20841 10864 9030 3572 9977 1451 1816 333 144 1483 1138 5458 1834 347 150 1487 1134 8526 5665 845 1062 996 345 353 853 976 2819 66 1756 955 3665 1594 686 908 113 1721 189 76 1793 1354 488 285 241 389 325 1310 197 104 468 115 353 302 777 750 619 462 416 132 46 411 1426 1138
is_linear=0
shrinkage=0.05


Tree=10
num_leaves=63
num_cat=0
split_feature=19 17 8 7 6 9 3 3 13 11 8 7 5 3 9 3 7 16 3 0 9 3 13 16 0 6 15 14 0 18 6 3 5 3 0 9 14 16 15 16 1 8 0 7 5 6 6 3 8 14 3 0 12 9 2 14 1 6 9 15 16 11
split_gain=5.78792 6.32393 2.92425 3.19147 2.61857 2.52588 1.87429 1.6248 1.46788 1.21509 1.1339 1.08739 1.25701 1.26816 1.08525 1.06284 1.02155 0.9838 0.90012 1.08819 1.54592 1.04634 0.837698 0.835979 0.925885 1.07976 0.827219 0.820218 0.801401 0.799474 0.793053 0.780922 0.77136 0.763899 0.750555 0.683217 0.731737 0.681073 0.820768 0.67485 0.67144 0.660451 0.609864 0.770015 0.71085 0.587604 0.5768 0.568723 0.567275 0.563118 0.561836 0.560847 0.569695 0.558804 0.553081 0.552342 0.549018 0.533374 0.496991 0.485136 0.520576 0.484249
threshold=-0.80224061012268055 -1.0000000180025095e-35 46.932068990400005 34.272799352000007 45.430125655200008 10.147255976000002 1.0000000180025095e-35 1.0000000180025095e-35 50.341992831000006 63.091979151500006 2.3619245056000007 9.7225463544000004 11.862730651200001 1.5000000000000002 37.57432484080001 5.5000000000000009 0.95741699680000003 51.153730628000012 1.0000000180025095e-35 10.440699966400002 17.432134579200003 5.5000000000000009 52.830281816000003 51.7214940255 7.029698412000001 2.9697065904000004 53.51932033500001 48.933587443 6.2573218224000007 -0.25348418205976481 1.6246338152000004 3.5000000000000004 29.362126543200006 1.5000000000000002 13.175401087200003 1.5251528336000002 56.286496656000011 52.706084769000007 51.115582667500014 49.92550115800001 52.904873853000005 1.8360267816000002 16.654133812800001 10.842046608800002 3.9132575856000007 16.444086392800006 1.9639158352000001 3.5000000000000004 2.7802425464000007 51.54919170050001 1.5000000000000002 11.458972571200002 59.315856164500012 12.483532239200002 4.5000000000000009 53.171232341500009 58.942140224500008 0.95741699680000003 40.713677620000006 51.065182642500012 62.551750755000008 64.292262372000025
decision_type=2 2 2 2 2 2 2 2 2 2 2 2 2 2 2 2 2 2 2 2 2 2 2 2 2 2 2 2 2 2 2 2 2 2 2 2 2 2 2 2 2 2 2 2 2 2 2 2 2 2 2 2 2 2 2 2 2 2 2 2 2 2
left_child=17 2 3 4 5 11 8 9 -6 37 -11 12 -2 26 33 42 -7 51 19 30 -21 28 46 24 41 -26 -14 40 -20 59 57 55 -33 53 -16 -25 -37 38 -5 -35 50 -13 43 47 -44 -28 -19 -3 -32 -46 54 52 -1 -4 -24 -30 -10 -18 61 -17 -61 -23
right_child=1 15 14 7 6 16 -8 -9 56 10 -12 23 13 -15 34 29 18 22 21 20 -22 58 27 35 25 -27 45 -29 31 -31 48 32 -34 39 -36 36 -38 -39 -40 -41 -42 -43 44 -45 49 -47 -48 -49 -50 -51 -52 -53 -54 -55 -56 -57 -58 -59 -60 60 -62 -63
leaf_value=-0.0016123603462150225 -0.0015945140158840296 -0.0013008012484789829 0.012166711426606136 0.0029283894589059944 0.002044755722851154 -0.0010862258544874635 0.0034257069540793786 0.0034623896406669077 0.01151950888801366 0.022437286230602437 0.0068495300225913519 0.0054532128871821774 -0.00035983077522560767 -0.00078790563611047613 0.0017524567919529298 0.00049662885767203283 0.00036315405308709459 -0.0026877253237115738 -0.0013440183656398561 0.015083257699385287 0.0045382257077124042 0.0062174069566558639 0.0046625646962459794 -0.0013531970300606755 0.013693841832985238 0.00015856597329611365 0.0082314080698867743 -0.0025060493904625236 0.0031985629724454534 -0.00032620259904646661 0.0060245007476104166 -0.0018725082935211628 0.0076550209273894623 0.00563952339226879 0.010052358250742636 -0.00074300906002406015 0.0026738403868747079 -8.159839237729709e-05 0.017081356476992368 -0.0013818101290698078 -0.0040656218893774269 -0.00059661020919143622 0.0087147608272061926 -0.00027356414963776042 0.00063861825029608657 0.0020705692184668396 -0.00049179190089759719 -0.0035418508479956585 -0.0033452666457742457 -0.0016178761199399255 -0.001094106928093777 0.00072157951185163396 0.0012696865641344665 0.0027812272342371529 -0.0014151990629249702 -0.00078940852975938481 0.022538465691300538 0.0078229216016445537 0.00041317921763254427 0.0044489097990429941 -0.0012482274878532328 -0.0012477891844658493
leaf_weight=790 1462 2068 35 21 22 222 284 677 20 28 20 76 77 350 33 205 37 351 232 50 114 229 122 355 41 23 103 2219 659 555 21 185 24 56 156 254 409 30 20 88 90 111 24 1972 1037 62 2020 328 70 377 196 917 219 29 54 100 26 68 59 273 47 24
leaf_count=790 1462 2068 35 21 22 222 284 677 20 28 20 76 77 350 33 205 37 351 232 50 114 229 122 355 41 23 103 2219 659 555 21 185 24 56 156 254 409 30 20 88 90 111 24 1972 1037 62 2020 328 70 377 196 917 219 29 54 100 26 68 59 273 47 24
internal_value=-0.000216048 0.000630986 0.00169363 0.00144163 0.00103213 0.000760588 0.00521101 0.00440948 0.0126673 0.00979756 0.0159424 -9.64901e-05 -0.000807421 0.00113638 0.00586071 -0.000443383 0.0021207 -0.00113495 0.00250101 0.00474795 0.00775317 0.00196602 -0.00150152 0.00105422 0.00363871 0.0088296 0.00391944 -0.002107 0.00129534 0.0009969 0.00223337 0.00192791 -0.000778438 0.00336877 0.00860317 0.000416986 0.00136482 0.00564331 0.00983228 0.00134871 -0.000190344 0.00186214 -0.000711297 -0.00100532 0.000181823 0.00591643 -0.000816875 -0.00160759 -0.00118301 3.69928e-05 0.000747224 -0.000173424 -0.000986822 0.00791391 0.0027978 0.00267314 0.0177476 0.00519424 0.00454557 0.00239561 0.00361214 0.00550925
internal_weight=20826 13848 6962 6565 5769 5417 352 796 68 119 48 3323 2054 592 397 6886 2094 6978 1872 360 164 1512 5052 1269 251 64 242 2681 1200 1080 196 968 209 208 189 1018 663 71 41 144 462 187 5806 4368 1438 165 2371 2396 91 1414 372 1926 1009 64 176 759 46 105 312 525 320 253
internal_count=20826 13848 6962 6565 5769 5417 352 796 68 119 48 3323 2054 592 397 6886 2094 6978 1872 360 164 1512 5052 1269 251 64 242 2681 1200 1080 196 968 209 208 189 1018 663 71 41 144 462 187 5806 4368 1438 165 2371 2396 91 1414 372 1926 1009 64 176 759 46 105 312 525 320 253
is_linear=0
shrinkage=0.05


Tree=11
num_leaves=63
num_cat=0
split_feature=4 19 18 19 18 3 4 4 4 3 3 20 3 4 4 3 3 4 7 16 0 7 3 4 4 3 14 6 4 16 4 13 3 0 4 10 10 15 3 13 17 4 15 14 16 16 3 3 12 13 13 14 0 6 15 12 3 13 4 20 3 9
split_gain=55.4785 5.04342 8.41449 5.09348 4.07118 1.94678 2.21624 1.29537 4.86902 3.30279 1.1989 1.16899 1.07836 1.00261 4.17164 2.26043 0.744891 1.31924 0.701452 0.697307 0.592262 1.12111 0.576027 2.08042 1.68814 0.612609 1.05458 0.545405 0.537639 0.601253 0.543442 0.635492 0.53275 0.65199 0.532515 0.532514 0.6039 0.88258 0.526224 0.510887 0.509551 0.500863 0.57286 0.747644 0.494569 0.488318 0.484285 0.552295 0.654881 0.478786 0.476835 1.09402 0.524659 0.536797 0.817921 0.467169 0.464388 0.813777 0.92752 0.887284 0.463014 0.460177
threshold=4.5000000000000009 0.42897074669599539 -0.11776248365640639 0.84229862689971935 -0.86584007740020741 4.5000000000000009 3.5000000000000004 5.5000000000000009 6.5000000000000009 1.0000000180025095e-35 5.5000000000000009 1.0000000180025095e-35 3.5000000000000004 5.5000000000000009 6.5000000000000009 1.0000000180025095e-35 2.5000000000000004 2.5000000000000004 43.74152801040001 62.858903328000004 8.2336036904000025 7.0083175008000014 1.0000000180025095e-35 6.5000000000000009 5.5000000000000009 5.5000000000000009 47.101550951000014 1.9910075504000002 5.5000000000000009 61.943003843500009 6.5000000000000009 44.677326434000001 5.5000000000000009 20.826554557600002 1.5000000000000002 0.97145342800000012 43.581050180800013 45.524871314000002 1.5000000000000002 46.283113435000011 -1.0000000180025095e-35 2.5000000000000004 50.653037051500007 51.503598081000007 46.940083404500008 49.627751355000008 5.5000000000000009 3.5000000000000004 63.450457304000004 70.15786439350002 52.957932761500004 52.882121701500004 42.234803230400011 2.2641045064000003 53.394708113500009 62.425433668000004 3.5000000000000004 50.818490469500013 2.5000000000000004 -1.0000000180025095e-35 1.0000000180025095e-35 13.019495667200003
decision_type=2 2 2 2 2 2 2 2 2 2 2 2 2 2 2 2 2 2 2 2 2 2 2 2 2 2 2 2 2 2 2 2 2 2 2 2 2 2 2 2 2 2 2 2 2 2 2 2 2 2 2 2 2 2 2 2 2 2 2 2 2 2
left_child=4 2 11 7 10 16 49 12 9 -9 -1 22 20 19 15 -15 17 34 35 -4 21 -3 23 24 61 26 -24 -25 29 -5 60 -32 33 -11 -6 -10 37 -37 -20 -28 -8 42 -12 -44 -39 -35 47 48 -17 55 -19 52 53 54 -52 -7 -18 58 59 -58 -30 -2
right_child=1 3 13 28 5 6 40 8 18 32 41 -13 -14 14 -16 46 56 50 38 -21 -22 -23 25 27 -26 -27 39 -29 30 -31 31 -33 -34 45 -36 36 -38 44 -40 -41 -42 -43 43 -45 -46 -47 -48 -49 -50 -51 51 -53 -54 -55 -56 -57 57 -59 -60 -61 -62 -63
leaf_value=-0.00098650487692232948 -0.00055521399257346411 -0.002985271328038329 0.0033822164057419092 0.0012656090606768162 -0.003223904971271225 -0.0030476850457489494 0.003307782258929276 0.022559350526939005 -0.00080682303394294462 0.0067595401031696062 -0.0049565463041124705 0.0017564063816552277 -0.0006488708413054801 0.018828020721185404 0.0037302659680389059 0.0095173050296711685 -0.0047017792615907383 -0.0013254670185366309 0.0032924864746244815 -0.0022209077317697497 0.0073223227128820043 0.0057012850125202864 0.0018529820932635004 0.0048641241366370915 0.0093015654612395721 0.0013498105403093787 0.00095308116092730473 -0.0015201208550939312 0.0083234184700995677 -0.0043637751687869977 0.0091866808234287115 0.0018003709948956283 0.014651292285253838 0.0077729221623898913 -0.0048658431665590633 0.010671944449003445 0.0011375633999705316 0.0096865132158161435 0.011319327311239382 -0.0012849909656394392 -0.0017004828434437514 0.0053100882349787536 0.0093658103362721356 -0.00033576188106385486 0.0043878627169157153 0.015818984882736749 0.012825901330785551 0.001161253359168768 0.0018053079217982789 0.002111879136975644 0.0042551130887996235 -0.0038757013440059531 0.0058474740684032441 -0.0021961108674810707 -0.0052950638316331374 0.0012120723724365235 -0.0011500071161068403 -0.0039356436284337104 -0.0029665239718417794 0.011791081422577716 0.0034675552937443611 0.0046448140508598751
leaf_weight=1401 104 54 381 390 952 958 246 59 45 158 33 1783 117 61 1047 166 1607 787 29 65 145 119 407 37 118 579 301 349 60 54 30 993 43 33 1026 68 102 47 69 1668 64 111 29 63 699 44 47 32 33 53 81 990 25 533 31 69 26 727 86 27 270 72
leaf_count=1401 104 54 381 390 952 958 246 59 45 158 33 1783 117 61 1047 166 1607 787 29 65 145 119 407 37 118 579 301 349 60 54 30 993 43 33 1026 68 102 47 69 1668 64 111 29 63 699 44 47 32 33 53 81 990 25 533 31 69 26 727 86 27 270 72
internal_value=-0.000213232 0.00245985 0.00169826 0.00398178 -0.00270973 -0.00315978 -0.00145269 0.00583776 0.00658014 0.0118147 -0.000431145 0.000707754 0.00345533 0.00462761 0.00529114 0.0101119 -0.00350378 -0.00311535 0.00491437 0.00256562 0.00496536 0.00298987 0.00019338 0.00150547 0.00467438 -0.000108556 -0.000463941 -0.00090816 0.00209068 0.000580954 0.00258612 0.00201698 0.00953437 0.00859808 -0.00407559 0.00450343 0.00476431 0.00521876 0.00894404 -0.000942858 0.00227382 0.00286572 0.000695116 0.00272234 0.00472169 0.0123707 0.00819937 0.00725804 0.00823843 -0.00252233 -0.00233915 -0.00281974 -0.00125944 -0.0015349 0.00161176 -0.00276149 -0.0041988 -0.00326544 0.000239841 0.00544262 0.00435044 0.00157207
internal_weight=20803 10878 7250 3628 9925 8288 1390 1831 1396 337 1637 5418 435 1832 1386 339 6898 4425 1059 446 318 173 3635 680 294 2955 2376 386 1797 444 1353 1023 278 235 1978 961 916 814 98 1969 310 236 125 92 746 77 278 231 199 1080 2447 1660 670 645 112 1027 2473 866 139 53 330 176
internal_count=20803 10878 7250 3628 9925 8288 1390 1831 1396 337 1637 5418 435 1832 1386 339 6898 4425 1059 446 318 173 3635 680 294 2955 2376 386 1797 444 1353 1023 278 235 1978 961 916 814 98 1969 310 236 125 92 746 77 278 231 199 1080 2447 1660 670 645 112 1027 2473 866 139 53 330 176
is_linear=0
shrinkage=0.05


end of trees

feature_importances:
month=128
dayofweek=104
O3_cmaq_lag71=49
O3_cmaq_lag24=44
O3_cmaq_lag12=37
NO2_cmaq=35
NO2_cmaq_lag12=35
O3_cmaq_lag48=35
NO2_cmaq_lag6=34
NO2_cmaq_lag71=34
station_emb_2=34
NO2_cmaq_lag48=29
NO2_cmaq_lag24=23
NO2_cmaq_lag3=22
O3_cmaq=21
O3_cmaq_lag6=19
station_emb_3=19
O3_cmaq_lag3=17
station_emb_1=12
station_emb_0=11
hour=2

parameters:
[boosting: gbdt]
[objective: regression]
[metric: rmse]
[tree_learner: serial]
[device_type: cuda]
[data_sample_strategy: bagging]
[data: ]
[valid: ]
[num_iterations: 2000]
[learning_rate: 0.05]
[num_leaves: 63]
[num_threads: 0]
[seed: 42]
[deterministic: 0]
[force_col_wise: 0]
[force_row_wise: 1]
[histogram_pool_size: -1]
[max_depth: -1]
[min_data_in_leaf: 20]
[min_sum_hessian_in_leaf: 0.001]
[bagging_fraction: 0.8]
[pos_bagging_fraction: 1]
[neg_bagging_fraction: 1]
[bagging_freq: 1]
[bagging_seed: 400]
[bagging_by_query: 0]
[feature_fraction: 0.9]
[feature_fraction_bynode: 1]
[feature_fraction_seed: 30056]
[extra_trees: 0]
[extra_seed: 12879]
[early_stopping_round: 0]
[early_stopping_min_delta: 0]
[first_metric_only: 0]
[max_delta_step: 0]
[lambda_l1: 0]
[lambda_l2: 0]
[linear_lambda: 0]
[min_gain_to_split: 0]
[drop_rate: 0.1]
[max_drop: 50]
[skip_drop: 0.5]
[xgboost_dart_mode: 0]
[uniform_drop: 0]
[drop_seed: 17869]
[top_rate: 0.2]
[other_rate: 0.1]
[min_data_per_group: 100]
[max_cat_threshold: 32]
[cat_l2: 10]
[cat_smooth: 10]
[max_cat_to_onehot: 4]
[top_k: 20]
[monotone_constraints: ]
[monotone_constraints_method: basic]
[monotone_penalty: 0]
[feature_contri: ]
[forcedsplits_filename: ]
[refit_decay_rate: 0.9]
[cegb_tradeoff: 1]
[cegb_penalty_split: 0]
[cegb_penalty_feature_lazy: ]
[cegb_penalty_feature_coupled: ]
[path_smooth: 0]
[interaction_constraints: ]
[verbosity: -1]
[saved_feature_importance_type: 0]
[use_quantized_grad: 0]
[num_grad_quant_bins: 4]
[quant_train_renew_leaf: 0]
[stochastic_rounding: 1]
[linear_tree: 0]
[max_bin: 255]
[max_bin_by_feature: ]
[min_data_in_bin: 3]
[bin_construct_sample_cnt: 200000]
[data_random_seed: 175]
[is_enable_sparse: 1]
[enable_bundle: 1]
[use_missing: 1]
[zero_as_missing: 0]
[feature_pre_filter: 1]
[pre_partition: 0]
[two_round: 0]
[header: 0]
[label_column: ]
[weight_column: ]
[group_column: ]
[ignore_column: ]
[categorical_feature: ]
[forcedbins_filename: ]
[precise_float_parser: 0]
[parser_config_file: ]
[objective_seed: 16083]
[num_class: 1]
[is_unbalance: 0]
[scale_pos_weight: 1]
[sigmoid: 1]
[boost_from_average: 1]
[reg_sqrt: 0]
[alpha: 0.9]
[fair_c: 1]
[poisson_max_delta_step: 0.7]
[tweedie_variance_power: 1.5]
[lambdarank_truncation_level: 30]
[lambdarank_norm: 1]
[label_gain: ]
[lambdarank_position_bias_regularization: 0]
[eval_at: ]
[multi_error_top_k: 1]
[auc_mu_weights: ]
[num_machines: 1]
[local_listen_port: 12400]
[time_out: 120]
[machine_list_filename: ]
[machines: ]
[gpu_platform_id: -1]
[gpu_device_id: -1]
[gpu_use_dp: 0]
[num_gpu: 1]

end of parameters

pandas_categorical:[]
