tree
version=v4
num_class=1
num_tree_per_iteration=1
label_index=0
max_feature_idx=38
objective=regression
feature_names=NO2_cmaq O3_cmaq hour dayofweek month NO2_cmaq_lag3 NO2_cmaq_lag6 NO2_cmaq_lag12 NO2_cmaq_lag24 NO2_cmaq_lag48 NO2_cmaq_lag72 NO_cmaq_lag3 NO_cmaq_lag6 NO_cmaq_lag12 NO_cmaq_lag24 NO_cmaq_lag48 NO_cmaq_lag72 O3_cmaq_lag3 O3_cmaq_lag6 O3_cmaq_lag12 O3_cmaq_lag24 O3_cmaq_lag48 O3_cmaq_lag72 NO_cmaq_roll3_mean NO_cmaq_roll3_std NO_cmaq_roll6_mean NO_cmaq_roll6_std NO_cmaq_roll12_mean NO_cmaq_roll12_std NO_cmaq_roll24_mean NO_cmaq_roll24_std NO_cmaq_roll48_mean NO_cmaq_roll48_std NO_cmaq_roll72_mean NO_cmaq_roll72_std station_emb_0 station_emb_1 station_emb_2 station_emb_3
feature_infos=[0.155364:79.970357297599989] [29.334975813:212.36742982000001] [0:23] [0:6] [1:9] [0.155364:79.970357297599989] [0.155364:79.970357297599989] [0.155364:79.970357297599989] [0.155364:79.970357297599989] [0.155364:79.970357297599989] [0.155364:79.970357297599989] [0.0030060466260201139:1.0746009049855836] [0.0030060466260201139:1.0746009049855836] [0.0030060466260201139:1.0746009049855836] [0.0030060466260201139:1.0746009049855836] [0.0030060466260201139:1.0746009049855836] [0.0030060466260201139:1.0746009049855836] [29.334975813:212.36742982000001] [29.334975813:212.36742982000001] [29.334975813:212.36742982000001] [29.334975813:212.36742982000001] [29.334975813:212.36742982000001] [30.011780915999999:212.36742982000001] [0.0030060466260201139:1.0746009049855836] [0:0.50505582399904114] [0.0030060466260201139:1.0746009049855836] [0:0.47913802481103018] [0.0031014631968616807:1.0746009049855836] [0:0.45684018174234414] [0.0031491714822824909:1.0746009049855836] [0:0.41010758195688651] [0.01088291252853167:0.90375926498969672] [2.8199173786061973e-05:0.38123002746480505] [0.018320203921455586:0.76676787507295474] [0.00075668645943267041:0.35285362142624205] [-0.72265535593032837:1.9865289926528931] [-1.4085162878036499:1.2916492223739624] [-2.038433313369751:1.0195598602294922] [-1.9552310705184937:0.22807519137859344]
tree_sizes=5453 5744 5731 5724 5727 5761

Tree=0
num_leaves=63
num_cat=0
split_feature=4 31 11 16 3 36 4 11 15 16 37 38 11 25 30 1 16 36 4 11 33 25 15 14 4 31 15 16 11 16 14 36 3 36 3 4 25 25 11 38 11 34 16 11 16 38 25 38 34 4 12 15 12 11 36 16 34 12 29 16 12 3
split_gain=141.573 32.0196 12.9729 11.8766 12.014 9.82244 5.80028 4.66376 4.71015 4.14928 3.62925 3.99508 4.5814 3.43949 4.23015 3.56872 3.31864 2.88035 2.85933 2.69598 2.60358 2.57351 4.02831 6.35206 2.41024 4.74288 3.66268 3.43947 3.18819 2.53179 2.49016 2.42576 2.37363 2.3428 2.34074 5.07564 3.37608 2.01931 1.99823 2.1917 1.9883 1.9132 1.88773 1.87628 1.86615 3.34869 1.84156 2.75562 1.82662 1.73254 1.79135 1.72751 1.72215 1.67815 1.655 1.6659 2.67567 1.96493 1.65435 1.63398 1.62405 1.61903
threshold=4.5000000000000009 0.44928404822387907 0.20101006695444881 0.59862822403330695 1.5000000000000002 -0.86584007740020741 5.5000000000000009 0.59862822403330695 0.20411998576234022 0.47885117019647921 0.42897074669599539 0.16104960814118388 0.10404755421994627 0.59771640890474298 0.14937275471686212 49.309507832000008 0.45756539813286384 -0.86584007740020741 6.5000000000000009 0.11147423627816043 0.18409159705122888 0.026135862723314768 0.48256701367980909 0.14566829048213084 6.5000000000000009 0.37480585815380046 0.27451479670771822 0.49359785330933165 0.22722307636760702 0.38161635357667284 0.39003234279466126 -0.25348418205976481 1.0000000180025095e-35 -0.25348418205976481 1.0000000180025095e-35 3.5000000000000004 0.22375899296753157 0.084105682732724382 0.11790878066507034 -0.8462354689836501 0.12705369167160183 0.039240181341546922 0.57719791151878452 0.58810826462300447 0.32132842087588248 0.16104960814118388 0.27058441997113208 -1.0000000180025095e-35 0.24432999611247869 5.5000000000000009 0.59862822403330695 0.049607181799185648 0.12705369167160183 0.10631926204390675 -0.16530410945415494 0.24402737869083305 0.0969449171717644 0.45317094764360022 0.58220550665694337 0.20823952959713743 0.045054731017472559 5.5000000000000009
decision_type=2 2 2 2 2 2 2 2 2 2 2 2 2 2 2 2 2 2 2 2 2 2 2 2 2 2 2 2 2 2 2 2 2 2 2 2 2 2 2 2 2 2 2 2 2 2 2 2 2 2 2 2 2 2 2 2 2 2 2 2 2 2
left_child=5 2 6 9 32 51 37 17 -9 13 11 18 -13 49 15 -15 38 -4 19 -8 52 -7 34 -24 25 26 29 61 30 33 -26 43 -5 -19 35 36 -23 -2 39 -12 -40 -42 -11 -30 45 59 47 -35 -6 -3 -51 -1 -14 -41 -33 56 57 -56 -17 -39 -20 -27
right_child=1 3 7 4 48 21 10 8 -10 42 16 12 20 14 -16 58 -18 24 60 -21 -22 22 23 -25 28 27 -28 -29 31 -31 -32 54 -34 46 -36 -37 -38 44 40 53 41 -43 -44 -45 -46 -47 -48 -49 -50 50 -52 -53 -54 -55 55 -57 -58 -59 -60 -61 -62 -63
leaf_value=0.21128824931993473 0.19566473940136561 0.20147291245087701 0.20066182051247219 0.22231683774540012 0.2033361585190476 0.19192341616657252 0.21677736659072275 0.22150414635466903 0.20395502725252132 0.2007383721288441 0.1991270069439873 0.21888608966166759 0.20205099709131635 0.20963309719014314 0.20250338077247723 0.210712384941142 0.19844311718347898 0.21541313531031978 0.21159905446841562 0.20245193313958973 0.19947074138650331 0.19391029305478225 0.19200459046880561 0.22092476187916729 0.20536493131603548 0.20948602719353426 0.20108933309567786 0.220939483832367 0.20841524864101293 0.19834944344609332 0.21608808334841442 0.19804929804501234 0.23398611531002403 0.20013068605345297 0.19409594002926303 0.20250102827834826 0.20421895262881598 0.19853208841792472 0.21508308687854324 0.21768470336718265 0.21711346826152125 0.20460188442384997 0.20953438838004984 0.19491260246041861 0.19431432359890666 0.21630771776646557 0.2090409569496372 0.20931275854693451 0.21480020314777304 0.20947920388668981 0.19760369921328078 0.19829912285009424 0.21640569519275671 0.20241195211930557 0.20669958767405511 0.20076448510633899 0.2018801411719118 0.22006269988007093 0.22656375545464127 0.20533165525089564 0.19876170644830254 0.19747212320647217
leaf_weight=26 679 99 674 106 89 996 38 75 78 247 142 55 37 74 56 20 167 79 25 242 173 912 39 37 228 294 563 65 228 89 71 265 74 207 5946 273 87 507 94 35 36 202 81 29 148 32 318 135 57 481 34 1654 48 37 196 765 432 32 93 107 1697 31
leaf_count=26 679 99 674 106 89 996 38 75 78 247 142 55 37 74 56 20 167 79 25 242 173 912 39 37 228 294 563 65 228 89 71 265 74 207 5946 273 87 507 94 35 36 202 81 29 148 32 318 135 57 481 34 1654 48 37 196 765 432 32 93 107 1697 31
internal_value=0.199042 0.203265 0.202174 0.210018 0.21847 0.195014 0.20024 0.203967 0.212558 0.207693 0.201492 0.200531 0.205784 0.209523 0.214558 0.218169 0.204611 0.203687 0.19971 0.204396 0.202991 0.194307 0.194633 0.206084 0.204193 0.205567 0.204201 0.21044 0.203104 0.206316 0.207911 0.202366 0.227114 0.207276 0.194512 0.196459 0.194808 0.197667 0.206498 0.20273 0.208926 0.206494 0.202911 0.206892 0.199379 0.200539 0.206302 0.203755 0.207812 0.207531 0.208695 0.1985 0.210157 0.209836 0.201678 0.202352 0.204193 0.208575 0.223758 0.199717 0.198948 0.20834
internal_weight=20836 10866 9355 1511 326 9970 4501 4854 153 1185 3028 2315 313 857 243 187 713 4701 2002 280 258 8290 7294 76 4027 1781 1391 390 2246 828 299 1947 180 739 7218 1272 999 1473 546 214 332 238 328 257 794 646 660 342 146 614 515 1680 85 72 1690 1425 660 228 113 614 1722 325
internal_count=20836 10866 9355 1511 326 9970 4501 4854 153 1185 3028 2315 313 857 243 187 713 4701 2002 280 258 8290 7294 76 4027 1781 1391 390 2246 828 299 1947 180 739 7218 1272 999 1473 546 214 332 238 328 257 794 646 660 342 146 614 515 1680 85 72 1690 1425 660 228 113 614 1722 325
is_linear=0
shrinkage=1


Tree=1
num_leaves=63
num_cat=0
split_feature=4 31 16 23 3 31 23 16 14 3 4 38 37 15 4 16 16 16 15 11 15 3 37 4 31 38 33 14 16 16 23 14 11 31 31 30 38 14 23 11 16 4 3 3 15 11 32 23 15 3 16 12 25 33 32 14 16 16 30 32 4 11
split_gain=129.786 28.795 11.31 10.9409 10.5282 4.79363 4.22488 4.11776 4.68391 4.5063 5.41759 3.70462 4.39069 4.16179 7.71832 4.32852 3.5108 3.18721 2.92465 2.88023 2.80314 2.70479 2.65426 2.63436 2.42293 2.39356 3.44278 2.30457 2.28326 3.76318 2.23385 2.18389 2.53608 2.00692 3.42521 2.00112 4.00942 2.59734 2.77088 2.30679 2.13605 2.01231 2.04504 1.99346 2.16006 1.98755 1.92723 1.92249 1.81684 1.75316 1.67501 1.60494 1.86333 1.8185 1.49919 1.45622 1.40816 4.00935 2.05962 1.59287 1.39978 2.75954
threshold=4.5000000000000009 0.42934542342013188 0.59862822403330695 0.20095292351766478 1.5000000000000002 0.12793907406327637 0.5991635702832655 0.040104292420381549 0.15300435821421682 1.5000000000000002 2.5000000000000004 -0.8462354689836501 -0.80224061012268055 0.54145360458525316 6.5000000000000009 0.31713466558349984 0.041844074195796381 0.11075252632927519 0.20411998576234022 0.045054731017472559 0.48256701367980909 1.0000000180025095e-35 0.42897074669599539 3.5000000000000004 0.070989565515901923 0.16104960814118388 0.18222933050755172 0.11714030762911938 0.26043530095098483 0.52199122419156663 0.35846881707186656 0.21773352075866123 0.12705369167160183 0.12878730305391686 0.12670611920806016 0.031401572771288917 0.16104960814118388 0.14566829048213084 0.20932929099660999 0.22489665616561524 0.58810826462300447 6.5000000000000009 5.5000000000000009 2.5000000000000004 0.32132842087588248 0.021887255086255098 0.051172270217131825 0.14060082351814923 0.039149534310845342 2.5000000000000004 0.73893086780224626 0.52537892354484195 0.27583305594045632 0.40994430578237362 0.081976376031416359 0.029003908694983108 0.25705409767583481 0.20823952959713743 0.010143518920971178 0.046066969218214321 6.5000000000000009 0.30956560662630983
decision_type=2 2 2 2 2 2 2 2 2 2 2 2 2 2 2 2 2 2 2 2 2 2 2 2 2 2 2 2 2 2 2 2 2 2 2 2 2 2 2 2 2 2 2 2 2 2 2 2 2 2 2 2 2 2 2 2 2 2 2 2 2 2
left_child=7 3 11 5 30 48 35 -1 21 10 -10 -3 -13 14 28 43 -7 -15 -8 -18 -12 23 25 24 -9 -21 -27 -24 -14 54 -4 32 -29 34 -11 -5 37 40 -39 -38 -37 42 51 44 -16 -25 -26 -28 -2 -33 -6 52 -40 -54 -30 -23 57 58 59 -50 61 -41
right_child=1 2 4 6 50 16 18 8 9 33 20 12 13 17 15 -17 19 -19 -20 22 -22 55 27 45 46 26 47 31 29 -31 -32 49 -34 -35 -36 36 39 38 41 60 -42 -43 -44 -45 -46 -47 -48 -49 56 -51 -52 -53 53 -55 -56 -57 -58 -59 -60 -61 -62 -63
leaf_value=-0.0057615642020047188 -0.0057049767520651927 0.0010464898134140593 0.033172096016864154 0.0024092809841208774 0.002523277173391902 0.017041233014494468 0.020893122855704861 -0.0066196028145186258 -0.0041476275517060516 -0.00082813574821312928 0.0054877618985141033 -0.00081202620722092042 0.011217123462120072 0.021299581433976852 0.0034597933888853936 0.00063904428923804624 -0.0062275753633002752 0.0046981896443123172 0.0047538370378315455 0.00063713744293355905 0.020457963107360734 -0.0067202946275381082 -0.0034471417551061936 -0.0073377339514471328 0.0030953643604843591 0.014455153011050832 0.0080631665230783463 0.012965953337826901 0.015727933192694631 0.012178913709756576 0.021620610097630156 0.0064775738632306462 0.0034325055737883369 -0.0032831142967080593 0.022750629000365737 0.0012574726788265181 0.018646321225345933 0.013411567415274245 0.0028187925513272851 0.027617578761166207 0.015551770174944843 0.0031468825228692082 -5.7124483033216429e-05 0.019882721666415984 0.014385582311281368 0.0028498650581406603 -0.0065417980170482176 -0.0016369504714930372 0.0029543244306765061 -0.0017520351675541506 0.012885339629764743 -0.00041364075305561228 0.0088489113578172022 0.023535170042040674 0.02897777985416207 -0.0043316360467486846 -0.0041038219395036603 0.01094488904257364 -0.0023864744417692743 -0.0051855692819559153 0.005519093756329238 0.0086591190433707738
leaf_weight=2844 199 190 59 1297 78 39 64 346 159 67 238 114 84 31 89 148 104 429 50 1686 36 773 70 56 159 79 85 175 27 76 144 148 116 1153 20 816 56 94 132 23 27 1036 105 55 92 330 77 128 425 115 78 60 503 22 102 3655 245 79 720 70 246 116
leaf_count=2844 199 190 59 1297 78 39 64 346 159 67 238 114 84 31 89 148 104 429 50 1686 36 773 70 56 159 79 85 175 27 76 144 148 116 1153 20 816 56 94 132 23 27 1036 105 55 92 330 77 128 425 115 78 60 503 22 102 3655 245 79 720 70 246 116
internal_value=-0.000301198 0.00374617 0.00953353 0.00260772 0.0174718 0.000845486 0.00430775 -0.00415495 -0.00350857 -0.00119713 0.00319423 0.00755033 0.00854129 0.0094824 0.0119877 0.00734251 0.00214647 0.00581698 0.0138145 0.0019318 0.00745465 -0.00422522 0.00225792 -0.00183099 -0.00395522 0.00136098 0.0055404 0.00510114 0.0181599 0.0210048 0.0249779 0.00618124 0.00916568 -0.00273057 0.00459227 0.00406867 0.00473376 0.00403467 0.00503632 0.00916452 0.0017153 0.0046126 0.0064599 0.0115464 0.00901323 0.00137187 -4.8964e-05 0.00223399 -0.00120929 0.00287908 0.00770431 0.00741428 0.00812916 0.00946434 0.0262046 -0.00474863 -0.000627975 3.01257e-05 -0.000679558 0.00180323 0.00778535 0.0117961
internal_weight=20839 10926 1796 9130 359 4483 4647 9913 7069 1673 433 1437 1247 1133 673 384 2745 460 114 2706 274 5396 2602 968 582 1978 292 624 289 205 203 554 291 1240 87 4533 3236 2795 1952 441 843 1858 822 236 181 386 236 213 1738 263 156 717 657 525 129 4428 1539 1294 1215 495 385 139
internal_count=20839 10926 1796 9130 359 4483 4647 9913 7069 1673 433 1437 1247 1133 673 384 2745 460 114 2706 274 5396 2602 968 582 1978 292 624 289 205 203 554 291 1240 87 4533 3236 2795 1952 441 843 1858 822 236 181 386 236 213 1738 263 156 717 657 525 129 4428 1539 1294 1215 495 385 139
is_linear=0
shrinkage=0.05


Tree=2
num_leaves=63
num_cat=0
split_feature=4 31 16 3 29 36 23 35 37 4 15 16 36 37 15 12 4 37 23 16 16 23 15 14 4 38 3 16 3 23 14 16 4 4 38 3 38 14 30 4 16 37 30 32 4 3 14 14 23 4 12 16 3 12 11 14 14 15 34 14 16 7
split_gain=115.239 28.1423 11.3523 10.4523 10.3923 8.18348 4.33325 3.8973 4.32133 3.63867 7.11565 5.47957 2.87572 3.28172 3.77122 3.49378 2.76455 2.46454 2.59985 2.41917 2.7261 2.36392 3.31403 5.31604 2.35998 2.58891 2.3593 2.25966 1.98617 2.29477 2.03831 1.94111 2.97065 4.00315 3.15939 1.94234 2.71825 1.94116 1.91746 1.95416 1.85113 2.23847 1.9021 1.76974 1.72403 4.50929 1.71763 2.01621 1.71175 1.9593 2.42625 2.25774 1.8562 1.67042 1.65376 1.602 1.48532 3.70104 1.73981 1.5056 1.4879 1.47182
threshold=4.5000000000000009 0.42934542342013188 0.59862822403330695 1.5000000000000002 0.12145533490923251 -0.86584007740020741 0.38756613219551705 -1.0000000180025095e-35 -0.80224061012268055 6.5000000000000009 0.54145360458525316 0.28551752642968325 -0.16530410945415494 0.42897074669599539 0.13574582928187681 0.12705369167160183 6.5000000000000009 -0.80224061012268055 0.5991635702832655 0.20823952959713743 0.49359785330933165 0.025853917182240675 0.48256701367980909 0.14566829048213084 5.5000000000000009 0.16104960814118388 1.0000000180025095e-35 0.4718154078084757 1.5000000000000002 0.32919438711740512 0.32631481700090609 0.25835893095725987 5.5000000000000009 6.5000000000000009 0.16104960814118388 2.5000000000000004 0.16104960814118388 0.15527599012410323 0.12242656303486178 5.5000000000000009 0.2496643803630266 0.42897074669599539 0.0014957887836737499 0.081976376031416359 3.5000000000000004 1.0000000180025095e-35 0.56175936896663048 0.58810826462300447 0.10314810405269011 7.5000000000000009 0.21926695309214203 0.41165148621642245 1.5000000000000002 0.11147423627816043 0.3745619163194796 0.47885117019647921 0.10485164181478492 0.072663845508477182 0.063431378146828768 0.049788548723423899 0.064301107322091586 6.7097220168000016
decision_type=2 2 2 2 2 2 2 2 2 2 2 2 2 2 2 2 2 2 2 2 2 2 2 2 2 2 2 2 2 2 2 2 2 2 2 2 2 2 2 2 2 2 2 2 2 2 2 2 2 2 2 2 2 2 2 2 2 2 2 2 2 2
left_child=5 4 7 26 24 56 12 8 -3 10 19 46 13 16 -15 53 28 38 -19 -10 43 -7 44 -24 -2 40 -4 -20 30 -30 -6 35 -33 34 -34 37 -37 -14 39 -8 41 42 -26 -21 55 -46 -11 -48 -35 52 51 -51 -50 -16 -47 -23 59 58 60 -1 -58 -17
right_child=1 2 3 -5 6 21 17 -9 9 11 -12 -13 31 14 15 61 -18 18 27 20 -22 22 23 -25 25 -27 -28 -29 29 -31 -32 32 33 48 -36 36 -38 -39 -40 -41 -42 -43 -44 -45 45 54 47 -49 49 50 -52 -53 -54 -55 -56 -57 57 -59 -60 -61 -62 -63
leaf_value=0.0094968302361667159 -0.002427329758368063 -0.00090028655811630462 0.01987314198059259 0.0072880045642168866 0.0034734517493883949 -0.0068106031739786927 0.01748585828047778 0.00088850216859060784 0.0094720582870234347 0.0072416695258156819 0.0048253480345010757 0.0021837839499208212 0.0087777665001240544 0.01475531996179069 0.002163763427934437 0.0043918944567802451 -0.00075758906654550405 0.0063479449056502565 0.020499799546087161 0.015556127393872224 0.011806007888890914 -0.0048750415209084042 -0.0066810671123676002 0.019433901184483581 0.0081128835651949321 0.011512986976992001 0.030614273860754278 0.0048412823480450447 -0.00042025305802211228 0.0083600989183072339 0.011949236012603108 -0.0028866221855914352 0.0066140925826071771 0.01153715959896312 0.025355160236358643 0.005294079050318235 0.012953267647669867 0.0024276851958180542 -0.0022647240908065841 0.0036453140345955649 -0.002991080325084044 0.0072622986637974445 -0.00073875743556917387 0.027518374315695839 0.0031195013860957949 -0.0043939748088480052 0.021843698949049244 0.010915588832249606 0.0031336272905935492 0.011644697749545416 0.00048380505048429992 0.0017607562551450618 -0.0039310735683490642 0.017304454637425287 0.002860173879258604 0.0025830895984417773 5.1602872554212814e-05 -0.00074206906631588945 0.00095758893804853424 -0.0030108302511507646 0.01549110049840955 -0.0023639180096021546
leaf_weight=25 1007 116 122 156 280 993 28 207 70 154 179 323 146 86 27 155 1303 866 64 44 67 5266 40 38 69 55 88 36 482 88 95 215 357 43 24 450 156 685 134 286 291 146 504 104 259 1471 61 137 147 127 330 106 253 56 83 73 20 875 57 640 71 168
leaf_count=25 1007 116 122 156 280 993 28 207 70 154 179 323 146 86 27 155 1303 866 64 44 67 5266 40 38 69 55 88 36 482 88 95 215 357 43 24 450 156 685 134 286 291 146 504 104 259 1471 61 137 147 127 330 106 253 56 83 73 20 875 57 640 71 168
internal_value=-0.000290846 0.00354674 0.00921643 0.0170916 0.0024281 -0.00387212 0.00332686 0.00724496 0.0082934 0.00922971 0.0126383 0.00688664 0.00271982 0.00154517 0.00524397 0.00322925 0.000735646 0.00580784 0.00722939 0.0175454 0.0201739 -0.00452308 -0.0042089 0.00604161 -0.000691969 0.000948883 0.0243742 0.0148627 0.00279457 0.00093531 0.00562065 0.00377889 0.00258207 0.00342978 0.00779463 0.00511313 0.00726575 0.00354334 0.00274261 0.0048795 0.00037361 0.0017354 0.000327147 0.023962 -0.00432069 -0.00298852 0.011202 0.0142823 0.00177669 0.00134087 0.00324187 0.00714814 -0.0013348 0.0123792 -0.00400653 -0.00477307 -0.00070103 0.000494792 0.00780732 -0.00254062 0.0120978 0.000878035
internal_weight=21004 11093 1828 366 9265 9911 7193 1462 1255 1139 464 675 5779 2740 492 406 2248 1414 966 285 215 8223 7230 78 2072 1065 210 100 945 570 375 3039 1602 1387 381 1437 606 831 448 314 1010 719 573 148 7152 1813 352 198 1006 963 563 233 400 83 1554 5339 1688 1023 148 665 91 323
internal_count=21004 11093 1828 366 9265 9911 7193 1462 1255 1139 464 675 5779 2740 492 406 2248 1414 966 285 215 8223 7230 78 2072 1065 210 100 945 570 375 3039 1602 1387 381 1437 606 831 448 314 1010 719 573 148 7152 1813 352 198 1006 963 563 233 400 83 1554 5339 1688 1023 148 665 91 323
is_linear=0
shrinkage=0.05


Tree=3
num_leaves=63
num_cat=0
split_feature=4 23 31 36 11 14 16 38 23 3 23 15 16 34 38 16 37 4 3 16 3 15 15 3 16 35 23 11 14 16 25 15 14 30 3 4 23 4 3 15 16 32 19 15 20 12 12 3 4 11 3 3 14 16 16 31 14 15 15 3 4 32
split_gain=105.468 24.7413 10.2802 7.26761 6.01091 5.30016 4.49161 4.12178 3.92007 2.96518 2.93792 3.51128 2.89993 3.67807 2.67658 3.31827 2.9382 2.52021 5.00505 2.4407 2.80542 2.31817 3.4834 2.26309 2.59106 2.37531 2.54929 2.95277 2.18559 2.33659 2.13678 2.64922 5.17313 2.12787 2.02516 3.90632 2.85352 1.96445 1.91405 1.83131 1.8189 1.78189 1.72931 1.72823 1.7251 1.66169 1.65877 1.84874 2.81364 1.64713 1.63372 1.59543 1.58689 1.56563 2.0906 1.52646 1.45137 4.38409 3.00901 1.81607 1.32779 1.28859
threshold=4.5000000000000009 0.27113242128273668 0.44928404822387907 -0.86584007740020741 0.28667737462043524 0.35535778485721026 0.69877018204865815 0.16104960814118388 0.085118396288861128 2.5000000000000004 0.5991635702832655 0.20411998576234022 0.20216442764017642 0.16450397895187058 1.0000000180025095e-35 0.36289267162352429 0.42897074669599539 6.5000000000000009 5.5000000000000009 0.58114234320921099 5.5000000000000009 0.26376827708135725 0.085327567656835079 1.0000000180025095e-35 0.4718154078084757 1.0000000180025095e-35 0.55512992054426269 0.79266017993818416 0.14566829048213084 0.49359785330933165 0.026135862723314768 0.48256701367980909 0.14566829048213084 0.0034681833901097181 1.0000000180025095e-35 3.5000000000000004 0.24413780840510077 7.5000000000000009 1.0000000180025095e-35 0.7773779336779697 0.38856065031619763 0.021626216278745395 82.409140749000002 0.34059620089057679 44.258159192000008 0.53643025998202509 0.28100917225217908 1.0000000180025095e-35 8.5000000000000018 0.10404755421994627 1.5000000000000002 1.5000000000000002 0.76803854700838103 0.093954421850270434 0.26713048014112045 0.12670611920806016 0.10485164181478492 0.072663845508477182 0.068265309213729392 1.5000000000000002 6.5000000000000009 0.077440184332648473
decision_type=2 2 2 2 2 2 2 2 2 2 2 2 2 2 2 2 2 2 2 2 2 2 2 2 2 2 2 2 2 2 2 2 2 2 2 2 2 2 2 2 2 2 2 2 2 2 2 2 2 2 2 2 2 2 2 2 2 2 2 2 2 2
left_child=3 5 10 56 39 8 23 9 33 -7 17 60 13 -11 16 49 41 18 28 20 -9 22 -18 43 25 26 -25 40 -3 45 -5 34 -33 38 35 36 -32 -23 -2 -4 52 -10 46 -6 -26 -30 61 48 -48 50 -16 -8 -28 -24 -55 -51 -1 58 59 -58 -12 -19
right_child=1 2 4 30 6 7 51 19 14 12 11 -13 -14 -15 15 -17 21 42 -20 -21 -22 37 53 24 44 -27 27 -29 29 -31 31 32 -34 -35 -36 -37 -38 -39 -40 -41 -42 -43 -44 -45 -46 -47 47 -49 -50 55 -52 -53 -54 54 -56 -57 57 -59 -60 -61 -62 -63
leaf_value=-0.0025252319362201081 0.017333420816485159 0.001502346881030954 0.019056815275689587 -0.0065209412649273359 0.0051058241352438935 0.0071255615989687703 0.021665942120950583 0.0031996922242263008 -0.0035878037756844464 0.014645411663124681 0.029723475475541574 0.0042871011490071267 -0.0017892795127881511 -0.0031637415812559885 0.017013385428267962 -0.0011923368891657202 -0.0035337313894229401 0.0015038809653523625 -0.0020828751885953053 0.026282102561422757 0.0206967417564657 -0.0036131736087656125 0.00067261387914186344 0.0071344225245217486 0.013124245637743849 -0.0013320121663407637 0.0112652780239081 0.0038103874083996441 0.007916973850560366 0.018228107347500092 -0.0046125313461763719 -0.0064884032001313961 0.018441218451449744 -0.0030533309366020307 -0.0045221727034607207 0.0029616601559517052 0.0048675388247631061 0.0039811003926797962 0.0010333288852022498 0.038124301731586457 0.026460496909173861 0.00021014990989269133 0.010830106553347672 0.017351723585992112 0.0021551467115549666 0.0010710511774737008 0.0074291246148384428 0.00094955180599681766 -0.0042228386912029235 -0.0011352298349083868 0.005313323033707483 0.011330969329697616 0.022341502661054786 0.0096122254976649703 0.0029981659775200702 0.004988940414874808 0.01050561804130867 -0.00093549743851955376 0.025783371925354005 -0.001152657010292603 0.014937322085001032 0.0085690866361209563
leaf_weight=659 20 159 34 983 40 323 86 63 380 71 22 81 308 49 52 297 119 98 174 28 36 215 120 375 41 52 122 60 928 51 906 46 38 869 6043 274 87 141 181 20 37 1649 68 103 285 98 272 1052 64 120 70 66 44 306 196 669 77 839 21 59 49 189
leaf_count=659 20 159 34 983 40 323 86 63 380 71 22 81 308 49 52 297 119 98 174 28 36 215 120 375 41 52 122 60 928 51 906 46 38 869 6043 274 87 141 181 20 37 1649 68 103 285 98 272 1052 64 120 70 66 44 306 196 669 77 839 21 59 49 189
internal_value=-0.000278635 0.0033637 0.00611999 -0.00373264 0.00977033 0.00131469 0.00909694 0.00491779 0.000729291 0.003509 0.00461237 0.011402 0.000779679 0.00737334 0.00139842 0.00339725 0.000625994 0.00428505 0.00585674 0.0132485 0.00956226 0.00271074 0.00430389 0.00803707 0.00720818 0.00894376 0.00978129 0.0135553 0.00697445 0.00778231 -0.00433082 -0.00403965 0.00478928 -0.00198098 -0.0041411 -0.00232359 -0.00378195 -0.000605329 0.00265523 0.0261188 0.0164356 -0.000501147 0.00301364 0.0139263 0.0035347 0.00726307 0.00269631 0.00198083 0.0052097 0.00489353 0.0103002 0.0171784 0.0142011 0.00580337 0.00702984 0.00405751 -0.000704915 0.000499492 0.008168 0.00544798 0.0195189 0.00615658
internal_weight=20984 10952 4670 10032 1365 6282 1311 878 5404 751 3305 152 428 120 4334 1208 3126 3153 1410 127 99 1097 741 1159 1016 690 638 263 1236 1077 8377 7394 84 1070 7310 1267 993 356 201 54 203 2029 1743 143 326 1026 1675 1388 336 911 122 152 166 622 502 789 1655 996 157 136 71 287
internal_count=20984 10952 4670 10032 1365 6282 1311 878 5404 751 3305 152 428 120 4334 1208 3126 3153 1410 127 99 1097 741 1159 1016 690 638 263 1236 1077 8377 7394 84 1070 7310 1267 993 356 201 54 203 2029 1743 143 326 1026 1675 1388 336 911 122 152 166 622 502 789 1655 996 157 136 71 287
is_linear=0
shrinkage=0.05


Tree=4
num_leaves=63
num_cat=0
split_feature=4 29 4 3 14 36 23 23 23 4 31 38 37 15 15 3 12 12 19 4 14 14 12 15 14 3 32 37 15 3 34 14 3 15 4 3 38 32 14 3 11 30 30 3 14 14 23 23 15 31 37 4 15 12 3 15 34 15 30 12 14 4
split_gain=94.6544 21.6251 9.1819 12.3779 8.25285 6.90791 4.49065 4.46213 4.28645 3.76124 3.71894 3.13139 3.18371 2.83867 2.68445 3.57822 2.64171 2.54631 2.2402 2.21291 2.07905 2.0494 2.52174 1.94347 6.10174 1.92795 1.82951 1.8171 2.3717 2.02218 3.53713 2.42908 1.9753 2.54304 1.78129 3.16018 1.77014 2.26534 1.67205 1.64598 1.63711 1.59809 1.59307 1.93699 1.58654 1.58219 1.5422 1.53776 1.50346 1.68751 1.92771 1.54847 1.4888 1.44019 1.39111 2.44005 1.36386 1.33752 1.25064 1.40638 1.21035 1.19569
threshold=4.5000000000000009 0.27112644745292891 6.5000000000000009 1.5000000000000002 0.51915730737024068 -0.86584007740020741 0.55512992054426269 0.08615693735898404 0.5991635702832655 5.5000000000000009 0.53490109194255642 0.16104960814118388 0.42897074669599539 0.73893086780224626 0.08124037136325292 5.5000000000000009 0.62014811518869595 0.10404755421994627 53.82357355700001 5.5000000000000009 0.33265382891242762 0.13574582928187681 0.12363915668315982 0.48256701367980909 0.14566829048213084 1.0000000180025095e-35 0.081976376031416359 -0.80224061012268055 0.10651864501137041 5.5000000000000009 0.12955721036253587 0.4718154078084757 1.5000000000000002 0.28271336793651231 3.5000000000000004 1.0000000180025095e-35 1.0000000180025095e-35 0.02943024794384792 0.27451479670771822 1.0000000180025095e-35 0.3745619163194796 0.16607628773563429 0.0034681833901097181 1.0000000180025095e-35 0.45669882780936627 0.29834511187921903 0.021900449906174926 0.20220710221058391 0.24162067390316241 0.080101438354946042 0.84229862689971935 8.5000000000000018 0.10222543140002023 0.35761677164653205 2.5000000000000004 0.32591605106596466 0.034145172906240785 0.049607181799185648 0.0096569344244070085 0.23751195325033606 0.56815994721517293 6.5000000000000009
decision_type=2 2 2 2 2 2 2 2 2 2 2 2 2 2 2 2 2 2 2 2 2 2 2 2 2 2 2 2 2 2 2 2 2 2 2 2 2 2 2 2 2 2 2 2 2 2 2 2 2 2 2 2 2 2 2 2 2 2 2 2 2 2
left_child=5 7 3 4 6 57 25 42 14 -10 27 12 36 -11 -5 19 18 -13 -12 -16 21 22 -19 34 -25 53 -27 -4 52 32 31 -31 33 -30 44 46 37 -9 -21 -6 -37 -34 43 -2 -7 -40 -36 56 49 -14 58 54 -29 -3 55 -50 -38 -1 -51 -60 -18 -44
right_child=1 2 10 8 39 23 -8 11 9 13 16 17 48 -15 15 -17 60 20 -20 38 -22 -23 -24 24 -26 26 -28 28 29 30 -32 -33 41 -35 35 40 47 -39 45 -41 -42 -43 61 -45 -46 -47 -48 -49 51 50 -52 -53 -54 -55 -56 -57 -58 -59 59 -61 -62 -63
leaf_value=0.010908001265488566 0.015650938886551558 0.0018545930832173188 0.00086985286976870579 0.015665965376637302 0.017648944137047748 -0.0047061593936064509 0.022564076703705201 -0.0029300406047188012 -0.00043931575843118246 0.0162821048626881 0.0070032096000342469 0.013905937713264538 -0.0051642350929353431 0.0042537821908340311 0.00092616154116187508 -0.0011711342411350138 0.008919725258129875 -0.0024063987081818696 0.016890685680684532 0.0025803983626842223 0.015967043609741858 0.0010525081060849919 0.013382499498479507 -0.0063817736641695244 0.017538147384212131 0.00763652055851511 0.016115995211489247 0.0073627170440568991 0.0013147950085683488 0.0075272537487214566 0.0014096802622988458 0.021749064925254562 -0.00032657720283813544 0.0077822632933442562 -0.0064041041296958512 -0.0041739236309063189 0.005385517135023706 0.000736080084365988 0.015505187314770678 0.029313714066638227 0.0029471685342928947 0.0072955726574246704 -0.0038681062494263746 0.00054837299723421099 0.0025631183292716742 0.0071624877190836385 0.0027723511635709516 0.005183013932459706 -0.0032247725440724263 0.0029557145562010834 0.0032328362562763155 0.010322921011935582 0.01974515437052168 0.0091944789304771526 -0.002617191275901566 0.007117603906783565 -0.00072955478278517326 -0.0007450235772039856 0.012127409563616227 0.0020219154833328156 -0.0025786272995173935 -1.3643853507298781e-05
leaf_weight=25 24 104 686 47 49 6068 73 555 63 191 122 76 39 66 218 302 37 36 108 165 34 322 85 73 42 111 149 149 306 73 123 51 581 302 54 1599 121 1750 68 79 85 78 595 184 76 346 301 332 94 77 402 44 29 187 198 145 370 1638 191 42 60 304
leaf_count=25 24 104 686 47 49 6068 73 555 63 191 122 76 39 66 218 302 37 36 108 165 34 322 85 73 42 111 149 149 306 73 123 51 581 302 54 1599 121 1750 68 79 85 78 595 184 76 346 301 332 94 77 402 44 29 187 198 145 370 1638 191 42 60 304
internal_value=-0.000266694 0.00322542 0.00568332 0.00806797 0.0132832 -0.0035111 0.0109108 0.00121541 0.00539278 0.0105092 0.003728 0.00186158 0.00141202 0.0131931 0.0039641 0.00346366 0.00872752 0.005406 0.011646 0.00521988 0.00405172 0.00313722 0.00868498 -0.00410055 0.0023542 0.00936694 0.0124959 0.00304051 0.00392058 0.00327871 0.00741734 0.0133765 0.00247189 0.00452725 -0.00419126 -0.00291071 0.000564079 -0.000146652 0.00683651 0.0248483 -0.00381449 0.000575589 -0.00165235 0.00229098 -0.00461624 0.00853279 0.0013765 0.00255465 0.00356491 0.00496277 0.00551748 0.00138239 0.00938008 0.00657129 0.000482197 0.00304989 0.000777418 -0.000569843 0.00848015 0.0103058 0.00180734 -0.00256471
internal_weight=20904 10943 4923 2218 752 9961 624 6020 1466 320 2705 4913 4360 257 1146 1099 327 553 230 797 477 443 121 8298 115 551 260 2378 1692 1514 247 124 1267 608 8183 2039 3128 2305 579 128 1684 659 1107 208 6144 414 355 823 1232 751 712 481 178 291 437 239 491 1663 310 233 97 899
internal_count=20904 10943 4923 2218 752 9961 624 6020 1466 320 2705 4913 4360 257 1146 1099 327 553 230 797 477 443 121 8298 115 551 260 2378 1692 1514 247 124 1267 608 8183 2039 3128 2305 579 128 1684 659 1107 208 6144 414 355 823 1232 751 712 481 178 291 437 239 491 1663 310 233 97 899
is_linear=0
shrinkage=0.05


Tree=5
num_leaves=63
num_cat=0
split_feature=4 31 23 16 3 36 4 23 16 35 37 36 11 16 37 37 4 4 11 16 3 30 38 37 35 23 11 25 23 11 14 34 30 11 4 3 14 30 34 34 16 4 3 23 11 25 3 16 11 11 3 32 11 14 31 23 23 31 16 4 16 16
split_gain=87.3388 20.4985 8.9324 6.69829 8.29798 6.41761 3.66103 2.84845 2.77989 2.70833 2.29179 2.47621 3.27884 2.42145 2.26872 2.19248 2.17783 2.13758 2.46146 1.96262 1.88949 1.74084 3.28232 2.53774 2.45131 1.72784 1.70913 1.66027 1.65579 2.84611 2.15732 1.78356 1.64116 2.20382 1.60602 2.27228 6.03842 2.29579 2.67007 2.59724 1.89936 1.78298 1.65623 1.5734 1.56661 1.55676 1.92097 1.54474 1.49759 1.52792 1.4082 1.38525 1.50287 1.58265 2.67167 1.38469 1.75913 1.70884 2.25815 1.37084 2.14088 1.36348
threshold=4.5000000000000009 0.44928404822387907 0.20095292351766478 0.59862822403330695 1.5000000000000002 -0.86584007740020741 5.5000000000000009 0.5991635702832655 0.47885117019647921 1.0000000180025095e-35 0.42897074669599539 -0.11776248365640639 0.10404755421994627 0.45756539813286384 -0.80224061012268055 -0.80224061012268055 5.5000000000000009 6.5000000000000009 0.11147423627816043 0.27879416141782826 1.0000000180025095e-35 0.033331359723606117 0.16104960814118388 0.42897074669599539 1.5211035013198855 0.025853917182240675 0.11790878066507034 0.87898967547428464 0.59625519257242099 0.79266017993818416 0.30749961517491248 0.12563193027472838 0.051979064801991832 0.30487346440694801 2.5000000000000004 2.5000000000000004 0.21235390042820965 0.0017179555532118216 0.0065769589814827943 0.0061015318262186537 0.049392461471823405 3.5000000000000004 1.0000000180025095e-35 0.044997387628322609 0.26550585328093046 0.23796114241652797 1.5000000000000002 0.57719791151878452 0.3745619163194796 0.58114234320921099 1.5000000000000002 0.052370250234704492 0.037736896225980782 0.1232330162353976 0.08721278334245787 0.085118396288861128 0.18098627827654581 0.12243572182306733 0.03870736448788261 6.5000000000000009 0.30662116971681347 0.23868685412306981
decision_type=2 2 2 2 2 2 2 2 2 2 2 2 2 2 2 2 2 2 2 2 2 2 2 2 2 2 2 2 2 2 2 2 2 2 2 2 2 2 2 2 2 2 2 2 2 2 2 2 2 2 2 2 2 2 2 2 2 2 2 2 2 2
left_child=5 2 6 8 20 -1 55 21 9 14 11 17 -13 26 -3 -9 -17 18 -8 -14 -5 -4 23 45 32 -7 61 -6 31 30 -30 50 -25 -34 51 36 41 38 39 -37 -38 -36 -43 -19 -24 -23 -47 -10 -35 -50 -16 52 53 -27 -55 -2 57 -57 -59 60 -46 -12
right_child=1 3 7 4 27 25 10 15 47 -11 13 12 19 -15 28 16 -18 43 -20 -21 -22 22 44 24 -26 34 -28 -29 29 -31 -32 -33 33 48 35 37 40 -39 -40 -41 -42 42 -44 -45 59 46 -48 -49 49 -51 -52 -53 -54 54 -56 56 -58 58 -60 -61 -62 -63
leaf_value=-0.0005108251152734142 -0.0030271857190226521 -0.00029014562398700389 0.0020375004150334254 0.017645677244606413 0.0028877043191306785 -0.0058462318824704929 0.016014622818105496 -0.0049821283668279653 0.00093494431133948116 -0.00021621276039716811 0.0052269634159488815 0.015369888245448715 0.0069911686539649966 -0.0012021004442464222 0.021667151471656571 0.027143417903095147 0.00991039041768421 0.012852783676035788 0.0023853594949468974 -0.0017190733507497988 0.027879928253999316 0.0054816664396664183 0.013727279352925479 0.0017793791166025729 0.003607858632540688 -0.0024065770743311671 0.0079386267440203964 0.015204617712232802 0.004829929264184709 0.0037501535568894313 0.019694227525495166 0.0066000424334158496 0.015821903596727926 -0.0027466509491205215 -0.004220337898592756 -0.0010249628036399373 -0.001627267507236388 -0.0050034463542222088 -0.0021304351462987227 0.024151400157383512 0.0088772683457102423 0.0022092558214395447 -0.0025060784015491105 -0.00060458493394493855 0.0057975842121421647 0.0039842546390664061 7.5965229299290474e-05 0.0088984740432351828 0.010370550869875532 -0.0042535193264484411 0.010079872529539798 -0.006104648283686849 -0.0044765296305716799 0.020018479177220303 -0.0026160586974583568 -0.0017069966722753082 -0.0056386869794143174 0.015266733690320203 0.0020564010060979145 0.0043243305626674555 0.018413489958587683 -0.0031108220972652948
leaf_weight=1659 700 59 1438 118 114 1018 39 20 255 86 135 61 125 165 37 22 110 22 220 134 73 297 93 76 792 498 334 36 30 55 131 375 107 33 990 20 59 1513 201 21 159 261 650 1706 92 492 871 80 167 20 90 912 1972 22 32 305 116 36 319 256 53 77
leaf_count=1659 700 59 1438 118 114 1018 39 20 255 86 135 61 125 165 37 22 110 22 220 134 73 297 93 76 792 498 334 36 30 55 131 375 107 33 990 20 59 1513 201 21 159 261 650 1706 92 492 871 80 167 20 90 912 1972 22 32 305 116 36 319 256 53 77
internal_value=-0.00025819 0.00311185 0.00223891 0.00846235 0.0146451 -0.00335062 0.000625923 0.00370658 0.00670247 0.0082031 0.00162394 0.000859034 0.00494095 0.00410585 0.00913497 0.0104451 0.0127826 0.000201655 0.00443764 0.00248471 0.0215572 0.00349261 0.00411741 0.00346629 0.00522324 -0.00391632 0.0057099 0.00584376 0.00990946 0.0135699 0.0169245 0.00833444 0.00839789 0.00993613 -0.00364756 -0.0029496 -0.00184757 -0.0042802 0.000241581 0.0118702 0.0060343 -0.00275143 -0.00115514 -0.000433253 0.00788048 0.00220149 0.00148673 0.00283668 0.00707351 0.00880648 0.0134557 -0.0044345 -0.00383102 -0.00152497 0.00660542 -0.00141474 3.97844e-05 0.00103782 0.00339604 0.00652449 0.0104089 0.00219862
internal_weight=20959 10972 9433 1539 341 9987 4494 4939 1198 863 3018 2307 320 711 777 152 132 1987 259 259 191 4787 3349 2855 1195 8328 546 150 718 216 161 502 403 327 7310 3874 2119 1755 242 41 218 1901 911 1728 494 1660 1363 335 220 187 127 3436 2524 552 54 1476 776 660 355 401 145 212
internal_count=20959 10972 9433 1539 341 9987 4494 4939 1198 863 3018 2307 320 711 777 152 132 1987 259 259 191 4787 3349 2855 1195 8328 546 150 718 216 161 502 403 327 7310 3874 2119 1755 242 41 218 1901 911 1728 494 1660 1363 335 220 187 127 3436 2524 552 54 1476 776 660 355 401 145 212
is_linear=0
shrinkage=0.05


end of trees

feature_importances:
NO_cmaq_lag72=47
dayofweek=41
month=41
NO_cmaq_lag24=32
NO_cmaq_lag48=30
NO_cmaq_lag3=28
NO_cmaq_roll3_mean=27
NO_cmaq_lag6=15
NO_cmaq_roll48_mean=15
station_emb_2=15
station_emb_3=15
NO_cmaq_roll24_std=12
station_emb_1=11
NO_cmaq_roll72_std=10
NO_cmaq_roll6_mean=9
NO_cmaq_roll48_std=9
station_emb_0=4
NO_cmaq_roll24_mean=3
NO_cmaq_roll72_mean=3
O3_cmaq_lag12=2
O3_cmaq=1
NO2_cmaq_lag12=1
O3_cmaq_lag24=1

parameters:
[boosting: gbdt]
[objective: regression]
[metric: rmse]
[tree_learner: serial]
[device_type: cuda]
[data_sample_strategy: bagging]
[data: ]
[valid: ]
[num_iterations: 2000]
[learning_rate: 0.05]
[num_leaves: 63]
[num_threads: 0]
[seed: 42]
[deterministic: 0]
[force_col_wise: 0]
[force_row_wise: 1]
[histogram_pool_size: -1]
[max_depth: -1]
[min_data_in_leaf: 20]
[min_sum_hessian_in_leaf: 0.001]
[bagging_fraction: 0.8]
[pos_bagging_fraction: 1]
[neg_bagging_fraction: 1]
[bagging_freq: 1]
[bagging_seed: 400]
[bagging_by_query: 0]
[feature_fraction: 0.9]
[feature_fraction_bynode: 1]
[feature_fraction_seed: 30056]
[extra_trees: 0]
[extra_seed: 12879]
[early_stopping_round: 0]
[early_stopping_min_delta: 0]
[first_metric_only: 0]
[max_delta_step: 0]
[lambda_l1: 0]
[lambda_l2: 0]
[linear_lambda: 0]
[min_gain_to_split: 0]
[drop_rate: 0.1]
[max_drop: 50]
[skip_drop: 0.5]
[xgboost_dart_mode: 0]
[uniform_drop: 0]
[drop_seed: 17869]
[top_rate: 0.2]
[other_rate: 0.1]
[min_data_per_group: 100]
[max_cat_threshold: 32]
[cat_l2: 10]
[cat_smooth: 10]
[max_cat_to_onehot: 4]
[top_k: 20]
[monotone_constraints: ]
[monotone_constraints_method: basic]
[monotone_penalty: 0]
[feature_contri: ]
[forcedsplits_filename: ]
[refit_decay_rate: 0.9]
[cegb_tradeoff: 1]
[cegb_penalty_split: 0]
[cegb_penalty_feature_lazy: ]
[cegb_penalty_feature_coupled: ]
[path_smooth: 0]
[interaction_constraints: ]
[verbosity: -1]
[saved_feature_importance_type: 0]
[use_quantized_grad: 0]
[num_grad_quant_bins: 4]
[quant_train_renew_leaf: 0]
[stochastic_rounding: 1]
[linear_tree: 0]
[max_bin: 255]
[max_bin_by_feature: ]
[min_data_in_bin: 3]
[bin_construct_sample_cnt: 200000]
[data_random_seed: 175]
[is_enable_sparse: 1]
[enable_bundle: 1]
[use_missing: 1]
[zero_as_missing: 0]
[feature_pre_filter: 1]
[pre_partition: 0]
[two_round: 0]
[header: 0]
[label_column: ]
[weight_column: ]
[group_column: ]
[ignore_column: ]
[categorical_feature: ]
[forcedbins_filename: ]
[precise_float_parser: 0]
[parser_config_file: ]
[objective_seed: 16083]
[num_class: 1]
[is_unbalance: 0]
[scale_pos_weight: 1]
[sigmoid: 1]
[boost_from_average: 1]
[reg_sqrt: 0]
[alpha: 0.9]
[fair_c: 1]
[poisson_max_delta_step: 0.7]
[tweedie_variance_power: 1.5]
[lambdarank_truncation_level: 30]
[lambdarank_norm: 1]
[label_gain: ]
[lambdarank_position_bias_regularization: 0]
[eval_at: ]
[multi_error_top_k: 1]
[auc_mu_weights: ]
[num_machines: 1]
[local_listen_port: 12400]
[time_out: 120]
[machine_list_filename: ]
[machines: ]
[gpu_platform_id: -1]
[gpu_device_id: -1]
[gpu_use_dp: 0]
[num_gpu: 1]

end of parameters

pandas_categorical:[]
