tree
version=v4
num_class=1
num_tree_per_iteration=1
label_index=0
max_feature_idx=80
objective=regression
feature_names=PM25_quantrac O3_quantrac CO_quantrac Temperature_quantrac Humid_quantrac NO2_cmaq O3_cmaq SO2_cmaq hour dayofweek month NO2_quantrac_lag3 NO2_quantrac_lag6 NO2_quantrac_lag12 NO2_quantrac_lag24 NO2_quantrac_lag48 NO2_quantrac_lag71 PM25_quantrac_lag3 PM25_quantrac_lag6 PM25_quantrac_lag12 PM25_quantrac_lag24 PM25_quantrac_lag48 PM25_quantrac_lag71 O3_quantrac_lag3 O3_quantrac_lag6 O3_quantrac_lag12 O3_quantrac_lag24 O3_quantrac_lag48 O3_quantrac_lag71 CO_quantrac_lag3 CO_quantrac_lag6 CO_quantrac_lag12 CO_quantrac_lag24 CO_quantrac_lag48 CO_quantrac_lag71 Temperature_quantrac_lag3 Temperature_quantrac_lag6 Temperature_quantrac_lag12 Temperature_quantrac_lag24 Temperature_quantrac_lag48 Temperature_quantrac_lag71 Humid_quantrac_lag3 Humid_quantrac_lag6 Humid_quantrac_lag12 Humid_quantrac_lag24 Humid_quantrac_lag48 Humid_quantrac_lag71 NO2_cmaq_lag3 NO2_cmaq_lag6 NO2_cmaq_lag12 NO2_cmaq_lag24 NO2_cmaq_lag48 NO2_cmaq_lag71 O3_cmaq_lag3 O3_cmaq_lag6 O3_cmaq_lag12 O3_cmaq_lag24 O3_cmaq_lag48 O3_cmaq_lag71 SO2_cmaq_lag3 SO2_cmaq_lag6 SO2_cmaq_lag12 SO2_cmaq_lag24 SO2_cmaq_lag48 SO2_cmaq_lag71 NO2_quantrac_roll3_mean NO2_quantrac_roll3_std NO2_quantrac_roll6_mean NO2_quantrac_roll6_std NO2_quantrac_roll12_mean NO2_quantrac_roll12_std NO2_quantrac_roll24_mean NO2_quantrac_roll24_std NO2_quantrac_roll48_mean NO2_quantrac_roll48_std NO2_quantrac_roll71_mean NO2_quantrac_roll71_std station_emb_0 station_emb_1 station_emb_2 station_emb_3
feature_infos=[5.7733333333333317:56.190000000000005] [1.0666666666666669:183.27876670000001] [0:5041.9061999999994] [21.918333329999999:39.402571936320953] [39.776666669999997:97.848333333333315] [0.045008480000000003:128.34437369599999] [28.327160679999999:234.2073384] [3.3797999999999997e-05:22.219934420000001] [0:23] [0:6] [1:9] [0:217.25850666666656] [0:217.25850666666656] [0:217.25850666666656] [0:217.25850666666656] [0:217.25850666666656] [0:217.25850666666656] [5.5933333333333337:56.190000000000005] [5.5933333333333337:56.190000000000005] [5.5933333333333337:56.190000000000005] [5.5933333333333337:56.190000000000005] [5.5933333333333337:56.190000000000005] [5.5933333333333337:56.190000000000005] [1.0666666666666669:183.27876670000001] [1.0666666666666669:183.27876670000001] [1.0666666666666669:183.27876670000001] [1.0666666666666669:183.27876670000001] [1.0666666666666669:183.27876670000001] [1.0666666666666669:183.27876670000001] [0:5041.9061999999994] [0:5041.9061999999994] [0:5041.9061999999994] [0:5041.9061999999994] [0:5041.9061999999994] [0:5041.9061999999994] [21.918333329999999:39.402571936320953] [21.918333329999999:39.402571936320953] [21.918333329999999:39.402571936320953] [21.918333329999999:39.402571936320953] [21.918333329999999:39.402571936320953] [22.03833333:39.402571936320953] [39.776666669999997:97.848333333333315] [39.776666669999997:97.848333333333315] [39.776666669999997:97.848333333333315] [39.776666669999997:97.848333333333315] [41.020000000000003:97.848333333333315] [41.020000000000003:97.848333333333315] [0.045008480000000003:128.34437369599999] [0.045008480000000003:128.34437369599999] [0.045008480000000003:128.34437369599999] [0.049528160000000002:128.34437369599999] [0.049528160000000002:128.34437369599999] [0.049528160000000002:128.34437369599999] [28.327160679999999:234.2073384] [28.327160679999999:234.2073384] [28.327160679999999:234.2073384] [28.327160679999999:234.2073384] [28.327160679999999:234.2073384] [28.327160679999999:234.2073384] [3.3797999999999997e-05:22.219934420000001] [3.3797999999999997e-05:22.219934420000001] [3.3797999999999997e-05:22.219934420000001] [3.3797999999999997e-05:22.219934420000001] [3.3797999999999997e-05:22.219934420000001] [3.3797999999999997e-05:22.219934420000001] [0:209.70478222222218] [0:86.309698110114809] [2.5354722228333335:193.42556444444435] [0:89.463342532344171] [24.094827776666666:172.22258549905828] [0:67.912549436284735] [45.139202155958337:158.28972121476744] [0:54.173064994621981] [40.404077808749996:152.28168676120455] [0:45.722279395222209] [37.759492752436621:153.11625136655732] [1.4629134620778084:43.741179712491913] [-2.602428674697876:0.014593521133065224] [-3.9342808723449707:-1.0340244770050049] [-3.4912176132202148:-1.8663046360015869] [0.74955540895462036:3.5754482746124268]
tree_sizes=5148 5304 5271 5292 5316 5329 5331 5333 5331 5287 5330 5313 5320 5342 5325 5299 5345 5356 5327 5342 5356 5354 5353 5370 5352 5346 5352 5361 5343 5357 5351

Tree=0
num_leaves=63
num_cat=0
split_feature=73 53 14 10 8 36 24 76 71 23 73 5 40 68 10 69 10 0 69 72 0 26 16 50 22 68 37 25 51 55 49 36 76 68 57 28 27 31 4 17 74 70 63 54 21 66 76 73 50 17 4 28 52 42 39 50 65 22 5 10 13 53
split_gain=1.35427e+06 176778 104274 98597 84114.8 76603.6 43077.6 39285.5 36209.3 35461.5 29257.5 24910.2 23021.9 23019.5 25799.3 21731 20896.6 20881.7 16039.4 14004.8 13417.4 15134.4 17788.9 13416.8 18938.2 12936.5 12830.3 17012.9 21174.8 12497.4 16762.1 12132.9 11501.8 11471 11156.3 15051.3 11249.6 10860.2 10369 10279.5 10212.9 18914.8 12587.3 20619.1 11770.4 9904.14 9862.53 9842.67 9643.48 10110.4 9521.25 9503.01 13120.9 11633 9413.63 10651.7 8775.44 8634.75 8386.88 8310.73 8059.95 7475.44
threshold=97.855485948637281 56.965979000000011 73.868519999999918 1.5000000000000002 15.500000000000002 27.692499998333339 40.608333333333341 21.837892407499247 78.22905754645835 36.500000000000007 130.66239259429173 3.7253942616000004 30.987500000000004 21.450587645704825 2.5000000000000004 90.090214275000008 3.5000000000000004 18.990000000000006 137.3575672494454 30.372657488475266 20.53166666666667 73.300324403354495 160.68403999999995 2.8471761824000006 22.392107420621922 16.234288575086431 26.98416666666667 53.70344827586208 0.90555178560000005 53.311405140000012 6.1815719856000007 28.64916666666667 33.171333980546116 7.9065112371604247 54.42586604000001 51.250877117894468 51.889325908669242 1318.9155666666668 79.129166666666677 23.127499998333338 28.59587323796563 9.991548533574262 1.5137914600000002 54.795993420000002 13.380000000000001 20.603797230630825 20.027964374158547 119.75542561266424 1.4593001544000004 19.978333333333335 69.820000000000007 53.57500000000001 15.153872175200002 84.879166666666677 28.439166666666672 28.421919169600006 111.75844555555558 21.890833331666666 1.8429051696000001 2.5000000000000004 128.41130358974348 69.166336120000025
decision_type=2 2 2 2 2 2 2 2 2 2 2 2 2 2 2 2 2 2 2 2 2 2 2 2 2 2 2 2 2 2 2 2 2 2 2 2 2 2 2 2 2 2 2 2 2 2 2 2 2 2 2 2 2 2 2 2 2 2 2 2 2 2
left_child=2 3 5 7 6 8 9 -2 45 -3 11 38 16 40 -15 32 17 -8 51 -7 21 22 29 24 25 -11 39 28 -28 30 -12 -32 -4 -9 36 -36 -6 -19 47 -14 42 -42 43 59 -45 -1 -44 57 49 -30 -25 52 60 -53 55 -43 -54 -5 -22 -13 -18 -50
right_child=1 4 15 10 34 19 12 33 -10 23 20 13 26 14 -16 -17 18 37 -20 -21 58 -23 -24 50 -26 -27 27 -29 48 -31 31 -33 -34 -35 35 -37 -38 -39 -40 -41 41 54 46 44 -46 -47 -48 -49 61 -51 -52 53 56 -55 -56 -57 -58 -59 -60 -61 -62 -63
leaf_value=116.04170449774234 119.99885210879498 117.25522375782133 118.53294043483436 119.96230583935477 120.45045936634193 118.72596159129662 121.33111715613751 121.32986555481939 117.73896316826367 120.5471911160802 118.48325235699913 121.26765413459012 118.62881608152553 119.91710153109143 121.28547272030752 117.17818691209649 121.12612070978918 120.60582802439949 120.52275207348467 117.16764187560848 121.33388475297085 121.22034084538642 118.80606324570488 117.96640790683702 118.50671904045528 119.08300627535677 118.22074532638293 120.92636638627819 121.09714761258961 120.31324498298768 119.56924900333136 120.95684913963055 117.61300894944198 122.02040501418111 121.21035463193923 119.85570597541418 121.25712633312412 119.18911160496673 120.61216335588765 119.63013527473113 118.90157572487202 120.41718919452313 120.12717654815582 118.72604936571159 120.17897870957826 114.96328620720615 121.03325735182449 120.2416995324072 119.82004405984983 119.66041607303222 119.18340535661711 119.72424580915029 118.6635395117581 118.32481059107539 120.84377310779583 119.21378224207218 120.04998824883728 118.60204746127427 120.44852737852653 120.59497508928533 119.83029792799913 118.8256523709167
leaf_weight=60 36 25 321 28 75 46 61 96 27 48 24 55 55 39 295 38 24 31 65 21 32 27 29 25 26 22 24 28 25 215 50 23 38 161 29 70 102 24 118 48 20 112 33 20 46 33 334 121 63 24 45 33 25 27 110 22 21 20 163 278 24 27
leaf_count=60 36 25 321 28 75 46 61 96 27 48 24 55 55 39 295 38 24 31 65 21 32 27 29 25 26 22 24 28 25 215 50 23 38 161 29 70 102 24 118 48 20 112 33 20 46 33 334 121 63 24 45 33 25 27 110 22 21 20 163 278 24 27
internal_value=119.863 120.452 117.857 120.684 119.923 116.883 119.668 121.546 116.127 119.011 120.57 120.676 119.868 120.765 121.126 118.315 120.152 120.694 119.864 118.238 120.258 120.081 119.991 119.275 119.659 120.087 119.545 119.788 119.592 120.101 119.63 120.006 118.436 121.762 120.678 120.253 120.915 119.988 120.252 119.095 120.648 120.38 120.74 120.546 119.739 115.659 120.952 120.001 119.829 120.393 118.749 119.586 119.9 119.094 120.501 120.22 119.296 119.396 120.594 120.706 120.478 119.522
internal_weight=4187 3603 584 2507 1096 187 820 293 120 191 2214 1651 629 1364 334 397 335 116 219 67 563 368 341 166 96 70 294 191 163 312 97 73 359 257 276 99 177 55 287 103 1030 264 766 399 66 93 367 169 139 49 70 154 94 60 244 134 46 48 195 333 48 90
internal_count=4187 3603 584 2507 1096 187 820 293 120 191 2214 1651 629 1364 334 397 335 116 219 67 563 368 341 166 96 70 294 191 163 312 97 73 359 257 276 99 177 55 287 103 1030 264 766 399 66 93 367 169 139 49 70 154 94 60 244 134 46 48 195 333 48 90
is_linear=0
shrinkage=1


Tree=1
num_leaves=63
num_cat=0
split_feature=80 53 10 8 6 76 69 76 76 22 8 5 75 50 22 17 36 15 71 10 47 7 4 71 1 55 40 24 75 69 6 42 40 72 38 1 74 64 71 76 5 52 51 40 16 15 60 21 39 17 26 76 47 69 70 45 14 70 63 75 48 18
split_gain=1.16579e+06 202104 94852.5 87968 85624.6 56980.2 33066.3 32203.3 31804.7 31529.5 24053.2 22114.6 21063.2 20163.6 29729.1 19325 19873.6 17970.2 17555.8 16840 17543.5 15777.4 14987.2 14929.8 14763.5 14660.4 13820.1 14078.7 20949.5 15437 12976.8 12819 12006.9 16040.9 13360.3 12009.3 11989.1 11809.7 13483.1 11723.9 11380.8 14320.7 11372 11755.2 11275.2 11257.5 12745 11164.4 14726.9 12468.9 10576.8 9877.42 9669.8 9570.65 9468.48 9203.62 12063.7 9151.1 9009.21 8987.95 8867.42 8790.35
threshold=2.4623676538467412 56.965979000000011 1.5000000000000002 15.500000000000002 56.374464720000006 24.059988333907281 121.50400741033066 32.559988019615439 21.127342323336098 15.495833333333335 15.500000000000002 0.72234184880000007 129.61376974492919 3.0621924256000006 19.197500000000002 20.604166666666668 28.380000000000003 101.51916998333327 131.91160428814786 4.5000000000000009 1.8429051696000001 0.30737971000000003 66.504166666666677 110.93577853249469 121.88594170000002 84.479366300000024 27.073508771929827 44.958333333333343 129.07007543267807 145.40203421048125 51.964287340000006 75.744999998333341 28.395833333333339 24.33225156547838 26.277500000000007 46.241666666666667 25.840740032103074 0.43437897000000009 114.87793399494747 21.224463480939736 1.1100352912000002 1.7499136952000003 3.0574043896000007 26.311666666666675 128.19884000000002 58.878360000000008 1.0834708700000002 13.064166666666667 26.600000000000009 26.632372932176224 62.306936683474113 28.417880310472082 3.2210751848000005 136.47604224495089 22.634398249962608 84.434166666666684 131.71414666666658 10.202225273985569 0.35022588000000004 116.8459065579154 26.413004270400005 17.008000000000003
decision_type=2 2 2 2 2 2 2 2 2 2 2 2 2 2 2 2 2 2 2 2 2 2 2 2 2 2 2 2 2 2 2 2 2 2 2 2 2 2 2 2 2 2 2 2 2 2 2 2 2 2 2 2 2 2 2 2 2 2 2 2 2 2
left_child=4 2 8 6 7 24 15 45 -2 19 -9 -11 13 14 21 23 -17 -16 32 22 -21 -4 -8 36 -6 47 -13 40 -29 -30 61 -25 33 39 -35 -34 -3 38 -33 -15 -28 -42 -20 -44 -39 46 -1 48 -14 -49 -50 -36 -40 -22 60 -53 -57 -45 -19 -41 -23 -5
right_child=1 3 12 30 5 -7 9 10 -10 11 -12 26 25 18 17 16 -18 58 42 20 53 54 -24 31 -26 -27 27 28 29 -31 -32 37 35 34 51 -37 -38 44 52 59 41 -43 43 57 -46 -47 -48 49 50 -51 -52 55 -54 -55 -56 56 -58 -59 -60 -61 -62 -63
leaf_value=-1.2551473511589899 -0.33732468839329871 -0.74374492569360884 -0.65871456249927485 0.58128150961785152 -1.6678628584917854 -4.1257239818573002 -0.063853626911129266 -3.5457896885118987 1.6034005414477119 -2.1228948311160574 -1.7422351545757717 0.72615729757923297 0.47227089270483708 0.35063625363761497 -1.6957411859035494 -2.8912152839743577 -0.89113266556351278 0.58147999671874229 -0.74120358234056494 0.7195773493498564 -0.83523603538944302 0.15090152761846221 1.1719249662706408 0.31785462025020805 -3.1511219024658206 1.2482148201150054 -2.0882653185255116 0.42909046356085573 -1.2087477778700684 0.021130568676051641 0.28690840752759977 0.71263481265103279 0.63132834270531435 -0.72260506805032498 0.72276397873782494 1.1164613503497094 -2.4750087523460387 -1.7929919524070546 -1.1444393156386086 1.676662819764831 0.23701132362087571 -1.2395485157863453 -0.66834722828740878 -0.28496483589212102 -0.5036616808176041 -1.3950367759163231 -2.6475304331098286 0.21466926314683549 -0.79440466160999579 1.0090510491015656 0.28976927188134965 0.39000548619066472 0.082015629768371581 0.15189514393742021 1.532737014749471 0.3334663619597753 -1.3823731958866121 0.67327437569089499 -0.58918181448465301 0.87028625342323918 1.2155091650062992 1.51248136073985
leaf_weight=27 23 20 21 55 51 71 42 38 257 22 36 22 60 87 25 23 27 27 26 40 73 53 59 35 25 34 21 62 65 42 158 22 229 28 138 288 20 39 45 44 24 52 24 30 30 303 42 419 82 56 31 97 25 37 34 21 20 147 42 161 31 47
leaf_count=27 23 20 21 55 51 71 42 38 257 22 36 22 60 87 25 23 27 27 26 40 73 53 59 35 25 34 21 62 65 42 158 22 229 28 138 288 20 39 45 44 24 52 24 30 30 303 42 419 82 56 31 97 25 37 34 21 20 147 42 161 31 47
internal_value=-0.193104 0.329889 0.576024 -0.233751 -2.06072 -3.10725 -0.480698 -1.71579 1.44398 -0.257638 -2.66838 -0.594928 0.46825 0.568871 0.139568 -0.91824 -1.81117 -0.547226 0.643518 0.158935 -0.177127 0.604019 0.658037 -0.72906 -2.15578 0.236174 -0.478208 -0.577817 -0.302234 -0.725992 0.570726 -0.549403 0.725251 0.572297 0.318074 0.901577 -1.60938 -0.737938 -0.367081 0.836968 -1.05796 -0.773266 0.242779 0.37006 -1.23241 -1.52629 -2.10268 0.183073 -0.160821 0.308323 -0.496976 0.42365 -0.70642 -0.503201 0.828743 0.124535 -0.503529 0.510861 -0.131097 1.04336 0.543792 1.01036
internal_weight=4235 3642 2535 1107 593 147 847 446 280 561 74 310 2255 1573 233 286 50 94 1340 251 150 139 101 236 76 682 288 266 169 107 260 196 1113 596 304 517 40 161 92 292 97 76 227 201 69 372 69 648 173 475 113 276 70 110 118 138 41 177 69 205 84 102
internal_count=4235 3642 2535 1107 593 147 847 446 280 561 74 310 2255 1573 233 286 50 94 1340 251 150 139 101 236 76 682 288 266 169 107 260 196 1113 596 304 517 40 161 92 292 97 76 227 201 69 372 69 648 173 475 113 276 70 110 118 138 41 177 69 205 84 102
is_linear=0
shrinkage=0.05


Tree=2
num_leaves=63
num_cat=0
split_feature=73 53 60 8 56 75 24 68 46 72 4 7 36 76 33 22 68 65 69 58 57 76 28 22 4 4 37 22 7 22 56 55 19 18 32 68 1 61 16 19 17 19 57 72 76 69 34 57 47 67 72 30 42 13 0 2 36 1 60 34 76 45
split_gain=1.11187e+06 183973 91507.4 89080.2 63211.8 47015.9 34104.2 22884.9 22874.7 21077.1 20934 19568.6 18694.6 18382.4 17946 17921.5 16516 16364.3 16068.1 15728.2 15678.3 15580 13916.8 13554.6 16949.7 12701.5 12431.4 12432.1 11968.4 11807.3 11791.6 12114.1 11054.7 15262.5 11090.5 10813.5 10758 9988.27 8685.35 8479.68 8469.28 9642.6 8488.23 8407.39 8760.39 8244.74 8244.49 7987.62 10076 10194.7 7899.19 7769.54 11480.8 7755.87 7643.39 7472.82 7132.12 6554.46 6549.32 6547.24 6403.16 18262
threshold=97.855485948637281 56.446737760000012 0.96197230000000011 15.500000000000002 53.712509340000004 146.20601349639568 39.50833333333334 12.830652659889266 65.347500001666688 30.724288518796822 57.325833333333343 1.0457048800000002 27.517424242424241 25.093919834911219 804.57576666666671 15.430833333333336 20.968502709108712 37.91349889 131.10767723911809 54.97663094 54.210836400000005 27.395930343216033 48.591666666666676 9.2475000000000005 79.129166666666677 91.269166666666692 29.069166666666671 18.971666666666668 0.20684900000000003 15.28646857939493 69.784984640000019 45.395084700000005 20.448333333333338 18.403333333333332 1135.5231333333334 22.9884291866389 64.225000000000009 2.2690339700000006 145.64982666666657 14.720833333333337 14.407500000000001 9.3391666666666691 50.46523916000001 28.736917537566509 26.74652477756177 126.92049955974836 851.13779039548024 73.184881980000014 4.3394059720000007 140.5050288888888 18.985199540399559 979.50316666666674 77.892500000000027 72.464406666666648 11.533333333333335 1244.4691333333337 28.9575 35.908333333333339 1.0590275800000002 968.95043333333331 32.055236269286716 88.090000000000018
decision_type=2 2 2 2 2 2 2 2 2 2 2 2 2 2 2 2 2 2 2 2 2 2 2 2 2 2 2 2 2 2 2 2 2 2 2 2 2 2 2 2 2 2 2 2 2 2 2 2 2 2 2 2 2 2 2 2 2 2 2 2 2 2
left_child=2 5 17 6 9 11 10 15 19 53 -3 23 13 -6 -5 18 60 -1 39 -9 -16 29 -22 -2 28 38 27 54 -25 -10 31 -17 33 37 -35 -31 47 -21 -18 -8 42 -42 -26 44 -40 -33 -15 48 -30 56 -43 -44 -53 -4 -12 -51 -50 -23 -47 -20 -13 -62
right_child=1 3 4 14 12 -7 7 8 21 -11 26 16 -14 46 20 30 25 -19 59 32 22 57 -24 24 40 -27 -28 -29 36 35 -32 45 -34 34 -36 -37 -38 -39 43 -41 41 50 51 -45 -46 58 -48 -49 49 55 -52 52 -54 -55 -56 -57 -58 -59 -60 -61 61 -63
leaf_value=-2.866554008475505 1.4209869552371575 -2.3518573199157364 -1.088636017618356 -0.28430266401597432 -2.8995391039053597 1.699638877577252 0.69057228817887939 0.060244725189275219 -0.093867765049401086 -3.025950977631978 0.10625522285699845 0.59485373348038251 -2.1392804811830106 -3.6086134658140296 1.0244944037145869 -1.126660307674181 1.2016430835787901 -1.3906242355123744 1.972953643582084 -0.28430284391611055 1.0617072756225998 0.95574026319843064 -0.11099078729748726 -1.103966974876821 0.94538347929334032 0.012502518142847455 0.00047848299145698548 -1.8852345193133635 0.28326861345870558 -1.1860065673557776 -1.313374113468897 0.88880179176727925 -0.38150933668380832 -1.1327153392136098 -2.4677845028468539 0.13228300213813782 0.80563040143913689 -1.6167080337351021 0.79828620136874484 -0.68249176469716166 -0.32590770785297668 0.2861337711289525 0.32695559770349536 1.209880330887708 -0.33722112466549053 0.42562275321194626 -4.6676191985607147 0.76241528034210215 -0.88811401981000726 -0.21358099860640675 0.94140204608837519 0.38320794644809908 -1.2512366842139853 -2.1265205718852855 -1.0502882729172707 1.0719707053899765 -0.13214865493277708 0.054460927897857295 -0.52595100477337842 0.75311417498371824 0.47716835634339427 -1.1713344081491233
leaf_weight=20 29 27 54 56 45 90 23 36 95 28 20 918 23 34 157 21 231 308 22 39 37 26 80 20 39 34 34 34 138 70 21 30 41 28 35 20 54 22 41 22 21 60 124 44 29 33 40 35 65 26 197 21 22 27 50 20 60 90 40 22 105 20
leaf_count=20 29 27 54 56 45 90 23 36 95 28 20 918 23 34 157 21 231 308 22 39 37 26 80 20 39 34 34 34 138 70 21 30 41 28 35 20 54 22 41 22 21 60 124 44 29 33 40 35 65 26 197 21 22 27 50 20 60 90 40 22 105 20
internal_value=-0.185777 0.326928 -2.03049 -0.17151 -2.74904 0.578085 -0.42892 -0.283269 -0.473622 -1.84339 -1.07861 0.535186 -3.44423 -3.69644 0.531299 0.125097 0.651858 -1.48062 0.683616 -0.886651 0.697991 -0.197812 0.259862 0.356984 0.322775 0.934537 -0.8295 -1.10084 0.0895461 -0.482661 -0.217718 -0.0321637 -1.09325 -1.32858 -1.87442 -0.893053 0.149522 -0.764842 1.0254 0.0192965 0.5242 0.704245 0.281226 0.66829 0.327862 0.190986 -4.18105 0.0465279 -0.0345597 -0.291053 0.788421 0.126124 -0.45302 -1.4346 -0.719847 0.345355 -0.525251 0.256472 -0.0957875 1.36303 0.549139 0.213408
internal_weight=4253 3674 579 1231 251 2443 901 736 502 109 165 2353 142 119 330 234 1422 328 89 201 274 301 117 931 902 379 138 104 418 185 145 124 165 124 63 90 398 61 345 45 484 278 206 114 70 103 74 344 309 171 257 167 43 81 70 46 125 116 73 44 1043 125
internal_count=4253 3674 579 1231 251 2443 901 736 502 109 165 2353 142 119 330 234 1422 328 89 201 274 301 117 931 902 379 138 104 418 185 145 124 165 124 63 90 398 61 345 45 484 278 206 114 70 103 74 344 309 171 257 167 43 81 70 46 125 116 73 44 1043 125
is_linear=0
shrinkage=0.05


Tree=3
num_leaves=63
num_cat=0
split_feature=73 53 10 8 60 56 72 40 76 3 76 68 34 33 26 15 7 43 10 18 27 19 44 75 24 76 52 73 42 20 54 20 26 68 57 73 28 15 28 34 38 71 58 21 26 10 39 65 2 7 38 75 72 72 73 53 54 6 67 62 22 43
split_gain=973679 168432 80370 76119.1 74780 48405.5 28981.1 27842.2 24144.5 20602.4 20254.3 20206.7 18896.5 17708.7 16364 16191 16094.3 15642.7 14729.4 14514 14482.1 12939.6 28145.1 13797.1 16077.3 12639.8 12391.7 20372.2 12180.6 12168 11912.4 11604.3 11335.7 10963.6 10881.2 10525.7 10449 10313 9869.34 9753.01 9747.95 27799.8 9386.84 9643.31 12843.2 10438.8 9235.73 8855.86 8708.75 8679.5 7982.24 7878.85 7604.66 7524.7 7278.09 8341.39 8967.09 9892.53 8332.18 7968.65 7241.28 7116.1
threshold=97.855485948637281 56.700040320000006 1.5000000000000002 15.500000000000002 0.96197230000000011 54.324354700000008 30.487016824171075 30.987500000000004 35.399712337715357 32.277500000000011 21.698024794366734 45.640544886150799 935.50210000000004 784.09926666666672 32.833994019244123 66.910696668333273 1.7039445100000001 73.404166666666683 2.5000000000000004 10.845833333333337 90.341666666666683 10.711666666666668 88.570000000000007 136.96174035344762 43.140740740740746 28.342236087549917 14.914196369600001 131.59669857150715 68.02916666833336 27.338333333333335 109.04889240000001 12.327333333333334 55.94166666666667 7.9065112371604247 54.42586604000001 133.97171473667623 59.050000000000004 105.90986515723266 51.250877117894468 1236.5003435897436 29.151695402298859 129.02455414420297 53.796201340000003 13.856666666666669 44.19166666666667 6.5000000000000009 29.50833333166667 41.982019999999999 979.72898809523815 0.4168289 29.290833333333335 121.97052052119629 17.840745706081361 24.113565670957687 115.89048347768603 50.948488920000003 57.237632060000003 51.01405582000001 148.53532559386969 0.24759000000000003 12.367500000000003 80.830000000000027
decision_type=2 2 2 2 2 2 2 2 2 2 2 2 2 2 2 2 2 2 2 2 2 2 2 2 2 2 2 2 2 2 2 2 2 2 2 2 2 2 2 2 2 2 2 2 2 2 2 2 2 2 2 2 2 2 2 2 2 2 2 2 2 2
left_child=4 2 10 7 47 6 -6 12 14 -10 -2 16 18 -5 -9 -16 21 28 -3 -17 -8 22 -4 29 -25 39 32 -28 -7 54 42 40 36 -12 -15 50 -14 -20 -36 -26 -18 46 -21 -44 -45 -46 -42 -1 -35 -38 -33 -13 -31 -34 60 58 57 -57 -56 -59 -23 -52
right_child=1 3 11 13 5 17 20 8 9 -11 33 51 26 34 15 19 31 -19 37 30 -22 23 -24 24 25 -27 27 -29 -30 52 -32 35 53 48 38 -37 49 -39 -40 -41 41 -43 43 44 45 -47 -48 -49 -50 -51 61 -53 -54 -55 55 56 -58 59 -60 -61 -62 -63
leaf_value=-2.3345678072503726 0.11733737310372112 1.6411783847212793 0.23022378046129252 -0.38250495033959547 -1.351253980297721 -2.6909194207191471 -3.579266804662244 -1.9089902747888119 1.5989140208065511 -0.6705790300667287 1.04930599622198 1.7660915362529268 0.31823522554898337 0.90819693396844703 0.61813426287401296 0.29930707801271372 0.48402133160100091 -2.5530992165855739 -0.47689932477779878 0.19795663555463155 -1.8303448367118837 1.7106071267803644 -1.4231336868170537 -1.3842511741178376 0.99504239881360856 -1.0222188529372216 -1.4730864425897598 0.35273553729057316 -4.1468285018322515 -0.95351217404007915 -1.9793312529722851 0.69236187396334525 -1.216059330190931 0.99661940245917346 0.99211045174763124 0.24344524120291078 -0.95867602062738833 0.57828697185767319 -0.12253988035141478 -0.043887373445362886 1.1660549268126488 -1.6720641515471719 -1.4189259205291522 -0.099112894514511385 -1.2443393547268746 -0.27473567410519251 -0.28877205491065977 -1.3180406562246074 1.9068547643432323 0.33414678554516286 0.86823161691427231 0.54547235876321787 0.1243666869132883 -0.23855384724007714 0.53967967552843932 -0.46653005901801708 0.70265128006369393 -0.56327922517061235 1.2998368601466335 0.36219947271852082 0.66870806947534467 1.697722140172633
leaf_weight=23 31 20 117 48 89 20 29 32 20 20 97 39 119 164 21 27 191 46 39 21 20 21 33 21 37 20 50 22 51 20 24 378 35 33 29 102 37 57 63 58 24 22 67 58 103 38 20 313 129 20 70 20 90 45 223 48 118 25 43 334 81 41
leaf_count=23 31 20 117 48 89 20 29 32 20 20 97 39 119 164 21 27 191 46 39 21 20 21 33 21 37 20 50 22 51 20 24 378 35 33 29 102 37 57 63 58 24 22 67 58 103 38 20 313 129 20 70 20 90 45 223 48 118 25 43 334 81 41
internal_value=-0.172987 0.309402 0.542829 -0.182796 -1.87759 -2.5232 -1.88889 -0.419602 -0.705868 0.464167 1.32515 0.439518 -0.141717 0.4988 -0.825565 -0.728992 0.414316 -3.27136 0.406783 -0.81269 -2.86542 0.303021 -0.133515 0.360511 -0.112078 0.120232 -0.335699 -0.915196 -3.73671 0.424591 -0.909229 0.58349 -0.172715 1.46971 0.664045 0.70546 0.0516018 0.149618 0.228817 0.360748 0.303006 -0.220841 -0.819744 -0.900088 -0.725404 -0.983028 0.50477 -1.38762 1.72144 -0.505054 0.801832 1.35232 -0.0716113 -0.666212 0.485713 0.434455 0.31888 0.207615 0.662562 0.297751 0.883217 1.17462
internal_weight=4256 3665 2486 1179 591 255 138 875 431 40 290 2196 444 304 391 359 2137 117 116 338 49 1289 150 1139 136 115 328 72 71 1003 311 848 256 259 256 591 176 96 92 95 257 66 287 266 199 141 44 336 162 57 489 59 110 80 893 791 525 407 266 359 102 111
internal_count=4256 3665 2486 1179 591 255 138 875 431 40 290 2196 444 304 391 359 2137 117 116 338 49 1289 150 1139 136 115 328 72 71 1003 311 848 256 259 256 591 176 96 92 95 257 66 287 266 199 141 44 336 162 57 489 59 110 80 893 791 525 407 266 359 102 111
is_linear=0
shrinkage=0.05


Tree=4
num_leaves=63
num_cat=0
split_feature=73 7 10 6 40 76 5 54 74 12 54 38 6 9 24 1 35 74 70 10 73 57 3 30 36 25 10 47 50 10 70 43 75 76 9 45 55 48 61 50 57 20 10 75 41 28 36 46 4 36 22 6 19 5 64 45 39 76 9 63 31 40
split_gain=888019 138550 76466.7 65803.4 65684.1 48918.3 28089.9 22885.3 22729.9 19699.3 20436.3 19191 18863.3 17535.8 19757.7 15194.6 15145.6 14597.9 14587.3 14474.5 16246.5 13829.7 13700.9 13678 12741.1 11807.5 13231.5 12673.6 11635.1 12077.1 11582.1 11284.3 11100.4 14303.5 11426 11979.6 10375.7 14535.2 12881.6 10072.6 9331.07 9239.98 9188.99 9079.5 9077.65 8775.61 8764.16 8759.13 8444.24 13261.7 12286.6 8177.62 8141.91 8019.03 7897.44 7771.83 8778.39 8354.6 7756.68 7605.67 7592.37 8110.63
threshold=107.47660916966946 0.55181130000000012 1.5000000000000002 56.374464720000006 30.443333333333335 24.059988333907281 0.84657561120000013 51.373707980000006 35.492990287323344 86.038766665000011 87.012625140000026 29.589166666666667 55.927946340000005 3.5000000000000004 40.608333333333341 126.10639165000002 29.421666666666678 37.648953887263922 25.488406962490576 4.5000000000000009 128.16204868618084 54.961237100000012 25.307500001666671 691.61596666666674 28.627500000000001 44.07500000000001 3.5000000000000004 1.8429051696000001 1.3322029864000002 4.5000000000000009 22.634398249962608 88.773333333333355 130.91546172842882 27.037129801308701 1.5000000000000002 83.961855345911957 52.120450340000012 3.6906379224000005 1.4429112900000003 63.566413196000013 58.26662618000001 11.268333333333336 5.5000000000000009 133.01288993937962 84.880833333333356 41.134463276836165 28.595000000000002 69.076178163333353 78.155833335000025 28.7598076923077 16.243981481481487 59.011815240000011 16.307500000000001 5.5844827104000014 0.5524401000000001 85.194166666666675 29.432500000000005 27.978134829884979 5.5000000000000009 0.27158658000000008 984.04996666666682 29.596519607843149
decision_type=2 2 2 2 2 2 2 2 2 2 2 2 2 2 2 2 2 2 2 2 2 2 2 2 2 2 2 2 2 2 2 2 2 2 2 2 2 2 2 2 2 2 2 2 2 2 2 2 2 2 2 2 2 2 2 2 2 2 2 2 2 2
left_child=3 4 46 8 7 15 16 18 36 17 22 19 42 14 -14 -5 -6 45 47 20 -8 30 -11 -7 -10 26 -23 -28 -15 -30 -13 -16 39 -34 35 -35 37 -1 -39 41 -29 52 -9 51 -21 -4 53 -2 49 50 -43 -27 55 -3 -47 56 -24 -58 -36 -53 -49 -62
right_child=1 2 9 5 6 23 11 12 24 10 -12 21 13 28 31 -17 -18 -19 -20 44 -22 25 32 -25 -26 43 27 40 29 -31 -32 -33 33 34 58 -37 -38 38 -40 -41 -42 48 -44 -45 -46 54 -48 60 -50 -51 -52 59 -54 -55 -56 -57 57 -59 -60 -61 61 -63
leaf_value=-1.2916802712521167 1.2375130580314104 0.22967018495072372 1.3614220361225309 -1.3092988458546726 -0.94817599502165584 -2.7863680720329285 1.7870211905037818 0.67007324726808637 -3.2712059707641603 -0.80321898153051741 -0.85582224845009702 -0.59931686938456863 -1.7726664774376772 -0.87041354961693296 -0.17128760075339905 -2.8640746723521842 -2.6559697169065477 1.8969409810172189 1.4670099698007109 -0.83869414155076205 0.095394660383462906 -1.9795248285468139 0.55793118331953884 -4.1283719572910043 -1.6006077902657645 0.31950447899848222 0.18178734817990549 -0.29512533237194194 1.0836790675208683 -0.071764342638911044 0.92755842606226602 -1.3957503488117999 0.43353329903420507 -0.072025859072094869 0.36362703060492496 -1.7818778552114964 -1.1726555428990764 -1.3954955468326808 -3.0336876821517946 -0.36238426987613953 -1.3687065008638513 0.58358331413732634 -0.22048681259155273 -0.91660313189975806 0.25762655735015871 0.023521051254983133 1.55378443198868 1.2056985935185698 0.67055161044710887 0.52940808971145836 -0.77729533695897401 0.047073896899819376 0.65049577756722776 1.2050322825089097 0.71413238013961489 -0.56501739954664598 -0.93697417736053468 0.41582082907358808 -0.43909391481049209 -0.86622375784055239 0.35635112821572013 -0.39899860833372391
leaf_weight=80 28 27 41 55 37 34 22 105 25 24 34 23 29 20 130 22 20 27 35 41 40 28 75 43 21 50 27 29 42 49 27 22 218 21 78 20 292 20 30 35 67 27 40 63 35 52 158 22 646 241 43 40 75 96 203 42 25 21 49 53 231 42
leaf_count=80 28 27 41 55 37 34 22 105 25 24 34 23 29 20 130 22 20 27 35 41 40 28 75 43 21 50 27 29 42 49 27 22 218 21 78 20 292 20 30 35 67 27 40 63 35 52 158 22 646 241 43 40 75 96 203 42 25 21 49 53 231 42
internal_value=-0.166884 0.29473 0.535147 -1.74814 -0.0973031 -2.64466 -0.491295 0.20104 -1.45313 0.426481 0.3575 -0.38084 -0.0417694 -0.273258 -0.576692 -1.75352 -1.5474 0.783987 0.497431 0.128701 0.695649 -0.553608 0.382654 -3.5358 -2.50854 -0.662684 -0.998546 -0.775233 0.22153 0.461517 0.225196 -0.348512 0.400266 0.166341 -0.180374 -0.9061 -1.33808 -1.70965 -2.37841 0.473677 -1.0444 0.498164 0.424402 -0.416494 -0.33381 0.682467 1.30741 0.392368 0.567499 0.353442 -0.252385 -0.196166 0.219366 0.990928 0.573302 0.0209938 0.224403 -0.319394 0.0539158 -0.473408 0.312151 0.240143
internal_weight=4297 3675 2278 622 1397 154 602 795 468 1997 1674 545 437 292 181 77 57 323 358 138 62 407 1640 77 46 357 151 123 111 91 50 152 1616 386 168 41 422 130 50 1230 96 1195 145 206 76 296 281 323 957 311 70 143 238 123 255 163 121 46 127 93 295 273
internal_count=4297 3675 2278 622 1397 154 602 795 468 1997 1674 545 437 292 181 77 57 323 358 138 62 407 1640 77 46 357 151 123 111 91 50 152 1616 386 168 41 422 130 50 1230 96 1195 145 206 76 296 281 323 957 311 70 143 238 123 255 163 121 46 127 93 295 273
is_linear=0
shrinkage=0.05


Tree=5
num_leaves=63
num_cat=0
split_feature=77 53 6 10 6 76 24 76 73 68 40 71 76 22 10 55 68 36 7 51 33 55 16 10 67 3 64 17 34 23 48 68 28 68 12 11 73 71 41 70 16 18 29 45 52 16 38 56 61 9 63 7 17 71 73 46 17 33 65 73 15 65
split_gain=749015 125984 65295.9 62882.7 59910.4 42441.8 27171.8 25061.1 23924.7 21851.5 20725.5 18272.6 17371.5 17217.6 16423.1 16952.5 16303.6 15019.9 14779.5 13399.2 12952.3 12615.9 16583.6 12562.6 12060.1 13487.8 11497.8 11221.7 11133.5 13347.1 11045.8 10963.1 13616.5 10653.4 10213.9 10112.6 9882.47 9154.33 12843.5 11925.8 15295.9 11841 10514.4 9471.16 8974.03 8952.44 8423.24 8316.01 9926.3 8314.32 8419.77 9314.19 8296.55 8977.65 15067.9 13976.3 9031.76 7606.98 7598.92 7223.44 11318.2 7000.86
threshold=-2.5979244709014888 56.446737760000012 56.374464720000006 1.5000000000000002 53.935515200000005 24.059988333907281 40.608333333333341 21.837892407499247 129.1268148600258 18.620108105654094 31.800833333333337 117.36313121834586 32.559988019615439 21.11333333166667 4.5000000000000009 52.810326240000002 52.232385757958106 27.454166666666669 1.7039445100000001 6.2585873328000003 784.09926666666672 82.107394880000015 154.83800275862069 5.5000000000000009 144.41457111111106 31.733333331666667 0.18091100000000002 9.6383333333333336 1686.2260974848366 54.07500000000001 22.838764115200004 24.12380530746919 53.684004095226747 16.989435661535705 146.18339999999992 123.80707547169798 133.77889930748304 131.27798766749197 89.72750000000002 14.025011241100648 139.68635999999995 15.537500000000003 719.52143333333345 83.104999998333355 14.914196369600001 94.092063147903119 28.409166666666668 57.822009980000011 2.1717481300000006 4.5000000000000009 0.49606818000000003 0.9474588100000001 23.436158190423729 120.62569520419908 133.47351750671743 88.985833333333332 18.503333333333337 781.21423333333348 138.09913076023386 123.51758050851279 128.41130358974348 139.2574088888889
decision_type=2 2 2 2 2 2 2 2 2 2 2 2 2 2 2 2 2 2 2 2 2 2 2 2 2 2 2 2 2 2 2 2 2 2 2 2 2 2 2 2 2 2 2 2 2 2 2 2 2 2 2 2 2 2 2 2 2 2 2 2 2 2
left_child=1 3 12 7 20 30 9 -1 16 13 14 -11 -2 23 15 33 18 -14 37 -17 -3 22 26 45 25 28 -10 -22 29 -12 -4 32 44 -8 35 47 -24 38 39 42 49 -39 -5 -40 -16 -6 -20 48 -27 50 51 -41 53 -28 56 58 -55 -42 -56 60 -44 -9
right_child=2 4 5 8 6 -7 10 61 21 11 24 -13 17 -15 31 19 -18 -19 46 -21 27 -23 36 -25 -26 34 52 -29 -30 -31 -32 -33 -34 -35 -36 -37 -38 41 43 40 57 -43 59 -45 -46 -47 -48 -49 -50 -51 -52 -53 -54 54 55 -57 -58 -59 -60 -61 -62 -63
leaf_value=-0.044270738498178419 -1.2186183638949144 -0.26622507918353489 -1.3549678740593105 0.3694707874950498 1.1488024688123362 -3.4818655688973035 1.0999537458281909 0.85170304121879425 -0.87561626749485733 -2.5199137720568427 -0.92545525369144266 -0.69447924013321227 -3.0952405924598381 -1.2702235206245232 0.19738578988934857 -0.86994293360483077 1.8040289461612702 -1.5272423020430974 0.52026436226456485 0.63139093087419218 -0.34082004583400227 1.0029055979193711 -1.3250508633352096 -0.61690702576568168 -1.5317603551424468 0.29318864514785153 -0.8003364735022187 0.827558182542806 1.0699373937819316 0.6451176822185517 -2.7136507715497697 0.39935474705237611 -0.96988946978055268 0.27662610096758916 -1.3575855880211563 0.44713934270235206 0.079747297934123454 -0.79008090235783079 1.5041678054837597 -0.53996739377422887 -0.65825924359055032 0.35343348107167655 -0.12631719134589459 0.513634818602692 -0.70677096946392126 -0.19359142603697602 0.90630837091967864 -1.1263833267241716 -0.99656830348361014 1.246557876296708 0.77744925911175022 0.81451156572862105 0.58715145592847151 0.76231891125198303 -0.23384941235899626 -0.9455133533791491 -0.13811295499197312 0.2678705071249316 0.35465864089688637 0.22753664348707645 -1.4264425419844116 1.5042952379686949
leaf_weight=36 380 41 52 129 23 68 67 52 25 29 31 26 24 52 83 42 24 42 332 23 23 41 31 69 26 35 25 193 23 24 21 52 71 95 39 26 21 38 43 30 27 56 47 55 41 27 246 50 26 61 141 22 121 123 99 38 36 124 123 43 26 196
leaf_count=36 380 41 52 129 23 68 67 52 25 29 31 26 24 52 83 42 24 42 332 23 23 41 31 69 26 35 25 193 23 24 21 52 71 95 39 26 21 38 43 30 27 56 47 55 41 27 246 50 26 61 141 22 121 123 99 38 36 124 123 43 26 196
internal_value=-0.148929 0.279228 -1.64517 0.489695 -0.130989 -2.58306 -0.309182 1.18851 0.396389 -0.790074 -0.165042 -1.65698 -1.34867 -0.511244 0.0364356 0.34344 0.511717 -2.09742 0.489875 -0.338702 0.548501 0.152561 0.0982558 -0.179589 -0.506114 -0.401127 0.173698 0.703148 0.146183 -0.240114 -1.74582 -0.24571 -0.417727 0.617138 -0.643685 -0.440458 -0.757729 0.356227 0.414671 0.334223 0.500799 -0.108838 0.0588628 0.948256 -0.101569 0.42391 0.684567 -0.648363 -0.256544 0.737719 0.576894 0.0330814 0.220128 0.120106 0.175025 -0.0594523 0.558448 0.102271 0.0922159 -0.286555 -0.589376 1.36746
internal_weight=4235 3648 587 2411 1237 141 980 284 2127 226 754 55 446 171 474 227 1444 66 1420 65 257 683 642 119 280 254 590 216 78 55 73 247 195 162 176 137 52 842 748 650 405 94 245 98 124 50 578 111 61 254 193 52 565 444 419 260 159 151 222 116 73 248
internal_count=4235 3648 587 2411 1237 141 980 284 2127 226 754 55 446 171 474 227 1444 66 1420 65 257 683 642 119 280 254 590 216 78 55 73 247 195 162 176 137 52 842 748 650 405 94 245 98 124 50 578 111 61 254 193 52 565 444 419 260 159 151 222 116 73 248
is_linear=0
shrinkage=0.05


Tree=6
num_leaves=63
num_cat=0
split_feature=73 53 60 10 8 56 40 22 75 10 44 47 74 49 12 75 33 74 57 5 25 36 21 14 57 56 3 76 46 15 59 54 36 42 12 57 61 73 74 58 74 40 72 17 71 75 9 63 21 46 39 38 76 23 69 33 55 14 22 55 75 74
split_gain=723952 117021 57577.8 56476.7 56378.4 50658.3 29209.9 27745.8 24324.6 23071.2 28464.7 23643.7 15702.9 17986.4 15069.9 15013 14480.2 13923.2 13901.4 13789.8 16579.1 15800.3 13232.6 13213.7 12470.2 12020.5 11673.1 11517.1 13379 11080.7 10628.1 14956 10231.6 9828.82 9527.79 9087.81 11504.9 8245.92 10176.4 9680.99 8214.49 7923.73 7918.19 15582.5 10354.4 9820.99 12204.3 10661.4 13080.3 10116.2 8292 8252.77 8095.65 7889.25 7739.72 7663.48 7545.96 9685.13 11430.9 7531.65 7245.9 11065.8
threshold=97.855485948637281 56.700040320000006 1.0042329000000001 1.5000000000000002 15.500000000000002 54.324354700000008 30.41083333333334 15.430833333333336 115.06341411831865 4.5000000000000009 65.413333333333341 1.8896951568000004 26.826708719746865 2.6316816064000004 86.615283335000015 123.0860423178258 1227.9361000000001 34.124829541968559 54.42586604000001 0.75336568560000017 46.856034482758623 28.923333333333336 12.705833333333338 93.471090000000018 61.042206680000007 58.85247900000001 29.421666666666678 28.22849829653871 86.934166666666684 98.648293333333285 2.2049972400000004 50.833130180000005 27.755000000000006 75.093333333333334 155.81910666666667 58.514456420000009 1.5926311900000003 141.04087700645255 25.840740032103074 73.97211990000001 33.931987835446627 26.77416666666667 24.881913252258308 13.493836477987424 120.53568484943686 126.30357976407758 1.0000000180025095e-35 1.5837690400000002 13.064166666666667 80.995000000000019 28.301666666666669 27.235833333333339 20.187043369769551 54.07500000000001 131.24976784791212 696.39610314465415 56.650838440000008 148.28630666666666 13.787500000000003 51.394534940000007 126.73677245770868 27.090291575325733
decision_type=2 2 2 2 2 2 2 2 2 2 2 2 2 2 2 2 2 2 2 2 2 2 2 2 2 2 2 2 2 2 2 2 2 2 2 2 2 2 2 2 2 2 2 2 2 2 2 2 2 2 2 2 2 2 2 2 2 2 2 2 2 2
left_child=2 3 40 6 7 12 41 9 -9 10 22 53 -4 -14 15 -5 -7 19 55 -10 21 26 -3 -23 33 29 -21 37 34 -22 31 -30 -12 -20 56 36 -28 38 39 42 -1 -2 45 44 -44 47 -47 48 49 -16 -45 -48 -49 -11 -50 -6 57 -29 -59 -27 61 -17
right_child=1 4 5 14 18 16 -8 8 17 11 32 -13 13 -15 27 60 -18 -19 24 20 25 23 -24 -25 -26 59 35 28 30 -31 -32 -33 -34 -35 -36 -37 -38 -39 -40 -41 -42 -43 43 50 -46 46 51 52 54 -51 -52 -53 -54 -55 -56 -57 -58 58 -60 -61 -62 -63
leaf_value=-1.133477928550271 1.000536788463529 -1.3855608003400268 -1.0104965356671636 1.0406718668339845 -0.23992662349715832 -2.6742227075519143 -0.25868301470490063 -2.0960719026481875 -1.5939745495677926 0.058583457377694909 1.4866844702649999 -0.63703030144090711 -1.0677801733431609 -2.8892237598245796 -1.0105978210223838 0.48798190116882323 -4.0121796974769008 0.53646136275653189 -0.013834647527512381 -0.034519135313374659 0.85790199343311169 0.8713787544341316 0.16554545137015256 -0.82992551290988925 0.88003523468971245 -0.84348403567840402 -1.6947930032306393 0.16129663243266262 -1.7418692320585252 -0.22316256312150806 0.20582206042543538 -0.22349082421850075 0.26323092937469483 -1.2747695326805115 0.76235831303567425 -1.71820727866143 -0.22872571628540755 0.015871417050560315 0.71730160409441357 1.1456396328775507 -1.9419597067151753 1.5617563207359877 0.20572468626002471 0.6636874229924099 -1.2063726796823389 -0.70720685158457075 0.6995811351353769 0.0016478935334210594 0.29854149068665248 0.42216312898830932 -0.27962626214960923 0.049231737425178293 0.9907003323833149 1.1949793760975203 1.0029626849407363 0.79323038568879878 0.45305899573943897 -1.5307687902450562 -0.01589402879842303 0.092138089922567223 0.59229849751549535 -0.98837541829455988
leaf_weight=307 117 20 68 156 20 91 34 26 32 42 54 177 23 33 28 30 26 29 68 21 38 21 44 25 30 76 23 233 23 63 62 55 25 20 82 64 32 120 273 38 35 136 21 74 34 35 80 24 115 22 34 125 150 24 59 175 158 20 33 30 99 22
leaf_count=307 117 20 68 156 20 91 34 26 32 42 54 177 23 33 28 30 26 29 68 21 38 21 44 25 30 76 23 233 23 63 62 55 25 20 82 64 32 120 273 38 35 136 21 74 34 35 80 24 115 22 34 125 150 24 59 175 158 20 33 30 99 22
internal_value=-0.151546 0.263358 -1.63334 0.457533 -0.14706 -2.22526 1.1173 -0.354926 -0.608721 -0.039326 0.464577 -0.335862 -1.52111 -2.14113 0.371657 0.69667 -2.97155 -0.523542 0.428057 -0.595872 -0.514602 -0.857198 -0.319175 -0.0532431 -0.00029737 -0.206761 -1.12135 0.319087 0.151569 0.183575 -0.282814 -0.671218 1.09952 -0.300411 0.267184 -1.31315 -0.841808 0.409645 0.452138 0.365857 -1.21622 1.30222 0.328864 0.0178474 -0.667208 0.408324 0.155701 0.56066 0.33258 -0.380183 0.366718 0.303027 0.854279 0.471818 0.537397 0.687266 0.175733 0.0225253 -0.587545 -0.578685 0.341276 -0.136631
internal_weight=4254 3671 583 2492 1179 241 287 866 480 386 143 243 124 56 2205 307 117 454 313 425 393 186 64 46 118 207 140 1898 666 101 140 78 79 88 526 119 55 1232 1112 839 342 253 801 163 55 638 240 398 224 50 108 205 174 66 174 195 444 286 53 106 151 52
internal_count=4254 3671 583 2492 1179 241 287 866 480 386 143 243 124 56 2205 307 117 454 313 425 393 186 64 46 118 207 140 1898 666 101 140 78 79 88 526 119 55 1232 1112 839 342 253 801 163 55 638 240 398 224 50 108 205 174 66 174 195 444 286 53 106 151 52
is_linear=0
shrinkage=0.05


Tree=7
num_leaves=63
num_cat=0
split_feature=73 53 6 10 8 76 40 7 24 68 47 76 73 5 50 40 76 36 68 10 28 52 16 42 33 63 56 34 1 64 49 35 19 37 73 50 76 26 16 19 73 59 18 68 24 71 4 10 18 53 72 54 74 27 22 33 46 45 48 45 68 44
split_gain=625822 114084 48526 46080.1 42297.5 34232.4 28193.8 27457.3 27363.1 28526.8 22544.4 17353.5 15703.1 16819.7 15241.7 14593.5 15187.1 13933.4 13053.1 18362.8 12911.1 14835.2 12546.9 12291.3 12116.3 11585.3 11183.6 11121.5 9770.67 11494 9409.14 17182.7 9034.81 9794.27 8984.45 8211.75 10215.4 17670.8 9447.5 10848.2 10276.9 9038.09 8704.72 8181.78 8067.97 7917.27 11779.2 11019.9 8187.31 7751.99 7649.74 7407.49 8191.19 7955.76 7207.05 8182.6 7171.54 7129.14 6879.82 6806.68 6627.94 6459.01
threshold=97.855485948637281 57.763572580000009 56.374464720000006 1.5000000000000002 15.500000000000002 25.538123130222058 30.27416666666667 0.41343993000000007 40.608333333333341 11.973044957947399 1.3355955712000003 32.559988019615439 130.38897160881649 3.4907917968000004 2.8471761824000006 30.987500000000004 35.399712337715357 29.332499998333336 22.82910679792197 2.5000000000000004 53.684004095226747 14.914196369600001 141.88342666666657 83.144166666666692 784.09926666666672 0.40455420000000003 57.822009980000011 1079.8077666666666 64.225000000000009 0.30762468000000004 7.8950721256000005 27.237500000000001 8.4375000000000018 27.758333331666666 128.80499729972533 3.2511037504000009 26.74652477756177 42.75833333333334 138.12234644067794 21.742500000000007 134.31330867040668 0.29605738000000009 25.477500000000003 6.8712805563596424 45.458333333333343 132.45232978544792 78.590000000000003 2.5000000000000004 15.64666666666667 59.606324400000005 39.160867305056449 54.645593800000007 25.746994071817401 46.958333333333343 22.667715346522403 1625.5055000000002 61.015047169811332 59.293333333333344 9.6465724168000015 56.985000000000007 6.7320412525755176 62.985833333333346
decision_type=2 2 2 2 2 2 2 2 2 2 2 2 2 2 2 2 2 2 2 2 2 2 2 2 2 2 2 2 2 2 2 2 2 2 2 2 2 2 2 2 2 2 2 2 2 2 2 2 2 2 2 2 2 2 2 2 2 2 2 2 2 2
left_child=2 3 11 6 8 58 60 -8 9 -3 57 30 13 28 -12 20 26 -13 32 22 21 -10 -20 -22 -6 -26 27 -17 29 -5 -1 -32 33 -15 -29 41 51 -38 42 40 -40 -14 -39 -31 -45 46 -34 -48 -47 -23 -21 52 53 -37 -49 -56 -28 -11 -4 -7 -2 -27
right_child=1 4 5 12 24 59 7 -9 15 10 14 17 35 18 -16 16 -18 -19 19 50 23 49 -24 -25 25 61 56 34 -30 43 31 -33 45 -35 -36 36 37 38 39 -41 -42 -43 -44 44 -46 48 47 54 -50 -51 -52 -53 -54 -55 55 -57 -58 -59 -60 -61 -62 -63
leaf_value=-1.0016346071428535 0.76072898160798375 -0.18332986213930258 -1.0958581947919095 -0.67984850302761934 -0.39014974892139437 -2.4790719810128214 -1.5656883919239046 0.82602002223332738 0.63657038895751938 -3.0514035868644718 -0.12794809919415098 -2.6245821034908299 -0.4619214897446165 0.44688843622105195 -1.6594271369278433 0.37239121451601387 0.72551906605561578 -1.2686944100591873 -1.1004924270812244 0.78506358494474138 0.19379299560189248 -1.1352389685437083 0.58991482413333396 -0.84550813635190336 -0.12270107865333557 0.30231273624955157 -1.1564966713827922 -0.050314833806908654 0.85459677951676505 0.44143594626199323 -2.4620711081368585 -1.0986002690651837 0.15960714514160979 -1.0991606167384558 -1.4993239066004753 0.23100204992053264 -1.6054582107634774 0.35065218785085378 -1.4471177130718442 0.28650657253960771 -0.11170056319236757 0.65083459961732903 -0.75788642849240995 -0.50575524172612596 0.32106428286608529 -0.38890066938948331 1.2280326001783672 0.59043056033773433 0.40809689656713277 0.047835131353802157 1.5717341400470053 0.61093620962874839 0.63772161542543815 -0.53961158826044109 -0.057870026388542453 0.9443328499794007 -0.53752228949526581 -1.747075505690141 -2.1021454198019849 -3.5997833229246599 1.3172998527325497 1.0649426717419439
leaf_weight=275 74 73 33 55 40 20 20 30 110 20 33 40 22 20 32 50 24 36 21 264 50 20 23 66 44 41 82 23 35 108 35 68 237 21 20 68 21 113 34 30 25 107 21 70 51 59 58 504 71 45 35 86 44 66 94 26 109 22 35 42 193 86
leaf_count=275 74 73 33 55 40 20 20 30 110 20 33 40 22 20 32 50 24 36 21 264 50 20 23 66 44 41 82 23 35 108 35 68 237 21 20 68 21 113 34 30 25 107 21 70 51 59 58 504 71 45 35 86 44 66 94 26 109 22 35 42 193 86
internal_value=-0.143126 0.224543 -1.5368 0.392566 -0.234721 -2.38854 0.958989 -0.130663 -0.404812 -0.945393 -1.46531 -1.29291 0.317406 0.394702 -0.881907 -0.242367 -0.482254 -1.98232 0.467797 0.736808 0.0115349 0.282689 -0.21687 -0.397534 0.393247 0.576497 -0.58432 -0.134668 0.0663502 -0.0307929 -1.1543 -1.56192 0.383145 -0.34499 -0.724273 0.104812 0.0143468 -0.218876 -0.0883015 -0.487633 -0.881263 0.461062 0.176926 0.125094 -0.157261 0.411604 0.463267 0.568791 0.0463826 -0.316188 0.877149 0.229902 0.0458063 -0.148554 0.507516 0.159274 -0.80326 -2.36818 -1.6138 -3.23826 1.16304 0.818739
internal_weight=4280 3696 584 2706 990 130 317 50 779 180 107 454 2389 1752 65 599 308 76 1433 343 291 175 44 116 211 171 284 93 319 284 378 103 1090 41 43 637 508 244 223 89 59 129 134 229 121 1049 919 682 130 65 299 264 178 134 624 120 191 42 68 62 267 127
internal_count=4280 3696 584 2706 990 130 317 50 779 180 107 454 2389 1752 65 599 308 76 1433 343 291 175 44 116 211 171 284 93 319 284 378 103 1090 41 43 637 508 244 223 89 59 129 134 229 121 1049 919 682 130 65 299 264 178 134 624 120 191 42 68 62 267 127
is_linear=0
shrinkage=0.05


Tree=8
num_leaves=63
num_cat=0
split_feature=73 53 60 8 10 13 5 51 34 73 5 20 65 32 51 68 10 33 24 52 76 41 46 22 50 19 29 40 74 46 38 10 20 14 76 4 72 65 28 49 76 52 10 49 51 51 4 55 59 73 2 9 19 44 58 23 51 75 10 36 73 46
split_gain=618311 94205.7 49283.7 42237.6 42078.2 37187.8 30953.8 29109.1 21052.3 18770.1 18742 18809 16615.4 14396.2 13711.1 12173 13103.1 11647.6 11563.8 12383.1 11336.5 11110.3 11029.6 10938.9 10363.7 11382.4 13233.7 10210 9912.47 13841.3 15426.5 11068 9671.13 9643.61 10489.7 10567.7 9597.62 9509.31 9096.71 9079.32 9078.12 9016.12 8938.56 10505.4 8551.52 9821.94 13627.7 8572.6 8210.7 8132.29 7967.2 7684.07 7519.98 7163.03 7046.43 7017.77 6985.9 6884.93 6876.59 8032.23 7117.03 6712.36
threshold=97.855485948637281 57.941267160000002 0.96197230000000011 15.500000000000002 1.5000000000000002 72.464406666666648 1.5339953992000004 0.76355568080000014 919.03060000000016 129.48410669861315 3.4907917968000004 20.753333333333334 109.19421333333337 767.08478333333358 8.698412289600002 22.663765890017721 2.5000000000000004 804.57576666666671 39.50833333333334 3.7087637224000001 21.698024794366734 64.656666668333358 65.116666666666674 20.60166666666667 3.7232549464000004 22.051666665000003 750.71996666666678 28.100000000000009 29.104994903103329 80.006666666666675 27.618333333333336 3.5000000000000004 21.595833333333335 94.506520000000009 20.187043369769551 77.892500000000027 39.160867305056449 41.982019999999999 43.791666666666671 1.1848529440000002 25.972912127657072 4.0393105192000007 5.5000000000000009 42.723718672800011 7.0927253496000011 1.9907834496000001 56.933333333333344 48.678479640000006 0.28995802000000009 118.50790619486339 1157.2167666666667 4.5000000000000009 14.570000000000002 79.739166666666691 56.20734826000001 77.233333333333348 3.2976894104000007 121.34838810795056 3.5000000000000004 29.264166666666668 134.9611958547151 84.743333333333354
decision_type=2 2 2 2 2 2 2 2 2 2 2 2 2 2 2 2 2 2 2 2 2 2 2 2 2 2 2 2 2 2 2 2 2 2 2 2 2 2 2 2 2 2 2 2 2 2 2 2 2 2 2 2 2 2 2 2 2 2 2 2 2 2
left_child=2 4 37 7 6 14 -2 -3 55 10 11 23 18 -14 -4 28 -17 -5 19 -9 -8 41 -13 51 48 26 40 -19 33 -30 31 -31 42 -12 -35 52 -18 -1 54 -37 -26 -20 43 -23 45 46 -15 -47 -11 -25 -22 -6 57 -27 -28 -7 -24 -36 -40 -60 61 -61
right_child=1 3 5 17 9 8 20 12 -10 24 15 22 13 44 -16 16 36 27 21 -21 50 32 56 49 25 53 38 -29 29 30 -32 -33 -34 34 35 39 -38 -39 58 -41 -42 -43 -44 -45 -46 47 -48 -49 -50 -51 -52 -53 -54 -55 -56 -57 -58 -59 59 60 -62 -63
leaf_value=-2.0859347160863266 -0.49300212264907634 -1.8733118591209252 -1.9790045427515155 -0.40015945119016316 0.27762853480351057 -2.9881810133904221 0.26977044589379257 -0.49032192359099525 -3.5107075488567356 -0.36908778253942731 -0.47317778962897139 -1.5837914635737738 0.72330119830538653 -0.94599888688669764 -0.86503874693733107 -0.13153707268130449 0.77757582779283885 -0.034864981148553929 -0.45312787450384351 -1.8450645677985684 0.86187347866256125 0.27565847551732353 0.27530367215474449 -0.94702511179447191 -0.14405314350811146 -0.2194776636362076 0.56177379626236612 0.82766864711487731 0.5219175346195698 -1.4045661760822816 0.25911916621182474 0.077769253253936771 -1.2305453957513324 0.056062046286145542 -1.0004754642862828 1.5631859393417837 1.6689645830322715 -1.0124236770266852 -0.88362842120470553 0.66738172786329131 -1.3293574704442706 0.68597266799525214 -0.73758826281713408 -1.032431671023369 0.42969972466935924 -0.93128849878588604 0.36393860241486914 -0.11599771428321089 0.61011287066460462 0.19713418515989695 1.4548419087656639 1.0140051832905523 0.46819616732746366 0.49814966276190642 -0.45645712553745227 -1.9397048888515824 -0.86918544881045823 0.28131825940852817 0.29321971880861475 -0.14134759603156929 0.091260020872578035 -1.3332388313280212
leaf_weight=22 33 30 47 34 103 20 34 37 40 25 24 21 53 26 67 36 270 46 32 31 88 66 30 25 30 45 89 135 128 34 73 20 43 96 20 30 34 331 31 495 35 38 92 20 49 76 84 56 149 41 159 54 100 153 21 79 24 22 79 21 40 27
leaf_count=22 33 30 47 34 103 20 34 37 40 25 24 21 53 26 67 36 270 46 32 31 88 66 30 25 30 45 89 135 128 34 73 20 43 96 20 30 34 331 31 495 35 38 92 20 49 76 84 56 149 41 159 54 100 153 21 79 24 22 79 21 40 27
internal_value=-0.140367 0.26232 -1.46106 -0.167279 0.41101 -1.99367 0.95563 -0.348031 -2.54265 0.34049 0.433124 0.073483 -0.282941 -0.0346182 -1.32431 0.510673 0.770456 0.448958 -0.520888 -1.10793 1.12575 -0.383711 -0.611479 0.303852 0.131597 0.0286517 -0.133995 0.608461 0.425907 0.154985 -0.214836 -0.855553 -0.557587 0.51369 0.544732 0.615065 0.877271 -1.07933 0.00282077 0.718571 -0.782294 0.165241 -0.395019 -0.0285485 -0.172659 -0.294624 0.054317 -0.585408 0.469423 -0.236259 1.24358 0.530905 0.232388 0.335053 0.367384 -2.15152 -0.233358 -0.32906 -0.199714 -0.0727604 -0.401311 -0.811786
internal_weight=4293 3687 606 948 2739 253 314 733 139 2425 1680 298 703 344 114 1382 340 215 359 68 281 291 75 223 745 571 373 181 1042 255 127 54 221 787 763 667 304 353 308 525 65 70 178 86 291 242 110 132 174 66 247 157 142 198 110 99 54 42 198 167 88 48
internal_count=4293 3687 606 948 2739 253 314 733 139 2425 1680 298 703 344 114 1382 340 215 359 68 281 291 75 223 745 571 373 181 1042 255 127 54 221 787 763 667 304 353 308 525 65 70 178 86 291 242 110 132 174 66 247 157 142 198 110 99 54 42 198 167 88 48
is_linear=0
shrinkage=0.05


Tree=9
num_leaves=63
num_cat=0
split_feature=80 53 6 10 76 36 73 47 38 76 50 54 50 68 75 75 27 30 32 70 43 72 7 21 36 38 4 70 55 17 65 10 16 45 6 55 1 48 37 1 38 53 13 72 13 10 42 48 21 75 68 2 73 9 23 76 35 25 71 55 37 41
split_gain=523741 87658.2 43360 37514.6 34499.2 27372.3 23271.3 24239.4 22372.7 14872.8 14496.7 13788.7 13017.3 12986.2 15589 12563.8 16449.2 12387.7 12097 11784.2 10713.5 10295.6 10001.2 9588.83 9039.91 9037.02 9295.37 13287.3 10276.3 10090.1 9601.06 9170.22 9564.34 8705.38 8704.43 8697.14 8556.03 8443.28 8324.35 7848.21 7576.12 7368.94 7250.68 7657.36 7080.03 7035.36 7343.32 6944.85 6920.95 6906.32 6772.92 6725.9 6703.22 12012.6 12063.7 6845 8151.24 6873.12 6648.22 6427.73 10622.8 6292.19
threshold=2.4623676538467412 56.965979000000011 56.374464720000006 1.5000000000000002 24.059988333907281 28.9575 121.32649387639084 1.0555514904000003 29.744166666666668 32.559988019615439 10.701670997600003 92.030345680000011 2.9854981640000005 20.968502709108712 123.31408887672063 126.30357976407758 43.791666666666671 1187.0335666666667 771.53495000000009 27.522318409700919 76.330000000000027 23.672908172668944 0.19636900000000004 16.870833333333341 29.332499998333336 25.32 76.53408805031448 16.903290626739466 47.846098020000007 13.041666666666666 136.71508888888891 2.5000000000000004 164.02671999999995 56.985000000000007 52.296276060000004 74.42008770000001 54.358333333333341 1.6110418192000002 27.953452380952388 126.10639165000002 34.141666666666673 74.656298080000013 125.06017333333328 31.992949646980311 129.90727831749999 3.5000000000000004 61.922500000000007 2.1740009192000005 13.923333333333337 127.77016238169962 8.0301769051034437 1168.4936333333335 133.47351750671743 2.5000000000000004 50.19166666666667 20.187043369769551 26.65249999833334 35.166666666666671 111.70100493395029 52.065881000000012 27.0425 76.541588051981151
decision_type=2 2 2 2 2 2 2 2 2 2 2 2 2 2 2 2 2 2 2 2 2 2 2 2 2 2 2 2 2 2 2 2 2 2 2 2 2 2 2 2 2 2 2 2 2 2 2 2 2 2 2 2 2 2 2 2 2 2 2 2 2 2
left_child=2 3 9 8 39 6 7 -3 50 59 12 34 15 25 23 17 -17 -8 -14 -20 -9 -22 -18 42 -11 -5 27 30 29 -28 -27 36 52 -6 -7 45 -30 -25 -23 -4 -19 49 -15 47 -12 46 -16 -44 -34 58 -2 -29 55 54 -54 56 -33 -57 -36 60 -1 -32
right_child=1 5 4 13 33 11 10 20 -10 24 44 -13 18 14 35 16 22 40 19 -21 21 38 -24 37 -26 26 28 51 31 -31 61 32 48 -35 41 -37 -38 -39 -40 -41 -42 -43 43 -45 -46 -47 -48 -49 -50 -51 -52 -53 53 -55 -56 57 -58 -59 -60 -61 -62 -63
leaf_value=-0.97225801653482691 0.74517536547278396 -2.3556972914306575 -1.040397509651364 -0.67130220102620886 -2.0538093728678568 0.69891327067837128 1.1335099640375885 -1.3761078156743731 -0.38765641609827678 -2.328425619408891 1.3619495602697134 -0.72022006942166228 0.47109041390093892 0.72931389004343017 0.21156514543433522 0.5314898303764708 -1.4626412067587651 -0.65104778409004216 -1.0017681050513472 0.26399377530271356 -0.8565079433021423 0.46882919158254355 -0.33982147917098099 -0.3221678957414742 -1.2074832057952882 -0.50292749773859302 -1.1335089141841639 0.070297256573639097 1.0650085305697343 0.14028726478792586 -0.25078167915344241 -0.87661738034337766 -0.92402176547050474 -3.2669146518707275 -0.2674580276012421 0.98402093682342606 0.022525845883557431 0.75388480561678528 -0.60160851385444403 -2.1302232344945273 0.6258201814833142 -0.67154689025878911 0.32352615579962735 2.0245151969604196 0.1886328244374858 0.36185108882835115 -0.78002447526563301 1.610885767232288 0.17187407441875513 -0.12985667915313276 1.2504684499459353 0.63328097380697734 -1.2036432267776851 0.40939817386761046 0.11595854294854542 -0.051647591103542723 0.26104900591276786 0.51477720591543408 0.66294738103558004 -0.86064974667080119 -1.9939049755272114 0.67771500353072145
leaf_weight=77 110 22 53 26 21 100 38 35 30 37 20 36 22 69 43 51 23 26 112 22 65 42 144 26 35 124 22 113 81 53 36 20 25 50 24 39 26 61 32 24 21 25 20 32 36 166 33 22 34 77 167 100 29 114 43 58 74 699 96 259 38 37
leaf_count=77 110 22 53 26 21 100 38 35 30 37 20 36 22 69 43 51 23 26 112 22 65 42 144 26 35 124 22 113 81 53 36 20 25 50 24 39 26 61 32 24 21 25 20 32 36 166 33 22 34 77 167 100 29 114 43 58 74 699 96 259 38 37
internal_value=-0.130399 0.230925 -1.37154 0.391217 -2.11312 -0.148737 -0.32827 -0.791953 0.909341 -1.12546 -0.1518 0.20782 -0.244459 0.319728 0.540956 -0.0534016 -0.254445 0.462216 -0.615552 -0.793956 -0.594238 -0.397364 -0.494461 0.846208 -1.78352 0.253772 0.268021 0.0608683 0.334478 -0.23336 -0.235105 0.36988 0.326746 -2.90811 0.311577 0.291105 0.811695 0.432306 0.00593721 -1.38008 -0.0805323 0.137101 1.09802 1.44182 0.607675 0.179437 -0.218994 0.997857 -0.292489 0.239721 1.04981 0.334609 0.361978 0.0900643 -0.415548 0.421409 0.0189923 0.471379 0.476866 -0.998771 -1.30985 0.219826
internal_weight=4195 3601 594 2532 148 1069 711 196 307 446 515 358 459 2225 511 303 218 85 156 134 174 139 167 230 72 1714 1688 410 1278 75 197 1203 1096 71 322 281 107 87 74 77 47 222 143 74 56 242 76 42 59 197 277 213 1037 186 72 851 94 757 120 374 115 73
internal_count=4195 3601 594 2532 148 1069 711 196 307 446 515 358 459 2225 511 303 218 85 156 134 174 139 167 230 72 1714 1688 410 1278 75 197 1203 1096 71 322 281 107 87 74 77 47 222 143 74 56 242 76 42 59 197 277 213 1037 186 72 851 94 757 120 374 115 73
is_linear=0
shrinkage=0.05


Tree=10
num_leaves=63
num_cat=0
split_feature=73 53 6 60 10 50 51 73 34 38 6 65 24 45 56 32 27 35 55 36 52 70 47 40 76 16 33 47 40 6 40 39 63 29 34 24 15 71 76 57 73 38 15 44 65 40 1 72 58 70 27 64 72 10 37 55 68 63 22 33 1 16
split_gain=452688 85183.7 40643.1 39782.3 39083.7 29870.4 21780.7 15772.5 15651.4 15550.4 17184.2 15253.8 16130.6 15458.3 14334.3 14097.7 14036.8 11595.8 11403 11267.1 10511.4 10335.2 18975.5 9990.41 12529.1 11001.1 9981.35 9834.44 9504.55 9401.37 9283.95 9261.03 9090.14 9089.27 8978.28 10670.5 8791.16 9415.68 11220.8 8762.84 8070.89 20185.7 12271.1 8391.29 8006.96 7563.78 7355.04 6814.51 6752.11 6719.81 6548.13 6587.63 6656.86 6162.13 6073.22 6064.47 5944.08 5745.64 8725.57 5511.28 5377.66 5342.56
threshold=97.855485948637281 56.529544820000005 53.888985780000006 1.0220711700000003 1.5000000000000002 6.5096621480000012 0.73359302720000008 130.38897160881649 790.15610000000015 28.98416666666667 54.566613640000007 108.56272939203357 39.950464226630132 58.803333333333335 61.647936840000007 742.09230000000014 82.725000000000009 31.775833335000005 53.485334560000005 28.67166666666667 2.8951704760000005 19.89482441710479 26.398943357600004 26.555086206896558 32.892838890410864 138.36811999999995 996.54250000000013 2.9868484184000006 26.804166666666671 49.105196140000004 28.000833333333336 26.73833333333334 0.52003463000000016 1231.2809333333335 869.87864999999999 41.991666666666667 139.79805960784307 115.06952926797202 28.417880310472082 57.046496780000005 123.51758050851279 26.85916666666667 146.65538440251564 77.155000000000015 37.91349889 26.385000000000002 74.927896760199545 27.3266694471025 54.770753520000007 12.418255988910973 42.475000000000001 0.22754700000000003 24.170923214577446 4.5000000000000009 26.584166666666668 58.483786340000002 24.561021722713345 1.6720460100000003 9.4875000000000025 1761.2016435111257 43.57500000000001 90.028592595000006
decision_type=2 2 2 2 2 2 2 2 2 2 2 2 2 2 2 2 2 2 2 2 2 2 2 2 2 2 2 2 2 2 2 2 2 2 2 2 2 2 2 2 2 2 2 2 2 2 2 2 2 2 2 2 2 2 2 2 2 2 2 2 2 2
left_child=3 4 19 44 9 8 -4 21 32 28 -11 12 13 -8 18 -13 47 27 36 -3 -9 22 40 26 25 -25 -22 -15 -2 -27 56 53 -5 60 35 -35 37 -14 39 -39 41 -6 -42 -43 -1 55 -32 -7 -18 -44 -36 -52 -53 -23 -47 -33 -21 58 -56 -38 -17 -60
right_child=1 2 6 5 7 16 11 20 -10 10 -12 15 14 17 -16 33 48 -19 -20 30 23 31 -24 24 -26 29 -28 -29 -30 -31 46 45 -34 34 50 -37 59 38 -40 -41 42 43 49 -45 -46 54 -48 -49 -50 -51 51 52 -54 -55 57 -57 -58 -59 61 -61 -62 -63
leaf_value=-1.807884866334498 0.72280536036154164 -0.53008221351990004 -1.5741452858550475 -1.2350873697797458 -1.3894617900830406 -1.3394948055121034 -2.1779319002377715 0.52534076017992837 -3.0796304692392766 1.0328485977082025 -0.98989136559622626 0.79378125616551742 0.60318368080883256 -1.810402713418007 -1.016136907400756 -0.25836860435083508 -0.59900892672480133 0.23722066432237626 -0.97453719840237962 -0.39982970169612342 -0.53963930070400234 -0.5941691362652286 0.57484018446972773 0.12464846772994816 -1.3585444784164429 -1.151744196840695 0.72690909181322372 -0.45716916014408249 1.339746883834132 -0.17972444874602697 0.60131939952020297 -0.67760265983995938 -2.4062877983660313 -0.56975804364681248 0.061373543922717759 0.713587589432364 0.13902447639509691 -0.17744535906612874 0.12402312792353816 -1.0771388422697783 0.44523672377790818 -0.40524921803673108 -1.1202657353310357 0.2552531069478215 -0.87989148842424081 1.1962373613705859 1.5349725084304811 -2.5703824831091842 -1.6043204918503762 0.06293383022504194 -1.1088261047476216 -0.69303168147802363 -0.039577186107635498 0.31867412866330613 1.4240268229817352 0.39717022810663494 0.66422194654033306 0.73082030126369091 0.94394306770047631 1.1272191558565412 0.73403327700703647 0.30923550946573758
leaf_weight=25 114 27 32 30 29 22 22 105 46 21 21 46 31 25 58 20 61 24 38 35 20 29 274 238 20 35 70 29 138 86 135 21 37 25 65 46 43 50 77 59 186 75 21 134 331 40 25 23 23 28 38 80 76 51 21 35 21 286 37 21 43 319
leaf_count=25 114 27 32 30 29 22 22 105 46 21 21 46 31 25 58 20 61 24 38 35 20 29 274 238 20 35 70 29 138 86 135 21 37 25 65 46 43 50 77 59 186 75 21 134 331 40 25 23 23 28 38 80 76 51 21 35 21 286 37 21 43 319
internal_value=-0.11876 0.202951 -0.14401 -1.2813 0.371342 -1.77593 -0.291889 0.297725 -2.36945 0.912201 0.0214786 -0.247094 -0.442836 -1.00739 -0.293087 -0.0344087 -1.25602 -0.677239 -0.161623 0.432901 0.0731354 0.379008 0.243738 -0.0281046 -0.140559 -0.0727048 0.445454 -1.08367 1.06065 -0.460887 0.553273 0.499444 -1.88187 -0.131347 -0.23641 0.261705 -0.0516916 -0.203571 -0.338031 -0.664435 0.0519375 -0.153295 0.25979 0.0182307 -0.94506 0.553375 0.747203 -1.96862 -0.874273 -0.444152 -0.37296 -0.518483 -0.374682 -0.0122316 0.597924 -0.0058696 -0.000810334 0.561827 0.433625 0.463276 0.418985 0.375202
internal_weight=4243 3645 1191 598 2454 242 948 2160 113 294 42 916 477 100 377 439 129 78 319 243 574 1586 747 469 379 359 90 54 252 121 216 839 67 393 330 71 281 217 186 109 473 238 235 209 356 759 160 45 84 49 259 194 156 80 703 56 56 663 377 64 63 356
internal_count=4243 3645 1191 598 2454 242 948 2160 113 294 42 916 477 100 377 439 129 78 319 243 574 1586 747 469 379 359 90 54 252 121 216 839 67 393 330 71 281 217 186 109 473 238 235 209 356 759 160 45 84 49 259 194 156 80 703 56 56 663 377 64 63 356
is_linear=0
shrinkage=0.05


Tree=11
num_leaves=63
num_cat=0
split_feature=80 53 6 6 10 76 40 4 39 76 51 25 73 0 75 19 10 73 34 42 68 25 36 76 45 25 7 62 4 46 17 33 39 72 19 58 45 10 7 74 21 55 76 16 76 46 48 30 22 59 55 1 41 52 64 76 44 60 73 19 55 59
split_gain=448202 81986.5 37923.7 36722.9 31113.2 28673.4 21839.4 19003.9 19188.2 18079.1 17982.1 14349.1 13635.9 13166.8 12363.4 12210.9 16890.7 21614.5 11886 11697.8 11410.2 10940.1 10820.7 10459.6 10656.4 10281.6 10249 11867.9 10543.5 11832.4 9706.38 12769.3 9583.63 9459.12 10617.7 9610.86 9238.28 17177.9 11830.1 9113.75 10769.4 10873.8 7999.99 8474.95 7904.94 7533.71 8289.14 12438.7 7357.17 7310.2 7124.86 7045.05 6771.02 6592.69 6316.29 6052.37 6803.98 6012.69 5886.56 5755.07 5737.84 10036.8
threshold=2.4623676538467412 56.446737760000012 54.566613640000007 56.020834660000013 1.5000000000000002 23.976959092745066 32.920833333333341 61.018380504811326 34.13750000000001 21.837892407499247 1.1321798400000003 63.058333333333344 130.52170268366348 16.73416666666667 122.87813156223 18.055833333333336 4.5000000000000009 119.22858514520361 1020.3653 74.78778302000002 40.002777379495889 45.893396226415099 28.595000000000002 32.414415196767891 71.180000000000021 113.84046205000001 1.7039445100000001 4.5085994900000008 79.017500000000027 65.554355345911958 21.147500001666668 1292.5391666666671 32.174166666666672 17.563334342620738 12.547500000000005 50.632117480000012 88.173333333333332 7.5000000000000009 1.8444695200000003 25.840740032103074 12.19166666666667 46.90292250000001 17.682435618017816 154.29685333333319 30.289453589952018 56.477500000000006 5.0538026000000009 949.19518050314468 17.421027468018362 0.49554287000000002 46.404821820000002 62.97413085346021 75.041981132075492 1.8937308544 0.99246255000000017 23.766581830952084 69.480676100628941 2.4349533300000004 123.67750680598922 13.251666666666669 52.120450340000012 1.3503545500000003
decision_type=2 2 2 2 2 2 2 2 2 2 2 2 2 2 2 2 2 2 2 2 2 2 2 2 2 2 2 2 2 2 2 2 2 2 2 2 2 2 2 2 2 2 2 2 2 2 2 2 2 2 2 2 2 2 2 2 2 2 2 2 2 2
left_child=3 4 22 23 9 25 11 10 18 -2 14 15 20 36 -8 16 17 -4 -9 -17 26 50 -3 60 -25 -5 27 28 45 -30 -19 -32 -7 -31 35 -35 44 38 -38 40 -18 -42 -15 -44 -14 -6 -47 -48 -12 59 -21 53 -20 -24 -53 56 -23 -11 -37 -41 61 -1
right_child=1 2 6 5 12 32 7 8 -10 57 48 -13 13 42 -16 19 39 30 52 21 -22 55 51 24 -26 -27 -28 -29 29 33 31 -33 -34 34 -36 58 37 -39 -40 49 41 -43 43 -45 -46 46 47 -49 -50 -51 -52 54 -54 -55 -56 -57 -58 -59 -60 -61 -62 -63
leaf_value=-0.95042846947107273 -0.17581529882981589 -0.44475233272422809 -0.88040656401509687 -0.88355404585599906 -0.83542034068906856 -2.9394731705648862 -2.7125320915753646 -1.1574670424570843 1.0409008432518352 1.1175583302911714 -0.016181634153638567 0.60464267905416158 -0.14105519462203564 1.175881292939186 -1.1387967100510232 0.11452243060901249 -1.4134938751161099 1.0180591442295024 -0.77298428043723111 -0.71441150507607476 0.95471182392864695 0.67087528328834622 0.98098457716405396 -1.2077385938392498 -2.5622559070587161 -2.1030435085296633 0.50656593321633292 -0.85511308933297792 1.1222932207275111 -0.1610940452158684 0.94111985071845672 -0.70754703283309939 -1.689975945154826 -0.6247202963488443 0.63596949248283163 0.024858155665975629 -0.8378325047178401 -1.8221759977794829 0.44398832515709935 -0.13395993416347812 -0.90541453144472583 0.13208414020815068 0.31838169341892691 -0.74943719387054442 0.64175136266059662 0.33697456592920599 -0.50297820739289545 0.48629860836857308 -1.1729483288747293 -0.66801247050364809 -1.7700381313600848 0.29196745865839596 0.29975851499720624 0.070587722247402215 1.0312343954642615 -0.70747712165562082 -0.55906054286853135 0.54909904824880262 0.76648280623886322 0.8147809167702994 -0.78400009190245556 -2.0158157594245054
leaf_weight=93 38 37 28 56 22 57 24 49 22 207 28 58 129 25 26 58 30 74 24 33 82 22 24 53 20 25 615 24 53 80 23 24 21 35 246 66 36 21 36 31 46 56 262 20 43 189 94 48 27 24 31 47 38 116 75 67 23 60 45 33 245 29
leaf_count=93 38 37 28 56 22 57 24 49 22 207 28 58 129 25 26 58 30 74 24 33 82 22 24 53 20 25 615 24 53 80 23 24 21 35 246 66 36 21 36 31 46 56 262 20 43 189 94 48 27 24 31 47 38 116 75 67 23 60 45 33 245 29
internal_value=-0.118841 0.207418 -0.132144 -1.26758 0.371713 -1.91883 -0.294382 -0.70508 -0.308097 0.844589 -1.20793 -0.146505 0.30528 0.0957682 -1.89419 -0.218755 -0.0395795 0.371474 -0.575466 -0.501302 0.380227 -0.704244 0.355656 -1.03224 -1.57884 -1.25994 0.349174 0.241861 0.271846 0.413923 0.661165 0.0992474 -2.60307 0.334382 0.435499 0.0977202 -0.162434 -0.563915 -0.196922 -0.317975 -0.580736 -0.335807 0.318646 0.24265 0.0546464 0.060542 0.120092 -0.168575 -0.584049 0.0761672 -1.22573 0.46869 -0.115497 0.226656 0.746435 -0.406251 0.0422414 0.989815 0.325517 0.355235 -0.923511 -1.20368
internal_weight=4273 3674 1198 599 2476 159 899 238 133 305 105 661 2171 572 50 603 369 149 111 234 1599 176 299 440 73 81 1517 902 878 525 121 47 78 472 392 146 265 93 72 220 132 102 307 282 172 353 331 142 55 88 64 262 62 140 122 112 45 267 111 64 367 122
internal_count=4273 3674 1198 599 2476 159 899 238 133 305 105 661 2171 572 50 603 369 149 111 234 1599 176 299 440 73 81 1517 902 878 525 121 47 78 472 392 146 265 93 72 220 132 102 307 282 172 353 331 142 55 88 64 262 62 140 122 112 45 267 111 64 367 122
is_linear=0
shrinkage=0.05


Tree=12
num_leaves=63
num_cat=0
split_feature=73 7 3 60 10 23 51 22 10 5 9 24 68 0 32 36 13 37 55 57 5 7 69 46 56 67 68 69 72 18 10 44 22 20 72 52 10 72 37 47 56 32 71 44 63 15 9 68 72 54 56 8 70 25 60 42 29 5 44 5 27 3
split_gain=395296 69203.7 38112.8 37807.2 35723.5 25384.9 24995.7 20594.9 20987.1 20764.5 20121.2 18098.7 17244.7 14753.6 13683.3 13625.2 11725.7 11645.9 15068.3 11581.4 11105.9 10766.7 11832.4 11516.5 12634.7 9822.03 9913.74 13612.8 9342.59 10213.5 8265.65 8689.02 8621.03 8187.88 7479.12 7410.91 7361.56 7329.32 7327.03 7197.18 9778.05 7047.55 6944.96 7507.71 6665.96 6824.29 7878.2 10771.1 6590.4 6495.14 6427.27 6380.31 6171.3 6515.02 8029.67 6605.69 6170.17 6114.09 5988.88 5983.55 6808.54 5936.27
threshold=97.855485948637281 0.54387532000000005 30.270833333333339 1.0042329000000001 1.5000000000000002 94.909293105000003 1.0578160384000004 20.733908044310351 4.5000000000000009 1.8429051696000001 1.0000000180025095e-35 40.608333333333341 25.000355389969226 21.730010466833551 1605.2185974358974 27.692499998333339 75.693980377358486 27.722040229885057 48.213538240000005 61.21390464000001 6.7181775848000012 1.7039445100000001 156.88384887733497 68.139999998333352 58.773182300000009 150.3825060972286 12.035418421612187 145.70166222222215 21.230374152587306 18.990000000000006 4.5000000000000009 84.875833333333347 15.495833333333335 10.560833333333337 23.353977842794155 2.8951704760000005 1.5000000000000002 27.481661281926545 26.661666668333339 29.012299544800005 46.042267880000004 1720.582266666667 113.99189482656561 75.833333333333357 0.69287472000000017 159.80521333333328 1.5000000000000002 4.9677807555574143 28.842006995279021 47.622732500000005 54.114357360000007 17.500000000000004 33.223653754609124 39.94166666666667 0.59600939000000019 75.093333333333334 2021.3305666666668 43.502503792000006 79.739166666666691 6.9653099208000011 63.058333333333344 27.022500000000004
decision_type=2 2 2 2 2 2 2 2 2 2 2 2 2 2 2 2 2 2 2 2 2 2 2 2 2 2 2 2 2 2 2 2 2 2 2 2 2 2 2 2 2 2 2 2 2 2 2 2 2 2 2 2 2 2 2 2 2 2 2 2 2 2
left_child=3 2 28 -1 51 15 10 8 13 48 -4 -12 14 34 -13 -5 -7 18 -9 -19 -11 23 33 24 42 26 27 39 29 30 32 -32 -2 41 -8 -31 -20 -18 -37 40 -25 58 -6 -44 45 46 49 -48 -10 -30 -27 59 53 -28 55 -55 -15 -35 -23 60 -3 -49
right_child=1 4 6 5 21 16 7 17 9 20 11 12 -14 56 -16 -17 37 19 36 -21 -22 22 -24 25 -26 50 52 -29 44 35 31 -33 -34 57 -36 38 -38 -39 -40 -41 -42 -43 43 -45 -46 -47 47 61 -50 -51 -52 -53 -54 54 -56 -57 -58 -59 -60 -61 -62 -63
leaf_value=-0.86604969177407121 1.3165893827824711 -0.33679415272455665 0.47752618756145238 -2.5113312380702308 1.448394597125783 -0.78369684480640989 1.494692245423193 -1.0069742736406624 0.11169976541965172 -0.74534430652369865 -2.2458027677144856 0.4142649420137916 -2.041281647341592 -0.7275067997093384 -1.1786631144010105 -1.1461476287764052 -1.3216532415304429 -1.5429020593945797 -0.32509123849868776 -0.34533050864031822 0.32183749244130894 0.76203226258214096 -0.68628511725304031 -1.1624511941918172 -0.35628709921965729 0.3380285270345797 0.58822864527372942 -1.2335206069328168 -0.063479409651564705 0.24244336022630983 -0.49016494713723663 0.46849611909725725 0.10710824131965638 0.59174959484032164 0.53549105530068031 -0.093047635528174313 0.86561537407062683 -2.4802583830697196 -1.2453005993688429 0.32504935232901028 -0.10120888631483171 -0.76676944315433504 0.24965189569823756 0.92507608599132962 0.5922252472390731 0.9184694313577243 0.50016644879871486 0.18236463933717462 1.1280549759214575 0.80782549901442102 1.3466429439457981 1.2016250300175937 0.60210670037195091 -0.069078120333659981 0.40324182943964842 -0.93941708248681755 0.30240732864900072 0.26758699429216726 0.029447504041754471 0.89848774728034775 0.78917078684116237 -0.62636067287471053
leaf_weight=349 26 25 20 89 24 73 31 39 58 153 32 28 21 26 26 23 39 52 25 33 29 39 24 24 37 56 57 27 35 23 60 39 34 556 59 22 27 21 37 87 227 20 96 72 150 28 49 32 22 55 22 103 80 135 80 26 33 197 98 124 29 78
leaf_count=349 26 25 20 89 24 73 31 39 58 153 32 28 21 26 26 23 39 52 25 33 29 39 24 24 37 56 57 27 35 23 60 39 34 556 59 22 27 21 37 87 227 20 96 72 150 28 49 32 22 55 22 103 80 135 80 26 33 197 98 124 29 78
internal_value=-0.114084 0.190656 -0.0881784 -1.20027 0.360789 -1.67637 -0.342153 -0.204547 -0.0107418 -0.280185 -0.978172 -1.25027 -0.825503 0.463045 -0.3527 -2.23098 -1.20932 -0.657128 -0.26404 -1.07796 -0.575299 0.286059 0.409557 0.176204 0.489742 0.0887494 0.0327154 -0.153148 0.183286 -0.0656121 0.168141 -0.112511 0.631217 0.438458 0.865883 -0.518866 0.29316 -1.72717 -0.815647 -0.066846 -0.202682 0.109998 0.652779 0.539119 0.323764 0.178388 0.0951659 -0.11643 0.391197 0.468985 0.62251 0.88842 0.212187 0.10751 -0.0061869 -0.20963 -0.151453 0.506942 0.237994 0.707183 0.267891 -0.391095
internal_weight=4241 3647 1382 594 2265 245 714 587 411 262 127 107 75 149 54 112 133 176 91 85 182 1984 934 1050 229 821 743 365 668 241 159 99 60 910 90 82 52 60 59 338 251 157 192 168 427 277 249 159 80 90 78 281 378 298 241 161 59 753 137 178 54 110
internal_count=4241 3647 1382 594 2265 245 714 587 411 262 127 107 75 149 54 112 133 176 91 85 182 1984 934 1050 229 821 743 365 668 241 159 99 60 910 90 82 52 60 59 338 251 157 192 168 427 277 249 159 80 90 78 281 378 298 241 161 59 753 137 178 54 110
is_linear=0
shrinkage=0.05


Tree=13
num_leaves=63
num_cat=0
split_feature=73 7 4 14 10 10 36 51 4 59 63 3 56 22 46 62 26 44 70 54 71 36 76 54 29 73 76 71 68 75 10 41 76 75 22 61 22 72 21 39 16 57 72 2 68 28 57 60 61 75 5 68 44 46 69 9 28 15 58 60 15 54
split_gain=344823 64505.3 41838.7 36139.3 28692 26866.1 17262 15834.1 21042.1 13764.5 13028.7 12110.2 11882.5 15327 11825.9 13466.8 11500.4 11405.5 10448.2 9725.04 9365.41 8938.55 16568.7 8256.13 7960.86 11657 7955.77 7442.48 7050.2 9180.53 8570.65 11226 7364.7 8046.43 6955.39 6523.09 11058.6 6482.09 6453.19 6356.79 6347.02 6326.37 6323.99 6284.99 6239.26 6188.59 6147.09 8406.86 6155.89 6008.96 6930.56 5888.18 5887.63 5583.23 5524.35 5513.27 5423.08 5030.32 5026.92 4941.47 4865.14 4754.52
threshold=107.47660916966946 0.58686297000000021 71.447500001666683 70.010378470877995 4.5000000000000009 1.5000000000000002 27.668333335000003 1.0578160384000004 53.052499998333339 0.65905183000000001 0.46284134000000005 25.445423728813562 58.260995100000009 20.423333333333336 63.697499999999998 0.65944876000000008 38.841194968553467 60.663333333333334 20.817058441359986 92.030345680000011 122.72232608293339 27.454166666666669 28.275304271142417 52.993960600000001 900.52470000000005 128.80499729972533 26.357544222995482 66.086048019625011 20.968502709108712 121.68384139757433 2.5000000000000004 73.983333333333348 26.789403235083508 130.49866600342915 13.012500001666668 0.34038909000000001 13.939166666666669 24.512675903300629 26.010608504918029 32.060833333333342 149.51038666666668 48.080754120000002 30.487016824171075 972.67753333333349 6.7320412525755176 57.208333333333343 55.943556760000007 0.35334368000000005 2.3904421500000006 121.86937826704143 3.0621924256000006 8.3589652776988554 76.858333333333348 79.870000000000019 135.76654116551575 2.5000000000000004 51.491666666666667 99.354493333333281 52.7720445 0.72701856000000009 126.36272000000001 51.42862130000001
decision_type=2 2 2 2 2 2 2 2 2 2 2 2 2 2 2 2 2 2 2 2 2 2 2 2 2 2 2 2 2 2 2 2 2 2 2 2 2 2 2 2 2 2 2 2 2 2 2 2 2 2 2 2 2 2 2 2 2 2 2 2 2 2
left_child=3 2 7 6 17 39 10 8 -2 18 -1 -7 13 40 -15 -16 -10 -4 20 28 -6 22 44 -14 56 -26 52 -12 30 -30 31 58 46 37 -11 -35 -37 -34 45 43 -9 55 -8 -3 -5 -18 48 -48 -32 -36 -51 -45 -22 -25 -38 -39 60 -31 -13 -23 -19 -27
right_child=1 5 4 21 9 11 42 12 16 34 27 19 23 14 15 -17 38 24 -20 -21 26 59 -24 53 25 61 -28 -29 29 57 32 -33 33 35 49 36 54 41 -40 -41 -42 -43 -44 51 -46 -47 47 -49 -50 50 -52 -53 -54 -55 -56 -57 -58 -59 -60 -61 -62 -63
leaf_value=-1.3192218499797348 -2.2461716251363133 0.50347931307695082 -0.60005191275849945 -0.73843722167340198 -0.11617536800091757 -0.5811966126569762 -0.73493540103131161 0.31486200537183323 -1.5722720975225624 -0.40975519921630621 -3.1198279421638562 0.54464705664226243 -0.075402304772720793 -1.2309468580507918 0.57396002727396345 -0.83331203811308918 0.41600506253102254 0.57372754369862378 0.37438288717656526 -0.6908652963737647 -1.6100769790443215 -0.8038304703899577 -2.1340673267841339 -0.81159360540600933 1.2967990088649095 0.82646518707275396 -0.19411902810846057 -2.0740744444987049 0.76092987276210977 -0.33289018264730225 0.34082060093351713 1.0144000406434506 0.56089758783164956 0.24834500770601961 0.74646441456625023 -1.1758717339899805 -0.44919714817875311 0.076225817957893016 -1.080859445333481 -0.013878787647594105 -0.43578985098636513 0.17861964786425233 -1.7467517997907558 0.4874254972115159 -1.5166469321586193 -0.54517966364369241 -0.94619333535432826 0.18065448086708785 0.98353738281875858 0.64055575815642751 -0.17591751514291262 1.1696993541835949 -0.61681205105781567 -0.11493512325816685 0.51977014044920611 -1.0977921211719515 0.77059618500263793 0.37924629487097267 -0.34334888875484471 -0.32921966346246856 -0.21579544234275816 0.095518418740142483
leaf_weight=38 22 82 20 132 68 39 47 192 22 38 27 34 86 38 34 34 34 32 37 24 37 158 32 143 80 45 28 46 185 27 543 81 90 45 59 36 38 20 20 22 33 198 23 40 32 33 20 96 40 41 71 151 25 36 24 20 46 304 30 84 50 44
leaf_count=38 22 82 20 132 68 39 47 192 22 38 27 34 86 38 34 34 34 32 37 24 37 158 32 143 80 45 28 46 185 27 543 81 90 45 59 36 38 20 20 22 33 198 23 40 32 33 20 96 40 41 71 151 25 36 24 20 46 304 30 84 50 44
internal_value=-0.102053 0.188632 -0.0702698 -1.08796 0.199613 0.359892 -1.68227 -0.337925 -0.835647 -0.0797844 -2.07003 0.290762 -0.228526 -0.0287659 -0.524471 -0.129676 -0.550954 0.555689 -0.381929 0.309094 -0.559041 -0.842366 -1.09335 -0.478038 0.633517 0.858803 -0.89365 -2.46086 0.322201 0.478827 0.260742 0.623337 0.215805 0.0629836 0.202121 -0.250006 -0.478841 0.199439 -0.292689 0.803734 0.204766 0.0627536 -1.06739 0.869622 -0.890283 -0.0574143 0.318778 -0.0136296 0.384918 0.338094 0.12297 1.02681 -1.20957 -0.671484 -0.074113 -0.510783 0.33607 0.321157 0.128399 -0.63909 0.0923111 0.465098
internal_weight=4256 3637 1448 619 721 2189 181 727 131 404 111 1894 596 331 106 68 109 317 195 1855 158 438 196 265 297 169 90 73 1831 516 1315 145 1170 471 209 143 98 328 87 295 225 238 70 273 164 67 699 116 583 171 112 191 62 179 62 40 128 331 64 242 82 89
internal_count=4256 3637 1448 619 721 2189 181 727 131 404 111 1894 596 331 106 68 109 317 195 1855 158 438 196 265 297 169 90 73 1831 516 1315 145 1170 471 209 143 98 328 87 295 225 238 70 273 164 67 699 116 583 171 112 191 62 179 62 40 128 331 64 242 82 89
is_linear=0
shrinkage=0.05


Tree=14
num_leaves=63
num_cat=0
split_feature=80 7 71 8 5 10 65 56 13 24 71 24 3 76 57 48 25 46 10 53 38 68 61 75 15 10 0 46 42 66 13 28 71 21 25 22 44 6 76 46 73 41 50 66 41 10 17 45 74 48 50 6 1 76 60 76 74 14 46 70 41 71
split_gain=330378 49536.9 27272.6 26515.3 25781.4 23849.2 20560.3 23962.8 18804.1 15180.5 13659.2 12981.3 12048.1 11417.3 11265.6 10935.9 10793.2 11456.7 12492.8 10738.3 9563.82 8948.18 8588.95 8511.24 8775.75 8206.77 8202.18 8469.61 8001.16 7796.09 7771.56 7423.04 7134.42 7132.74 7134.38 7044.49 6991.02 6960.35 8331.9 6939.06 6685.21 6501.42 8301.57 6491.95 7023.8 9879.97 7734.39 7437.92 6574.16 9877.1 6329.06 6221.9 6193.97 6124.76 6024.15 6048.29 5927.53 5893.52 5754.07 6782.19 5726.28 9685.67
threshold=2.4623676538467412 1.0020203100000002 74.286921964708355 15.500000000000002 0.69327936480000008 1.5000000000000002 109.19421333333337 57.822009980000011 75.693980377358486 38.986287356666672 119.15164046309006 51.905992575335901 25.885833333333334 38.895887674089387 95.788857360000009 23.745583294400003 47.091666666666676 65.347500001666688 4.5000000000000009 70.302426600000018 29.110833333333336 20.968502709108712 1.3520064600000004 121.75940903401265 163.64294666666666 2.5000000000000004 22.163449902813316 63.697499999999998 84.879166666666677 6.8199275623363196 119.64123572327038 42.475000000000001 139.37979894842525 20.827500000000004 66.062388009608142 18.507438363695901 71.289166666666674 56.456229060000005 28.342236087549917 64.068333333333342 130.90273213725703 72.27749999833334 3.3490772304000003 21.687295499680115 76.233333333333334 2.5000000000000004 8.8116666666666692 79.485000000000028 33.322523368396723 10.609304745600001 21.104722971200005 44.62688132000001 57.551124019335703 33.805519360812447 1.8229829000000002 27.614187958029227 23.39301895988088 139.24694666666656 67.634166666666687 22.885021694933709 89.381925287356339 129.02455414420297
decision_type=2 2 2 2 2 2 2 2 2 2 2 2 2 2 2 2 2 2 2 2 2 2 2 2 2 2 2 2 2 2 2 2 2 2 2 2 2 2 2 2 2 2 2 2 2 2 2 2 2 2 2 2 2 2 2 2 2 2 2 2 2 2
left_child=2 4 3 8 -2 -3 7 9 50 10 -6 13 20 14 16 -4 17 -8 28 31 57 43 -21 -13 54 -23 27 -9 -19 -17 -20 -11 -26 34 39 -32 -10 -33 -39 -18 51 -29 -43 44 47 -46 -47 -14 -48 -50 -1 -27 53 -35 58 -56 -49 -7 59 -25 -41 -62
right_child=1 5 15 -5 6 12 11 26 36 19 -12 23 21 -15 -16 29 33 18 30 22 -22 25 -24 24 32 40 -28 41 -30 -31 35 37 -34 52 -36 -37 -38 38 -40 60 -42 42 -44 -45 45 46 48 56 49 -51 -52 -53 -54 -55 55 -57 -58 -59 -60 -61 61 -63
leaf_value=-1.5498836943196754 -1.4741956838021248 0.84266654332148505 -0.6885499052581241 -0.78176210716780692 -1.327382741530559 0.51393298790105346 -0.857136005320696 -0.9503644994589 -2.6970618711818353 0.8771947769043239 0.31061971813440326 1.1170111278338093 0.2543397603742224 1.157873996821317 0.66603675322917599 -0.80267981998622417 0.813679192820564 0.020805125588432272 0.21290535690262913 -1.2929946893453599 -1.1344398871712063 -0.28052775285073689 -0.00068137447039286301 1.0400561681389808 0.34685503565706316 -0.043857015296816827 -1.3012777702675926 0.17592365381852637 1.1008244487974379 -2.1393189499775569 -0.321120496518496 0.37292086530551816 1.4397312734808241 0.13112589900692304 -0.45467412842171528 -1.1858619637148722 -1.7675741598010064 -0.56782265673665433 0.63630079627037051 0.052548801196362696 0.20047473529210458 -0.24889431735200268 -1.4204051017761232 0.97092454337304646 1.0014973644688725 -0.39274500123361444 0.36987140230173488 -0.80530432556356701 0.32571991393342614 -1.0907143026590347 -0.52282829582691193 0.79895591104030617 -0.6961984483968644 -0.81396329224109643 0.1000284432403503 1.0468305549106083 -0.045200403841833277 -0.3979652049573692 -0.059804898848676159 0.028404449127815867 0.99524664073858582 -0.30069004857823967
leaf_weight=60 29 234 305 90 35 34 68 65 55 46 20 35 168 22 60 20 54 47 40 20 23 28 36 30 32 24 36 53 27 24 72 149 28 120 35 35 32 51 20 193 78 62 20 31 50 41 534 35 32 20 20 250 42 20 31 37 96 37 184 37 46 21
leaf_count=60 29 234 305 90 35 34 68 65 55 46 20 35 168 22 60 20 54 47 40 20 23 28 36 30 32 24 36 53 27 24 72 149 28 120 35 35 32 51 20 193 78 62 20 31 50 41 534 35 32 20 20 250 42 20 31 37 96 37 184 37 46 21
internal_value=-0.103072 0.177389 -1.0827 -1.47358 0.00553894 0.373589 0.0277848 -0.211391 -1.84641 0.0359491 -0.731745 0.139194 0.299474 0.0328049 0.00467817 -0.794857 -0.0437139 -0.289601 -0.114975 0.167077 -0.248331 0.3366 -0.462222 0.370989 0.302095 0.543339 -0.606505 -0.481446 0.414866 -1.53176 -0.381698 0.299561 0.856864 0.0901118 0.222447 -0.60398 -2.35518 0.178783 -0.228633 0.297922 0.608873 -0.255671 -0.534629 0.258585 0.23596 0.3251 0.27116 0.0341277 0.317611 -0.219062 -1.29312 0.725133 -0.163651 -0.00388684 0.19775 0.6152 -0.248282 0.0387184 0.0846556 0.481383 0.190803 0.589058
internal_weight=4279 3673 606 257 1958 1715 1929 613 167 377 55 1316 1481 902 880 349 820 289 221 322 94 1387 56 414 379 380 236 200 74 44 147 266 60 531 349 107 87 220 71 314 352 135 82 1007 976 677 627 299 586 52 80 274 182 140 319 68 131 71 251 67 260 67
internal_count=4279 3673 606 257 1958 1715 1929 613 167 377 55 1316 1481 902 880 349 820 289 221 322 94 1387 56 414 379 380 236 200 74 44 147 266 60 531 349 107 87 220 71 314 352 135 82 1007 976 677 627 299 586 52 80 274 182 140 319 68 131 71 251 67 260 67
is_linear=0
shrinkage=0.05


Tree=15
num_leaves=63
num_cat=0
split_feature=73 7 6 40 10 76 47 55 58 76 74 29 52 56 63 11 54 25 11 25 11 3 19 10 76 3 1 39 59 59 44 10 43 52 48 67 54 2 21 26 40 60 1 57 3 20 74 51 12 10 0 16 61 57 35 47 17 40 42 44 0 24
split_gain=300038 53100.6 29130.4 28937.7 22010.5 21443.9 20582.6 17673.2 13751 13230.8 13089.3 12751.5 12180.5 11612.1 10362.4 10067.6 10205.8 9897.77 9330.37 9284.46 9190.43 8459.4 8427.25 10745.2 10069.9 9856.78 8337.24 8306.12 8279.59 8106.51 7937.75 7950.49 9925.21 9991.53 9351.38 7918.58 7441.17 7421.94 7394.5 7308.25 8558.32 15731.6 7211.62 6946.51 6835.77 8285.54 9552.98 6482.07 6018.14 8049.95 7608.45 6851.26 5918.3 5867.05 5858.86 5812.63 5748.66 5656.94 5534.33 5486.94 5453.11 5427.34
threshold=97.855485948637281 0.54387532000000005 56.374464720000006 30.443333333333335 1.5000000000000002 23.766581830952084 0.98548044320000006 44.844449160000003 54.915231980000009 32.414415196767891 39.661513931557032 1129.1257882352945 18.200222180800001 55.802633740000005 1.8141941100000003 48.382789999999908 87.012625140000026 52.18320833166667 166.55334666666656 45.22040229885058 120.08538666666665 25.385833333333341 14.060833333333337 7.5000000000000009 23.093725282113336 27.762500000000003 76.081001113807886 32.060833333333342 0.25820100000000007 7.0537867000000007 84.388333333333364 5.5000000000000009 74.83666666500001 7.9101179520000011 18.473258874400006 137.38304766283514 56.36773800000001 1449.5552 12.8025 47.62412280701755 29.432500000000005 0.33646433000000003 126.10639165000002 95.788857360000009 25.845000000000002 22.006446007465225 30.712379001421091 3.8121900080000004 120.73737333333327 2.5000000000000004 16.251666666666672 152.86875999999992 6.3417715700000015 57.824255160000007 30.247499999999999 1.7665414096000003 13.635833333333332 33.337500001666676 81.249166665000018 69.319166666666675 15.440833333333336 116.81485835000002
decision_type=2 2 2 2 2 2 2 2 2 2 2 2 2 2 2 2 2 2 2 2 2 2 2 2 2 2 2 2 2 2 2 2 2 2 2 2 2 2 2 2 2 2 2 2 2 2 2 2 2 2 2 2 2 2 2 2 2 2 2 2 2 2
left_child=2 3 9 7 27 42 8 -2 -5 61 11 17 14 36 18 -6 21 53 43 38 28 -17 23 30 -25 -26 -11 37 -14 48 35 32 33 -32 -35 39 -13 -3 -15 -23 -41 -42 -4 44 -9 -46 47 -47 49 50 -24 -51 -21 -8 -7 -40 -55 -50 -16 -57 -10 -1
right_child=1 4 5 6 15 54 10 12 60 26 -12 13 20 19 58 16 -18 -19 -20 52 -22 22 29 24 25 -27 -28 -29 -30 -31 31 -33 -34 34 -36 -37 -38 -39 55 40 41 -43 -44 -45 45 46 -48 -49 57 51 -52 -53 -54 56 -56 59 -58 -59 -60 -61 -62 -63
leaf_value=-0.81649505904647079 -0.68241520255086485 0.58698148675653483 -0.67656471780976479 -0.10663216141137211 1.3821903670881877 -2.5286510762046368 0.21904745350281396 0.96905272176319901 -2.2470096263289454 -2.163272335437628 0.89613251018524176 -0.29660450869867966 0.10477924391627312 -1.5204582222812886 0.50444217986530726 -0.57739807592126835 -0.56791088387772848 0.77156270945944438 1.0194651794433593 -0.2583603418285742 0.11603425468007725 0.54341260044056239 -0.38247310160712172 0.27572702948004008 -0.11651837150255839 -1.4092366656866568 -1.0555597147163081 -0.12438181271919838 -1.1640470051103169 -0.63561937667429458 0.061702262723084655 0.30137724174570496 0.24555827101382116 -0.35292928704748983 -1.7638003155123443 0.72180479886415216 0.72941865722338362 1.119814394005632 0.026491707834330476 0.35413304649188487 0.29320695579928507 -1.2776853900736509 -1.8032379436492922 0.73835885117248612 0.18637698529282318 -1.1623691500700786 0.4672176525426599 -0.18560389144080025 0.25285986605511945 0.68889657139949412 0.7242540861479938 0.17042708133275694 -1.1709624427556993 -0.89125287090029048 -1.6284781685897283 -1.5627682810737973 0.17138594761490822 0.887895913744295 1.4514197764573273 -0.49360400949205668 -1.1577175431781346 -0.35768026737939745
leaf_weight=277 61 155 49 22 20 51 57 22 20 26 25 43 20 37 36 29 37 41 35 159 84 98 44 40 30 29 49 26 36 20 33 131 60 23 24 115 30 113 22 71 34 30 20 49 318 33 26 35 672 348 24 78 20 35 28 21 20 37 27 28 27 84
leaf_count=277 61 155 49 22 20 51 57 22 20 26 25 43 20 37 36 29 37 41 35 159 84 98 44 40 30 29 49 26 36 20 33 131 60 23 24 115 30 113 22 71 34 30 20 49 318 33 26 35 672 348 24 78 20 35 28 21 20 37 27 28 27 84
internal_value=-0.094028 0.178236 -1.04102 -0.0662863 0.324571 -1.64713 -0.325322 0.134781 -1.13833 -0.835279 -0.221052 -0.275496 0.20392 -0.438009 0.304801 0.265931 0.254807 0.106887 0.231161 -0.581226 -0.214737 0.270259 0.282924 0.146951 -0.33671 -0.751922 -1.43957 0.728868 -0.710895 0.362751 0.224306 0.0214078 -0.240564 -0.605155 -1.07337 0.38231 0.125049 0.811646 -0.947344 0.214748 -0.0238376 -0.443149 -1.00314 0.174037 0.110323 0.064469 -0.347943 -0.659622 0.379349 0.513325 0.00813649 0.593966 -0.360327 -0.136432 -2.2096 -0.648679 -0.504839 0.286 0.91029 -0.951817 -1.62125 -0.709735
internal_weight=4294 3710 584 1389 2321 148 607 782 69 436 538 513 721 360 581 2027 2007 153 518 287 140 1970 1941 718 99 59 75 294 56 1223 619 271 140 80 47 348 73 268 108 233 135 64 69 483 434 412 94 68 1203 494 68 426 179 112 79 71 55 709 63 49 47 361
internal_count=4294 3710 584 1389 2321 148 607 782 69 436 538 513 721 360 581 2027 2007 153 518 287 140 1970 1941 718 99 59 75 294 56 1223 619 271 140 80 47 348 73 268 108 233 135 64 69 483 434 412 94 68 1203 494 68 426 179 112 79 71 55 709 63 49 47 361
is_linear=0
shrinkage=0.05


Tree=16
num_leaves=63
num_cat=0
split_feature=71 53 71 36 10 76 62 5 55 38 34 22 38 10 2 24 53 45 10 73 0 63 4 46 48 35 29 36 61 34 30 36 65 6 71 10 7 37 70 46 58 55 20 10 42 19 43 50 46 0 37 7 42 64 44 12 10 75 61 42 70 56
split_gain=255439 51705.8 23103.8 31897.2 21948.3 20085.3 17982.5 11494.2 11304.8 11111.8 10376.7 9263.35 10198.7 9208.1 13898.5 12749.8 12367.8 9694.86 9637.41 9119.47 11755.3 9066.69 8505.97 12415.6 12495.4 9776.51 13788.1 8107.17 12613.2 7705.53 7254.68 10683.3 6922.47 6638.62 6624.14 8054.96 6224.14 6172.44 6137.12 5860.82 6005.35 6192.37 5753.38 6595.08 11091.5 10106.2 8891.33 7815.81 6686.01 6485.71 5854.8 7938.92 5427.22 5180.17 5111.44 5062.79 5007.15 9186.42 4949.1 4942.45 4931.06 4906.18
threshold=101.54379890592882 56.965979000000011 74.286921964708355 27.800833333333337 1.5000000000000002 21.067129056817084 0.88166799000000007 0.72234184880000007 56.484107120000004 25.32 1129.3113000000001 9.6634119496855337 30.987500000000004 2.5000000000000004 1775.6063551517216 55.57500000000001 62.796832000000009 54.748333335000005 1.5000000000000002 132.85749369134004 20.154649123333339 4.4936248800000014 78.155833335000025 56.147500000000001 3.3616805464000006 26.266987179487185 701.93716666666683 25.89916666666667 1.5926311900000003 929.38583333333338 955.42896666666672 32.716713836477993 165.69678930417192 52.146646720000007 124.18732259029754 6.5000000000000009 0.85556624000000003 29.884166666666669 24.098277562818275 70.601666666666674 124.90212700000002 47.846098020000007 31.544999998333335 5.5000000000000009 77.658333333333346 18.411616351289251 80.968333333333348 1.3933024688000002 64.264166666666682 20.955833333333334 28.939166666666669 0.23200100000000004 79.389166666666682 0.39193759000000006 76.858333333333348 128.04190666666668 7.5000000000000009 120.11858609559636 0.31189790000000006 81.538333333333341 13.410229326062209 59.365398260000006
decision_type=2 2 2 2 2 2 2 2 2 2 2 2 2 2 2 2 2 2 2 2 2 2 2 2 2 2 2 2 2 2 2 2 2 2 2 2 2 2 2 2 2 2 2 2 2 2 2 2 2 2 2 2 2 2 2 2 2 2 2 2 2 2
left_child=2 4 3 10 5 -2 7 -3 29 -6 36 12 -11 18 15 17 -17 -15 52 22 21 60 23 -13 -25 26 -24 28 -4 -8 55 37 -22 54 -16 61 -1 -32 -20 58 41 -41 43 45 -45 46 -19 -46 -49 -47 51 -48 -9 -28 -5 -26 57 -50 -27 -31 -21 -36
right_child=1 6 27 33 9 -7 8 13 -10 11 -12 19 -14 14 34 16 -18 42 38 20 32 -23 25 24 30 39 53 -29 -30 59 31 -33 -34 -35 35 -37 -38 -39 -40 40 -42 -43 -44 44 47 49 50 48 56 -51 -52 -53 -54 -55 -56 -57 -58 -59 -60 -61 -62 -63
leaf_value=-2.115971794746744 -0.78957785938317626 -1.2349638586794889 -0.67683513088268232 0.011472001216477817 -0.66025131828535133 0.81618178616653181 0.99844105158415108 0.42975655159224635 -0.60307268981010687 0.46957710457367563 -2.4680196184582179 -0.8247785356347308 1.6870016431808474 -1.2071548891564212 0.76075759965926415 0.78090840392642558 -0.412105652512539 -0.58231093763477271 0.99967611066815332 -0.49592509374937466 0.52833784747607082 -1.0621577746752235 -1.1471880934952821 0.42109113822038147 -0.080365930806572852 1.1757435705526549 -0.33602091153285335 -0.50726477511842816 -1.8264472476699773 0.43100067253080687 1.1564179519900966 -0.87069856971502313 -0.33177297621451579 -1.0860439420172148 0.056890814155340197 0.73151241640249898 -1.2078316367886686 0.20734497340776589 0.0057311296761035921 -0.30887465069924169 1.2089852285385132 0.36271387257485616 -1.1261293253898621 0.33143393932019966 0.17933613349697017 -0.28835673996192568 0.82139711113912728 -1.2178934780871109 0.47531189787387851 -1.4230835282802583 1.0534687645056031 -0.21286208488724451 -0.49542242311963847 0.37760616532096303 -0.89860654594721623 -0.7110455023554656 -0.94608795079317964 -0.64557096188997531 0.53424471898858128 -0.21547896600351102 0.041072297230776815 -0.90222838521003723
leaf_weight=29 21 27 80 36 34 268 45 23 31 123 45 33 20 39 40 45 42 36 41 57 121 27 23 261 82 38 35 239 34 106 21 20 29 70 30 24 54 93 25 36 20 737 25 34 26 34 28 54 25 20 22 55 51 93 27 52 55 68 144 41 171 24
leaf_count=29 21 27 80 36 34 268 45 23 31 123 45 33 20 39 40 45 42 36 41 57 121 27 23 261 82 38 35 239 34 106 21 20 29 70 30 24 54 93 25 36 20 737 25 34 26 34 28 54 25 20 22 55 51 93 27 52 55 68 144 41 171 24
internal_value=-0.0870457 0.165255 -0.936485 -1.29318 0.289108 0.6995 -0.118743 -0.21904 0.282897 0.23686 -1.85662 0.250501 0.639846 -0.187366 -0.258962 -0.35534 0.204971 -0.448904 0.183913 0.2239 0.0108268 -0.195775 0.275022 0.116151 0.174847 0.354317 -0.0200575 -0.672754 -1.0197 0.425944 -0.0649645 0.195178 0.36205 -0.750921 0.237626 -0.0306469 -1.52513 0.382174 0.623182 0.412297 0.353569 0.331437 -0.387552 -0.347148 -0.511014 -0.126979 0.0957789 -0.636642 -0.741669 -0.708626 0.328267 0.136045 -0.207867 0.182474 -0.378562 -0.325107 -0.567911 -0.344258 0.668184 0.25069 -0.0931771 -0.369384
internal_weight=4289 3675 614 261 2559 289 1116 893 223 2270 128 2236 143 866 726 608 87 521 140 2093 405 255 1688 562 529 1126 151 353 114 192 268 134 150 133 118 78 83 114 66 975 793 773 482 457 262 195 141 228 202 54 105 83 74 128 63 134 148 93 182 147 228 54
internal_count=4289 3675 614 261 2559 289 1116 893 223 2270 128 2236 143 866 726 608 87 521 140 2093 405 255 1688 562 529 1126 151 353 114 192 268 134 150 133 118 78 83 114 66 975 793 773 482 457 262 195 141 228 202 54 105 83 74 128 63 134 148 93 182 147 228 54
is_linear=0
shrinkage=0.05


Tree=17
num_leaves=63
num_cat=0
split_feature=73 7 5 6 71 52 65 56 71 70 22 10 3 21 66 5 24 66 22 31 43 18 21 67 25 62 6 27 72 44 29 60 35 0 37 65 43 6 40 52 48 67 15 16 73 49 49 6 49 60 62 61 42 31 28 62 57 60 40 68 20 32
split_gain=225314 42086.6 24835 22280.1 17128.3 15038.5 14690.5 17171 10252 10126.1 9572.54 9468.78 10498.3 11062.5 8407.54 8378.03 8094.27 11245.9 9882.57 9539.41 7309.27 7051.89 6722.58 8766.89 8645.88 6659.35 9146.4 7459.38 6553.73 10712.6 6823.84 6512.43 6361.04 8424.85 7964.91 7910.63 6281.15 6042.44 6206.06 5974.34 5950.63 6782.26 5763.84 5760.98 5590.77 5894.48 5981.99 5574.98 5430.71 5364.93 5295.67 5250.19 6167.7 5236.46 5130.32 9304.28 5966.07 5666.85 5121.88 5021.28 5003.77 4982.2
threshold=97.855485948637281 1.4001384800000001 0.84657561120000013 56.374464720000006 76.493766528604183 1.9806857312000001 108.56272939203357 57.822009980000011 109.08511117749099 48.265793251562094 15.28646857939493 1.5000000000000002 25.885833333333334 12.066666666666668 22.907706352434158 1.0186096976000003 51.101724137931043 4.0285516825723731 27.293271977188756 582.76553333333334 88.053333333333356 18.990000000000006 27.874210023640977 131.67970029350099 45.22040229885058 0.67005321000000007 50.369987080000008 50.675000000000004 30.874394914885539 73.556666665000009 2261.5851666666663 3.5606101300000006 30.295000000000005 20.955833333333334 28.966666666666672 91.403724518069339 81.072500000000019 52.741122560000008 28.100000000000009 2.8459944744000008 5.8685229416000011 147.54703073842791 156.5199768553459 120.11901523809514 141.81614303492256 2.1198061896000007 7.8116322416000008 43.126704180000011 2.9386799288000005 4.5085994900000008 0.39193759000000006 0.7330642100000001 82.559166666666684 878.92663333333348 56.591666666666676 0.69632002000000015 56.27986434000001 0.41296047000000008 28.000833333333336 15.240754354879527 9.8516666666666683 1792.2680855345914
decision_type=2 2 2 2 2 2 2 2 2 2 2 2 2 2 2 2 2 2 2 2 2 2 2 2 2 2 2 2 2 2 2 2 2 2 2 2 2 2 2 2 2 2 2 2 2 2 2 2 2 2 2 2 2 2 2 2 2 2 2 2 2 2
left_child=3 2 5 14 -5 21 7 8 -4 16 -9 -3 13 -13 -1 -10 17 42 25 -19 50 -2 24 -24 28 39 27 -27 29 30 -21 -6 -17 34 54 -35 -7 38 -26 -18 43 49 -8 -14 45 -41 -47 -43 -28 60 53 -39 -53 -12 57 56 -56 -34 -51 -54 -42 -45
right_child=1 11 6 4 31 36 9 10 15 -11 20 12 40 -15 -16 32 18 19 -20 22 -22 -23 23 -25 37 26 48 -29 -30 -31 -32 -33 33 35 -36 -37 -38 51 -40 44 41 47 -44 61 -46 46 -48 -49 -50 58 -52 52 59 -55 55 -57 -58 -59 -60 -61 -62 -63
leaf_value=-0.66124292195827583 -0.86733652375748049 0.71508429320425049 -0.74693592416465682 -1.9444076376882469 -0.52837452733136236 0.3053598270271764 0.3536187641919698 -0.18926083090079723 -0.88319406867027284 1.1589771330356597 -0.0015753241146312042 -1.0826354959549813 0.99986609063970944 0.19793741232715548 -1.478561135600595 -0.36298755383195014 0.33115621236594106 1.0021397505747156 0.86339948944274403 -1.078827094150564 -1.6745825705880468 -2.050555464029312 -0.086376165644246716 -1.1140444063478048 -0.79626216182751319 -0.77621439690391225 0.22757839869722263 0.43592070205645128 0.33965802373308129 -0.036562177247699654 -0.060057599978013479 -1.5874757971791995 0.68766639724220202 -0.81952990014106042 1.245233980814616 0.28378680113590127 -0.78533357476646248 0.60303792221471664 0.22355513870716096 0.63434504886036347 -0.29085173769306172 -0.59721474000385832 -0.38603665900641476 0.3296212052826637 -0.93412232360114222 -0.76830609423773633 0.087549085580572797 0.14310807494386552 0.67804577768706586 0.42605969265569005 -1.3442448264360429 -0.33353315480617862 0.34941161435415757 -0.96619910324613256 -0.021284689979497777 0.62193458244204525 -1.0665712320804597 -0.088900673966253965 1.4309945594696771 -0.29074284637984088 0.34024777855493527 0.73632891243233267
leaf_weight=422 34 179 38 77 47 33 287 107 20 24 34 26 52 48 34 49 76 20 63 65 22 20 49 36 35 30 129 22 33 87 22 21 97 32 24 33 22 60 26 23 34 35 29 280 23 35 49 93 139 32 20 66 158 24 43 40 20 31 21 38 412 103
leaf_count=422 34 179 38 77 47 33 287 107 20 24 34 26 52 48 34 49 76 20 63 65 22 20 49 36 35 30 129 22 33 87 22 21 97 32 24 33 22 60 26 23 34 35 29 280 23 35 49 93 139 32 20 66 158 24 43 40 20 31 21 38 412 103
internal_value=-0.0849351 0.150288 0.0242898 -0.893853 -1.43372 -0.712853 0.0598738 -0.144241 0.0369326 0.139559 -0.517966 0.377084 0.323826 -0.251994 -0.722183 0.113506 0.124268 0.0384295 0.271606 -0.0740163 -0.869681 -1.30557 -0.105902 -0.521624 -0.0460103 0.200726 0.343468 -0.263388 -0.306363 -0.428885 -0.821207 -0.85545 0.167528 0.248763 0.37829 -0.259384 -0.130918 0.0947027 -0.361586 -0.0210088 0.363949 0.265366 0.285739 0.506043 -0.22689 -0.074868 -0.269057 -0.0593239 0.461216 0.348653 -0.642657 0.181143 0.0845253 -0.40073 0.288218 0.0255409 -0.353122 0.499592 0.824241 0.2253 0.292137 0.438997
internal_weight=4283 3682 2367 601 145 109 2258 634 427 1624 207 1315 1136 74 456 389 1600 1011 589 695 100 54 675 85 590 526 320 52 207 174 87 68 369 320 255 65 55 383 61 206 1062 627 316 435 130 107 84 128 268 499 78 322 262 58 231 103 63 128 53 196 446 383
