tree
version=v4
num_class=1
num_tree_per_iteration=1
label_index=0
max_feature_idx=80
objective=regression
feature_names=NO2_quantrac PM25_quantrac CO_quantrac Temperature_quantrac Humid_quantrac NO2_cmaq O3_cmaq SO2_cmaq hour dayofweek month NO2_quantrac_lag3 NO2_quantrac_lag6 NO2_quantrac_lag12 NO2_quantrac_lag24 NO2_quantrac_lag48 NO2_quantrac_lag72 PM25_quantrac_lag3 PM25_quantrac_lag6 PM25_quantrac_lag12 PM25_quantrac_lag24 PM25_quantrac_lag48 PM25_quantrac_lag72 O3_quantrac_lag3 O3_quantrac_lag6 O3_quantrac_lag12 O3_quantrac_lag24 O3_quantrac_lag48 O3_quantrac_lag72 CO_quantrac_lag3 CO_quantrac_lag6 CO_quantrac_lag12 CO_quantrac_lag24 CO_quantrac_lag48 CO_quantrac_lag72 Temperature_quantrac_lag3 Temperature_quantrac_lag6 Temperature_quantrac_lag12 Temperature_quantrac_lag24 Temperature_quantrac_lag48 Temperature_quantrac_lag72 Humid_quantrac_lag3 Humid_quantrac_lag6 Humid_quantrac_lag12 Humid_quantrac_lag24 Humid_quantrac_lag48 Humid_quantrac_lag72 NO2_cmaq_lag3 NO2_cmaq_lag6 NO2_cmaq_lag12 NO2_cmaq_lag24 NO2_cmaq_lag48 NO2_cmaq_lag72 O3_cmaq_lag3 O3_cmaq_lag6 O3_cmaq_lag12 O3_cmaq_lag24 O3_cmaq_lag48 O3_cmaq_lag72 SO2_cmaq_lag3 SO2_cmaq_lag6 SO2_cmaq_lag12 SO2_cmaq_lag24 SO2_cmaq_lag48 SO2_cmaq_lag72 O3_quantrac_roll3_mean O3_quantrac_roll3_std O3_quantrac_roll6_mean O3_quantrac_roll6_std O3_quantrac_roll12_mean O3_quantrac_roll12_std O3_quantrac_roll24_mean O3_quantrac_roll24_std O3_quantrac_roll48_mean O3_quantrac_roll48_std O3_quantrac_roll72_mean O3_quantrac_roll72_std station_emb_0 station_emb_1 station_emb_2 station_emb_3
feature_infos=[0:217.25850666666656] [5.7733333333333317:56.190000000000005] [0:5041.9061999999994] [21.918333329999999:39.402571936320953] [39.776666669999997:97.848333333333315] [0.045008480000000003:128.34437369599999] [28.327160679999999:234.2073384] [3.3797999999999997e-05:22.219934420000001] [0:23] [0:6] [1:9] [0:217.25850666666656] [0:217.25850666666656] [0:217.25850666666656] [0:217.25850666666656] [0:217.25850666666656] [0:217.25850666666656] [5.5933333333333337:56.190000000000005] [5.5933333333333337:56.190000000000005] [5.5933333333333337:56.190000000000005] [5.5933333333333337:56.190000000000005] [5.5933333333333337:56.190000000000005] [5.5933333333333337:56.190000000000005] [1.0666666666666669:183.27876670000001] [1.0666666666666669:183.27876670000001] [1.0666666666666669:183.27876670000001] [1.0666666666666669:183.27876670000001] [1.0666666666666669:183.27876670000001] [1.0666666666666669:183.27876670000001] [0:5041.9061999999994] [0:5041.9061999999994] [0:5041.9061999999994] [0:5041.9061999999994] [0:5041.9061999999994] [0:5041.9061999999994] [21.918333329999999:39.402571936320953] [21.918333329999999:39.402571936320953] [21.918333329999999:39.402571936320953] [21.918333329999999:39.402571936320953] [21.918333329999999:39.402571936320953] [21.918333329999999:39.402571936320953] [39.776666669999997:97.848333333333315] [39.776666669999997:97.848333333333315] [39.776666669999997:97.848333333333315] [39.776666669999997:97.848333333333315] [39.776666669999997:97.848333333333315] [41.020000000000003:97.848333333333315] [0.045008480000000003:128.34437369599999] [0.045008480000000003:128.34437369599999] [0.045008480000000003:128.34437369599999] [0.045008480000000003:128.34437369599999] [0.04877488:128.34437369599999] [0.049528160000000002:128.34437369599999] [28.327160679999999:234.2073384] [28.327160679999999:234.2073384] [28.327160679999999:234.2073384] [28.327160679999999:234.2073384] [28.327160679999999:234.2073384] [28.327160679999999:234.2073384] [3.3797999999999997e-05:22.219934420000001] [3.3797999999999997e-05:22.219934420000001] [3.3797999999999997e-05:22.219934420000001] [3.3797999999999997e-05:22.219934420000001] [3.3797999999999997e-05:22.219934420000001] [3.3797999999999997e-05:22.219934420000001] [9.3122162833332958:175.56853889999999] [0:67.38177603647901] [18.871121593291402:159.14477223333333] [0:61.419469358462791] [26.35778301886792:143.42109583333334] [0:47.858514149685256] [32.856669287211737:133.85381936249999] [3.3305225735465016:46.866866890029542] [37.543009696016775:125.93418473270833] [4.5112967279137637:45.134106603399076] [38.474648914153633:123.60588476208333] [5.8787116272760436:41.648152398668053] [1.3210823535919189:4.1230297088623047] [-3.966362476348877:-1.0927610397338867] [-3.3310229778289795:-1.7944900989532471] [0.69273704290390015:3.4352762699127197]
tree_sizes=5128 5338 5339 5318 5320 5330 5316 5329 5312 5310 5360 5326 5309 5315 5361 5325 5352 5329 5350 5347 5364 5376 5335 5339 5378 5370 5380 5383 5373 5371 5400 5371 5386 5361 5370 5380 5371 5385 5438 5373 5415 5407 5399 5430 5443 5393 5432 5368 5427

Tree=0
num_leaves=63
num_cat=0
split_feature=73 80 10 12 8 38 37 8 28 45 35 26 2 29 23 12 21 76 61 45 18 8 22 66 37 14 71 60 28 73 47 69 17 60 76 29 53 24 2 42 17 32 47 55 0 16 19 20 50 26 70 6 73 70 8 64 55 69 62 16 67 9
split_gain=961800 106764 72731.5 49423.9 43226.2 32981 30558.8 25642 21389.3 19284 19041.3 12670.1 10115.5 9683.66 9499.66 8589.38 7694.73 7556.34 7553.21 6234.64 6159.68 5959.22 5844.57 5644.29 9423.28 5183.5 5039.65 4630.61 4533.09 4243.44 3931.15 3704.74 3600.26 3481.03 3429.11 3407.71 3266.17 3233.06 5233.6 3213.82 3127.21 3021.61 2768.19 2701.66 3413.8 3096.6 2658.2 2477.92 2335.36 2290.49 2265.43 2883.88 2239.33 2053.12 1973.38 1873.36 1860.91 1846.18 2664.44 2314.63 3052.46 2571.49
threshold=76.214732208310025 1.3128758668899538 1.5000000000000002 61.861341901622801 8.5000000000000018 25.291116352201261 27.976052631578948 7.5000000000000009 49.7570376160864 81.508333331666691 32.724166668333339 79.287006640688887 1119.7561525000003 1066.619566666667 53.108333333333341 40.936312367857639 24.46583333333334 17.329660040693287 3.5562268700000006 53.777500000000011 20.689166666666669 2.5000000000000004 28.663821839080462 12.996768369959682 27.603333335000006 48.382789999999908 40.423873098590491 1.2285193100000003 80.558333333333351 56.424475372065579 26.607183847200002 55.720613038938488 18.74519230769231 0.32166264000000006 8.9436969675219178 760.51953333333347 47.290179300000013 81.875000000000014 762.92913333333343 78.999166666666682 15.719166666666668 1163.7153000000001 5.0927716576000011 56.736460060000006 102.83237743589736 148.78849333333332 11.567500000000001 17.294868421052637 4.0393105192000007 48.741666666666667 8.3697413720960512 69.643139440000013 59.569629440329628 21.94853532092851 7.5000000000000009 1.2145520900000004 49.245323400000011 42.699266527901685 0.59699451000000014 92.733713333333284 55.04612159329141 3.5000000000000004
decision_type=2 2 2 2 2 2 2 2 2 2 2 2 2 2 2 2 2 2 2 2 2 2 2 2 2 2 2 2 2 2 2 2 2 2 2 2 2 2 2 2 2 2 2 2 2 2 2 2 2 2 2 2 2 2 2 2 2 2 2 2 2 2
left_child=2 7 3 18 30 -3 11 21 -7 15 12 20 57 28 -10 -9 23 -13 -1 -12 31 -2 27 32 -25 -24 -14 -16 29 -8 36 42 -17 34 41 -19 40 38 -22 -40 -4 -28 -5 44 -21 48 50 -15 -46 55 51 56 -38 -23 -49 -48 -35 58 -6 60 61 -59
right_child=1 5 4 6 10 8 13 9 14 -11 19 17 26 47 22 16 -18 35 -20 43 37 53 25 24 -26 -27 33 -29 -30 -31 -32 -33 -34 46 -36 -37 52 -39 39 -41 -42 -43 -44 -45 45 -47 49 54 -50 -51 -52 -53 -54 -55 -56 -57 -58 59 -60 -61 -62 -63
leaf_value=58.039075691779558 59.649577803933838 56.290537234889761 57.170012103808531 57.186942504654127 56.119260136473926 57.027934505715535 55.993845901729728 61.398527797507541 57.731053267764345 58.813813405254209 57.65096468801795 57.04092060320307 55.921555834373592 56.50916836445807 58.946468120264306 60.990073227333319 61.075472259965835 57.703660530227751 59.413231042670503 56.653018007237456 58.048914025387745 58.319355968283908 59.917253208604748 59.193291570814743 60.576802982138886 58.851685945319431 57.502316873001483 57.990941869521578 55.555040248679411 56.580630926615804 56.110047126462696 56.254510570873187 60.052718440000653 57.074657288479102 56.694144405311228 58.47698339552128 56.24855115675912 56.782585447073131 57.371632909481335 56.865251776534251 56.35140599425791 56.737765666076086 56.488674162253311 56.612912123420557 56.6952028441899 57.384507681873735 56.329321537812795 56.779833112021528 57.081722221628283 56.614684453844781 56.477480631238265 57.418686285325052 56.785954081612125 59.027211766460262 57.236369312323546 56.595619978618203 56.494859822074126 57.111536022236109 56.689757692140631 56.335272600286629 56.181091751216258 56.470630396815949
leaf_weight=20 26 20 20 40 139 22 49 20 20 21 26 25 26 41 32 20 24 29 20 83 21 20 21 32 20 25 28 21 20 83 493 29 21 25 202 28 630 35 94 47 28 24 22 91 65 48 178 56 98 393 38 23 20 21 41 105 31 34 24 287 27 29
leaf_count=20 26 20 20 40 139 22 49 20 20 21 26 25 26 41 32 20 24 29 20 83 21 20 21 32 20 25 28 21 20 83 493 29 21 25 202 28 630 35 94 47 28 24 22 91 65 48 178 56 98 393 38 23 20 21 41 105 31 34 24 287 27 29
internal_value=57.0388 59.1737 56.5577 57.0196 56.4571 58.1907 56.9161 59.8771 58.4602 60.2247 56.5978 57.2173 56.5204 56.5318 58.725 60.441 60.2773 57.7657 58.7262 56.9016 57.0612 59.0574 58.9258 60.0713 59.7254 59.3381 56.6092 58.5679 56.2565 56.3628 56.2181 56.721 60.51 56.6263 56.7874 58.0835 56.2945 57.2184 57.3125 57.2028 56.6925 57.1494 56.9392 56.851 56.9247 57.0315 56.5747 56.8351 56.9276 56.5366 56.7947 56.9473 56.2651 58.6819 56.9728 56.4281 56.7537 56.3439 56.2033 56.4047 56.6259 56.8165
internal_weight=4301 386 3915 700 3215 161 660 225 141 158 2024 370 1613 290 119 137 117 82 40 411 288 67 99 93 52 46 1073 53 152 132 1191 91 41 1047 254 57 698 197 162 141 48 52 62 385 294 211 793 138 163 676 117 79 650 41 97 283 56 540 163 377 90 63
internal_count=4301 386 3915 700 3215 161 660 225 141 158 2024 370 1613 290 119 137 117 82 40 411 288 67 99 93 52 46 1073 53 152 132 1191 91 41 1047 254 57 698 197 162 141 48 52 62 385 294 211 793 138 163 676 117 79 650 41 97 283 56 540 163 377 90 63
is_linear=0
shrinkage=1


Tree=1
num_leaves=63
num_cat=0
split_feature=75 31 8 10 40 17 12 44 35 53 18 42 2 70 75 67 76 45 33 52 61 12 25 63 36 59 43 62 46 18 52 41 75 71 46 71 72 20 37 37 19 31 5 53 69 47 74 71 75 52 20 29 47 42 64 10 46 47 11 21 18 17
split_gain=888454 92252.9 65969.3 50413.6 34027.4 20429 17806.7 16807.5 14495.1 12342.7 12533.4 10115.7 10020.3 9737.17 9721.61 8582.33 7285.83 7244.02 6994.94 6681.39 7318.15 8195.33 5621.97 4674.09 5141.09 4332.6 4240.35 4236.88 4224.49 3924.14 3828.85 3754.69 3586.41 3333.81 3152.82 3118.97 2978.39 2747.2 2600.35 2554.25 2548.21 2518.36 2323.9 2299.17 3708.74 3333.88 2290.23 2499.56 2215.57 2789.33 2180.24 2150.05 2143.17 2120.25 2099.45 2128.69 2204.34 2151.59 2037.85 2031.4 2015.98 1956.33
threshold=74.423499140669165 216.25546666666671 8.5000000000000018 1.5000000000000002 26.654166666666672 33.573333333333331 79.991401438300571 53.559166665000014 32.978333333333332 46.323059440000009 18.301666666666669 52.024166665000003 1132.9297666666669 22.835836975783931 55.855592204427573 82.323262373721064 17.329660040693287 72.374166666666682 881.12466666666671 0.14924360000000003 2.9181284900000004 111.88025122807007 100.86548335000002 0.19676200000000002 25.587499998333339 4.1435889500000007 79.24521929824563 2.0906119700000003 54.523333333333333 29.929166666666671 1.2293200040000003 62.149166666666673 44.997971749099044 41.386464884696018 92.635833333333338 62.213635350695448 15.091370816359543 18.225833333333338 27.089166666666667 27.419166666666673 12.103443396226419 572.92216666666673 6.7248996672000008 61.576830000000008 50.54688746236662 2.7982045080000004 17.660848966489716 48.129454022988511 50.493835330528164 1.1818859624000002 12.103443396226419 784.09926666666672 1.2636620392000004 83.71583333333335 0.47906962000000003 3.5000000000000004 79.253723404255325 10.898448448800002 124.0244133333333 28.101140596583864 28.063333335000003 25.651666666666667
decision_type=2 2 2 2 2 2 2 2 2 2 2 2 2 2 2 2 2 2 2 2 2 2 2 2 2 2 2 2 2 2 2 2 2 2 2 2 2 2 2 2 2 2 2 2 2 2 2 2 2 2 2 2 2 2 2 2 2 2 2 2 2 2
left_child=2 7 14 5 15 13 18 -2 12 -9 17 -12 36 23 38 -3 -7 -11 -6 -16 21 35 25 24 -4 -13 32 -24 -10 -20 -18 -25 -14 -30 37 -21 43 54 53 -35 -41 -42 48 59 45 -45 47 -33 50 -50 -34 -40 -39 -1 60 56 -56 -57 -49 -5 -28 -43
right_child=1 4 3 8 6 16 -8 9 28 10 11 22 26 -15 19 -17 30 -19 29 20 -22 -23 27 31 -26 -27 34 -29 33 -31 -32 46 42 39 -36 -37 -38 52 51 40 41 61 -44 44 -46 -47 -48 58 49 -51 -52 -53 -54 -55 55 57 -58 -59 -60 -61 -62 -63
leaf_value=0.11354278095421338 4.1330442416171236 -0.65290240019559864 0.48567963604815301 -0.45804920236639746 2.8800055656433106 0.45300248888405892 0.84558937847614291 1.8638872300877294 0.81661380350589752 4.0018944844603537 3.6274951434135438 1.6114286175795964 -0.6198170129789925 1.1007681758143009 0.56624766891093359 0.77820028391751384 1.1670821048595288 2.9204105861981713 1.410877869129181 -0.62760103883157514 0.60704917006194592 -0.25870142632342402 2.3132748355468116 0.56827700376510626 -0.47145091149401158 2.5375899356344473 -0.018752484511764301 3.2527867436408999 -0.54134429395198824 2.2802221986982558 2.0798416948318486 -0.26922417360103945 0.099012437034398326 0.26754136594458366 -0.66718866775433228 -1.4277153974487669 0.1898468589782715 -0.67614935443160085 -0.67583947757817109 0.40515682458877561 -0.60740761856238057 -0.11891834686199826 -0.34928101070519896 0.31430012831115167 -0.68293122786742 -0.29176453672922575 -0.28574819076061247 0.71340479836612936 -0.4276295160546022 0.074899272509172665 -0.51366373727906423 -0.52832446391714116 -0.14125732789838935 -0.44109713472425938 0.16264302662740915 0.14194458411474314 0.80827920317649848 -0.22958158528501238 0.21717848959534122 -0.8471546727257806 -0.44845430348600668 0.35290927131261146
leaf_weight=21 24 20 20 359 25 22 36 34 20 32 20 28 61 32 23 22 27 30 25 29 20 235 24 80 47 23 124 24 21 27 20 22 20 142 21 21 20 21 427 30 21 102 177 32 39 78 25 25 34 147 53 586 173 96 39 140 20 54 120 37 35 28
leaf_count=21 24 20 20 359 25 22 36 34 20 32 20 28 61 32 23 22 27 30 25 29 20 235 24 80 47 23 124 24 21 27 20 22 20 142 21 21 20 21 427 30 21 102 177 32 39 78 25 25 34 147 53 586 173 96 39 140 20 54 120 37 35 28
internal_value=0.23257 2.26193 -0.228108 -0.0716077 1.31188 0.413969 1.76353 2.87807 -0.175931 2.73798 2.90217 2.60185 -0.237774 0.267041 -0.495168 0.0967228 1.20397 3.4786 2.1927 -0.255526 -0.317496 -0.382376 2.39465 0.188341 -0.18574 2.02911 -0.151108 2.78303 0.110181 1.86227 1.55549 0.280486 -0.260985 0.0691092 -0.0648889 -0.963649 -0.409419 -0.0440171 -0.564728 0.108798 -0.0157407 -0.0993627 -0.210199 -0.431411 -0.263989 -0.115455 0.160572 0.227387 -0.11328 -0.0194984 -0.345807 -0.590505 -0.199158 -0.341546 0.0290347 0.118512 0.381503 0.0385301 0.302735 -0.494405 -0.113341 -0.0172939
internal_weight=4340 394 3946 2488 155 440 113 239 2048 215 181 119 1684 371 1458 42 69 62 77 328 305 285 99 339 67 51 1119 48 364 52 47 272 492 344 627 50 565 606 1130 323 181 151 431 545 149 110 192 167 254 181 73 1013 194 117 412 253 59 194 145 396 159 130
internal_count=4340 394 3946 2488 155 440 113 239 2048 215 181 119 1684 371 1458 42 69 62 77 328 305 285 99 339 67 51 1119 48 364 52 47 272 492 344 627 50 565 606 1130 323 181 151 431 545 149 110 192 167 254 181 73 1013 194 117 412 253 59 194 145 396 159 130
is_linear=0
shrinkage=0.05


Tree=2
num_leaves=63
num_cat=0
split_feature=75 30 8 39 72 5 29 71 53 73 61 35 59 2 43 71 39 29 31 45 49 18 76 27 63 65 41 67 27 31 76 73 23 38 37 47 22 27 47 60 73 18 46 69 22 39 37 33 53 16 44 34 54 34 49 47 1 73 56 55 58 49
split_gain=820266 86759.8 55870.8 39789.8 34995.2 23063.4 22320.2 18819.4 18185.5 15198 11880.7 11632.1 11401.8 11138.6 8737.99 8312.74 8615.53 7633.27 6908.29 6767.17 6313.57 7333.94 4222.35 8536.01 6836 3785.38 3350.1 3255.59 3102.6 2789.58 2683.85 3917.18 3224.08 2870.73 2355.21 2818.15 2311.92 2266.46 3042.93 2394.39 2138.92 2205.18 2136.19 3401.94 2120.19 2026.96 1995.53 1983.86 1975.26 1942.62 1929.99 1853.26 1791.63 1784.56 1712.14 2285.56 1673.56 1655.88 1652.1 2707.28 1638.19 1606.37
threshold=74.423499140669165 591.76857241379332 8.5000000000000018 27.062500000000004 27.518671584580183 0.13766192000000002 1040.2750222222226 59.596245628645427 46.323059440000009 60.555317355822027 3.9207880800000003 32.978333333333332 0.89996738000000009 1317.9598999999998 76.250833333333347 99.362765957291671 30.774038461538463 724.35283333333348 1228.1272333333336 54.191266421561814 19.758986368000006 18.554351851851855 17.6390957839732 51.875000000000007 0.16754900000000003 39.602777777777767 62.302916666666675 101.58620139666668 118.84329165000001 1640.6885333333335 10.56137833063311 44.334007695679936 41.69166666666667 30.050833333333337 27.435833333333335 1.1194654152000003 28.960298264375162 60.829131199973368 1.1194654152000003 0.48849376000000005 43.952775509998396 30.40750000000001 75.609166666666681 45.70230305648122 16.439166666666669 26.436666666666667 28.260833333333338 1184.1353000000001 48.768697460000006 97.991483216666651 80.01333333333335 748.49401666666677 55.172350660000014 522.08070000000009 27.534559096000006 3.0574043896000007 12.401666666666669 59.569629440329628 53.110292480000005 54.072409440000008 57.603471940000006 2.3993154416000002
decision_type=2 2 2 2 2 2 2 2 2 2 2 2 2 2 2 2 2 2 2 2 2 2 2 2 2 2 2 2 2 2 2 2 2 2 2 2 2 2 2 2 2 2 2 2 2 2 2 2 2 2 2 2 2 2 2 2 2 2 2 2 2 2
left_child=2 8 9 6 5 -4 -3 11 -2 40 15 13 -12 29 18 -10 20 -5 45 -13 21 -17 24 -24 -9 -15 -26 36 -23 34 31 52 -32 46 54 -36 -19 38 44 58 -1 53 -31 -44 -21 -11 50 -28 -20 -37 -33 -34 -27 -42 -7 -56 -52 -25 59 -40 -57 -53
right_child=1 3 4 17 -6 7 -8 22 10 14 12 19 -14 25 -16 16 -18 27 48 37 -22 28 23 57 26 30 47 -29 -30 42 32 33 51 -35 35 49 -38 -39 39 -41 41 -43 43 -45 -46 -47 -48 -49 -50 -51 56 61 -54 -55 55 60 -58 -59 -60 -61 -62 -63
leaf_value=-0.70293802285548179 1.692444728783199 -0.76712389524493907 1.3223671212942074 1.08584475571459 1.4875679392474039 -0.16255184019545971 1.0933363031399879 -0.74578308314085007 1.7883849653330719 -0.31162032380700116 4.0223087481963331 0.89506663322293523 2.5539392662048339 -0.54046682794479295 0.99594005808234221 3.4620774708191555 3.7165327237999963 1.476245688199997 0.57078364685177807 -0.14453098544397869 1.8487300348281861 2.1496311750014625 -0.049363516513258224 0.54219302117824553 0.49281517084854753 -0.58962223928914792 -0.19351295816655062 2.5480668910344444 2.9313712369311942 -0.34468678250693929 0.27603797064603947 0.36629956963848564 0.082656341004280418 0.29756538741917254 -0.81407808162944595 -0.20588177905346339 2.2112876373788586 0.20461638301032883 0.48545237558503307 0.52888153141195127 -0.19332108410696192 -0.085663020776043985 0.56287226431071768 -0.17316295536911142 -0.76435856494036591 -1.0234766535460949 -0.19138522202443137 0.19483490010350946 -0.0080849646324557926 -0.4878129091721477 0.29389961673705667 -0.055674043050145408 -0.072450194575569851 -0.52547771567298851 -0.62597158921166107 0.08187593622798367 -0.18136121696334775 1.1096227685610454 -0.21347652538256212 -0.13374684373053111 -0.42503146174791695 -0.30480263084035741
leaf_weight=149 35 28 28 22 35 136 38 21 22 20 39 24 20 47 20 30 23 20 20 37 20 30 40 20 67 34 49 30 22 104 38 47 49 107 54 78 23 116 31 22 42 31 20 73 22 20 95 100 56 282 27 85 33 1087 65 28 59 36 66 41 37 271
leaf_count=149 35 28 28 22 35 136 38 21 22 20 39 24 20 47 20 30 23 20 20 37 20 30 40 20 67 34 49 30 22 104 38 47 49 107 54 78 23 116 31 22 42 31 20 73 22 20 95 100 56 282 27 85 33 1087 65 28 59 36 66 41 37 271
internal_value=0.220609 2.14579 -0.224405 1.2471 -0.0824631 -0.104541 0.30405 -0.120775 2.74616 -0.472337 2.92519 -0.175471 3.52456 -0.228133 0.0307337 2.68463 2.84237 1.90226 -0.135681 0.0840248 2.64526 2.83953 0.228752 0.508497 0.115437 -0.103728 0.199167 2.14831 2.48037 -0.354666 -0.0794358 0.0141068 -0.164321 0.0839073 -0.402663 -0.477252 1.86941 0.0259203 -0.0687315 0.0444459 -0.524604 -0.501698 -0.188989 -0.0148758 -0.375653 -0.667548 -0.016362 0.0671232 0.144249 -0.426728 0.108655 -0.205639 -0.334896 -0.513121 -0.286575 -0.416321 -0.0321514 0.906969 -0.032783 0.132853 -0.206671 -0.24532
internal_weight=4371 402 3969 161 2524 2489 66 2461 241 1445 206 2128 59 1769 136 147 125 95 116 359 102 82 333 96 237 892 216 73 52 877 845 402 443 335 680 414 43 335 219 160 1309 1160 197 93 59 40 228 149 76 360 133 405 67 1129 266 130 86 56 138 72 65 356
internal_count=4371 402 3969 161 2524 2489 66 2461 241 1445 206 2128 59 1769 136 147 125 95 116 359 102 82 333 96 237 892 216 73 52 877 845 402 443 335 680 414 43 335 219 160 1309 1160 197 93 59 40 228 149 76 360 133 405 67 1129 266 130 86 56 138 72 65 356
is_linear=0
shrinkage=0.05


Tree=3
num_leaves=63
num_cat=0
split_feature=75 31 65 40 10 8 68 76 12 13 53 51 68 32 48 2 54 72 39 18 71 9 26 2 44 73 43 14 9 33 3 46 37 45 2 72 43 70 65 10 58 30 65 70 55 53 12 8 71 56 19 55 74 51 69 51 6 13 73 74 74 58
split_gain=719569 75957.4 50923.6 49535.5 34938.5 26186.2 20009.2 19920.5 17286.6 11083.2 10589.7 8664.86 8531.92 8513.26 7718.43 7600.84 7293.59 7509.7 6475.32 6148.68 5715.61 5186.42 5102.18 4269.77 7502.64 3844.19 6657.88 4478.67 3769.63 3496.74 3443.97 3285.13 3006.1 2984.63 2912.69 2907.01 2786.97 2571.91 2527.61 3170.51 2497.68 2440.23 2428.02 2362.35 2936.34 2498.4 2295.47 3028.22 2998.86 2442.78 2271.34 3156 3073.08 2129.06 2088.01 3227.44 1965.08 1955.93 1894.39 1729.62 3046.72 2481.76
threshold=74.423499140669165 216.25546666666671 57.399999999999984 26.654166666666672 1.5000000000000002 7.5000000000000009 29.723647503228531 32.893210818826766 90.600119998333284 94.677879999999917 46.323059440000009 2.1236771072000007 12.70146058176282 734.30905000000018 1.5282874200000001 1028.775166666667 57.351816760000006 24.106767886604548 27.062500000000004 18.06725225230328 40.423873098590491 2.5000000000000004 52.026100628930827 1119.7561525000003 53.135238095238101 59.421052337509416 70.971666666666678 128.19884000000002 1.0000000180025095e-35 881.12466666666671 29.62166666666667 88.108333333333334 27.141666666666676 57.792499999999997 1471.9402862745098 10.396101471981286 68.169166666666683 2.1192143816640354 42.124999999999979 2.5000000000000004 49.407859340000009 1064.5277666666668 40.819444444444436 15.047384627631406 52.599831060000007 51.21853380000001 108.02987335000002 18.500000000000004 48.129454022988511 54.576749780000007 11.567500000000001 48.995610580000012 8.7630312095761873 4.7917967504000005 45.499004192872128 1.9010310792000003 52.757243560000013 117.62153333333329 56.653764114757244 10.670901334856756 8.2528826293131683 56.596087799999999
decision_type=2 2 2 2 2 2 2 2 2 2 2 2 2 2 2 2 2 2 2 2 2 2 2 2 2 2 2 2 2 2 2 2 2 2 2 2 2 2 2 2 2 2 2 2 2 2 2 2 2 2 2 2 2 2 2 2 2 2 2 2 2 2
left_child=2 6 5 15 7 25 10 13 18 21 -2 -12 20 30 28 -3 17 -13 -5 -19 42 -8 32 24 -22 38 27 -27 -6 -20 -4 37 -14 -24 40 -36 -15 -25 -1 -40 -16 -31 -7 45 -45 -38 47 48 -26 -50 51 52 -39 -30 55 -52 -21 -56 -55 60 61 -48
right_child=1 3 4 8 14 12 9 -9 -10 -11 11 16 22 36 34 -17 -18 19 29 56 23 -23 33 31 46 26 -28 -29 53 41 -32 -33 -34 -35 35 -37 43 50 39 -41 -42 -43 -44 44 -46 -47 59 -49 49 -51 54 -53 -54 58 57 -57 -58 -59 -60 -61 -62 -63
leaf_value=-0.63127706786808124 1.4378436773084105 -0.83697106391191489 0.44821461960673337 1.2927255070727806 0.63681854699354845 -0.99946797803100762 3.2704975673130585 1.6854855716228485 0.42645670743215658 4.1554823377858039 3.333022188622019 3.3457119312882426 0.307525261090352 -0.03631575571993987 0.010504148031274479 0.4350084952686144 1.5668417462280819 2.8511009873615372 2.7487182438373567 2.1872018406597471 0.55408408898426087 2.2310249237787154 0.96068476345390086 0.42719173202375799 -0.26535734213999851 -0.99759778669103982 0.47585575133562091 -0.10549812738728875 -0.15918083385084614 1.6426382747681245 1.2846091270446778 -0.41997025610618693 -0.34886257164883167 0.25960299567807293 0.084973430720803989 -0.23354058782800591 -0.017967199557460845 0.80938439696265441 -0.26969942255242235 -0.52270511661373309 -0.45018440096158979 2.3881212847573416 -0.31172427733739222 -0.27692318550985434 0.45483766080668336 0.53727654206065034 -0.29088807183791671 -0.50904604930144093 0.58052242031464218 -0.1353479477492246 -0.6284243781694524 -0.1131408723807612 0.00059349760413169867 0.089179212012977321 -0.31587559048729463 -0.17372119706141767 1.5279714977741241 -0.047500092111854152 0.64465794779360297 -0.55409104756429695 -0.18470263396938369 -0.75160004037121941
leaf_weight=356 32 24 20 23 34 33 28 32 21 23 23 20 26 60 36 23 28 27 24 26 24 21 20 22 67 24 27 34 66 23 32 93 53 63 111 202 24 23 157 586 161 21 21 29 26 130 57 52 26 22 53 86 24 66 84 148 20 354 20 141 146 60
leaf_count=356 32 24 20 23 34 33 28 32 21 23 23 20 26 60 36 23 28 27 24 26 24 21 20 22 67 24 27 34 66 23 32 93 53 63 111 202 24 23 157 586 161 21 21 29 26 130 57 52 26 22 53 86 24 66 84 148 20 354 20 141 146 60
internal_value=0.210886 2.00091 -0.207614 1.14784 0.0906752 -0.316186 2.54784 0.495859 1.71954 3.25002 2.26058 2.44341 -0.190332 0.377267 -0.114827 -0.214513 2.27432 2.48732 2.01795 2.25214 -0.226731 2.82501 0.154782 -0.20832 -0.311942 -0.496676 -0.17272 -0.474643 0.160886 2.26324 0.962919 -0.13881 -0.132836 0.428538 -0.215382 -0.120585 0.264055 -0.105879 -0.521731 -0.469244 -0.365998 1.99844 -0.732012 0.350286 0.0690001 0.450745 -0.348342 -0.192416 -0.0492436 0.252415 -0.12107 0.0669171 0.396385 0.054428 -0.160197 -0.293618 1.90058 -0.0989694 0.21836 -0.412797 -0.337046 -0.527151
internal_weight=4338 407 3931 159 1049 2882 248 353 112 72 176 144 1698 321 696 47 121 93 91 73 1536 49 162 1482 595 1184 85 58 186 68 52 887 79 83 510 313 269 794 1099 743 197 44 54 209 55 154 571 167 115 48 772 133 47 152 639 201 46 438 86 404 263 117
internal_count=4338 407 3931 159 1049 2882 248 353 112 72 176 144 1698 321 696 47 121 93 91 73 1536 49 162 1482 595 1184 85 58 186 68 52 887 79 83 510 313 269 794 1099 743 197 44 54 209 55 154 571 167 115 48 772 133 47 152 639 201 46 438 86 404 263 117
is_linear=0
shrinkage=0.05


Tree=4
num_leaves=63
num_cat=0
split_feature=75 78 8 10 35 68 8 60 35 3 45 18 4 21 26 2 3 25 13 17 10 74 45 22 67 68 1 67 8 74 47 53 67 27 21 72 18 43 3 5 45 75 32 40 13 28 0 51 67 51 74 76 58 36 37 20 4 32 37 67 76 44
split_gain=683676 76925.8 44939 41643.8 33817.5 15987 14901.3 14217.4 11009.5 10294.8 10220.6 8025.26 7807.32 7663.05 7491.18 7412.75 6909.43 5765.03 5515.45 4648.28 4545.45 5778.61 3947.46 3902.75 4765.69 3839.09 3836.43 3366.27 4034.35 3084.56 2996.18 2939.92 2895.99 2857.62 3517.63 2838.52 2710.96 2448.6 2433.49 2320.26 2227.66 3140.92 2597.42 2410.52 2162.03 2988.49 2360.01 2260.1 2120.77 1921.53 1813.81 3025.06 2779.09 2249.87 1778.24 2049.38 1735.51 1637.99 1555.29 1549.5 1511.83 1489.91
threshold=74.423499140669165 -2.1972334980964656 8.5000000000000018 1.5000000000000002 27.661022012578623 20.221908558903518 8.5000000000000018 1.3338511700000002 32.724166668333339 25.452500001666667 80.703333335000011 31.091666666666669 52.958500000000008 17.461925287356326 81.135344827586223 1119.7561525000003 26.011666668333337 100.86548335000002 81.532273333333293 19.556724137931038 2.5000000000000004 20.584987344126386 52.82083333333334 29.42999999833334 101.58620139666668 8.6967205805324657 27.515000000000004 39.485560796645707 21.500000000000004 29.505058569741006 28.809688881600007 46.685485000000007 41.013318548665247 73.104514600175492 26.78166666833334 14.789350173326026 23.169166668333336 82.562500000000014 27.708333333333336 1.1532839208000001 68.821666666666673 44.609687055712193 666.32097894736853 27.273940677966106 153.31179487179477 41.970411044759253 88.779327729754684 1.8603341856000002 89.300752260437818 25.822850820800003 8.2528826293131683 8.8187686225757727 56.596087799999999 26.864396550000002 26.01007062146893 12.990833333333335 68.549166666666679 1059.7635000000002 27.238333333333337 44.93209401709403 10.192766656301375 60.740000000000002
decision_type=2 2 2 2 2 2 2 2 2 2 2 2 2 2 2 2 2 2 2 2 2 2 2 2 2 2 2 2 2 2 2 2 2 2 2 2 2 2 2 2 2 2 2 2 2 2 2 2 2 2 2 2 2 2 2 2 2 2 2 2 2 2
left_child=2 6 14 5 7 11 25 -3 15 -9 12 16 -8 -14 20 35 -4 -11 -15 -20 21 36 -10 24 -6 -2 -7 39 40 -27 31 37 -23 34 54 50 59 -22 -13 -17 -29 -42 -43 -44 45 -18 -47 -46 -25 -45 52 58 -5 60 -24 -56 -35 -57 -52 -1 -53 -59
right_child=1 4 3 8 23 26 10 9 22 17 -12 38 13 18 -16 27 44 -19 19 -21 30 32 33 48 -26 29 -28 28 -30 -31 -32 -33 -34 56 -36 -37 -38 -39 -40 -41 41 42 43 49 47 46 -48 -49 -50 -51 51 53 -54 -55 55 57 -58 61 -60 -61 -62 -63
leaf_value=-0.57599622085917657 1.4751465685989547 1.601389799565077 -0.69280494918215973 -0.32434747489054361 1.1014408432204148 0.83917864561080935 2.1539901089100613 -0.80130859613418581 0.66117369180115371 -0.068100162744522102 1.8173642987012864 0.2346713772416115 2.5017416475074636 2.8388108919064208 0.47665868220121965 -0.83844189979055705 0.66401740617372784 1.1180459268036342 3.3099686907870431 4.2479734902381905 -0.38362267720845661 -0.42224106477654505 0.39568441484508843 2.5226304497037617 2.1047092533111575 1.9534955744942029 1.818519530296326 -0.20309586119654247 -0.33550763925431304 2.7049769574945626 -0.58606978920142216 -0.44499642207865631 -1.2156918105871783 0.61832482616106677 -0.54404155373573304 0.21166047573089602 0.055441152485353612 0.38940785050392157 0.86772229016300229 -0.15749477916820484 -0.38929954189807181 0.53937770217572423 -0.23873131420904037 -0.00071589123388683359 0.065638914496144826 -0.38348056559485422 0.13127757206148521 0.55812110044565555 1.8410516510009769 0.34154083780620415 0.38329961861018091 -0.28301425494608429 -0.74918946845409196 -0.31860709602443071 0.16968846187299613 -0.40567059932570715 0.025675280392169954 0.30598634965717797 -0.22591976415027273 -0.2444614994354487 -0.79007887942146282 -0.11089700283940698
leaf_weight=41 23 20 22 76 29 20 21 22 26 20 20 20 28 24 23 29 22 21 28 25 21 23 29 21 20 36 20 266 193 22 446 566 23 30 30 20 70 20 63 22 55 22 98 378 34 27 127 74 25 46 20 21 78 260 98 38 21 26 22 251 49 122
leaf_count=41 23 20 22 76 29 20 21 22 26 20 20 20 28 24 23 29 22 21 28 25 21 23 29 21 20 36 20 266 193 22 446 566 23 30 30 20 70 20 63 22 55 22 98 378 34 27 127 74 25 46 20 21 78 260 98 38 21 26 22 251 49 122
internal_value=0.200583 1.95545 -0.20066 -0.0714478 1.17727 0.376997 2.56565 0.439951 -0.164162 0.0712408 2.8674 0.27912 3.03407 3.21008 -0.418684 -0.222181 0.160842 0.539438 3.46766 3.75242 -0.432779 -0.291096 0.0644601 1.82145 1.51094 2.02177 1.32885 -0.147932 -0.128806 2.23854 -0.487676 -0.41538 -0.818966 0.0250831 -0.0268402 -0.372991 -0.224019 -0.00653461 0.71518 -0.5447 -0.0826868 -0.0292163 0.00718918 -0.0152402 0.22697 0.118901 0.0410278 0.40308 2.15221 0.0364157 -0.395221 -0.335482 -0.539527 -0.386349 0.0227318 -0.0153514 0.374293 -0.112846 0.0641847 -0.291013 -0.637959 -0.0376607
internal_weight=4393 405 3988 2504 178 429 227 83 2075 63 146 389 126 105 1484 1655 306 41 77 53 1461 408 420 95 49 81 40 1109 1058 58 1053 607 46 394 343 546 362 41 83 51 865 599 544 522 284 176 154 108 46 424 526 372 154 330 313 284 51 186 42 292 70 148
internal_count=4393 405 3988 2504 178 429 227 83 2075 63 146 389 126 105 1484 1655 306 41 77 53 1461 408 420 95 49 81 40 1109 1058 58 1053 607 46 394 343 546 362 41 83 51 865 599 544 522 284 176 154 108 46 424 526 372 154 330 313 284 51 186 42 292 70 148
is_linear=0
shrinkage=0.05


Tree=5
num_leaves=63
num_cat=0
split_feature=75 30 8 10 36 70 52 47 12 0 35 68 13 7 38 68 75 18 52 16 33 45 73 74 41 71 18 47 0 71 6 36 74 66 74 25 27 20 75 34 47 39 17 70 61 21 11 55 37 25 16 22 45 34 38 52 28 52 10 10 40 73
split_gain=579770 63116.8 45045.4 37682.4 35222.2 22744.7 17756.9 14517.5 12904.8 11348.3 10847.8 10334.7 8761.67 7069.89 10281.3 6214.38 6130.04 5953.36 5844.3 6123.55 5280.34 3970.62 3744.03 3587.29 3585.54 3536.3 3467.43 3195.1 4160.24 3311.23 3441.55 3293.61 3279.73 3106.03 2826.28 2590.15 2434.84 2381.31 2350.51 2262.2 2058.54 2020.32 1992.63 1930.58 2536.79 1840.26 1832.64 1811.74 1766.77 1764.66 2589.3 2980.97 1746.54 2567.27 1908.12 2483 1733.76 1730.32 1639.76 1615.34 1731.5 1645.92
threshold=74.423499140669165 598.6296000000001 7.5000000000000009 1.5000000000000002 28.29000000000001 24.956238010745473 3.7747472840000005 13.662114127200002 93.647783861666653 87.741259656016823 32.978333333333332 8.5877984608769591 50.325577496650148 0.9440266100000001 30.738333333333337 15.911318008368326 55.703603189137333 34.838857107328622 0.14924360000000003 90.028592595000006 1250.7765333333334 53.777500000000011 60.968287266478413 20.87464791867313 59.786666666666669 41.386464884696018 18.06725225230328 14.029691227200003 108.02987335000002 59.875814830674855 64.162585480000004 26.809310344827598 8.0298441350891796 5.9119389105975317 12.440944806454601 46.058333333333344 63.991666666666667 16.422500000000003 58.908645144917571 1157.8639333333335 3.5504572224000008 26.559999999999999 19.556724137931038 14.947178965912434 3.7167857100000004 15.199166666666668 130.36451999999994 48.694624160000004 26.387499999999999 42.058333333333344 110.42217554157922 15.502802793165168 73.220833333333346 697.25440000000015 30.050833333333337 3.0063470712000004 51.896595167193141 4.5170378704000012 2.5000000000000004 5.5000000000000009 29.338333331666671 46.49662391305732
decision_type=2 2 2 2 2 2 2 2 2 2 2 2 2 2 2 2 2 2 2 2 2 2 2 2 2 2 2 2 2 2 2 2 2 2 2 2 2 2 2 2 2 2 2 2 2 2 2 2 2 2 2 2 2 2 2 2 2 2 2 2 2 2
left_child=2 7 16 5 6 15 -3 8 9 13 25 -9 -8 14 -2 17 46 23 -18 38 39 -12 -21 24 -4 57 -13 28 29 30 31 -27 40 43 49 -17 45 -32 -20 -6 -33 -24 -28 44 -26 47 -1 -23 -35 -34 51 -51 -30 -54 -55 -56 -29 -5 -48 61 -61 -47
right_child=1 4 3 10 20 -7 12 11 -10 -11 21 26 -14 -15 -16 35 18 -19 19 22 -22 36 41 -25 33 27 42 56 52 -31 37 32 34 48 -36 -37 -38 -39 -40 -41 -42 -43 -44 -45 -46 59 58 -49 -50 50 -52 -53 53 54 55 -57 -58 -59 -60 60 -62 -63
leaf_value=-0.57419581812689413 3.1746025502681734 1.4469863902438771 0.47720206035700097 -0.81652015900035624 1.7419612369537356 1.5867018934558421 0.58297450527548789 1.0321896731853486 3.6189805310081553 3.1712470381600517 0.72913633798775468 2.6574915329615276 -0.74328788284099467 1.3952759683132172 1.8620427754279729 1.1215065113876177 0.51552617757891617 0.7040947962593701 -0.37684387449796003 -0.30199882101554137 1.2206806906632015 0.40909724141338044 -0.076770791451673259 -0.48493357920646674 0.076138846888332765 -0.61891080393458486 1.5589230533157077 -0.41298389800648261 -0.16962011867792456 0.31151028817209103 0.1514289024935076 -0.66666475502957767 -0.33121710670630228 0.64224953502416615 -0.51351114992911995 0.46142057521002633 0.26752141987022598 -0.32674365196117139 -1.0231231016271254 2.414598125457764 -0.13908726924657822 0.51226084763184188 2.2398441531441429 -0.54467149257659908 -0.53560731053352362 -0.64985595563054088 -0.24782716456537296 -0.0094246633538995137 0.14547323482111096 -0.089850185492209023 -0.17362141448051432 0.65364874445546706 0.30839778678674329 -0.12750449974707254 0.56183578474447138 -0.010543287495772045 -0.16627622873012751 -0.25499833135501199 -0.47131844083468116 -0.24974114184196178 0.32193547730092653 -0.14582782599913038
leaf_weight=382 25 22 62 34 25 34 20 28 27 35 23 24 33 25 37 23 24 45 24 169 28 35 37 25 111 91 21 217 385 24 66 71 58 25 52 42 95 43 34 25 25 24 22 20 20 25 99 99 63 28 86 26 51 328 24 90 106 23 480 26 27 46
leaf_count=382 25 22 62 34 25 34 20 28 27 35 23 24 33 25 37 23 24 45 24 169 28 35 37 25 111 91 21 217 385 24 66 71 58 25 52 42 95 43 34 25 25 24 22 20 20 25 99 99 63 28 86 26 51 328 24 90 106 23 480 26 27 46
internal_value=0.190236 1.82267 -0.181862 -0.0653165 1.02652 0.341142 0.252863 2.3219 2.62986 2.41095 -0.151993 1.8389 -0.242812 2.10509 2.3913 0.244011 -0.426671 0.164998 -0.234109 -0.296578 1.77042 0.0925919 -0.1808 0.0905831 0.138383 -0.202302 2.17603 -0.189825 -0.158106 -0.263292 -0.288558 -0.351251 -0.280855 0.0504891 -0.185462 0.694989 0.0511173 -0.037208 -0.755697 2.07828 -0.529275 0.154979 1.9073 -0.0871137 -0.0172575 -0.0285664 -0.489189 0.0998908 0.286603 -0.0993079 -0.00323128 0.268131 -0.0898198 -0.0275011 -0.0662586 0.109958 -0.332021 -0.589941 -0.433105 -0.167383 0.0414903 -0.323303
internal_weight=4344 397 3947 2674 153 470 75 244 149 122 2204 95 53 87 62 436 1273 371 312 288 78 376 230 326 301 1828 67 1771 1448 570 546 437 346 239 250 65 353 109 58 50 96 61 43 151 131 258 961 134 88 198 140 54 878 493 442 114 323 57 579 124 53 71
internal_count=4344 397 3947 2674 153 470 75 244 149 122 2204 95 53 87 62 436 1273 371 312 288 78 376 230 326 301 1828 67 1771 1448 570 546 437 346 239 250 65 353 109 58 50 96 61 43 151 131 258 961 134 88 198 140 54 878 493 442 114 323 57 579 124 53 71
is_linear=0
shrinkage=0.05


Tree=6
num_leaves=63
num_cat=0
split_feature=75 71 8 10 3 29 47 17 45 13 35 28 71 4 73 9 74 72 16 4 61 73 2 33 2 32 71 55 74 66 72 27 21 57 20 75 10 44 64 19 51 34 47 6 72 51 48 45 58 53 7 36 6 49 5 7 5 60 22 47 54 17
split_gain=515374 63894.3 36673.5 32033 30692.3 18572.9 15365.9 15025.3 10213.1 10906.6 9888.95 9812.52 8232.2 7486.7 6655.07 8741.29 7628.59 6752.04 5819.24 5567.02 5466.58 5247.03 4696.32 4668.04 4145.35 4112.79 4037.42 3988.54 3619.84 3598.56 3498.71 3329.29 3770.47 3485.18 2871.08 2690.95 2562.63 2500.63 2471.7 2443.19 2410.6 2377.17 2363.04 2342.58 4128.04 2854.81 2356.06 2686.05 2153.98 2089.86 2074.82 2002 1811.85 1762.48 1699.23 1692.1 1651.29 1630.59 1595.78 1592.16 1485.48 1445.99
threshold=74.423499140669165 100.9126621872917 7.5000000000000009 1.5000000000000002 26.653333331666669 1040.2750222222226 20.598685474400003 32.677959377386834 81.049166666666693 81.532273333333293 32.724166668333339 69.584119496855365 122.09430880145835 69.636666666666699 60.555317355822027 3.5000000000000004 13.354104267640055 19.712137913504474 88.103450424478396 62.660833335 1.3829290100000002 43.484084899517917 760.5429742138366 986.65150370370372 1177.0661666666667 729.54976666666676 59.875814830674855 54.931171680000006 27.740041129776213 5.132618345978635 9.5709818693034752 72.186876048874311 15.680833333333336 53.940076120000008 11.988333333333335 48.559776281063399 2.5000000000000004 80.46916666666668 0.28156092000000005 13.311867816091956 4.1406869416000012 554.64586551724153 24.870916760800004 63.316722000000006 9.4686102344310736 2.9210098632000006 3.4389181112000009 75.101666666666674 54.250610680000015 47.136078220000009 0.29103746000000003 26.809310344827598 62.279777140000007 12.573316624000002 17.081995911200007 0.25217500000000004 1.2066660496000001 0.48849376000000005 33.573333333333331 1.1194654152000003 61.72385744000001 17.240314465408808
decision_type=2 2 2 2 2 2 2 2 2 2 2 2 2 2 2 2 2 2 2 2 2 2 2 2 2 2 2 2 2 2 2 2 2 2 2 2 2 2 2 2 2 2 2 2 2 2 2 2 2 2 2 2 2 2 2 2 2 2 2 2 2 2
left_child=2 4 14 7 5 -2 8 13 9 28 21 -6 19 25 36 17 -17 -16 -9 -11 -13 56 -15 -22 26 -4 51 54 -3 40 -24 32 38 -33 35 37 41 -26 -12 -34 55 -1 49 46 45 -45 47 50 -20 -38 -36 52 -23 -39 -8 -27 -5 -40 -48 -41 -49 -53
right_child=1 6 3 10 11 -7 27 18 -10 12 31 20 -14 22 15 16 -18 -19 48 -21 23 24 30 -25 34 29 -28 -29 -30 -31 -32 33 39 -35 43 -37 42 53 57 59 -42 -43 -44 44 -46 -47 58 60 -50 -51 -52 61 -54 -55 -56 -57 -58 -59 -60 -61 -62 -63
leaf_value=0.20728534637336538 -0.78588812599579505 1.7339020073413849 1.0708743228266637 -0.79175240717560169 0.75413149870518181 1.1026405734860381 1.7221857678890229 1.6842570008337496 1.6298550800843672 3.0320934185981754 0.67460219437877345 1.245647914888891 2.4392698764801026 -0.4903640605682551 -0.045909118028574218 -0.023180617094039919 1.2009408324956894 -1.0792357878684997 0.93421919179313329 4.0982078631718961 2.5050663321106525 -0.61342100708667813 -0.26232358993341526 1.6123644631356002 0.55917849015826604 0.12548263352364303 0.41338973462581641 2.2039379636446639 2.6218281090259552 0.52345837413035723 0.24524682990178981 0.77910519287951541 0.21161166367431483 0.029354683333827604 -0.67895936121543254 -0.10762770638980888 0.044574951767348325 0.30467490538095054 0.030862263742257173 -0.49150644278396732 0.45215534965197252 -0.33816852105034667 -0.55164737305603928 0.72645797468721873 -0.17445965221449108 0.053460288587957622 -0.28917289176981259 -0.00053555995603150961 0.29016453751495908 -0.41720525589979751 -0.13884947970268671 -0.1998564608852948 -0.13578111896148096 -0.29619457345941796 1.0782186792010353 -0.49529525836308796 -0.39377069043956942 0.44834981230752807 0.15742590093896502 -0.13434311058564283 0.41787478697711028 -0.39562767641483876
leaf_weight=22 30 22 21 33 36 23 20 20 22 25 21 37 25 43 43 35 20 25 34 24 27 84 48 32 39 23 20 24 24 97 116 31 36 31 21 114 26 26 142 46 24 217 460 26 119 40 421 79 21 425 116 298 26 23 21 21 124 28 21 97 29 138
leaf_count=22 30 22 21 33 36 23 20 20 22 25 21 37 25 43 43 35 20 25 34 24 27 84 48 32 39 23 20 24 24 97 116 31 36 31 21 114 26 26 142 46 24 217 460 26 119 40 421 79 21 425 116 298 26 23 21 21 124 28 21 97 29 138
internal_value=0.17746 1.72526 -0.175097 -0.0706911 1.05002 0.0336621 2.32874 0.305372 2.62019 2.80176 -0.149649 1.45811 3.17758 0.181608 -0.396293 -0.0467276 0.421954 -0.425809 0.953894 3.55427 1.7221 -0.201286 -0.0252587 2.02089 -0.174851 0.41183 -0.284353 1.69201 2.19717 0.327952 0.0966896 0.0651449 0.0083252 0.40423 -0.117143 0.0527103 -0.433681 0.260421 0.162842 -0.156551 0.0490681 -0.287959 -0.471911 -0.15649 0.00143579 0.318581 -0.199017 -0.0746475 0.688307 -0.390584 -0.22164 -0.309911 -0.500524 0.0226341 1.39235 -0.170798 -0.477423 0.0996249 -0.267954 -0.249235 0.111815 -0.261821
internal_weight=4362 392 3970 2697 185 53 207 468 142 120 2229 132 74 393 1273 123 55 68 75 49 96 1797 207 59 1640 186 566 65 46 165 164 432 370 62 1074 202 1150 88 191 179 68 239 911 872 185 66 687 245 55 451 137 546 110 49 41 44 157 170 442 143 108 436
internal_count=4362 392 3970 2697 185 53 207 468 142 120 2229 132 74 393 1273 123 55 68 75 49 96 1797 207 59 1640 186 566 65 46 165 164 432 370 62 1074 202 1150 88 191 179 68 239 911 872 185 66 687 245 55 451 137 546 110 49 41 44 157 170 442 143 108 436
is_linear=0
shrinkage=0.05


Tree=7
num_leaves=63
num_cat=0
split_feature=75 30 8 72 36 10 53 40 76 53 5 9 13 24 35 52 61 9 1 51 2 3 49 46 11 32 29 10 31 75 18 71 39 8 68 44 51 65 7 37 44 45 32 48 62 73 1 72 19 66 3 4 10 13 51 34 50 68 71 25 31 37
split_gain=477415 58657.6 36395.8 25958.5 24791.3 17990.2 13615.5 12295 10105.1 9851.48 8148.91 8117.29 8423.01 8257.54 7467.08 7107.76 7214.19 5794.3 5754.44 6276.66 4786.84 4331.66 4086.47 4285.53 4053.9 3592.51 3357.48 3333.39 3134.52 3061.7 3013.09 3000.37 2694.4 2690.74 2439.4 2421.59 2284.35 2256.22 2189.13 2131.61 2085.6 2032.84 2682.92 1957.02 2632.19 2057.1 1911.44 1824.8 1976.86 1824.13 1923.39 1880.49 1812.28 1731.12 1657.52 1628.6 2368.39 1597.74 1594.05 1589.37 1465.28 1389.4
threshold=74.423499140669165 591.76857241379332 8.5000000000000018 27.518671584580183 28.449166666666667 1.5000000000000002 55.271674640000008 25.891522988505749 33.392680660909562 46.079768560000005 0.13766192000000002 2.5000000000000004 92.090506664999921 106.73812500000001 32.978333333333332 0.13813272000000001 4.546606520000001 3.5000000000000004 21.577500000000004 14.209618746400002 1132.9297666666669 25.858813559322037 19.177719739200004 61.414166666666674 133.35286105263148 1163.7153000000001 978.27971724137944 2.5000000000000004 986.65150370370372 61.510962322930006 31.418887494429224 42.225027396607594 33.380833333333342 21.500000000000004 3.2498987255066081 66.670833335000012 33.56884130160001 69.742391857117653 3.2526029300000006 27.345833333333335 76.233333333333334 73.220833333333346 676.80642873563227 2.8422629136000004 0.45996720000000002 45.827460927830607 9.4308333333333358 17.750537537648469 14.583333333333337 5.1874076329368206 30.775833335000005 69.636666666666699 3.5000000000000004 129.57985333333332 1.4705824056000003 1710.4191965111538 1.1879300928000001 11.159957971615087 55.266761422229166 50.758591225763965 1594.1475666666668 26.259166665000006
decision_type=2 2 2 2 2 2 2 2 2 2 2 2 2 2 2 2 2 2 2 2 2 2 2 2 2 2 2 2 2 2 2 2 2 2 2 2 2 2 2 2 2 2 2 2 2 2 2 2 2 2 2 2 2 2 2 2 2 2 2 2 2 2
left_child=2 7 15 5 6 10 8 38 26 -9 -4 18 17 -14 20 -1 24 -13 19 -11 34 -12 32 -24 29 28 -3 -26 -6 -17 49 -22 37 36 -7 -32 41 39 -2 60 46 47 -43 -44 45 -45 -36 48 58 50 -23 -51 -41 -25 -52 56 -48 -53 -33 -54 -16 -37
right_child=1 4 3 -5 25 14 -8 9 -10 11 21 12 13 -15 22 16 -18 -19 -20 -21 31 30 23 53 27 -27 -28 -29 -30 -31 35 33 -34 -35 40 61 -38 -39 -40 52 -42 42 43 44 -46 -47 55 -49 -50 51 54 57 59 -55 -56 -57 -58 -59 -60 -61 -62 -63
leaf_value=0.50885273586554836 0.98896213861182325 -0.93018771537712641 1.0421572262999312 1.322203826367417 1.473841685652733 -0.49311954524447188 1.430779521099546 1.2981934760298048 0.78678468513488775 3.4533454427397565 -0.52536493392572525 1.1209340468696927 3.3979156708717349 1.9611188173294067 0.2922633717812243 -0.45739291887824951 0.48257704495141907 2.1683583997911025 2.1262858948924328 2.3590323305130005 -0.46309578289510683 0.13634836713419013 0.9857221827975341 -0.093134405938061812 -0.15665511435275026 1.2173944630167064 -0.024989008661359551 -0.38331649778881893 2.3590709829330443 -0.96618665033771145 0.91820198968052869 0.079128220599352761 -0.40933617546390266 -0.27782895839856775 0.19400583633354732 -0.013514758031815292 0.32554035774759349 0.403717497156726 1.7287482261657716 -0.40828190679135529 -0.36824144781844037 0.54934396793999318 0.12692349323684432 -0.3812773967871354 -0.23407006964053975 0.16125545537529085 0.35705367065966132 0.29655537378220331 -0.25682063323422949 0.40524761472707216 -0.58611083933640096 -0.16908592840449677 0.12599171825817654 0.39338604880542294 0.042098543615568251 -0.43766146129263306 -0.19563063383959464 0.32497873346010847 -0.40270387774928085 -0.39326292932033541 -0.1479868393805292 0.55630724190369907
leaf_weight=23 20 21 29 34 20 118 22 21 25 38 21 23 20 20 63 640 24 31 22 20 58 92 21 33 237 34 20 514 20 31 24 94 39 167 35 20 37 36 20 46 185 21 136 21 165 104 22 21 267 92 21 36 56 41 21 56 163 30 21 20 27 23
leaf_count=23 20 21 29 34 20 118 22 21 25 38 21 23 20 20 63 640 24 31 22 20 58 92 21 33 237 34 20 514 20 31 24 94 39 167 35 20 37 36 20 46 185 21 136 21 165 104 22 21 267 92 21 36 56 41 21 56 163 30 21 20 27 23
internal_value=0.168102 1.65276 -0.165452 -0.0499903 0.920757 -0.0687875 0.353557 2.15738 -0.00551674 2.32118 0.23427 2.44464 2.12959 2.67952 -0.12858 -0.363206 -0.377077 1.72223 2.81483 3.076 -0.173683 0.172615 0.0710773 0.355322 -0.391586 1.59527 -0.488627 -0.311787 1.91646 -0.480899 0.213444 -0.11298 -0.0230105 -0.0937141 -0.290266 0.515845 -0.0590498 0.0377423 1.35886 -0.0244044 -0.238343 -0.0757908 -0.00237137 -0.0295686 -0.102958 0.0701099 -0.151273 -0.157226 -0.182172 0.144058 0.00835665 0.259146 -0.160579 0.176424 -0.272006 -0.201418 -0.129906 0.0554889 -0.00885851 -0.0106542 0.160188 0.291274
internal_weight=4382 397 3985 2516 162 2482 88 235 66 195 409 174 94 40 2073 1469 1446 54 80 58 1691 380 382 95 1422 74 41 751 40 671 359 1112 287 1054 579 67 887 248 40 212 461 850 447 426 290 125 276 403 382 292 134 158 122 74 42 241 185 66 115 76 90 43
internal_count=4382 397 3985 2516 162 2482 88 235 66 195 409 174 94 40 2073 1469 1446 54 80 58 1691 380 382 95 1422 74 41 751 40 671 359 1112 287 1054 579 67 887 248 40 212 461 850 447 426 290 125 276 403 382 292 134 158 122 74 42 241 185 66 115 76 90 43
is_linear=0
shrinkage=0.05


Tree=8
num_leaves=63
num_cat=0
split_feature=75 30 8 72 40 10 12 23 5 48 66 73 9 74 70 57 41 4 63 3 68 39 47 13 2 38 40 30 12 9 6 71 17 44 9 55 75 27 68 37 11 67 10 34 47 37 67 76 3 13 51 1 20 31 64 72 5 39 76 13 49 39
split_gain=421255 47735.9 33589.7 30464.2 25166.9 19870.4 13835.6 13558.2 7846.57 7293.9 7235.06 6191.85 7752.28 7142.5 6081.87 5682.07 5134.16 4980.89 7085.15 4475.57 4446.44 4254.04 4763.29 3949.36 3896.86 2997.37 2936.39 2834.74 4810 3011.95 2780.65 2569.05 2583.6 3155.26 2793.07 2550.64 2397.48 2730.28 3560.35 2225.71 4473.4 2618.75 2288.89 2170.3 2837.28 2108.71 1999.56 2551.11 1998.91 1943.92 2367.22 1709.97 1704.96 1599.89 1561.3 1558.44 1541.24 1521.61 1484.12 1630.07 1468.6 1466.91
threshold=74.423499140669165 591.76857241379332 8.5000000000000018 27.518671584580183 26.347500000000007 1.5000000000000002 94.590978066783165 157.85791665000002 0.13766192000000002 3.0104420896000006 0.66478902251908922 60.555317355822027 3.5000000000000004 13.68616111942845 18.930381809307651 56.066013640000008 51.619166666666665 52.024166665000003 0.58604553000000015 25.858813559322037 22.277818254342598 27.118333333333336 4.7667539568000015 80.920413333333286 1440.3808000000001 30.765833333333333 28.0825 752.38321186440692 110.37121333333329 2.5000000000000004 66.378519340000011 41.156379528039018 13.930833333333336 61.848717950384632 1.5000000000000002 52.946612880000011 46.498264556887868 46.44166666666667 4.1221420714986907 27.929166666666671 108.02987335000002 49.810016884213269 4.5000000000000009 922.82631138333329 1.1194654152000003 27.370833333333337 43.346047008547011 8.9436969675219178 28.514166666666668 145.88522666666657 1.4705824056000003 25.317500001666669 20.024999998333335 1184.8042666666668 0.6199640500000001 10.396101471981286 1.3213086744000002 26.436666666666667 17.6390957839732 130.36451999999994 5.5525474048000012 32.914166666666674
decision_type=2 2 2 2 2 2 2 2 2 2 2 2 2 2 2 2 2 2 2 2 2 2 2 2 2 2 2 2 2 2 2 2 2 2 2 2 2 2 2 2 2 2 2 2 2 2 2 2 2 2 2 2 2 2 2 2 2 2 2 2 2 2
left_child=2 7 11 5 -3 8 21 10 -4 15 -2 39 14 -14 -13 16 -7 -12 25 -10 35 -6 -23 -22 26 -19 57 29 58 48 -28 -18 33 -33 51 -20 56 38 -38 40 -1 -41 -43 53 -45 54 -35 -48 -21 -30 -51 -34 -46 61 -36 -40 -26 -11 59 -29 -42 -17
right_child=1 4 3 -5 6 9 -8 -9 19 24 17 12 13 -15 -16 43 31 18 20 27 23 22 -24 -25 36 -27 30 28 49 -31 -32 32 34 46 45 -37 37 -39 55 41 60 42 -44 44 52 -47 47 -49 -50 50 -52 -53 -54 -55 -56 -57 -58 -59 -60 -61 -62 -63
leaf_value=0.48548791986424478 2.7772460433840753 -0.2360001169537243 0.96606412043462386 1.4453330294174309 0.98341371519812226 0.63090554231986118 0.077325113188652761 3.0624182595147027 -0.52534192587648121 -0.1031486140187973 1.0700220205567099 -0.10605875060290976 -0.0307963670624627 1.0232700231075287 -1.1348273777961733 0.46664439007315944 -0.51199511095792771 2.8757983046770099 1.1316832198037041 -0.15036316407578332 1.6972265890150362 1.3073748206098876 2.1390235568537856 2.5876557326316836 -0.66990240335095841 2.0300553478977896 -0.2583001727097019 0.049951751530170445 -0.05394651017881729 -0.34146013259887698 0.10460420749702698 0.79579980581533172 0.079359066771896011 -0.22416282332269477 -0.20253888435280798 1.7189936023009453 0.53067484915017993 -0.13016618081732453 0.25374363333948197 -0.46486373691688904 -0.042148190958514103 -0.20210501656700403 -0.43639394666286224 -0.65383697703797772 -0.3193909070797657 -0.25580681068892769 0.57604501963489596 0.085190914627164605 0.47365461971723671 -0.16828826957128265 0.4224539475263776 0.55380527914191291 0.11101340716986946 -0.29269351189390624 0.17263296868031225 -0.18540831963563789 -0.20642118129459486 -0.51810257788114 0.82686283753977896 0.57971527390884903 -0.37870735951345158 -0.11135080339653153
leaf_weight=20 20 38 35 34 29 38 21 27 21 26 22 51 45 25 20 23 21 20 36 21 33 36 33 20 24 22 501 20 74 40 59 20 91 32 44 38 41 293 31 684 42 234 188 47 76 133 36 100 33 22 74 24 33 28 75 58 71 147 36 53 142 21
leaf_count=20 20 38 35 34 29 38 21 27 21 26 22 51 45 25 20 23 21 20 36 21 33 36 33 20 24 22 501 20 74 40 59 20 91 32 44 38 41 293 31 684 42 234 188 47 76 133 36 100 33 22 74 24 33 28 75 58 71 147 36 53 142 21
internal_value=0.161287 1.56101 -0.150419 -0.0413462 0.884255 -0.0613886 1.24198 2.00744 0.248608 -0.124928 1.87245 -0.342555 -0.0277279 0.345656 -0.395853 -0.0111557 0.0679942 1.7777 1.86983 0.184875 1.68365 1.49155 1.70512 2.03324 -0.201504 2.43279 -0.275689 0.22486 0.304868 -0.0126109 -0.220066 0.0308577 0.0513981 0.202125 -0.0258135 1.43328 -0.0965294 -0.0455524 0.145154 -0.376441 -0.224691 -0.404432 -0.30648 -0.224305 -0.329106 -0.118994 0.131449 0.215123 0.230981 0.138631 0.287076 0.178374 -0.189085 0.00276439 0.033914 -0.0324453 -0.323511 -0.45574 0.564138 0.434575 -0.301884 0.190783
internal_weight=4402 395 4007 2556 157 2522 119 238 429 2093 211 1451 141 70 71 842 614 191 169 394 127 98 69 53 1251 42 733 373 279 94 560 576 555 188 367 74 518 423 130 1310 204 1106 422 228 156 252 168 136 54 170 96 115 109 72 119 89 95 173 109 73 184 44
internal_count=4402 395 4007 2556 157 2522 119 238 429 2093 211 1451 141 70 71 842 614 191 169 394 127 98 69 53 1251 42 733 373 279 94 560 576 555 188 367 74 518 423 130 1310 204 1106 422 228 156 252 168 136 54 170 96 115 109 72 119 89 95 173 109 73 184 44
is_linear=0
shrinkage=0.05


Tree=9
num_leaves=63
num_cat=0
split_feature=75 33 37 10 40 47 45 1 8 8 60 52 40 25 62 52 53 42 68 71 19 49 0 71 66 74 75 62 14 41 20 1 36 3 73 32 4 2 14 47 6 22 40 9 72 48 50 32 1 22 57 19 73 3 73 37 10 44 75 27 75 26
split_gain=403756 33429.2 30089.2 21697.8 21420.9 14027.6 12152.8 10443.1 10031.7 8770.1 7336.59 6082.62 6025.95 5927.92 6754.16 5914.48 5473.43 5347.93 4750.21 4581.42 4127.87 4585.59 3976 3693.42 3651.08 3579.35 3386.47 2828.31 2797.86 2707.61 2679.39 2761.99 2647.99 2619.75 2331.12 2327.68 2195.02 2147.33 3090.36 2189.44 2130.84 2144.53 2022.55 1941.65 1929.29 1903.83 2042.27 1860.61 2076.1 1898.05 1854.57 1854.42 1854.18 2116.9 2513.69 3939.24 1833.59 1612.52 1718.65 4162 2369.81 2110.46
threshold=74.423499140669165 588.40396666666675 28.07814971751413 1.5000000000000002 26.200833333333339 13.662114127200002 78.917500000000004 37.348683022581241 8.5000000000000018 15.500000000000002 1.1447343300000001 0.13813272000000001 29.84083333333334 112.69255835000001 1.4013895300000003 2.0751922400000002 57.215172420000009 78.999166666666682 8.5877984608769591 61.333996303541916 11.836666666666668 12.400858817600001 145.88522666666657 62.924845257774926 12.996768369959682 8.4594714564243709 117.08607317480974 0.77988623000000012 128.19884000000002 51.619166666666665 30.767500000000002 9.0466666666666686 27.240833333333338 28.630094339622644 60.555317355822027 1163.7153000000001 72.648333333333355 1194.4877666666669 82.191173335000016 3.4936250712000008 65.233539280000016 22.570833333333336 28.656781608333336 1.5000000000000002 11.373499070031846 3.3490772304000003 3.7511451384000005 783.1688333333334 12.265833333333335 15.242500000000001 58.524000640000004 23.505000000000003 43.952775509998396 25.32 60.804561277968801 31.124166666666671 4.5000000000000009 53.559166665000014 48.710832832869372 43.106603773584915 50.757440026136685 39.552777777777784
decision_type=2 2 2 2 2 2 2 2 2 2 2 2 2 2 2 2 2 2 2 2 2 2 2 2 2 2 2 2 2 2 2 2 2 2 2 2 2 2 2 2 2 2 2 2 2 2 2 2 2 2 2 2 2 2 2 2 2 2 2 2 2 2
left_child=2 5 3 7 -3 6 13 11 22 19 35 -1 -12 14 -2 23 -15 28 -7 30 21 -10 52 33 26 27 -20 -22 42 -11 31 -5 -31 -13 37 -6 -19 38 -27 51 41 57 -17 -35 -42 46 -34 -48 -49 -50 -23 -39 -4 -54 -55 -56 -24 -33 59 -59 -60 -61
right_child=1 4 8 9 10 18 -8 -9 20 29 12 15 -14 16 -16 17 -18 36 24 -21 25 50 56 -25 -26 34 -28 -29 -30 32 -32 40 45 43 -36 -37 -38 39 -40 -41 44 -43 -44 -45 -46 -47 47 48 49 -51 -52 -53 53 54 55 -57 -58 58 60 61 -62 -63
leaf_value=0.87709609406641309 1.7888035436739793 -0.2827388934791088 -0.60907971523400328 0.2943561046008164 1.831967467069626 0.93450523575147004 1.4279680108322816 1.2024640593910592 -0.17959496321998639 0.46975992285695511 0.4341669353278908 -0.2831189357157376 1.4647754917974058 2.4202485158329918 2.8950949950651692 1.1263206146933415 3.5760067725181579 0.36891355231404305 2.3447408358256023 0.4074403177946806 -0.58956826378694849 0.6680012671276927 -0.098226702360837012 -0.49699931287517152 1.118839213848114 0.22880914694815876 1.513233416557312 -0.21388546318574028 0.36539163835597843 0.54387627718970177 -0.6480594247595306 0.20914686132076896 -0.14827466072636303 0.56227088061071206 0.18621305614709854 1.2646763339187161 -0.28771734228091578 -0.041433391775055901 -0.36115315819930549 -0.18405986684238884 0.15080043570917162 -0.52223137915134432 0.48826525004013721 0.018880091181823187 -0.35684859814743203 -0.18209767839028723 0.52985781422265477 0.29855623068526771 -0.18185678100479502 0.15327680167132607 0.14485946861613128 0.38445462612435222 -0.66768757833966186 -0.38866011437283809 0.49649280050680755 -0.44121405271192393 -0.37191123811822191 -0.35544518045271223 -0.63850952370299241 0.47413211142501005 -0.25154144806988737 -0.051423882268783118
leaf_weight=36 37 28 108 26 40 30 34 32 73 38 37 31 23 21 22 27 20 20 24 29 90 32 172 36 20 25 25 113 89 24 37 20 89 31 50 33 35 127 198 309 61 73 23 35 27 105 26 78 84 85 36 32 63 730 21 24 95 115 54 26 148 72
leaf_count=36 37 28 108 26 40 30 34 32 73 38 37 31 23 21 22 27 20 20 24 29 90 32 172 36 20 25 25 113 89 24 37 20 89 31 50 33 35 127 198 309 61 73 23 35 27 105 26 78 84 85 36 32 63 730 21 24 95 115 54 26 148 72
internal_value=0.155185 1.52828 -0.151026 0.0145812 0.974226 1.91112 2.24458 0.336571 -0.267196 -0.0899266 1.23885 0.260239 0.829234 2.52223 2.20132 0.192328 2.98403 0.368396 1.45976 -0.207622 -0.156738 0.0956067 -0.365998 -0.0644922 1.68814 -0.19443 1.9205 -0.380444 0.53353 0.0631445 -0.234689 -0.210099 0.0316753 0.0960259 -0.14347 1.57552 -0.0489425 -0.167326 -0.295014 -0.106483 -0.232106 -0.271454 0.832815 0.274109 -0.00495552 0.00535235 0.0597232 0.127532 0.085182 -0.0132985 0.391044 0.0442799 -0.41409 -0.388961 -0.366303 -0.00361752 -0.195605 -0.22937 -0.250503 -0.151414 -0.354988 0.0880093
internal_weight=4304 394 3910 1612 161 233 134 395 2298 1217 133 363 60 100 59 327 41 194 99 688 1085 141 1213 133 69 944 49 203 139 529 659 622 491 97 741 73 55 691 223 468 596 508 50 66 88 467 362 273 247 169 68 159 946 838 775 45 267 435 415 213 202 98
internal_count=4304 394 3910 1612 161 233 134 395 2298 1217 133 363 60 100 59 327 41 194 99 688 1085 141 1213 133 69 944 49 203 139 529 659 622 491 97 741 73 55 691 223 468 596 508 50 66 88 467 362 273 247 169 68 159 946 838 775 45 267 435 415 213 202 98
is_linear=0
shrinkage=0.05


Tree=10
num_leaves=63
num_cat=0
split_feature=75 31 65 35 76 13 8 50 10 68 6 1 33 54 32 68 63 71 2 48 36 62 57 41 19 37 55 37 74 72 56 62 19 47 64 69 14 37 11 65 73 68 52 10 22 74 71 71 41 2 70 37 68 73 19 56 53 20 54 74 76 56
split_gain=348630 38974.8 26168.4 22776.3 19448.4 16356.8 13859.3 11706.7 11519.8 10755.8 7195.14 7129.4 5833.55 5618.69 4989.33 4742.66 4207.17 4017.83 3628.61 3589.69 2983.94 5200.86 2680.35 2776.85 2549.28 3478.08 3750.14 2979.24 3035.09 2971.22 2564.54 2480.48 2390.1 2865.24 2312.05 2269.47 2204.85 2126.64 3913.88 2679.65 1994.62 2125.03 1992.04 1931.59 1962.6 1862.23 2836.38 2054.82 1780.07 1774.42 2500.3 2019.37 1678.27 1641.1 2350.57 1745.74 1663.89 1586.56 1560.45 1542.47 1494.85 1458.39
threshold=74.423499140669165 216.25546666666671 57.77777777777775 27.661022012578623 32.893210818826766 47.786653333333277 7.5000000000000009 4.8154327936000003 1.5000000000000002 33.438223642374489 59.492780620000012 21.482500000000005 881.12466666666671 45.839577420000005 734.30905000000018 12.70146058176282 0.55840322000000009 41.156379528039018 1004.1509000000001 1.5282874200000001 27.579907407407411 1.4884652300000003 53.940076120000008 62.900833333333338 11.567500000000001 27.630000000000006 50.502828040000004 27.680833333333336 8.4594714564243709 15.964594462403051 57.964670540000007 0.59699451000000014 30.841666666666669 0.88296374320000004 0.99076872000000005 64.973293118380823 76.752026881982019 28.174429824561404 108.02987335000002 41.407411030131485 44.224729276040691 13.12527364551323 2.4530224224000006 2.5000000000000004 29.42999999833334 11.798411899123289 46.527528696453551 43.355729729508475 80.381666666666675 1481.9689830000002 10.333634899331676 27.419166666666673 10.071666996561097 50.612650862178057 19.572500000000002 60.190879700000004 55.888130900000014 12.635833333333334 57.451914940000009 9.2450151478781297 10.86002802382019 53.959375260000009
decision_type=2 2 2 2 2 2 2 2 2 2 2 2 2 2 2 2 2 2 2 2 2 2 2 2 2 2 2 2 2 2 2 2 2 2 2 2 2 2 2 2 2 2 2 2 2 2 2 2 2 2 2 2 2 2 2 2 2 2 2 2 2 2
left_child=2 9 6 5 8 -3 37 -7 14 10 13 -11 -5 -2 35 17 -15 42 -14 22 52 -22 23 34 25 48 30 29 31 36 -27 -29 33 -16 -10 -4 -26 38 -1 -39 -17 -42 -8 44 -41 46 47 -38 58 50 51 -21 -18 54 -30 -55 -56 -43 -19 -35 -50 -49
right_child=1 3 4 12 -6 7 15 -9 19 11 -12 -13 18 16 32 40 20 24 -20 49 21 -23 -24 -25 27 26 -28 28 53 -31 -32 -33 -34 59 -36 -37 45 39 -40 43 41 57 -44 -45 -46 -47 -48 61 60 -51 -52 -53 -54 55 56 -57 -58 -59 -60 -61 -62 -63
leaf_value=0.39532197485144333 0.72752675981260839 1.0932566611999364 0.97535916145778057 2.0637510304649669 1.3269897079467774 0.55810401439666746 -0.81090707290268549 -0.99201138862248139 0.91040375954693276 3.0731587255001069 2.3224930763244629 1.8066223680973055 0.71491644823992706 2.148069545769443 -0.15133283178721157 -0.27342965958846943 0.87703286200253805 -0.75023835156171126 1.520394150964145 0.36180749607405494 1.2416117597509313 2.2141981720924377 -0.17140943149311677 -0.019896899711112588 -0.48229436500764944 0.76567139024364539 -0.14600300507175484 -0.54507454151351908 -0.16373513093606737 0.51319240047818138 0.18082145244445441 -0.21128769414238283 -0.10737103475257755 -0.015395101073842782 0.25967176627272215 0.30036835912615062 0.07863056994974614 -0.51939870732497762 -0.28604070899975781 -0.13276998929199449 0.67311026260256768 0.46283538774229016 -0.27990048417919561 -0.38111780082786478 -0.61706187874078755 -0.28703834529221062 0.10838147765595695 -0.15128172737630932 0.20789085311048172 -0.076999928349805236 -0.42377291745712276 -0.20666595070821342 1.4480475087319651 -0.30562149236866393 -0.0036229978824849243 -0.067453228614547042 0.52298483500878024 0.022034191583332266 -0.20702086286858107 0.39983425897546115 -0.33687647998332981 -0.57719590228957107
leaf_weight=24 20 33 33 24 30 21 33 29 21 25 33 20 27 30 35 27 22 20 29 21 27 28 54 49 34 29 55 116 163 21 53 107 54 26 39 20 44 264 173 163 20 26 38 546 24 75 196 44 34 296 113 61 31 256 40 110 24 95 39 160 20 37
leaf_count=24 20 33 33 24 30 21 33 29 21 25 33 20 27 30 35 27 22 20 29 21 27 28 54 49 34 29 55 116 163 21 53 107 54 26 39 20 44 264 173 163 20 26 38 546 24 75 196 44 34 296 113 61 31 256 40 110 24 95 39 160 20 37
internal_value=0.144282 1.40415 -0.146458 0.809531 0.0729349 0.229269 -0.221721 -0.340963 0.0346236 1.81484 1.651 2.51025 1.41155 1.51075 0.276441 -0.132355 1.62426 -0.159082 1.13204 -0.086655 1.47875 1.73675 0.116654 0.259364 -0.141876 0.00404008 0.173415 -0.170668 -0.227669 -0.0675365 0.387659 -0.384917 0.190831 0.263695 0.487428 0.720646 -0.0958977 -0.353149 -0.203032 -0.382811 0.120277 0.195668 -0.526706 -0.333617 -0.194925 -0.0627222 -0.0103119 -0.196423 -0.201308 -0.154149 -0.271256 -0.0610813 1.21102 -0.168535 -0.0629168 -0.234041 0.193855 0.116752 -0.391162 0.341791 0.00612517 -0.345835
internal_weight=4361 399 3962 163 1012 83 2950 50 982 236 191 45 80 158 328 1756 138 1588 56 654 108 55 163 109 1517 250 137 1267 816 451 82 223 275 221 60 53 430 1194 197 997 168 141 71 733 187 396 321 125 113 491 195 82 53 593 227 366 64 121 59 186 54 81
internal_count=4361 399 3962 163 1012 83 2950 50 982 236 191 45 80 158 328 1756 138 1588 56 654 108 55 163 109 1517 250 137 1267 816 451 82 223 275 221 60 53 430 1194 197 997 168 141 71 733 187 396 321 125 113 491 195 82 53 593 227 366 64 121 59 186 54 81
is_linear=0
shrinkage=0.05


Tree=11
num_leaves=63
num_cat=0
split_feature=75 75 8 40 10 8 1 39 35 63 72 35 5 69 8 52 47 22 2 49 63 64 44 72 14 74 41 45 17 34 75 68 30 46 25 45 5 25 34 55 35 14 8 53 21 0 10 61 14 41 14 73 20 75 48 51 21 28 27 34 75 17
split_gain=314001 36696.1 23885.4 22099.1 18725.1 10484.9 8401.79 8159.39 7703 7144.51 8443.87 6840.58 6271.59 6193.69 5531.69 5308.66 4670.62 4430.99 4383.28 4249.08 4153.54 4138.44 4133.63 3882.77 3442.05 2908.13 2849.76 6240.62 2788.92 2601.73 2333.46 2215.61 2189.66 2069.35 2038.16 2004.23 1772.99 2236.37 2506.94 1805.83 1673.22 1667.46 1637.79 1624.55 2087.26 1847.75 1593.2 1497.57 1470 1453.82 1388.13 1341.83 1464.67 1853.13 1657.16 2109 1340.6 1309.69 1448.04 1302.11 1293.17 1580.8
threshold=74.423499140669165 111.37823779666668 8.5000000000000018 26.200833333333339 1.5000000000000002 7.5000000000000009 37.348683022581241 27.563333333333336 26.713333333333335 0.65631786000000014 28.762903452161062 32.724166668333339 0.13766192000000002 38.442574786324791 2.5000000000000004 0.13813272000000001 4.688550310400001 18.376529460897704 1433.5000000000002 8.9743481696000007 0.19676200000000002 2.7059111100000002 69.051666666666677 19.984655420574068 83.172839819379433 23.802960204547094 51.619166666666665 59.37740566037737 34.827629826568419 697.25440000000015 55.767507825335578 8.9852545502400947 755.94561666666675 88.034166665000029 60.63333333333334 79.982500000000016 3.0567876416000006 41.708333333333343 1370.3304333333333 49.317525880000012 30.10583333333334 148.85126666666667 17.500000000000004 63.218875860000004 11.127500000000003 67.993256665000004 2.5000000000000004 2.1082196800000008 93.471090000000018 73.404166666666683 132.56158666666656 43.952775509998396 9.9175000001666671 48.022467207246812 15.486012159200001 1.3684291632000003 10.33416666666667 54.85158619374365 60.829131199973368 1549.5179333333335 43.811697573516703 13.059166666666668
decision_type=2 2 2 2 2 2 2 2 2 2 2 2 2 2 2 2 2 2 2 2 2 2 2 2 2 2 2 2 2 2 2 2 2 2 2 2 2 2 2 2 2 2 2 2 2 2 2 2 2 2 2 2 2 2 2 2 2 2 2 2 2 2
left_child=2 3 13 21 6 14 12 8 -5 17 24 18 -4 -1 -3 -15 19 -7 23 -9 34 -2 -12 33 -11 30 27 -13 32 -20 60 -16 42 35 -14 43 37 -28 -39 -38 47 -32 -22 45 -45 -6 49 -34 -37 -47 -42 -31 53 -53 -54 -56 -48 -58 -59 -41 -17 -62
right_child=1 5 4 7 11 9 -8 16 -10 10 22 26 20 15 31 25 -18 -19 29 -21 28 -23 -24 -25 -26 -27 36 -29 -30 51 41 -33 40 -35 -36 48 39 38 -40 59 50 -43 -44 44 -46 46 56 -49 -50 -51 -52 52 54 -55 55 -57 57 58 -60 -61 61 -63
leaf_value=0.50042209680589922 -0.71367185504308772 1.8033850653895311 0.9091063926638715 -0.17123426616191864 -0.74102381979439258 1.9545840030131132 1.1431522874832154 0.6235188507116759 1.0356863552179092 1.6648016309738161 0.73289636671543124 1.0831237011943899 0.046874904818832878 0.4278445944306441 0.53306846902483984 -0.50618684524752655 1.8142138759832127 2.8912022309643883 0.21654050235149708 1.5037830521320474 0.13171341765480929 0.29130450358614324 1.6760629910689133 0.44864942232767746 2.5009638227522375 -0.92072435379028317 -0.57812427426874646 0.039269496334923638 0.68390008956193926 -0.34847368029679393 -0.28098010425414782 1.2434134410775226 0.23018680978357123 -0.46661357162727257 -0.48396535425475151 0.22886828985065222 0.30904461358602231 0.24605195479173411 -0.359838747341306 -0.090019738137778041 0.64586314931511879 -0.029026061854168561 -0.37487701111369665 0.28739748197021309 -0.20750645002221116 0.15925705076854987 -0.63392668367464911 -0.1733452444896102 -0.13801326146048884 -0.34313568150003754 0.26221971030418695 0.4810595192373372 -0.1480320644078072 -0.083363996130047427 0.4353907921447836 -0.052977786669808048 -0.35762316760405505 -0.25021678961399529 0.16727764231187325 0.15543503405137377 -0.23377998080195012 -0.36994989447251103
leaf_weight=24 21 28 29 20 23 23 25 26 39 20 21 21 40 24 21 113 37 28 77 29 39 20 26 21 32 20 25 45 30 47 170 23 89 90 33 32 65 38 31 133 37 107 27 27 101 36 31 31 186 24 65 26 390 33 29 93 242 90 27 91 309 687
leaf_count=24 21 28 29 20 23 23 25 26 39 20 21 21 40 24 21 113 37 28 77 29 39 20 26 21 32 20 25 45 30 47 170 23 89 90 33 32 65 38 31 133 37 107 27 27 101 36 31 31 186 24 65 26 390 33 29 93 242 90 27 91 309 687
internal_value=0.140498 1.31219 -0.134784 0.806006 -0.0416424 1.74996 0.252659 1.08552 0.626561 1.98803 1.74036 -0.104788 0.199654 -0.296149 1.254 -0.309518 1.37986 2.46881 -0.15252 1.08766 0.147034 -0.223439 1.25465 -0.223509 2.17936 -0.322105 0.0679609 0.371405 0.225114 -0.0575269 -0.313467 0.904385 0.177324 -0.239038 -0.193094 -0.21403 0.0156703 -0.172959 -0.0261598 0.0770237 0.252496 -0.183655 -0.0755281 -0.261137 -0.103113 -0.303901 -0.281559 0.125941 -0.0841591 -0.0417 0.401384 -0.0916745 -0.0705369 0.165365 -0.0977209 0.0631098 -0.31846 -0.29122 -0.153872 0.00969626 -0.345891 -0.327704
internal_weight=4387 414 3973 192 2519 222 445 151 59 150 99 2074 420 1454 72 1430 92 51 1625 55 391 41 47 930 52 1406 449 66 318 695 1386 44 288 909 73 819 383 94 69 289 222 277 66 601 128 473 450 120 218 60 102 618 571 59 512 122 390 359 117 224 1109 996
internal_count=4387 414 3973 192 2519 222 445 151 59 150 99 2074 420 1454 72 1430 92 51 1625 55 391 41 47 930 52 1406 449 66 318 695 1386 44 288 909 73 819 383 94 69 289 222 277 66 601 128 473 450 120 218 60 102 618 571 59 512 122 390 359 117 224 1109 996
is_linear=0
shrinkage=0.05


Tree=12
num_leaves=63
num_cat=0
split_feature=31 65 8 72 51 27 10 4 7 4 34 41 2 25 15 18 68 14 4 64 27 60 0 73 17 70 42 74 13 27 22 71 44 59 41 37 18 61 67 3 21 54 75 24 76 16 69 57 55 58 38 76 48 12 16 17 55 64 74 72 9 62
split_gain=293693 44978.7 20989.4 18583.8 9419.85 9320.67 8612.15 7529.37 6092.8 5427.77 5369.83 5349.26 4658.29 4303.26 4226.25 5466.16 4106.38 3636 3633.89 3850.97 3419.61 4625.5 3248.54 4171.39 3155.96 3140.71 2968.91 2460.02 2370.15 2282.13 2270.23 2234.07 2201.05 2130.12 2040.62 2457.44 1951.73 3071.6 2383.03 1861.41 1799.78 1635.83 1675.16 1561.02 1556.26 2194.12 2554.7 1783.49 1681.69 1626.59 1553.92 1532.48 2561.02 2150.5 1810.89 1728.75 1521.93 1670.13 1676.82 2018.78 1470.29 1439.77
threshold=216.25546666666671 81.616784080348538 7.5000000000000009 25.511544644872298 1.7063260896000003 136.52665000000005 1.5000000000000002 71.441666668333355 1.2085627700000001 62.278333333333336 764.05730000000005 62.4925 1177.0661666666667 112.69255835000001 69.16051999999992 26.388046201165928 16.23369311284846 53.026791514754542 68.218333333333348 4.6882188300000012 101.12721665000002 1.9233000800000002 66.46596666500001 60.555317355822027 21.020931372549018 13.350405671854784 63.96166666666668 13.294302520280086 165.53327999999996 60.291666666666671 25.329040882169817 59.310315359681347 70.9358333316667 0.22518900000000006 54.45143678160921 27.03916666666667 8.6941666666666695 0.64175066000000014 40.212500000000013 26.465833331666669 23.35166666666667 51.480774940000011 56.722560568002443 53.335134381031814 7.5614301191215505 93.516573333333284 50.54688746236662 60.097338700000009 47.93391092000001 55.607246240000009 29.952499998333337 10.56137833063311 1.4281783912000001 135.73163999999994 140.56436070175434 13.465833333333336 59.032003240000009 3.7048254100000002 12.55179069055024 11.914343240031462 3.5000000000000004 1.2693690400000002
decision_type=2 2 2 2 2 2 2 2 2 2 2 2 2 2 2 2 2 2 2 2 2 2 2 2 2 2 2 2 2 2 2 2 2 2 2 2 2 2 2 2 2 2 2 2 2 2 2 2 2 2 2 2 2 2 2 2 2 2 2 2 2 2
left_child=5 2 17 6 10 8 16 14 20 -5 50 29 44 -7 -6 -16 24 -2 -10 26 21 -1 -19 -24 28 27 -20 -25 39 40 31 -26 -9 -18 35 -31 37 -14 -38 -4 56 -41 -43 -32 49 46 47 48 -46 -13 -3 52 -40 55 60 -54 57 58 59 61 -55 -8
right_child=1 4 3 9 7 13 11 32 18 -11 -12 12 36 -15 15 -17 33 22 19 -21 -22 -23 23 25 30 -27 -28 -29 -30 34 43 -33 -34 -35 -36 -37 38 -39 51 41 -42 42 -44 -45 45 -47 -48 -49 -50 -51 -52 -53 53 54 -56 -57 -58 -59 -60 -61 -62 -63
leaf_value=2.1192317557483911 0.35234036340677582 0.17317297954112293 -0.54252298313121383 1.4195722433328628 1.6020853354212115 1.89164077793248 0.025032615293013424 0.72071791186928758 0.69248074769973755 0.37767307925224308 -0.50254660277139573 -0.22664835876038969 -0.16514654832638123 2.7773319924871132 0.23796284440904858 1.2981936531682168 0.95194402422223767 -0.94318247978575531 2.1752787995338441 1.0056254214409626 2.3979593080023061 1.1251617389646442 -0.32946210268735382 -0.0052410639007575812 -0.15119349575386598 -0.42966011378801233 1.4226593179138085 0.63005170732736593 0.38676753633696104 0.13779297893246015 0.77439990186691288 0.28016651165737233 -0.01219443575966926 0.28051265478134157 0.076744195818901073 0.86939263225279084 -0.34684864019634587 0.69100481256842616 0.39700475305152527 -0.37314564804546535 -0.35321525303941026 -0.22642551590688528 0.24465104095313861 0.26009888499975203 0.10642257824886676 -0.29259843350481479 -0.4899263918399811 0.32263410634508261 -0.37227824060246351 -0.66782266656557721 0.7964539968967439 -0.13847715906320363 0.012057303986302368 0.30276898422661952 -0.22365865207770291 -0.24935482156646699 -0.29779607789082962 -0.32385406276832024 -0.1751850457175782 0.58788656062550015 -0.078475019998020604 0.48251436324346636
leaf_weight=25 21 20 26 25 34 32 95 20 20 25 21 39 22 24 20 31 21 20 20 33 23 22 1171 64 52 33 38 20 23 24 25 71 21 27 88 22 93 20 35 32 38 32 46 36 43 389 28 38 32 45 20 545 111 85 34 147 33 24 38 27 36 21
leaf_count=25 21 20 26 25 34 32 95 20 20 25 21 39 22 24 20 31 21 20 20 33 23 22 1171 64 52 33 38 20 23 24 25 71 21 27 88 22 93 20 35 32 38 32 46 36 43 389 28 38 32 45 20 545 111 85 34 147 33 24 38 27 36 21
internal_value=0.127498 -0.10267 -0.138792 -0.0559829 0.654928 1.7075 -0.0747522 0.901845 1.53309 0.898623 0.144903 -0.113973 -0.152217 2.27122 1.17028 0.882417 0.141114 -0.30036 1.30272 1.43684 1.89839 1.65392 -0.310839 -0.30102 0.0804987 -0.0163519 1.68218 0.146019 -0.0826558 0.0485171 0.221485 0.0978029 0.345324 0.574264 0.217815 0.487688 -0.0918935 0.242545 -0.104828 -0.162044 -0.0336781 -0.0721121 0.0513889 0.470878 -0.26304 -0.23135 -0.0623729 0.0435696 -0.0978231 -0.462992 0.484813 -0.0821609 -0.0136513 -0.0484526 0.0987475 -0.136887 0.0173405 0.0680698 0.120038 0.198488 0.189341 0.107853
internal_weight=4346 4109 3922 2593 187 237 2543 126 181 50 61 2152 1742 56 85 51 391 1329 111 91 70 47 1308 1288 343 117 58 84 159 410 184 123 41 48 134 46 1128 42 1086 136 276 110 78 61 614 530 141 113 75 84 40 993 448 413 155 258 238 205 181 143 121 116
internal_count=4346 4109 3922 2593 187 237 2543 126 181 50 61 2152 1742 56 85 51 391 1329 111 91 70 47 1308 1288 343 117 58 84 159 410 184 123 41 48 134 46 1128 42 1086 136 276 110 78 61 614 530 141 113 75 84 40 993 448 413 155 258 238 205 181 143 121 116
is_linear=0
shrinkage=0.05


Tree=13
num_leaves=63
num_cat=0
split_feature=75 71 76 40 8 10 59 45 11 0 8 68 13 12 4 18 51 22 53 46 67 71 63 19 39 64 78 41 45 40 9 19 20 25 75 41 13 11 75 70 76 27 72 67 17 7 44 24 26 30 76 20 30 72 62 47 53 51 9 58 70 0
split_gain=264143 31387.2 21092.6 20316.3 19736.4 12774.5 9614 10183.8 6604.27 5976.84 6954.84 5835.48 5741.85 5202.62 9793.86 4852.72 4386.4 3873 3756.78 3594.72 3307.61 3171.33 2820.51 2998.83 3172.93 2813.44 2573.87 2502.6 3093.79 2479.44 2381.45 2256.75 1906.29 2276.48 1884.24 1838.65 2101.12 2020.93 1760.02 1665.35 1812.4 1613.74 1531.76 1504.76 2056.69 1724.58 1476.18 2911.18 1871.37 1387.69 1366.35 3681.12 2600.04 1616.3 1415.14 1366.08 2543.78 1324.77 1288.56 1287.59 1209.57 1162.14
threshold=74.423499140669165 100.9126621872917 39.013172971047304 26.036666668333339 8.5000000000000018 1.5000000000000002 1.8035713200000003 81.049166666666693 87.741259656016823 116.83686666666655 20.500000000000004 16.76400308231954 97.97363666666665 80.81061000166666 70.276885963245618 33.651666666666678 0.13898016000000002 45.191666665000007 46.079768560000005 65.148333333333355 56.57154088050315 41.156379528039018 1.6659021100000002 12.475000000000003 35.104166666666679 0.24038500000000004 -2.1972334980964656 51.619166666666665 63.056666666666672 28.704166666666669 2.5000000000000004 21.930833333333339 16.422500000000003 43.341666666666676 117.08607317480974 64.487499998333348 148.12937333333321 133.61250802259883 47.557522370743747 14.456608683885472 12.905193473917869 70.227153131154068 9.8936911954972775 62.868531118947331 27.694166665000001 0.61730475000000007 67.151666666666685 42.851890456540197 51.905992575335901 987.26737777777794 8.8187686225757727 20.297500000000003 958.19926666666686 17.389921246878604 0.234621 26.607183847200002 46.079768560000005 0.40877210000000003 3.5000000000000004 55.95781576000001 28.09523854966314 74.753265454703751
decision_type=2 2 2 2 2 2 2 2 2 2 2 2 2 2 2 2 2 2 2 2 2 2 2 2 2 2 2 2 2 2 2 2 2 2 2 2 2 2 2 2 2 2 2 2 2 2 2 2 2 2 2 2 2 2 2 2 2 2 2 2 2 2
left_child=2 3 4 -2 16 11 7 12 17 21 27 15 13 14 -3 25 -1 19 -8 31 26 -7 23 29 41 57 55 28 -11 -23 -13 -5 33 -31 -20 -27 37 -37 -35 40 -22 43 -38 44 45 46 47 49 -49 -25 51 52 -29 54 -52 56 -18 -6 -46 -59 -36 -21
right_child=1 6 -4 8 5 9 18 -9 -10 10 -12 30 -14 -15 -16 -17 20 -19 34 61 39 22 -24 24 -26 35 -28 50 -30 32 -32 -33 -34 38 60 36 42 -39 -40 -41 -42 -43 -44 -45 58 -47 -48 48 -50 -51 53 -53 -54 -55 -56 -57 -58 59 -60 -61 -62 -63
leaf_value=0.4565224030415993 -0.33114460383852329 0.86816677945581366 1.4200053843584928 1.127436020279261 0.011694525858207096 -0.6061101376402962 0.74059806132316597 0.94255817021642407 0.41322639825992991 0.87939822035841653 -0.20354470771277755 0.95142414271831521 2.8470143727634265 2.5731305053288285 2.3015742025123194 0.53745126198914095 0.22210613228035747 1.795776493208749 1.7736010589769908 1.64491356029397 -0.11244357384213832 -0.39691050711431003 0.098530161301264685 -0.25361769251201466 0.34464014098048212 0.31320477840823258 -0.63214591780016505 -0.00095218343114287683 0.029101322785667752 -0.070194462034851315 0.3496300438472203 0.44522768701944088 -0.27717115355260447 0.032177993384274566 1.0132924013137818 -0.37805306980776238 -0.08234764468559827 0.087308351929281269 0.6061260952669032 -0.39990672452109205 0.30392360104357496 0.0028396971342040272 0.43943176720386901 -0.73802365916115908 0.23303931752840679 -0.12341285110132334 -0.47989836980899175 -0.25014187049534586 0.27639438090501012 -0.77367972587716993 0.2173069744709912 -0.40047474783658982 0.43326275169849399 0.36289100472670821 -0.044833663909492977 -0.3607513124532512 -0.27358518167033791 -0.70745576083660122 -0.29647196531295777 -0.14009652107954026 1.4878764308732133 1.1188910177775793
leaf_weight=20 36 22 22 22 31 46 25 21 37 20 387 31 23 22 26 59 27 21 28 21 113 38 82 23 20 84 62 58 23 56 35 27 33 22 25 43 22 51 34 35 34 41 39 21 27 73 192 45 27 29 57 25 85 29 532 537 625 20 20 20 29 21
leaf_count=20 36 22 22 22 31 46 25 21 37 20 387 31 23 22 26 59 27 21 28 21 113 38 82 23 20 84 62 58 23 56 35 27 33 22 25 43 22 51 34 35 34 41 39 21 27 73 192 45 27 29 57 25 85 29 532 537 625 20 20 20 29 21
internal_value=0.127415 1.21533 -0.12387 0.734833 -0.132506 -0.0467729 1.61756 1.93706 0.992385 -0.0991105 -0.0285324 0.199274 2.16162 1.93642 1.6446 0.121824 -0.278836 1.18371 1.27716 1.04247 -0.2891 -0.202636 -0.178933 -0.211389 -0.272857 0.0427204 -0.318074 0.0531681 0.424588 -0.0373985 0.632291 0.751525 0.0568184 0.155226 1.44075 0.124819 0.0227267 -0.12557 0.380646 -0.0899421 -0.016141 -0.297656 0.251249 -0.324615 -0.304703 -0.342451 -0.393051 -0.258578 -0.0526908 -0.543652 0.0328487 0.159287 0.257148 -0.00152293 -0.0194652 -0.301697 -0.253058 -0.233641 0.00771537 -0.423776 1.26816 1.3819
internal_weight=4361 406 3955 185 3933 2480 221 114 149 2045 1216 435 93 70 48 369 1453 112 107 91 1433 829 783 701 518 310 1251 829 43 183 66 49 145 112 82 239 155 94 56 182 147 498 61 457 436 389 316 124 72 52 786 168 143 618 589 1189 652 71 47 40 54 42
internal_count=4361 406 3955 185 3933 2480 221 114 149 2045 1216 435 93 70 48 369 1453 112 107 91 1433 829 783 701 518 310 1251 829 43 183 66 49 145 112 82 239 155 94 56 182 147 498 61 457 436 389 316 124 72 52 786 168 143 618 589 1189 652 71 47 40 54 42
is_linear=0
shrinkage=0.05


Tree=14
num_leaves=63
num_cat=0
split_feature=75 73 76 40 8 10 42 5 56 71 26 68 2 17 35 65 1 22 18 2 17 67 64 44 49 9 63 11 32 71 50 37 49 11 46 34 39 13 10 26 8 18 6 50 46 69 39 63 62 48 64 67 14 73 50 76 22 27 56 44 45 62
split_gain=238158 27088.8 22318.5 18782.8 18611.4 12472.6 10370.8 8109.36 6964.27 6001.73 8274.16 5260.55 5063.19 4901.66 4403.33 4069.04 3799.62 3442.62 2920.97 2872.12 2772.09 2713.83 2629.7 2421.83 2357.41 2355.85 2156.1 2130.18 2095.88 2003.64 1992.01 1973.62 3600.36 1942 1891.22 1792.25 1771.29 2056.56 1676.63 1628.63 1611.21 1987.1 1869.47 1585.16 1531.24 1471.09 1385.57 1383 1874.22 2337.69 1886.61 1700.21 1350.67 1323.34 1313.91 1541.92 1504.93 1313.03 1291.02 1254.1 1360.29 1579.93
threshold=74.423499140669165 98.734126734583356 39.013172971047304 26.654166666666672 7.5000000000000009 1.5000000000000002 56.823333333333345 3.0096238392000001 59.091671520000013 88.117343846998125 90.230791665000012 18.000577178411358 1028.775166666667 20.000909090909094 33.384999999999998 125.03313456666667 22.111666666666672 33.573333333333331 20.304166666666671 1119.7561525000003 28.930833331666669 58.300968330434124 1.9780148500000003 65.116666666666674 20.467609104800005 1.5000000000000002 0.12916600000000003 66.6106408090874 744.98796666666669 57.787650205557057 6.1307208776000008 26.539166666666674 6.9983035848000013 119.6607435294117 91.128333333333345 567.19177295597501 34.170000000000009 151.40927999999994 2.5000000000000004 37.645754716981138 20.500000000000004 8.8875000000000011 55.009266900000007 1.1559929040000003 79.577500000000015 50.938047338592206 27.541666666666668 2.9381675600000006 0.45996720000000002 2.6277617256000005 0.22780900000000001 42.353787878787891 127.62457668333329 62.00935296838113 1.7212250264000002 12.028075430355939 18.670833333333338 47.502300000000012 57.009927100000006 80.744166666666686 81.216666666666683 0.42422647000000008
decision_type=2 2 2 2 2 2 2 2 2 2 2 2 2 2 2 2 2 2 2 2 2 2 2 2 2 2 2 2 2 2 2 2 2 2 2 2 2 2 2 2 2 2 2 2 2 2 2 2 2 2 2 2 2 2 2 2 2 2 2 2 2 2
left_child=2 3 4 12 21 11 -3 8 -8 17 -11 18 -2 16 19 -15 22 30 25 29 -13 31 -9 28 36 45 -25 -26 -20 54 -5 32 -1 53 35 -21 37 -16 -35 43 41 -41 52 -37 -28 -6 -23 48 49 -44 -51 -52 -43 -33 56 59 58 -53 -7 60 61 -56
right_child=1 6 -4 9 5 14 7 13 -10 10 -12 20 -14 15 24 -17 -18 -19 23 34 -22 46 -24 26 27 -27 44 -29 -30 -31 -32 33 -34 38 -36 39 -38 -39 -40 40 -42 42 47 -45 -46 -47 -48 -49 -50 50 51 57 -54 -55 55 -57 -58 -59 -60 -61 -62 -63
leaf_value=0.44591408887063155 -0.69388057673754899 2.3436838229186834 1.4083329439163208 1.3698955176132066 0.548566310708411 0.093386899958187275 2.5150674215555195 1.4344393831652564 1.3569363246361414 -0.031941973704558153 1.2067498343331475 0.32908765757135278 0.33406152296066288 1.2329352536963094 0.12482047414576465 2.1087099038419268 0.37523565732297448 1.8663317728042603 0.78072556591144315 0.29141524687190268 1.0555393546819687 0.044877161358793577 0.83418946589032805 -0.36382968493483286 0.79341476634144792 -0.21911723100861838 0.04477494725204529 0.14982993540664513 0.2764547359498068 0.13478581718145274 0.73410968624732709 -0.41871438128849015 -0.36979956300027911 -0.15034758571489593 -0.32193064703182744 -0.50431540882480996 -0.39866571424771913 -0.35981200528144841 -0.32412809881559468 0.38062573680573886 -0.16663891511357654 0.23552872356221882 -0.43184763757645017 -0.097964235431780788 0.3788640328579479 -0.05787685662508011 -0.28132511158839013 0.29944632481561889 -0.24967552494915091 -0.33896927231221019 -0.15547305704825998 0.26361952063648014 -0.0042376249196926976 -0.83154667507518421 -0.3432606454951676 0.010188144751607557 -0.59039698979433852 -0.0021350306186727003 -0.43370766052259846 -0.38443043792124737 0.035851616066481386 -0.081029281745819998
leaf_weight=24 23 32 24 28 20 21 25 37 27 26 28 29 25 36 176 21 21 20 27 34 24 90 36 22 20 86 94 36 87 39 22 165 31 173 77 42 23 25 702 29 268 79 35 56 54 20 51 21 170 36 74 91 229 22 143 73 51 95 26 109 56 96
leaf_count=24 23 32 24 28 20 21 25 37 27 26 28 29 25 36 176 21 21 20 27 34 24 90 36 22 20 86 94 36 87 39 22 165 31 173 77 42 23 25 702 29 268 79 35 56 54 20 51 21 170 36 74 91 229 22 143 73 51 95 26 109 56 96
internal_value=0.122723 1.15811 -0.1118 0.681308 -0.121034 -0.0468637 1.50709 1.37521 1.91373 1.00639 0.610343 0.189289 -0.158494 1.18976 -0.0958944 1.55559 0.967926 1.31192 0.128693 -0.122518 0.658047 -0.27981 1.13843 0.217586 0.0895213 -0.071669 0.0980191 0.379682 0.395887 -0.212028 1.09015 -0.305901 -0.0138518 -0.321026 -0.081381 -0.0666691 0.0169812 0.0645428 -0.289769 -0.0766077 -0.0596071 -0.0262142 -0.0404291 -0.272115 0.166672 0.245345 -0.0731109 -0.0980699 -0.114732 -0.045426 0.000265704 0.0472367 0.0572609 -0.467283 -0.235551 -0.201293 -0.402301 0.127885 -0.198197 -0.239506 -0.185957 -0.237929
internal_weight=4382 407 3975 172 3951 2693 235 203 52 124 54 463 48 151 2230 57 94 70 410 1950 53 1258 73 284 280 126 170 56 114 614 50 1117 55 1062 1336 1259 224 201 875 1225 1127 859 830 98 148 40 141 522 501 331 296 260 308 187 575 477 98 186 47 404 295 239
internal_count=4382 407 3975 172 3951 2693 235 203 52 124 54 463 48 151 2230 57 94 70 410 1950 53 1258 73 284 280 126 170 56 114 614 50 1117 55 1062 1336 1259 224 201 875 1225 1127 859 830 98 148 40 141 522 501 331 296 260 308 187 575 477 98 186 47 404 295 239
is_linear=0
shrinkage=0.05


Tree=15
num_leaves=63
num_cat=0
split_feature=31 73 12 8 47 39 70 3 7 23 48 30 42 63 5 20 56 55 57 67 74 0 45 61 46 1 72 6 72 70 14 10 71 73 27 38 39 1 60 17 38 67 10 17 2 45 30 46 25 45 39 37 72 44 56 3 25 50 26 56 74 48
split_gain=197835 36002.3 19767.7 14243.6 10051.3 9135.99 6976.27 6502.6 6191.14 6245.85 5383.85 4664 4592.71 3886.73 3844.35 3335.77 4265.06 3065.38 2916.89 2632.02 4110.94 3037.72 2716.45 2621.26 4166.24 2530.57 2508.35 2446.21 2403.5 2391.64 2363.17 2029.27 2018.05 2084.15 1898.8 1895.46 1752.63 1678.2 1660.22 1638 1559.39 1517.27 1533.19 1505.45 1941.72 1459.19 1434.97 1434.24 1431.2 1420.92 1842.52 1394.36 1362.51 2015.03 1320.78 1263.83 1226.75 1217.62 1198.98 1172.58 1394.16 1169.06
threshold=216.25546666666671 61.761299130440527 75.751719999999935 7.5000000000000009 0.16600408000000003 27.804386792452835 21.658367674869492 24.935282487542377 0.43558024000000001 157.85791665000002 2.8422629136000004 1315.0929000000003 52.024166665000003 1.7476814800000005 1.0422560984000002 19.914166665000007 57.717811480000002 57.889494740000011 58.205630980000002 68.237514567375342 32.882094469430548 78.216235484455936 76.821500000000029 2.0667935500000003 59.25083333333334 18.231666666666669 17.750537537648469 65.233539280000016 10.997397105938672 30.928030808494555 93.471090000000018 1.5000000000000002 58.936045329397011 53.908074622910455 66.216666666666683 30.810000000000006 31.095833333333339 18.419116351289251 0.27810252000000008 20.254885654230979 27.049166666666675 54.098611111111119 4.5000000000000009 12.327333333333334 1425.567966666667 59.37740566037737 629.089003448276 81.029166666666683 61.141666666666673 61.430833333333347 29.333333331666669 26.050000000000008 8.0598151295058642 59.462499998333342 53.620082600000003 32.607106918239005 40.052272727272729 27.520832451200004 47.94166666666667 65.570757280000024 11.668548818260382 3.6934495400000005
decision_type=2 2 2 2 2 2 2 2 2 2 2 2 2 2 2 2 2 2 2 2 2 2 2 2 2 2 2 2 2 2 2 2 2 2 2 2 2 2 2 2 2 2 2 2 2 2 2 2 2 2 2 2 2 2 2 2 2 2 2 2 2 2
left_child=8 3 5 41 54 13 -7 -4 -1 12 14 29 -10 -3 34 16 17 37 23 21 22 -9 30 38 -25 -17 27 31 35 -8 -21 49 33 -20 45 39 -37 -14 40 -29 -16 51 -43 55 -45 -6 -46 48 -23 -12 -51 -2 -40 -54 -5 61 -26 59 -41 -48 -61 -33
right_child=1 2 7 4 10 6 11 19 9 -11 26 -13 15 -15 18 25 -18 -19 32 20 -22 47 -24 24 56 -27 -28 28 -30 -31 -32 43 -34 -35 -36 36 -38 -39 52 58 -42 42 -44 44 46 -47 57 -49 -50 50 -52 -53 53 -55 -56 -57 -58 -59 -60 60 -62 -63
leaf_value=2.0185137539519928 0.027592123603972143 -0.18011161328657815 -0.50631543662812983 0.3150235934648663 -0.75896622880938514 0.37600751439617441 1.4506140575672573 -0.47775728136978368 1.8908999501239685 2.0438764581680302 -0.3384614170063287 2.0417053421027958 1.1288233276456594 0.7494825429706411 0.54732029739281407 1.202728109240532 1.8352304383395959 1.5378277737161388 -0.10210672799618013 -0.18143839999227912 1.0348059010505677 0.30646853095018556 0.7173139164224267 0.90926310549611644 -0.16591130346059801 0.54790642526414668 0.29731102933486303 -0.2386550086985032 -0.18799217406108426 0.7331992660249983 0.36659351381517591 0.053029049503983877 0.27963187478482726 -0.59396845716418645 0.083490917362548697 0.6715104507903259 0.11675560372216361 0.48885336855426431 -0.16824888197248275 -0.11781177398833363 0.11141088662963167 -0.058551461664594809 -0.32702661106385383 -0.29343357251644642 -0.35912376549390573 -0.26374653567578282 -0.023287570519813366 0.49846106004714968 -0.09405293737158732 -0.032557233595746637 0.47029304206371308 -0.30785402447469851 0.38102215453002014 -0.01584844805927265 0.836187820280752 0.21290093090385201 0.25456972815459822 -0.4254628649124732 0.35871782212546383 -0.54178156944421629 -0.00096717950972643758 -0.18965534284338356
leaf_weight=36 32 23 36 20 21 22 26 22 21 25 20 20 21 22 23 25 26 23 62 37 20 38 24 23 22 36 33 45 108 21 42 66 20 33 27 24 35 20 106 22 190 148 83 471 63 51 241 25 54 56 27 971 38 202 31 30 82 26 33 26 22 200
leaf_count=36 32 23 36 20 21 22 26 22 21 25 20 20 21 22 23 25 26 23 62 37 20 38 24 23 22 36 33 45 108 21 42 66 20 33 27 24 35 20 106 22 190 148 83 471 63 51 241 25 54 56 27 971 38 202 31 30 82 26 33 26 22 200
internal_value=0.110353 -0.0815488 0.350582 -0.131557 -0.0629252 0.854966 1.14853 0.123778 1.41559 1.30542 -0.0773988 1.4022 1.19808 0.274357 0.019848 1.10173 1.2952 1.07582 0.0561776 0.210356 0.378824 0.0612792 0.251449 0.0952438 0.300297 0.816276 -0.133938 -0.143331 -0.00597043 1.13007 0.10992 -0.172718 -0.17686 -0.272964 -0.274092 0.117667 0.342419 0.816643 0.0486574 -0.0149365 0.158481 -0.270545 -0.155017 -0.191841 -0.225694 -0.408186 -0.141288 0.162637 0.0713798 0.039859 0.131021 -0.297152 -0.0189507 0.0469894 0.63181 -0.0947437 0.165622 -0.0977204 0.168106 -0.068235 -0.293908 -0.12944
internal_weight=4398 4165 432 3733 2499 134 89 298 233 197 2448 67 172 45 900 151 90 64 801 262 123 139 103 686 127 61 1548 1515 267 47 79 1248 115 95 99 159 59 41 559 100 213 1234 231 1145 849 72 378 117 92 103 83 1003 346 240 51 296 104 315 55 289 48 266
internal_count=4398 4165 432 3733 2499 134 89 298 233 197 2448 67 172 45 900 151 90 64 801 262 123 139 103 686 127 61 1548 1515 267 47 79 1248 115 95 99 159 59 41 559 100 213 1234 231 1145 849 72 378 117 92 103 83 1003 346 240 51 296 104 315 55 289 48 266
is_linear=0
shrinkage=0.05


Tree=16
num_leaves=63
num_cat=0
split_feature=31 27 8 10 2 47 76 72 13 4 75 35 4 15 26 76 51 48 40 65 12 22 72 27 61 4 2 5 69 65 31 47 44 15 11 13 37 48 0 11 45 71 59 71 72 23 5 73 47 10 73 53 63 47 14 22 45 64 54 56 64 38
split_gain=207326 30935.1 16496.7 15237.6 10735.2 7779.11 7641.3 6098.69 6075.15 9322.61 5179.81 5175.24 4958.07 4200.25 3924.86 3225.68 3128.03 3064.11 2849.49 2725.22 7069.22 2511.64 2484.23 2956.17 2318.03 2316.68 2229.66 2188.15 2752.11 1987.71 2101.19 2024.56 1980.15 1950.58 1924.27 1778.59 1760.16 2970.59 2495.34 2237.8 1687.65 1561.32 1804.95 1490.1 1768.68 2195.87 1549.1 1663.91 1616.16 1412.41 1404.09 1681.04 2029.96 2217.56 1849.83 1570.7 1912.82 1315.57 1314.32 1299.79 1274.09 2093.12
threshold=216.25546666666671 90.230791665000012 7.5000000000000009 1.5000000000000002 849.87436666666679 9.5816820528000015 33.392680660909562 33.032391108175538 80.067898119371236 52.958500000000008 114.90697284902778 32.978333333333332 64.272500000000022 85.987740000000016 64.947435897435909 17.6390957839732 1.4705824056000003 16.520954850400006 34.462500000000013 60.105143884268202 97.738316668333283 19.335833331666667 17.750537537648469 50.750257892430632 1.4693811500000002 74.560000000000016 1177.0661666666667 1.6017529352000002 55.102405321652782 68.226287953277733 572.92216666666673 1.9236765592000002 74.340833333333336 82.300986665000025 93.659340001666649 73.15688918637214 27.259629629629632 16.520954850400006 143.49087238095234 133.61250802259883 76.821500000000029 48.218997136657386 0.49535685000000002 42.225027396607594 10.500630593374813 46.991666666666667 1.1173016184000004 47.816724573363679 14.267282330400002 4.5000000000000009 53.475585031339698 62.440885220000006 0.57643799000000018 12.016849856000002 107.27266792452822 21.172500000000003 68.19250000000001 0.13846700000000003 52.147850160000011 69.643139440000013 0.78529522000000018 28.842500000000001
decision_type=2 2 2 2 2 2 2 2 2 2 2 2 2 2 2 2 2 2 2 2 2 2 2 2 2 2 2 2 2 2 2 2 2 2 2 2 2 2 2 2 2 2 2 2 2 2 2 2 2 2 2 2 2 2 2 2 2 2 2 2 2 2
left_child=5 2 19 6 -3 8 14 24 13 -10 -11 22 -8 -1 27 16 -16 25 29 33 -21 -12 26 -24 -6 -7 50 28 -4 30 -13 -31 -27 35 -19 -2 37 39 57 -35 -22 -29 -43 -28 46 59 47 -45 -48 -40 51 52 -5 -54 55 56 -53 -38 -44 -46 61 -32
right_child=1 4 3 11 7 17 12 -9 9 10 21 18 -14 -15 15 -17 -18 34 -20 20 40 -23 23 -25 -26 32 43 41 -30 31 60 -33 -34 36 -36 -37 38 -39 49 -41 -42 42 58 44 45 -47 48 -49 -50 -51 -52 54 53 -55 -56 -57 -58 -59 -60 -61 -62 -63
leaf_value=1.6519582564986888 -0.93341168859507884 -0.12056594619696791 0.25166916016381807 -0.3143487412068367 0.40563823048557551 1.7928936815261842 1.3371445977169536 1.7514542021430455 1.0329400629655499 1.60603441213784 2.9254231545187181 -0.35304335927909336 0.35411798460730193 0.63950569152832037 -0.38316527462253969 0.51364562075162679 0.2501037613882755 0.52623925764973345 0.57638989780788064 0.79722304242578423 -0.6271758726797998 2.1425057315826415 -0.077701615113200562 0.69267087414860729 1.1577754814177752 1.4623916327953339 -0.34835796676817593 -0.2418653102024742 -0.35439784868773239 0.69387840709903026 -0.41932098496472464 0.036215734004974368 0.80566973686218268 0.63217668879688504 1.0941066421781267 -0.34533207383420739 -0.68894560054025578 -0.25435957532280534 -0.041771794925746203 -0.097761631011962891 -0.059738368991958474 0.5070430114865303 -0.20661319652917209 -0.57632231576135384 0.13666683410161309 -0.21710938642469424 0.058472751327778599 -0.083723110159238182 -0.136571354357333 -0.28309894001483915 -0.36910773731901181 0.019648542186176336 0.037238478893016139 -0.32180452294209427 -0.26444489360742629 -0.21920112788677218 0.64015566628912224 -0.3053788334980766 0.23284800318272217 -0.25157907684815339 0.15117303519162226 0.055112658300820516
leaf_weight=21 20 22 26 244 21 20 23 26 23 23 21 38 29 20 24 97 104 26 27 22 20 20 33 20 20 24 54 23 67 22 32 25 22 21 35 36 23 78 154 21 38 35 27 24 84 343 397 60 145 100 112 27 117 68 42 20 23 797 46 29 134 85
leaf_count=21 20 22 26 244 21 20 23 26 23 23 21 38 29 20 24 97 104 26 27 22 20 20 33 20 20 24 54 23 67 22 32 25 22 21 35 36 23 78 154 21 38 35 27 24 84 343 397 60 145 100 112 27 117 68 42 20 23 797 46 29 134 85
internal_value=0.110866 -0.0843259 -0.104659 -0.0337902 0.837745 1.38477 0.215124 1.15241 1.65986 1.89633 2.20661 -0.0903461 0.788918 1.15808 0.148671 0.296171 0.131366 1.10753 0.0822069 -0.248848 0.0340666 2.54351 -0.124351 0.213005 0.772534 1.34364 -0.134345 0.000512488 -0.18496 0.0424957 -0.00654725 0.344058 1.14831 -0.266954 0.852065 -0.555361 -0.253428 -0.0718111 -0.27372 0.267208 -0.255406 0.132184 0.211842 -0.0920246 -0.0792316 -0.154132 -0.0246714 -0.224466 0.00629306 -0.136782 -0.207969 -0.174609 -0.219643 -0.0947341 -0.00211265 0.155287 0.305082 -0.316137 0.0703076 0.0370285 0.0459103 -0.074647
internal_weight=4380 4125 4036 2706 89 255 501 67 128 87 64 2205 52 41 449 225 128 127 363 1330 80 41 1842 53 41 66 1789 224 93 336 289 47 46 1250 61 56 1194 120 1074 42 58 131 108 1136 1082 456 626 84 542 254 653 541 429 185 112 70 50 820 73 113 251 117
internal_count=4380 4125 4036 2706 89 255 501 67 128 87 64 2205 52 41 449 225 128 127 363 1330 80 41 1842 53 41 66 1789 224 93 336 289 47 46 1250 61 56 1194 120 1074 42 58 131 108 1136 1082 456 626 84 542 254 653 541 429 185 112 70 50 820 73 113 251 117
is_linear=0
shrinkage=0.05


Tree=17
num_leaves=63
num_cat=0
split_feature=75 73 27 48 8 13 63 37 9 5 63 12 47 7 57 10 13 55 57 13 33 61 40 75 75 6 71 17 73 0 63 60 50 75 7 33 34 55 55 10 22 21 32 34 47 21 25 27 31 37 29 16 39 45 71 28 38 64 40 0 16 18
split_gain=174501 23791.1 14636.1 12618.6 11929.5 10464.6 6721.06 6471.37 5660.87 5438.43 5030 5174.28 4689.46 4390.89 4359.08 3953.43 3473.14 3816.32 3211 3207.8 3075.48 2779.5 3523.53 2775.78 3257.22 2985.22 2759.76 2665.5 2411.2 2913.41 2634.97 2349.43 2344.35 2233.04 2195.6 2071.18 2794.34 2059.81 1952.51 1929.12 1811.44 1757.87 1733.4 1577.98 2122.68 1577.16 1565.35 1557.93 1544.5 1509.75 1502.46 1457.12 1418.92 1379.3 1720.04 1595.87 1376.66 1346.83 2966.79 1307.72 1651.28 1300.27
threshold=74.423499140669165 98.734126734583356 97.561100000000025 2.8422629136000004 7.5000000000000009 37.338203331666641 0.65631786000000014 27.370833333333337 4.5000000000000009 1.5282874200000001 0.92116449000000011 57.795269376287585 24.439826857600004 0.98071971000000013 58.964083360000011 1.5000000000000002 91.25902999833329 52.946612880000011 55.559905380000011 86.423186666666652 1050.3732333333335 2.0667935500000003 32.920833333333341 46.498264556887868 48.492065539957487 68.88779464000001 59.596245628645427 33.573333333333331 70.85073565390077 99.071810000000013 0.31480479000000011 0.22518900000000006 3.1083355336000005 63.217381773673836 0.15602100000000002 800.75310000000002 818.71963333333349 62.803741000000009 53.841575340000013 3.5000000000000004 20.486666666666672 18.559166665000003 841.36893333333342 1023.8057 1.5654730872000002 19.681666666666668 44.46918238993711 39.654189985533229 1077.3230333333333 25.285833333333343 1973.3561000000007 93.955491444254406 26.677499998333339 79.847291666666678 44.007377459975878 45.858333333333341 28.526666666666667 1.2537053700000003 29.118001492117731 123.49083999999992 113.19601333333328 13.930833333333336
decision_type=2 2 2 2 2 2 2 2 2 2 2 2 2 2 2 2 2 2 2 2 2 2 2 2 2 2 2 2 2 2 2 2 2 2 2 2 2 2 2 2 2 2 2 2 2 2 2 2 2 2 2 2 2 2 2 2 2 2 2 2 2 2
left_child=2 4 3 7 5 -2 14 15 13 35 -8 -12 23 20 19 27 17 -13 31 -3 -6 -11 -23 39 25 37 32 33 29 30 -28 38 42 34 -1 52 -37 51 -17 -5 -19 -38 -26 -20 -45 -31 -36 -44 -15 -29 -49 -25 -9 -34 -55 56 -56 -41 -59 60 -52 -33
right_child=1 6 -4 12 8 -7 10 9 -10 21 11 16 -14 48 -16 18 -18 40 43 -21 -22 22 -24 24 26 -27 28 49 -30 45 -32 61 53 -35 46 36 41 -39 -40 57 -42 -43 47 44 -46 -47 -48 50 -50 -51 59 -53 -54 54 55 -57 -58 58 -60 -61 -62 -63
leaf_value=0.73318950806325311 0.71580441416325902 1.8958265846967699 1.1244205032785735 -0.41835086543982741 1.013584424117985 -0.73032384203939604 0.41811137341317678 -0.37387835127966751 0.19233222172178072 -0.048889252296802438 1.8708750702716685 0.5407453894615174 -0.28302827731254004 1.075004738122225 2.2938501171443773 0.6008949611249359 1.6174159088960061 0.97476158051027184 0.048131972019161501 1.0208990064534276 0.16580778241157534 0.0238158262692965 0.80411087430041772 0.25043766477747875 -0.30270973443377602 0.57994802524149414 0.72534122129615686 0.37901324808597564 -0.5227115352948507 -0.16937000478127578 0.037632892516752087 0.32145854087430054 -0.28621345098266227 -0.25621722936630248 -0.080805554240942004 0.34541051506996157 -0.03918925181031227 0.45187190220407819 0.097921300743307391 -0.26470691599998247 1.5287820134162904 -0.61131431850893747 0.23295949710609049 -0.74178896492177793 -0.1215968649935078 0.083322545490978714 0.33152601878817489 -0.1372915295420459 1.634091512681473 0.98601531414758592 0.26820314159760111 -0.10884680332369115 -0.83085605364579429 0.29945131530053914 -0.4058932913676836 -0.090674710413441065 -0.041545634440013343 -0.19966910111753247 0.39163705427841894 0.43527119282795035 -0.29007451225210124 -0.036939212148778204
leaf_weight=25 22 20 24 121 23 29 21 49 29 364 27 34 692 30 23 43 26 36 42 22 20 39 23 34 69 25 26 20 21 123 30 32 396 20 32 20 25 23 35 178 25 29 49 22 37 124 82 221 21 21 26 166 26 20 100 208 35 79 29 23 27 121
leaf_count=25 22 20 24 121 23 29 21 49 29 364 27 34 692 30 23 43 26 36 42 22 20 39 23 34 69 25 26 20 21 123 30 32 396 20 32 20 25 23 35 178 25 29 49 22 37 124 82 221 21 21 26 166 26 20 100 208 35 79 29 23 27 121
internal_value=0.100266 0.979212 -0.106592 -0.114068 0.53644 -0.106504 1.30845 0.0291625 0.803027 -0.0871204 1.14227 1.24502 -0.169799 0.991433 1.74054 0.154844 1.10536 0.965224 0.0490538 1.43753 0.61927 0.00382084 0.31328 -0.133406 -0.105995 0.061847 -0.133782 0.330457 -0.00459753 0.0313114 0.356926 0.151873 -0.169435 0.237766 0.308842 -0.347127 -0.159455 0.00376397 0.375202 -0.250994 1.20182 -0.346442 -0.0738816 -0.186108 -0.352855 -0.0425122 0.215784 -0.0282483 1.30522 0.689917 -0.0713432 -0.0477684 -0.532297 -0.22168 -0.15128 -0.177562 -0.311433 -0.18019 -0.0408924 0.120428 -0.0162025 0.0380198
