tree
version=v4
num_class=1
num_tree_per_iteration=1
label_index=0
max_feature_idx=73
objective=regression
feature_names=NO2_quantrac PM25_quantrac O3_quantrac CO_quantrac NO2_cmaq O3_cmaq SO2_cmaq hour dayofweek month NO2_quantrac_lag3 NO2_quantrac_lag6 NO2_quantrac_lag12 NO2_quantrac_lag24 NO2_quantrac_lag48 NO2_quantrac_lag71 PM25_quantrac_lag3 PM25_quantrac_lag6 PM25_quantrac_lag12 PM25_quantrac_lag24 PM25_quantrac_lag48 PM25_quantrac_lag71 O3_quantrac_lag3 O3_quantrac_lag6 O3_quantrac_lag12 O3_quantrac_lag24 O3_quantrac_lag48 O3_quantrac_lag71 CO_quantrac_lag3 CO_quantrac_lag6 CO_quantrac_lag12 CO_quantrac_lag24 CO_quantrac_lag48 CO_quantrac_lag71 SO2_quantrac_lag3 SO2_quantrac_lag6 SO2_quantrac_lag12 SO2_quantrac_lag24 SO2_quantrac_lag48 SO2_quantrac_lag71 NO2_cmaq_lag3 NO2_cmaq_lag6 NO2_cmaq_lag12 NO2_cmaq_lag24 NO2_cmaq_lag48 NO2_cmaq_lag71 O3_cmaq_lag3 O3_cmaq_lag6 O3_cmaq_lag12 O3_cmaq_lag24 O3_cmaq_lag48 O3_cmaq_lag71 SO2_cmaq_lag3 SO2_cmaq_lag6 SO2_cmaq_lag12 SO2_cmaq_lag24 SO2_cmaq_lag48 SO2_cmaq_lag71 SO2_quantrac_roll3_mean SO2_quantrac_roll3_std SO2_quantrac_roll6_mean SO2_quantrac_roll6_std SO2_quantrac_roll12_mean SO2_quantrac_roll12_std SO2_quantrac_roll24_mean SO2_quantrac_roll24_std SO2_quantrac_roll48_mean SO2_quantrac_roll48_std SO2_quantrac_roll71_mean SO2_quantrac_roll71_std station_emb_0 station_emb_1 station_emb_2 station_emb_3
feature_infos=[0.34525333333327057:217.25850666666656] [5.7733333333333317:111.06166666666668] [1.0666666666666669:119.9245283018868] [3.648909090908997:3382.677733333333] [0.155364:79.970357297599989] [33.276389999999999:206.91072220000001] [8.2792000000000003e-06:22.219934420000001] [0:23] [0:6] [1:9] [0.34525333333327057:217.25850666666656] [0.34525333333327057:217.25850666666656] [0.34525333333327057:217.25850666666656] [0.34525333333327057:217.25850666666656] [0.34525333333327057:217.25850666666656] [0.34525333333327057:217.25850666666656] [5.5933333333333337:111.06166666666668] [5.5933333333333337:111.06166666666668] [5.5933333333333337:111.06166666666668] [5.5933333333333337:111.06166666666668] [5.5933333333333337:111.06166666666668] [5.5933333333333337:111.06166666666668] [1.0666666666666669:119.9245283018868] [1.0666666666666669:119.9245283018868] [1.0666666666666669:119.9245283018868] [1.0666666666666669:119.9245283018868] [1.0666666666666669:119.9245283018868] [1.0666666666666669:119.9245283018868] [3.648909090908997:3382.677733333333] [3.648909090908997:3382.677733333333] [3.648909090908997:3382.677733333333] [3.648909090908997:3382.677733333333] [3.648909090908997:3382.677733333333] [3.648909090908997:3382.677733333333] [3.334545454545264:646.06818181818187] [3.334545454545264:646.06818181818187] [3.334545454545264:646.06818181818187] [3.334545454545264:646.06818181818187] [3.334545454545264:646.06818181818187] [3.334545454545264:646.06818181818187] [0.155364:79.970357297599989] [0.155364:79.970357297599989] [0.155364:79.970357297599989] [0.155364:79.970357297599989] [0.155364:79.970357297599989] [0.155364:79.970357297599989] [33.276389999999999:206.91072220000001] [33.276389999999999:206.91072220000001] [33.276389999999999:206.91072220000001] [33.276389999999999:206.91072220000001] [33.276389999999999:206.91072220000001] [33.276389999999999:206.91072220000001] [8.2792000000000003e-06:22.219934420000001] [8.2792000000000003e-06:22.219934420000001] [8.2792000000000003e-06:22.219934420000001] [8.2792000000000003e-06:22.219934420000001] [8.2792000000000003e-06:22.219934420000001] [8.2792000000000003e-06:22.219934420000001] [6.1643722943721748:465.87481481481501] [0:273.57594388115052] [21.131075036074908:438.45764338380792] [0:204.41551784716006] [53.735992063491956:398.77159946968169] [0:160.84216826874314] [68.03573117750669:343.75878145865772] [19.08857856075311:139.03061805946939] [76.315835545075444:325.01675815216589] [23.609914938595523:125.71833290291137] [83.626796689546197:298.54559673954691] [30.611718930237313:119.97800104556202] [-3.9687585830688477:-2.493278980255127] [-3.812009334564209:-3.4780623912811279] [3.4265148639678955:5.4187793731689453] [-4.117218017578125:-3.230457067489624]
tree_sizes=5116 5297 5303 5300 5319 5304 5314 5294 5299 5298 5307 5329 5302 5298 5303 5326 5311 5300 5348 5320 5338 5317 5332 5308 5321 5323 5330 5313 5323 5321 5324 5312 5292 5322 5334 5317 5325 5328 5355 5315 5340 5333 5330 5328 5328 5303 5348 5327 5341 5327 5359 5367 5289 5343 5343 5331 5352 5327 5361 5339 5333 5363 5342 5353 5343 5329 5359 5338 5341 5350 5328 5329 5350 5343 5356 5354 5333 5333 5342 5388 5368 5344 5361 5346 5352 5365 5329 5369 5348 5354 5363 5377 5341 5353 5352 5379 5358 5342 5381 5381 5344 5385 5391 5330 5362 5384 5337 5358 5363 5374 5383 5350 5349 5372 5367 5362 5368 5354 5361 5372 5380 5362 5388 5384 5374 5356 5372 5373 5395 5369 5374 5379 5390 5409 5380 5381 5413 5410 5375 5396 5390 5370 5389 5378 5390 5363 5374 5365 5355 5356 5393 5389 5354 5412 5397 5402 5370 5413 5419 5360 5412 5391 5362 5381 5374 5381 5411 5379 5374 5371 5368 5390 5387 5395 5398 5402 5392 5399 5405 5401 5364

Tree=0
num_leaves=63
num_cat=0
split_feature=12 68 3 37 20 69 28 71 9 42 7 24 10 45 57 8 13 1 17 1 51 5 45 0 9 2 69 10 20 49 9 5 66 8 67 17 26 60 35 60 68 64 5 16 47 13 44 8 69 0 39 63 56 9 42 64 15 6 4 11 25 16
split_gain=7.94165e+06 939184 487870 451205 402552 295377 261449 218131 218129 296406 211362 200734 191094 173058 174601 171123 220548 224504 156321 155949 164259 163832 154113 153181 152415 138124 148099 138940 136412 128918 128137 125875 156915 144824 124566 123780 123223 153232 122332 112429 108306 112909 125013 150415 107169 182532 111798 106592 104536 103536 101201 100419 112775 97523.3 107547 96010 93316.4 92157 141617 143581 104916 120307
threshold=110.44793629629628 155.79072186843527 996.85590000000013 122.35578231292507 15.388333333333335 72.963949508714933 1301.5224333333335 -3.645035862922668 2.5000000000000004 1.4293393840000002 15.500000000000002 51.07500000000001 89.807715555555504 1.8870925744000002 0.32884930000000007 2.5000000000000004 123.74193333333328 14.363333333333335 9.1625000000000032 26.550606060606061 93.978106460000021 59.709881000000003 2.3131863480000008 131.61998666666656 6.5000000000000009 61.00461037873341 111.70358485484878 100.75945964912276 28.931075111159277 50.224634460000011 1.5000000000000002 49.78728790000001 174.34384160236979 4.5000000000000009 88.192765292493348 9.8616666666666664 41.8348484848485 238.48948869448873 173.77035087719295 143.63269058656201 191.5865915217764 273.86559038125466 50.248216200000009 23.79724484578858 52.370778600000001 132.92253333333329 1.2371804808000002 5.5000000000000009 95.796308662638936 91.69614666666665 90.475434782608644 115.80102750503367 1.0577241300000002 6.5000000000000009 3.1923610928000006 252.16014665084055 139.87467999999993 0.36567078000000003 2.7733321440000007 135.59039999999993 44.25833333333334 20.507500000000004
decision_type=2 2 2 2 2 2 2 2 2 2 2 2 2 2 2 2 2 2 2 2 2 2 2 2 2 2 2 2 2 2 2 2 2 2 2 2 2 2 2 2 2 2 2 2 2 2 2 2 2 2 2 2 2 2 2 2 2 2 2 2 2 2
left_child=1 3 5 30 15 -2 7 13 9 -8 19 55 22 47 -15 16 38 34 -14 20 21 35 -7 -19 40 26 36 -27 57 -5 50 -17 -33 -34 -18 -6 37 -10 49 -37 -20 42 -42 44 45 -44 -46 -4 -30 -3 -1 52 -13 -38 -55 -11 -26 -16 -59 60 -60 -62
right_child=2 4 6 29 10 12 8 -9 25 11 -12 51 18 14 28 31 17 23 24 -21 -22 -23 -24 -25 56 27 -28 -29 48 -31 -32 32 33 -35 -36 39 53 -39 -40 -41 41 -43 43 -45 46 -47 -48 -49 -50 -51 -52 -53 -54 54 -56 -57 -58 58 59 -61 61 -63
leaf_value=190.98136465885972 191.84980504612756 192.07423402031003 192.93045775977095 191.37281273292939 192.38281856259124 193.1202925054173 191.88315707964014 191.88084870561732 192.26610010936864 192.14102394377778 192.0337073267151 192.73515732009565 193.10365460102568 192.26311670166459 192.43148827201912 191.75872790992275 193.53452963761083 192.80114745699527 192.93783705582499 191.54654917131913 192.70403682501137 192.18922421324038 192.42083016754447 191.83169047132637 191.83418743850098 192.78768846299678 191.79469334591673 192.11019560214083 193.56002937139198 191.79818880854276 191.49807312638495 191.68432976732043 191.96117311404154 192.656257192212 192.61542337891979 191.99007108409404 192.54059700130216 193.0487332110975 191.82458554627783 191.62162086820371 191.88871895625991 192.92171672284198 192.06004936306499 192.95267806563422 192.73197235500521 193.01011786576842 191.96878273939967 193.68033353420415 192.72101630177357 192.79309234826448 191.42146804164975 193.59308104085105 193.3846529425831 191.64246963394135 192.38045018301565 192.80180741373954 192.51399512726854 193.2208854299943 193.09543195025375 192.31812829709881 192.59781630804846 193.15931347728693
leaf_weight=105 125 51 137 79 28 56 37 31 36 45 368 85 23 92 118 141 30 28 30 267 21 94 72 39 105 35 29 224 33 726 469 49 53 69 29 105 244 82 89 392 71 28 39 37 23 42 116 22 27 33 104 29 39 28 67 43 25 55 78 87 251 45
leaf_count=105 125 51 137 79 28 56 37 31 36 45 368 85 23 92 118 141 30 28 30 267 21 94 72 39 105 35 29 224 33 726 469 49 53 69 29 105 244 82 89 392 71 28 39 37 23 42 116 22 27 33 104 29 39 28 67 43 25 55 78 87 251 45
internal_value=192.012 191.785 192.506 191.596 191.933 192.296 192.589 192.706 192.477 192.717 191.832 192.844 192.38 192.733 192.672 192.144 192.315 192.633 192.297 191.75 191.834 191.805 192.727 192.237 192.261 192.388 192.488 192.202 192.727 191.756 191.406 191.98 192.162 192.354 193.083 191.736 192.532 192.81 192.083 191.699 192.361 192.312 192.26 192.363 192.264 192.553 192.095 193.034 193.182 192.357 191.2 193.063 192.939 192.435 192.163 192.464 191.965 192.684 192.741 192.684 192.769 192.683
internal_weight=6160 3369 2791 1483 1886 792 1999 976 1023 278 1275 241 667 945 786 611 299 126 539 907 640 619 128 67 516 745 486 259 694 805 678 312 171 122 59 525 457 118 173 497 386 356 328 257 220 81 139 159 60 84 209 153 124 339 95 88 130 634 516 461 374 296
internal_count=6160 3369 2791 1483 1886 792 1999 976 1023 278 1275 241 667 945 786 611 299 126 539 907 640 619 128 67 516 745 486 259 694 805 678 312 171 122 59 525 457 118 173 497 386 356 328 257 220 81 139 159 60 84 209 153 124 339 95 88 130 634 516 461 374 296
is_linear=0
shrinkage=1


Tree=1
num_leaves=63
num_cat=0
split_feature=12 9 3 66 7 69 73 7 9 14 39 5 69 12 0 40 9 66 24 6 28 31 33 61 8 16 65 65 47 31 42 62 9 51 53 54 10 67 53 27 14 48 16 66 33 18 24 68 18 20 47 64 6 20 5 19 40 4 53 26 62 48
split_gain=7.89129e+06 774864 559556 544415 445018 277255 262288 249726 263319 235762 231747 217792 205365 190583 175256 174112 172382 168549 187233 163891 201053 159239 158132 166769 180620 151463 150380 146380 144765 142941 141441 141179 138160 143054 132371 123023 122227 121568 147332 120740 117957 131539 116063 109942 108826 108498 137880 119960 105417 105120 104758 102390 101084 99799.3 99610.7 99479.4 99500.6 98769.7 97063.8 96311.9 96026.4 94924
threshold=107.59518990990986 1.5000000000000002 996.85590000000013 234.32877591516362 15.500000000000002 72.963949508714933 -3.6738375425338741 3.5000000000000004 4.5000000000000009 94.298101333333292 90.475434782608644 54.941054000000015 103.06920379597211 147.09361333333331 34.527901800327264 1.0211105872000001 4.5000000000000009 258.15250914947285 47.185416666666676 0.36266302000000006 1288.0709742138367 868.50986666666677 604.38483703703719 42.109677635350344 5.5000000000000009 11.613809523809527 83.427091136382046 97.33859190642373 60.79015754000001 799.10392800936154 5.3668958992000011 243.45840397210603 2.5000000000000004 53.87993156000001 0.84047635000000009 1.2680917900000004 91.821693333333187 93.866614983652525 1.9577334300000002 43.741666666666667 149.44761333333321 57.061193840000008 11.333333333333336 227.83443676917207 1164.9576666666669 12.555833333333336 52.32500000000001 224.50648444883049 32.410000000000004 12.125833333333334 53.257566880000006 269.5484985632184 4.2982645800000006 17.552982456140352 98.146094480000002 18.419116351289251 3.0043329888000003 6.1068409600000013 0.89073843000000008 61.00461037873341 306.06569699468713 48.901329680000003
decision_type=2 2 2 2 2 2 2 2 2 2 2 2 2 2 2 2 2 2 2 2 2 2 2 2 2 2 2 2 2 2 2 2 2 2 2 2 2 2 2 2 2 2 2 2 2 2 2 2 2 2 2 2 2 2 2 2 2 2 2 2 2 2
left_child=1 10 5 4 14 -2 7 44 12 36 -1 37 17 15 -3 -14 31 18 59 49 28 43 -11 24 -24 -18 48 -19 34 -20 52 -6 33 -25 57 -26 -7 40 -39 -15 -5 -42 -34 -22 -4 46 -31 -47 54 -10 -27 -17 -28 -30 -16 -44 -57 -21 -49 61 -41 -9
right_child=2 3 6 11 16 9 -8 8 19 22 -12 -13 13 39 26 51 25 27 29 20 21 -23 23 32 35 50 30 -29 53 45 -32 -33 42 -35 -36 -37 -38 38 -40 60 41 -43 55 -45 -46 47 -48 58 -50 -51 -52 -53 -54 -55 -56 56 -58 -59 -60 -61 -62 -63
leaf_value=-1.0725003171151977 -0.28009097070286959 -0.63114352791734474 0.21367188758894123 0.044055985802641279 -0.3109406800915947 0.97178990779099639 -0.17982732405668744 1.2115563034552284 0.595073943156749 0.87438712090253834 -0.57382178040038723 1.0306797388621738 0.98447996313755326 0.17751137137413026 -0.38396386804980381 -0.010100637957346526 0.53661324322223669 0.1410999003648758 0.42005828045663379 -0.222842855124638 1.4050281643867493 0.20958530661031163 0.16040693043570245 -0.01549710868036046 0.25796126437187195 -0.44140511816841066 -0.33831420507695936 0.84905008689216943 0.74974702426365436 1.256017720265822 0.45872513390876152 0.49394597146822061 0.4826354148363074 1.0342450634638469 0.72448394037115171 1.2927355372464215 0.37481917683114396 -0.49260819826807295 0.41829967131981483 1.040372173666954 1.3094205815792084 0.17625244458516437 -0.43114163502562242 0.35649611616134641 -0.80554055786132805 1.4290364318885158 0.22762050662189723 0.66746737880091522 -0.65792461888111642 0.057283527523121505 0.017061307615951586 0.62547248863404803 0.4269620132446289 1.456143913269043 0.18196331210434438 0.63477865967154501 -0.18501752803200169 0.42591427206023924 1.2226399723812937 0.13404483062028885 0.28056838194529216 0.57373406112832681
leaf_weight=134 121 289 22 65 415 54 60 28 45 28 306 28 26 32 1108 139 49 80 42 29 20 304 191 34 20 59 126 46 70 22 37 23 24 21 145 27 94 56 26 80 20 21 122 20 20 89 32 62 141 189 321 31 20 28 32 20 57 123 64 40 21 140
leaf_count=134 121 289 22 65 415 54 60 28 45 28 306 28 26 32 1108 139 49 80 42 29 20 304 191 34 20 59 126 46 70 22 37 23 24 21 145 27 94 56 26 80 20 21 122 20 20 89 32 62 141 189 321 31 20 28 32 20 57 123 64 40 21 140
internal_value=-0.0982365 -0.33524 0.383515 -0.274662 -0.314444 0.161535 0.471591 0.491242 0.507699 0.238756 -0.725692 0.20788 0.623934 0.420621 -0.4061 0.222358 -0.129125 0.727639 0.807289 0.391345 0.464376 0.287629 0.142481 0.102765 0.297062 0.0133516 -0.361675 0.399558 0.618303 0.96262 -0.0935274 -0.268675 -0.0635763 0.385314 0.508334 0.852406 0.592633 0.0853356 -0.203784 0.712798 0.308994 0.729017 -0.174289 0.880762 -0.271667 1.04733 0.646597 1.14798 -0.399982 0.160705 -0.0541216 0.105798 -0.233482 0.951575 -0.368078 -0.253516 0.0279165 0.302138 0.94946 0.575039 0.882393 0.680038
internal_weight=6138 3276 2862 2836 2620 813 2049 1989 1947 692 440 216 974 329 1753 196 867 645 519 973 739 344 544 516 238 429 1464 126 395 311 183 438 278 55 297 47 148 188 82 133 106 41 223 40 42 269 54 215 1281 234 380 170 146 98 1140 199 77 152 126 208 101 168
internal_count=6138 3276 2862 2836 2620 813 2049 1989 1947 692 440 216 974 329 1753 196 867 645 519 973 739 344 544 516 238 429 1464 126 395 311 183 438 278 55 297 47 148 188 82 133 106 41 223 40 42 269 54 215 1281 234 380 170 146 98 1140 199 77 152 126 208 101 168
is_linear=0
shrinkage=0.01


Tree=2
num_leaves=63
num_cat=0
split_feature=12 68 3 37 16 7 9 12 69 69 14 3 43 1 51 24 1 57 1 22 21 65 3 20 9 49 9 41 14 48 7 10 20 64 9 58 40 0 66 36 53 62 9 47 17 64 33 23 53 29 68 61 64 47 68 16 69 20 21 64 59 48
split_gain=7.8432e+06 841040 479738 430399 382754 296613 243732 260334 243286 214364 210831 210014 173142 172516 156349 175020 155682 166708 152594 221890 151324 170074 157666 157404 150155 147317 146274 142808 141106 157738 138880 138410 134300 123124 122257 118497 118313 136336 117352 116884 172202 118077 114031 124574 143069 112563 111510 109223 108458 107219 165358 176758 146447 146301 101523 101421 101297 98563.6 149942 97378.9 96827 105584
threshold=107.59518990990986 155.79072186843527 953.65976666666677 125.80678571428562 16.807797619047623 3.5000000000000004 4.5000000000000009 124.55798666666665 72.612545995710136 96.941497199292442 84.69691999999992 849.78851864406795 3.7707228856000001 37.530833333333341 62.767814200000011 58.658333333333339 18.419116351289251 0.35894262000000005 17.095833333333339 63.888475177304976 18.514166666666668 105.40118957793824 803.15232631578954 24.829166666666669 4.5000000000000009 54.682046860000007 1.5000000000000002 4.9181971344000006 146.55736752345535 57.730034040000007 16.500000000000004 94.52094666666666 17.158333333333335 226.98584334873092 2.5000000000000004 255.30444444444464 2.4763816352000005 107.54641333333329 260.79490413619561 227.06666666666663 1.0182839600000002 167.64760121799728 2.5000000000000004 50.481284700000003 20.408403954802264 228.98103118448634 1243.0356333333334 57.005807225237959 0.21732900000000002 1652.2521000000004 187.10874929945933 36.039366138964631 248.81930651564485 52.370778600000001 235.57791314894686 25.34833333333334 93.529420783179702 14.272196969696973 11.73666666666667 112.25368720684661 106.36560834421154 52.750186580000005
decision_type=2 2 2 2 2 2 2 2 2 2 2 2 2 2 2 2 2 2 2 2 2 2 2 2 2 2 2 2 2 2 2 2 2 2 2 2 2 2 2 2 2 2 2 2 2 2 2 2 2 2 2 2 2 2 2 2 2 2 2 2 2 2
left_child=1 3 8 26 11 46 7 35 -2 13 31 28 16 38 15 48 25 -18 19 33 23 27 -23 49 -20 -8 -1 -22 54 -30 -26 -10 39 -6 -5 -7 37 -27 42 41 -41 -13 43 -9 -45 -17 -4 -37 -11 50 -12 53 -51 -52 57 -14 -40 58 -3 -28 61 -50
right_child=2 4 5 34 18 6 12 9 10 14 20 32 55 -15 -16 45 17 -19 24 -21 21 22 -24 -25 30 36 59 -29 29 -31 -32 -33 -34 -35 -36 47 -38 -39 56 40 -42 -43 -44 44 -46 -47 -48 -49 60 52 51 -53 -54 -55 -56 -57 -58 -59 -60 -61 -62 -63
leaf_value=-0.90112181449317941 -0.25431026277375651 0.77274264255228153 0.15632925300322698 -0.49906222552638241 -0.30108621219153042 -0.06561138190227013 -0.38267819327612723 1.7197028038930149 1.0906784497102102 0.829761315044519 0.90135104348262152 0.64102017297194547 0.51980783920747453 -0.070395506620407111 1.0474101452350617 1.221013199366056 0.37568854451179506 -0.25868568347310122 -0.56095624513545994 0.80808653182983392 0.2119893801401532 -0.071952891230583196 1.1836973414421081 -0.19207787734490855 -0.36208383640481367 0.50363010346889492 -0.19966116524365699 -0.38509147831526669 0.75871501245806305 -0.30889164619445802 0.00033624474491391866 0.32253358806882587 -0.043445002735819228 0.25788114612102508 -0.23699658319885128 0.6975888226582454 0.2974855464872192 1.4837056576121939 0.15222554954322609 0.20596713720049178 1.2479868010816904 0.0013826791391716349 0.78751541401358216 0.59002403665096204 1.3075188883613138 0.56161314055904166 -0.71933888068565954 -0.049483190732342863 -0.016975228334466616 0.34947366212276704 1.0261257835048618 -0.10688277994686703 1.218592342896895 0.15743987520958513 -0.68092682371334146 0.14500624193287479 0.91428437579761845 -0.3065364098059945 -0.18282553030894352 -0.63635333177718645 0.86901402846626608 0.41093479718710924
leaf_weight=208 111 24 33 284 186 73 21 32 45 37 36 39 604 20 50 39 68 106 266 25 63 20 20 54 432 40 58 110 31 25 140 49 193 50 477 65 102 22 37 35 29 111 170 47 68 77 26 28 120 47 33 106 33 47 49 82 33 192 52 427 23 111
leaf_count=208 111 24 33 284 186 73 21 32 45 37 36 39 604 20 50 39 68 106 266 25 63 20 20 54 432 40 58 110 31 25 140 49 193 50 477 65 102 22 37 35 29 111 170 47 68 77 26 28 120 47 33 106 33 47 49 82 33 192 52 427 23 111
internal_value=-0.0972994 -0.3184 0.392255 -0.49898 -0.178663 0.469609 0.489488 0.598654 0.178984 0.66834 0.251527 -0.00924973 0.38189 0.835249 0.519692 0.454862 0.203956 -0.0107693 -0.298902 -0.0877617 0.179047 -0.0317833 0.555872 0.30519 -0.364663 0.405914 -0.679274 -0.167657 -0.180653 0.282105 -0.27338 0.690263 0.147835 -0.182661 -0.334798 0.235952 0.506892 0.851399 0.882052 0.320345 0.678132 0.167688 0.963882 1.16784 1.01428 0.783308 -0.229558 0.472664 0.323935 0.394105 0.280995 0.160926 0.707985 0.515773 -0.262402 0.475006 0.511482 -0.185881 0.118933 -0.58413 0.250252 0.188644
internal_weight=6241 3333 2908 1454 1879 2134 2075 1030 774 864 663 780 1045 407 457 407 359 174 1099 261 569 213 40 356 838 185 693 173 373 56 572 94 407 236 761 166 164 62 387 214 64 150 317 147 115 116 59 93 291 302 222 186 80 80 317 686 70 268 76 485 254 231
internal_count=6241 3333 2908 1454 1879 2134 2075 1030 774 864 663 780 1045 407 457 407 359 174 1099 261 569 213 40 356 838 185 693 173 373 56 572 94 407 236 761 166 164 62 387 214 64 150 317 147 115 116 59 93 291 302 222 186 80 80 317 686 70 268 76 485 254 231
is_linear=0
shrinkage=0.01


Tree=3
num_leaves=63
num_cat=0
split_feature=12 9 38 9 69 7 69 1 47 63 6 66 62 5 52 4 68 7 61 15 64 13 10 3 55 21 66 55 40 65 2 14 26 60 47 53 67 26 62 9 18 3 52 14 48 64 21 7 30 54 8 22 12 69 6 46 41 24 62 1 64 3
split_gain=7.74073e+06 858832 458227 437595 468686 338774 265629 252201 250020 221373 212561 203675 203310 199671 198165 198224 181592 179778 164216 221678 155383 145634 143896 139816 138224 137667 132688 157784 151837 131723 131310 130998 148917 147797 127918 166912 119001 115876 115003 114522 110315 150965 108493 104628 119708 103174 102580 119081 110527 101580 133009 100521 98200 97498.4 97440.8 118197 94742.6 90465.2 90122.2 84617.1 90596.7 83241.6
threshold=107.59518990990986 4.5000000000000009 108.67045454545435 4.5000000000000009 70.565662421909948 5.5000000000000009 104.01828967691299 18.005555555555556 59.270386280000004 53.967533976616856 4.0420744300000004 230.57517288820208 230.10945914538331 52.970871800000005 1.2790669700000001 43.666236732800009 223.97250976278522 15.500000000000002 35.18684193073171 111.21865333333328 272.77322720258985 141.67069481481477 76.431149019607787 900.13557448165875 2.2244769400000002 18.805833333333339 261.80596843345427 1.0857227600000003 4.0102386192000017 97.33859190642373 43.655188679245285 115.36169333333329 64.459748427672977 216.32441570881224 52.076953040000014 1.7370927500000002 85.460672287736813 41.641666666666673 223.86118932552117 1.5000000000000002 14.874166666666667 1100.6413 2.3864872600000004 141.94619999999995 53.003362720000005 214.62755906246556 12.070654761904764 5.5000000000000009 1380.0561794871794 0.63479587000000004 2.5000000000000004 44.719747317497699 98.601213333333291 81.994211293544211 0.85880456000000016 57.391027540000003 1.4034670408000003 42.430952380952384 230.10945914538331 17.095833333333339 244.60075157114122 699.45243333333326
decision_type=2 2 2 2 2 2 2 2 2 2 2 2 2 2 2 2 2 2 2 2 2 2 2 2 2 2 2 2 2 2 2 2 2 2 2 2 2 2 2 2 2 2 2 2 2 2 2 2 2 2 2 2 2 2 2 2 2 2 2 2 2 2
left_child=1 2 12 4 -2 20 9 10 14 -7 52 17 39 59 21 42 -8 18 19 -3 25 36 53 -9 56 34 27 28 45 -28 -23 -18 33 -33 35 -6 40 -32 -27 -1 41 -5 46 44 -44 -11 -16 -48 -49 -47 -51 -29 54 -10 55 61 -24 -53 -54 60 -13 -4
right_child=3 11 7 8 5 6 16 23 22 26 -12 13 -14 -15 15 -17 31 -19 -20 -21 -22 30 24 -25 -26 38 29 51 -30 -31 37 32 -34 -35 -36 -37 -38 -39 -40 -41 -42 -43 43 -45 -46 49 47 48 -50 50 -52 57 58 -55 -56 -57 -58 -59 -60 -61 -62 -63
leaf_value=-0.94648316707381086 -0.50811568793248052 -0.18271417732873971 -0.32725865842180052 0.03907002145095783 1.2808675833249634 0.3106115176007152 0.01880125114233187 -0.6528963585377392 0.4665386652284198 0.46934381992213037 0.72207813949584965 -0.035502846899959778 0.17959470767974853 1.0439074780543645 0.71158296740190552 -0.16078705744067237 0.96779496317872626 -0.016931996272235621 -0.3669591444697069 0.62308344015708339 0.92157820162565818 1.1155689750909805 0.8877061024136268 -0.3769805952673862 0.99349437442692845 -0.58621097038621484 0.14661232678095501 0.068911264924442078 1.1670855496442172 0.93318600856896605 0.87965546832843255 0.67374459546262577 0.91082209151320981 0.028360847949981692 -0.10312829190112176 0.14936688214540481 -0.19004875752344086 0.065385540716788343 0.30689466385614306 -0.64188638946533205 -0.036519104330414567 0.7472874723430033 0.51605045081621193 0.15392021750148974 1.1354388894081116 1.4090571721259391 -0.265258358017258 0.82653549589442488 0.15476696985332589 1.1242059878188453 0.55785261084636051 0.13462994534036388 -0.25354945170879367 1.1682624114643445 -0.44735580378404544 -0.5189809590844171 0.25565838876587377 0.84068883924463467 0.67395100669427355 -0.30411367578939957 0.67394412453969321 0.18217943448831542
leaf_weight=184 44 274 47 68 22 120 101 274 36 76 25 45 25 24 44 67 52 427 575 39 23 20 26 557 33 46 60 34 164 33 22 55 45 100 47 32 209 85 21 375 181 54 83 38 50 33 46 33 95 73 96 23 20 44 179 56 270 86 22 44 30 101
leaf_count=184 44 274 47 68 22 120 101 274 36 76 25 45 25 24 44 67 52 427 575 39 23 20 26 557 33 46 60 34 164 33 22 55 45 100 47 32 209 85 21 375 181 54 83 38 50 33 46 33 95 73 96 23 20 44 179 56 270 86 22 44 30 101
internal_value=-0.0970652 -0.328395 -0.470539 0.37927 0.507453 0.54075 0.605473 -0.364703 0.261144 0.706511 -0.174028 -0.146572 -0.702689 0.211842 0.182346 0.341594 0.377063 -0.185547 -0.266627 -0.0823113 0.150718 0.0687038 0.472108 -0.467956 0.379615 0.0451838 0.776582 0.83236 0.925774 0.425719 0.371823 0.520652 0.404395 0.257368 0.278335 0.610349 -0.00648411 0.232806 -0.306282 -0.742147 0.120133 0.352543 0.428122 0.616685 0.748903 0.783417 0.280212 0.17113 0.327957 0.901583 0.80249 0.543627 -0.226741 0.852487 -0.277077 -0.127667 0.311176 0.691704 0.232284 0.044031 0.248276 0.0203984
internal_weight=6213 3323 1865 2890 1386 1342 1151 1281 1504 798 450 1458 584 143 1095 456 353 1315 888 313 191 639 409 831 329 168 678 585 442 93 127 252 200 155 101 54 512 107 67 559 303 122 389 171 133 278 218 174 128 202 169 143 425 80 383 204 296 109 42 119 75 148
internal_count=6213 3323 1865 2890 1386 1342 1151 1281 1504 798 450 1458 584 143 1095 456 353 1315 888 313 191 639 409 831 329 168 678 585 442 93 127 252 200 155 101 54 512 107 67 559 303 122 389 171 133 278 218 174 128 202 169 143 425 80 383 204 296 109 42 119 75 148
is_linear=0
shrinkage=0.01


Tree=4
num_leaves=63
num_cat=0
split_feature=12 13 9 3 6 7 69 14 7 71 9 6 28 24 62 21 39 37 39 48 43 27 5 20 36 18 69 7 27 41 42 50 53 69 30 64 52 10 39 9 35 12 16 11 68 25 62 65 40 52 61 45 45 2 62 57 13 36 5 39 23 62
split_gain=7.45581e+06 879246 604436 478547 470884 359886 318025 260677 246889 248053 260690 191600 194872 187205 206091 184652 181910 164238 146509 173354 166601 146009 157772 145091 144299 138626 138355 133366 125011 123318 120824 119344 117210 111100 261503 240906 153426 108021 103410 102649 102730 102476 101157 100804 100899 98950.8 101176 98019.2 97891.4 155541 151825 97197.7 99038.8 94852.1 117861 95735.9 93976.6 93824.2 114785 91342.7 91083.4 90916.7
threshold=107.59518990990986 112.03470666666665 1.5000000000000002 991.31303333333346 0.29602856000000005 15.500000000000002 72.612545995710136 86.675400952380897 3.5000000000000004 -3.645035862922668 4.5000000000000009 0.36266302000000006 1556.8765666666666 49.358333333333341 290.48057950191566 19.317500000000006 90.475434782608644 115.63155922038962 304.83303030303023 52.910322500000007 6.4264925032000013 48.120833333333344 56.183905680000002 24.829166666666669 129.3780952380952 17.660508474576279 92.779266391247575 4.5000000000000009 39.603571428571435 3.9435620400000002 1.3294149088000002 65.712183040000014 0.19479700000000003 89.36642654156843 1160.2749000000001 242.29851394371164 2.2000781900000006 91.821693333333187 98.58126436781599 4.5000000000000009 126.71130952380943 125.32695999999991 18.79666666666667 132.2163333333333 235.97238830008988 45.913690476190474 244.63924484498793 95.412121028351024 46.997693802400008 1.2630561500000004 37.086778830818197 21.541354190400003 7.9592553480000019 43.091666666666676 231.24955236241047 1.8799914800000004 138.02286666666657 169.92191056910565 56.737954560000013 191.69666666666663 57.005807225237959 230.10945914538331
decision_type=2 2 2 2 2 2 2 2 2 2 2 2 2 2 2 2 2 2 2 2 2 2 2 2 2 2 2 2 2 2 2 2 2 2 2 2 2 2 2 2 2 2 2 2 2 2 2 2 2 2 2 2 2 2 2 2 2 2 2 2 2 2
left_child=1 2 16 6 -3 17 -2 37 59 10 13 28 18 26 21 23 -1 -4 19 57 61 38 -23 30 -6 33 41 -27 -12 42 -9 32 -28 34 -26 -35 -37 -8 -15 40 -7 -10 -17 -30 -45 -14 -47 -29 49 -32 -51 52 -52 -40 55 -55 -20 -13 -59 -5 -34 -21
right_child=3 4 5 8 24 39 7 15 9 -11 11 12 45 14 -16 29 -18 -19 56 20 -22 22 -24 -25 25 27 31 47 43 -31 48 -33 60 35 -36 36 -38 -39 53 -41 -42 -43 -44 44 -46 46 -48 -49 -50 50 51 -53 -54 54 -56 -57 -58 58 -60 -61 -62 -63
leaf_value=-1.0657852265217627 -0.29421055205166341 1.138581124404163 -0.58285538811437987 0.22279542763645832 -0.39509209264402956 -0.10730487131532662 1.0408406602855151 -0.32506060159724692 0.33007912787736632 -0.20323464791167456 0.70424027401953937 0.36839362792114716 0.48077512957155705 1.2489659679206935 0.3053674824791725 -0.031434725463390351 -0.61426132089071317 -0.36075575603971599 0.61443571184215873 0.19838027796149255 0.41574963948256533 0.69418240030765532 1.1752216537992159 -0.1222330745508973 0.11277571311147194 -0.36677885048136299 0.82407697406198299 -0.086636934933597087 -0.17896521944866003 -0.24723091282004075 0.32367354432449624 0.84600830391475135 0.26084290250319325 -0.35026409025777855 1.1652223555384011 -0.034957693070173261 0.80361273038387293 0.43489078744461668 0.95859976389469237 -0.029782343460963322 -0.42674388879559183 0.88893457357002348 0.77944122314453124 0.46865671565567241 -0.26230339164917288 0.38828382015228274 -0.17636819811094376 0.63886262207031252 -0.18843983570734663 1.4676070417578404 0.77524732124805451 1.0955632560903377 -0.20801622158359911 0.35186918384499022 0.75108532198688438 -0.44225997829437258 1.2060283325195313 1.1332686224766075 0.54929933719232049 -0.59347239856062273 -0.22654431510430115 -0.72350576110508136
leaf_weight=141 125 33 518 26 123 196 48 23 51 53 32 67 80 22 99 40 243 932 58 20 142 125 150 71 127 166 28 73 107 139 204 35 146 114 29 48 40 76 39 312 207 92 25 69 26 51 84 25 24 26 20 22 21 63 57 20 50 64 71 29 52 23
leaf_count=141 125 33 518 26 123 196 48 23 51 53 32 67 80 22 99 40 243 932 58 20 142 125 150 71 127 166 28 73 107 139 204 35 146 114 29 48 40 76 39 312 207 92 25 69 26 51 84 25 24 26 20 22 21 63 57 20 50 64 71 29 52 23
internal_value=-0.0978262 -0.324603 -0.414415 0.3694 -0.0303483 -0.349563 0.172278 0.251183 0.453257 0.471652 0.490252 0.371681 0.45347 0.604584 0.720495 0.166849 -0.780055 -0.440099 0.562654 0.471771 0.250613 0.806834 0.956567 0.288926 -0.0821264 -0.0202377 0.439612 -0.194084 0.123521 -0.0791003 0.374786 0.302633 0.218482 0.107962 0.308423 -0.0468493 0.346211 0.669452 0.601975 -0.165958 -0.271384 0.689622 0.280441 0.0315255 0.268604 0.202091 0.0369448 0.0984395 0.425563 0.475857 0.824683 0.559349 0.271625 0.522457 0.40096 0.160513 0.888321 0.674316 0.826144 -0.2076 0.132842 -0.294722
internal_weight=6222 3327 2549 2895 778 2165 864 739 2031 1976 1923 944 710 979 575 615 384 1450 495 387 185 476 275 411 745 622 404 264 234 204 340 261 226 358 156 202 88 124 201 715 403 143 65 202 95 215 135 98 317 293 89 63 41 179 140 83 108 202 135 55 198 43
internal_count=6222 3327 2549 2895 778 2165 864 739 2031 1976 1923 944 710 979 575 615 384 1450 495 387 185 476 275 411 745 622 404 264 234 204 340 261 226 358 156 202 88 124 201 715 403 143 65 202 95 215 135 98 317 293 89 63 41 179 140 83 108 202 135 55 198 43
is_linear=0
shrinkage=0.01


Tree=5
num_leaves=63
num_cat=0
split_feature=73 7 37 45 12 9 9 5 11 33 66 25 43 30 67 65 7 19 9 26 40 69 7 59 47 41 21 4 18 12 31 5 9 9 46 12 49 38 63 26 8 26 5 63 30 11 35 10 6 15 47 60 4 23 11 9 19 38 50 19 19 52
split_gain=7.21934e+06 1.56037e+06 643156 339688 251993 224476 216584 197341 217752 193087 346580 200263 183924 195314 183239 168584 148014 142405 137778 205371 136126 132005 131414 193346 186818 141111 138371 134341 129722 131581 127797 127667 128070 119793 116343 116247 114635 113032 111962 119237 106756 104456 112410 107628 152166 100155 98507.6 133195 95906.2 95844.6 95386.3 93733 93511 93466.3 92980.9 92475.6 90516.1 108094 93612 90479.4 90361.2 89562.1
threshold=-3.6738375425338741 4.5000000000000009 118.8045238095237 2.1053177904000004 137.74038666666658 4.5000000000000009 1.5000000000000002 104.76646096 106.38510666666666 760.80623333333358 259.28046603304244 58.957198236128313 33.311882428000011 759.40458888888895 48.214953201458677 121.4573309103824 15.500000000000002 26.883333333333336 6.5000000000000009 44.170833333333334 1.4558313000000001 100.36513137475808 9.5000000000000018 17.25063617545452 59.167777340000008 40.801901773600008 18.291666666666671 1.5558367528000001 17.174402515723276 87.113693333333288 683.1753136107219 84.705872720000016 5.5000000000000009 2.5000000000000004 54.780413380000006 134.35062666666667 54.563459020000003 129.3780952380952 51.582223337726901 62.418494450593805 2.5000000000000004 57.856955890693278 57.76257592000001 99.022078023673217 2184.7495666666673 121.80137149425282 93.903930817609918 131.95954689283261 3.0279798500000004 131.95954689283261 48.24327438000001 155.0160164209224 2.6384357032000003 47.311394978395207 120.28939999999993 4.5000000000000009 17.124166666666671 169.92191056910565 52.560570300000009 16.628708791208791 15.060833333333337 0.33225530000000003
decision_type=2 2 2 2 2 2 2 2 2 2 2 2 2 2 2 2 2 2 2 2 2 2 2 2 2 2 2 2 2 2 2 2 2 2 2 2 2 2 2 2 2 2 2 2 2 2 2 2 2 2 2 2 2 2 2 2 2 2 2 2 2 2
left_child=1 9 6 31 7 14 -2 8 20 10 12 56 33 -14 -4 22 51 -13 19 45 -5 35 23 26 27 46 -6 40 29 -15 -26 32 38 -1 -34 -21 48 -16 -3 61 -24 42 43 44 54 -10 -25 -48 -29 -27 60 -7 -23 -49 -32 -8 57 58 -11 -41 -20 -40
right_child=2 3 5 4 15 16 55 -9 18 11 -12 17 13 28 37 -17 -18 -19 50 21 -22 52 24 25 30 49 -28 36 -30 -31 41 -33 34 -35 -36 -37 -38 -39 39 59 -42 -43 -44 -45 -46 -47 47 53 -50 -51 -52 -53 -54 -55 -56 -57 -58 -59 -60 -61 -62 -63
leaf_value=0.34418726063599542 -0.89310567166498844 0.16537580707802987 -0.18795070643473821 0.97649187830463047 0.65780717438086866 -0.10209203629972832 -0.60736271434835254 1.0100445198311525 -0.0069563366969426482 -0.082388970459049402 1.2833789842025092 -0.026160709303478864 -0.51018285291535515 0.42426550083690218 -0.68039720322202457 -0.059226158687046601 0.0031107833100564824 0.99521116876602178 0.73828307960872297 0.15076366140529024 0.36364426956487905 0.27549736483229531 0.9546654443407343 0.48894581228494643 1.3946062479019166 0.92186380227406817 -0.1185640441829508 0.44559603435386508 -0.014412244632840156 1.4796878996349516 0.32240505385966528 1.3549114579739781 0.90861003289222719 -0.3898088176162155 0.14018910555429356 0.78043032893363162 -0.12062675544531037 -0.39489190003127222 1.0698342861448016 -0.067891209295817781 0.30379199951414076 0.83439695136664915 -0.18820037117710822 1.0806414551205106 -0.38273166520254953 0.62856708551203455 1.6105841029148835 0.52789460414164768 -0.26335687875747682 0.15820046197800408 -0.14284017497017271 -0.37180493202237858 -0.32475447211214287 1.2030235738598782 1.1249159344759856 -0.35244876587790169 -0.46670364994710933 -0.37558711268916362 0.67552726793289186 0.62628205943525883 -0.047242264272645114 0.70051598218667455
leaf_weight=28 213 39 296 40 48 209 446 34 30 88 23 43 21 27 208 56 318 20 27 213 386 36 42 30 20 27 44 112 24 21 42 23 25 108 93 34 101 416 98 28 63 86 27 27 21 143 39 37 23 42 210 336 93 46 22 209 192 123 20 57 32 199
leaf_count=28 213 39 296 40 48 209 446 34 30 88 23 43 21 27 208 56 318 20 27 213 386 36 42 30 20 27 44 112 24 21 42 23 25 108 93 34 101 416 98 28 63 86 27 27 21 143 39 37 23 42 210 336 93 46 22 209 192 123 20 57 32 199
internal_value=-0.0954356 0.297546 -0.392864 0.405535 0.350228 -0.284187 -0.616103 0.258398 0.237855 -0.111437 0.113192 -0.227911 -0.00433724 0.338375 -0.39286 0.473118 -0.168337 0.298084 0.142378 0.233223 0.421189 0.102029 0.506278 0.671709 0.417916 0.832068 0.286499 0.266572 0.585871 0.886013 0.628563 0.625283 0.594149 -0.238692 0.30299 0.237438 0.134179 -0.49006 0.675756 0.727863 0.564141 0.56047 0.390991 0.530617 0.355904 0.518361 1.00232 1.12856 0.324811 0.457025 -0.0430281 -0.268374 -0.157242 0.902062 0.598268 -0.526024 -0.306251 -0.172887 0.0579659 0.397613 0.312235 0.822379
internal_weight=6184 3533 2651 2795 2233 1783 868 1278 1244 738 252 486 229 93 920 955 863 63 818 549 426 376 899 313 586 221 92 341 72 48 245 562 539 136 118 247 236 624 421 382 105 225 139 112 85 173 152 122 135 69 269 545 129 83 64 655 423 231 108 85 59 297
internal_count=6184 3533 2651 2795 2233 1783 868 1278 1244 738 252 486 229 93 920 955 863 63 818 549 426 376 899 313 586 221 92 341 72 48 245 562 539 136 118 247 236 624 421 382 105 225 139 112 85 173 152 122 135 69 269 545 129 83 64 655 423 231 108 85 59 297
is_linear=0
shrinkage=0.01


Tree=6
num_leaves=63
num_cat=0
split_feature=12 68 37 9 20 43 63 7 43 3 19 69 7 19 18 29 21 67 66 52 47 51 65 37 14 38 23 51 67 8 63 52 9 12 64 13 2 54 17 23 13 29 2 6 18 6 25 63 5 47 47 22 34 53 20 61 41 63 11 51 49 16
split_gain=7.05956e+06 896652 473040 432095 373593 303831 280066 250071 234307 253587 206865 194331 190732 207930 185013 160014 159750 148777 152672 145958 165544 168904 146918 160651 141677 136002 132613 139687 224970 131887 149549 131116 128499 126561 126248 123701 147207 119225 132930 125759 119143 117135 175175 115560 114994 120299 112215 107304 105203 104884 102824 102167 111087 96364.1 98288.1 95448.6 94474.8 93001.2 92890.3 92751.3 91437.2 90738.9
threshold=112.70951999999993 155.79072186843527 122.35578231292507 4.5000000000000009 17.158333333333335 7.7629854192000005 51.3048343088332 5.5000000000000009 6.0852641960000016 831.23886666666681 15.811666666666669 107.17765586493631 5.5000000000000009 20.748636363636368 18.511666666666667 932.2969410256411 18.885833333333338 70.802475063574988 263.79288722008272 1.5204187500000002 61.581970100000014 54.804979040000006 53.660661252406719 254.97974358974355 166.19239999999994 160.72293785310728 52.19166666666667 48.720116900000008 69.514922425047743 1.0000000180025095e-35 64.091483513821586 0.89073843000000008 1.5000000000000002 133.98967999999994 239.05423542515857 122.01566666666666 41.70714285714287 0.29602856000000005 19.820833333333336 64.813905925138428 99.574199999999919 978.56791515151519 39.25833333333334 1.5187812500000002 20.170833333333338 0.96562327000000003 59.655508474576273 73.288298505721727 57.567840120000007 58.43524498 60.223680300000005 54.378107344632774 200.48954545454544 0.20606300000000002 13.403362068965519 72.986886665942805 19.207295395200003 76.145778947912461 108.84895999999992 62.364142400000013 50.175261080000006 12.070654761904764
decision_type=2 2 2 2 2 2 2 2 2 2 2 2 2 2 2 2 2 2 2 2 2 2 2 2 2 2 2 2 2 2 2 2 2 2 2 2 2 2 2 2 2 2 2 2 2 2 2 2 2 2 2 2 2 2 2 2 2 2 2 2 2 2
left_child=1 2 32 5 10 6 40 16 19 56 15 17 47 29 48 51 -8 -9 31 20 21 -5 -23 59 35 60 -17 28 -28 30 -14 53 -1 -20 49 -7 -37 -38 46 57 -2 43 -43 -11 58 -46 -39 -6 -13 -12 -44 52 -3 -19 -55 -29 -10 -40 -22 -24 -4 -36
right_child=3 4 25 8 12 24 7 11 9 41 34 14 13 -15 -16 26 -18 18 33 -21 44 22 23 -25 -26 -27 27 55 -30 -31 -32 -33 -34 -35 61 36 37 38 39 -41 -42 42 50 -45 45 -47 -48 -49 -50 -51 -52 -53 -54 54 -56 -57 -58 -59 -60 -61 -62 -63
leaf_value=-0.88774155379162123 -0.38662172725123745 0.70936363613966735 -0.77319654336342436 -0.33403354757785797 -0.55179485200872636 -0.31150869505746026 0.55570204155600589 -0.059552949599921703 0.21389414839686885 0.46622749110002348 -0.30612097039620084 0.34147568085409225 -0.021707640851919469 -0.33995160867893665 0.73938379984397384 -0.13426979509335529 -0.61056865970293683 0.20487417613084499 1.033744396686554 0.49649419360263375 0.66835435641200647 0.74054750362411148 0.046440957738802989 0.34055759995623874 0.77694203188021971 -0.15479147561318102 0.7553592042922973 0.25838333970409333 -0.54913150322742954 -0.075594221523829871 1.0985419310222972 1.1659081783410041 -0.58940697946589748 0.19283240904883733 0.78306943207979207 0.86759857243961758 -0.34881159418159058 0.17903534858094322 1.2281221258640289 0.079830983906984329 0.33760110859134623 1.0595574905410889 0.15926630002341119 0.90307834134281917 1.0438830922779285 0.10078830821173532 -0.64906951886415487 -0.22383058975469197 -0.41649097601572671 0.15841773633299203 0.57960475791104227 1.1771348326546807 -0.23512532818317414 1.1355006133339236 0.74658364221401741 0.90100144265513682 -0.36715959006664795 0.47273342768351234 -0.080853215072114598 -0.38613846633323406 -0.37234652910895111 0.018085809721462971
leaf_weight=210 31 33 65 125 294 42 23 20 62 164 300 47 26 363 77 158 24 26 25 93 23 32 117 108 48 299 20 59 39 280 22 124 462 63 20 36 36 90 28 40 85 31 221 96 38 21 20 151 30 58 79 21 20 84 287 38 51 39 59 86 457 69
leaf_count=210 31 33 65 125 294 42 23 20 62 164 300 47 26 363 77 158 24 26 25 93 23 32 117 108 48 299 20 59 39 280 22 124 462 63 20 36 36 90 28 40 85 31 221 96 38 21 20 151 30 58 79 21 20 84 287 38 51 39 59 86 457 69
internal_value=-0.0968174 -0.301033 -0.485891 0.37889 -0.161007 0.508462 0.60431 0.668634 0.256782 0.38569 -0.000423148 0.711161 -0.279042 -0.175058 0.392774 0.168519 -0.0398404 0.789113 0.816983 0.127506 0.0711579 -0.0193392 0.0953453 0.0289579 0.269222 -0.324851 0.0699334 0.276755 -0.106931 0.00743031 0.49174 0.882055 -0.682637 0.431728 -0.147067 0.195595 0.269292 0.184157 0.272576 0.523526 0.144059 0.46868 0.343906 0.627526 0.371531 0.708205 0.0284708 -0.440508 0.046164 -0.230861 0.269955 0.586842 0.352953 0.793396 0.83464 0.510131 -0.0483513 0.788418 0.12929 -0.136819 -0.422261 0.189992
internal_weight=6195 3464 1493 2731 1971 1325 946 830 1406 704 835 783 1136 691 154 388 47 629 609 702 609 468 343 311 379 821 314 156 59 328 48 521 672 88 447 331 289 253 217 107 116 591 331 260 141 59 110 445 77 358 300 74 53 397 371 97 113 67 82 203 522 89
internal_count=6195 3464 1493 2731 1971 1325 946 830 1406 704 835 783 1136 691 154 388 47 629 609 702 609 468 343 311 379 821 314 156 59 328 48 521 672 88 447 331 289 253 217 107 116 591 331 260 141 59 110 445 77 358 300 74 53 397 371 97 113 67 82 203 522 89
is_linear=0
shrinkage=0.01


Tree=7
num_leaves=63
num_cat=0
split_feature=12 71 9 9 5 39 69 56 47 46 7 17 7 69 63 55 31 3 18 64 43 60 59 38 57 5 58 66 53 41 14 66 32 66 9 36 1 3 24 69 33 47 11 35 60 9 64 31 20 8 1 3 41 57 44 39 35 22 69 53 49 3
split_gain=7.12628e+06 833642 589424 478305 467434 413019 292255 278644 236229 220718 241598 216013 203421 179617 216176 171521 160768 190898 157362 251519 165691 172265 155403 168758 152688 149889 147429 144799 143144 167735 277310 126677 123885 123354 160111 122674 120545 125047 117831 124466 115394 115210 114859 121450 113960 106542 106433 106058 104328 99359.5 99263.8 92044.1 91749.7 115950 123610 91461.9 87847 86690.2 85826.1 88377.1 90477.1 83130.8
threshold=112.70951999999993 -3.645035862922668 4.5000000000000009 4.5000000000000009 54.67040054000001 117.61665899677855 67.14557548192478 1.9445299400000002 59.270386280000004 53.575375980000011 4.5000000000000009 12.49 15.500000000000002 104.01828967691299 53.967533976616856 1.8468013200000002 772.63953141471609 639.12557005649728 16.505833333333339 273.86559038125466 6.9603194408000011 255.55916666666664 92.722702050841903 185.26201257861632 1.7055938000000002 46.393906580000007 143.44528731516701 213.02716095568562 0.93502036000000011 27.264608967200004 120.91713333333328 222.59241040495507 901.00253333333342 261.80596843345427 2.5000000000000004 204.38339981760973 18.005555555555556 768.45156666666674 42.50833333333334 98.600845994088417 795.30579999999998 48.399728440000011 136.57907999999995 150.25929824561408 132.71468512767424 1.5000000000000002 244.01089543834988 1665.0580333333337 21.889166666666668 1.0000000180025095e-35 22.181151560936886 1466.8527666666669 8.7942285640000026 0.83153298000000009 3.3596222088000007 210.69166666666663 221.4211904761905 61.00461037873341 83.171082540316618 0.234621 52.310603660000005 673.45830000000012
decision_type=2 2 2 2 2 2 2 2 2 2 2 2 2 2 2 2 2 2 2 2 2 2 2 2 2 2 2 2 2 2 2 2 2 2 2 2 2 2 2 2 2 2 2 2 2 2 2 2 2 2 2 2 2 2 2 2 2 2 2 2 2 2
left_child=1 4 5 6 11 45 -2 -6 9 10 -5 22 -4 14 27 -11 31 -18 19 42 -20 32 23 61 -25 -19 -10 49 40 -30 -31 56 -22 34 52 47 -7 -38 55 57 -13 51 43 -15 -36 -3 -26 -12 -35 -8 -43 -37 -27 54 -54 -28 -16 -40 -46 -60 -61 -1
right_child=3 2 12 8 7 36 13 -9 26 15 35 28 -14 18 16 -17 17 25 20 -21 21 -23 -24 24 46 33 38 -29 29 30 -32 -33 -34 48 44 41 37 -39 39 -41 -42 50 -44 -45 58 -47 -48 -49 -50 -51 -52 -53 53 -55 -56 -57 -58 -59 59 60 -62 -63
leaf_value=-0.39336773629652128 -0.69259238255477984 -0.89277810229871768 -0.30775460891500223 -0.13361278472577826 0.24289040651119931 -0.18237703972242095 -0.033568209196840011 1.3668197330832481 0.059430461839223521 -0.043780243475671991 0.51452134225966339 0.56741580878866127 -0.0071334531750664653 0.63038652091190739 0.2689088139931361 0.68309290364810393 -0.17424563892509629 -0.040822019862092065 0.71795850010226958 1.0722630078451973 -0.052343501773747532 -0.28482066317038107 -0.56393171605467796 1.0012626323652893 -0.045535893514752387 0.87589436752283412 0.50997267479779285 -0.085894093717847564 -0.46207880346816887 1.0807839272618294 -0.33935579519380221 -0.026043745214288885 0.89525184785997536 0.14577740499786301 1.228123504110745 0.26089013781812453 -0.7243995277922004 -0.37955716053859156 0.43984129707379771 0.92673931148317124 -0.12204540884834808 0.27782523240414131 -0.51172773369153346 -0.21956687584519385 0.063372111475467688 -0.6212110042147222 0.82273782587051392 1.2262500217982701 0.7563798849813399 0.77921188381482964 -0.26737243476368133 0.82776229647339361 1.3581871353051602 1.7488635792451745 0.42073861132968554 1.053217651900791 0.94450123777515005 -0.046397056655450297 0.042852803811430931 0.26316218395443525 0.82442467602523595 0.14764711299499908
leaf_weight=45 20 213 699 102 71 231 21 32 78 448 83 29 332 29 39 35 23 23 139 21 22 44 30 38 48 136 61 70 285 20 44 55 37 51 35 54 131 533 110 36 149 163 45 40 25 449 20 28 62 53 42 61 39 34 22 63 38 55 20 34 185 77
leaf_count=45 20 213 699 102 71 231 21 32 78 448 83 29 332 29 39 35 23 23 139 21 22 44 30 38 48 136 61 70 285 20 44 55 37 51 35 54 131 533 110 36 149 163 45 40 25 449 20 28 62 53 42 61 39 34 22 63 38 55 20 34 185 77
internal_value=-0.0939509 -0.305694 -0.396408 0.373469 -0.0413157 -0.519213 0.50733 0.592072 0.244985 0.163724 0.304032 -0.124423 -0.210949 0.525213 0.597524 0.00889172 0.660207 0.721457 0.34012 0.0665801 0.492714 0.188744 0.11266 0.201685 0.493557 0.75239 0.449851 0.240144 -0.24049 -0.35819 0.104438 0.340501 0.541911 0.780763 0.844718 0.407605 -0.379139 -0.447591 0.543552 0.393997 -0.00971746 0.308242 -0.118677 0.13766 0.691946 -0.708588 0.209839 0.694057 0.480798 0.548558 0.166126 0.561579 1.04246 1.28091 1.02009 0.785976 0.602318 0.277762 0.620862 0.679176 0.737288 -0.0519075
internal_weight=6257 3476 2588 2781 888 1557 1362 103 1419 1016 533 785 1031 1342 965 483 821 689 377 135 242 103 258 228 106 666 403 144 527 349 64 132 59 643 530 431 895 664 325 201 178 320 114 69 299 662 68 111 113 74 205 115 231 95 61 124 77 165 264 239 219 122
internal_count=6257 3476 2588 2781 888 1557 1362 103 1419 1016 533 785 1031 1342 965 483 821 689 377 135 242 103 258 228 106 666 403 144 527 349 64 132 59 643 530 431 895 664 325 201 178 320 114 69 299 662 68 111 113 74 205 115 231 95 61 124 77 165 264 239 219 122
is_linear=0
shrinkage=0.01


Tree=8
num_leaves=63
num_cat=0
split_feature=12 9 3 1 6 9 12 69 39 69 10 66 7 55 61 15 21 20 41 45 24 11 63 5 53 47 43 57 22 3 48 11 5 22 62 66 69 62 68 31 9 45 8 19 38 66 57 6 64 46 50 5 26 1 15 45 25 20 29 44 9 66
split_gain=6.7697e+06 780226 549559 496329 311275 305268 358282 282033 275906 241222 236609 211502 181648 176543 165947 213546 164863 224981 218643 157528 176336 176538 155779 144386 140751 153910 136544 145611 169349 128646 127099 141935 135708 121908 117722 261982 115379 114315 111630 135810 156335 131736 109624 103322 103040 102476 101546 101145 100148 98604.8 114385 94650 94072.9 93817.6 91768.8 91523.9 92511.8 90104.1 89182.6 88557.1 88307 88215.8
threshold=107.59518990990986 4.5000000000000009 996.85590000000013 18.164099099099101 6.5372183300000009 4.5000000000000009 121.51347999999992 73.373358513975845 108.67045454545435 103.06920379597211 74.198079999999919 234.32877591516362 14.500000000000002 5.9101108500000006 35.462646572758949 107.51841537386436 18.514166666666668 27.605111212199272 4.8387769408000016 2.1053177904000004 58.658333333333339 135.91995999999992 54.247483314006026 49.346790640000009 4.044742900000001 49.194812240000005 3.8246558504000006 0.41893538000000002 41.97291666666667 900.13557448165875 53.827062520000005 150.48337333333328 56.810489260000004 47.311394978395207 234.26608085586375 226.28838491034909 93.737862436248136 172.11944444444438 235.97238830008988 616.88283333333345 6.5000000000000009 16.800712684800004 1.0000000180025095e-35 14.1225 224.00999999999991 263.79288722008272 0.97799098000000007 0.54490498000000009 166.23653028202759 49.42469280000001 54.951586060000004 57.941313220000005 62.189227642276428 16.275833333333335 104.55754666666665 2.4353702472000007 53.503113940308658 12.125833333333334 600.92320000000007 1.8315174592000003 1.5000000000000002 249.39331324482842
decision_type=2 2 2 2 2 2 2 2 2 2 2 2 2 2 2 2 2 2 2 2 2 2 2 2 2 2 2 2 2 2 2 2 2 2 2 2 2 2 2 2 2 2 2 2 2 2 2 2 2 2 2 2 2 2 2 2 2 2 2 2 2 2
left_child=1 3 7 4 13 6 37 -2 60 22 47 12 14 34 15 -3 17 38 55 54 21 33 44 36 25 -24 27 57 -29 -10 32 -32 43 -21 46 -36 -13 -4 39 -12 49 -40 -39 -28 -8 -27 59 -9 -42 -41 -51 -23 -35 -30 -11 -18 -57 -7 -14 -1 -5 -25
right_child=2 11 5 8 -6 26 9 10 29 19 16 23 58 -15 -16 -17 18 -19 -20 20 -22 51 24 61 -26 45 30 28 53 -31 31 -33 -34 52 35 -37 -38 42 41 40 48 -43 -44 -45 -46 -47 -48 -49 -50 50 -52 -53 -54 -55 -56 56 -58 -59 -60 -61 -62 -63
leaf_value=-0.54061387388702531 -0.27099477356050533 -0.17038179139768786 -0.45153134361390146 -0.93432973936157071 0.95879663987593222 0.83149323728154689 -0.1826406817138195 1.2449010306179267 -0.61857236420792927 1.3953266215730797 -0.077185604781214445 0.30558272152333649 -0.53520510950876821 0.67092937946319586 -0.35942851587052327 0.63486216501185766 0.72593018331025772 -0.38654264623468571 -0.2673882661912686 0.84622702861557131 0.70430973735566327 -0.009399296512206395 1.2931859139240149 0.1798735336959362 0.026012371344999834 0.83581180117050813 0.50784926600584934 0.47732463465382657 0.17656308088191722 -0.35923818690712461 0.34350791718045331 -0.25983145781026945 0.3369574087184955 -0.091022966942697195 0.75497337472935511 -0.31422963809967042 -0.55416252935374222 0.80293309642718391 -0.096603425152694128 1.2644030785163245 0.70292260148308505 0.811932489156723 0.055498680144548417 1.0094416484043196 0.62531054142274356 0.38746577381077457 -0.57462708020686282 0.4166961687405904 -0.13342764912582025 0.29620901956892853 0.9056350918403312 -0.80974965008822353 0.64335746159920315 -0.38549322351037213 0.56152913787148218 -0.27635664025942486 0.60167035293579108 0.25374423305724414 0.019246311171590227 -0.15801358086419406 -0.64386815024321931 0.98189607620239261
leaf_weight=81 142 247 31 173 22 34 27 29 293 22 37 37 31 20 560 38 38 44 156 37 78 45 66 24 22 375 88 48 43 551 292 45 166 53 33 75 27 26 79 30 22 20 80 77 38 59 144 30 41 57 67 22 26 96 33 30 20 131 452 239 265 32
leaf_count=81 142 247 31 173 22 34 27 29 293 22 37 37 31 20 560 38 38 44 156 37 78 45 66 24 22 375 88 48 43 551 292 45 166 53 33 75 27 26 79 30 22 20 80 77 38 59 144 30 41 57 67 22 26 96 33 30 20 131 452 239 265 32
internal_value=-0.093389 -0.309491 0.3506 -0.442979 -0.209189 0.438579 0.559136 0.135354 -0.55495 0.631432 0.217784 -0.134703 -0.171033 -0.252594 -0.259455 -0.0630159 0.162006 0.287734 -0.0425595 0.40867 0.306177 0.136481 0.751351 0.267348 0.808836 0.84328 0.315659 0.156272 -0.0347784 -0.449268 0.399648 0.262943 0.53883 0.37253 -0.284885 0.0124713 -0.0571223 0.0826181 0.37178 0.482801 0.578283 0.0869392 0.238832 0.741926 0.2897 0.774862 -0.354098 0.82378 0.158631 0.749958 0.625496 -0.272201 0.150672 -0.21162 0.895048 0.356001 0.0748542 0.372796 -0.0163396 -0.254859 -0.758594 0.638172
internal_weight=6246 3344 2902 1896 614 2060 1040 842 1282 903 700 1448 1328 592 845 285 641 397 244 316 261 183 587 120 522 500 1020 352 187 844 668 337 331 116 572 108 64 137 353 254 217 99 106 165 65 434 464 59 63 154 124 67 79 139 55 88 50 165 483 320 438 56
internal_count=6246 3344 2902 1896 614 2060 1040 842 1282 903 700 1448 1328 592 845 285 641 397 244 316 261 183 587 120 522 500 1020 352 187 844 668 337 331 116 572 108 64 137 353 254 217 99 106 165 65 434 464 59 63 154 124 67 79 139 55 88 50 165 483 320 438 56
is_linear=0
shrinkage=0.01


Tree=9
num_leaves=63
num_cat=0
split_feature=12 9 37 3 14 1 9 12 69 69 66 17 37 14 1 61 7 39 8 60 43 21 9 68 67 40 57 18 57 9 39 51 27 40 20 4 36 19 14 56 6 29 61 52 51 35 7 52 49 21 65 67 63 22 38 21 11 35 22 60 66 67
split_gain=6.69123e+06 771701 480174 387829 317751 267221 271413 334435 254137 251781 232779 209058 192962 188156 180688 174282 173665 169410 163645 207051 156197 183806 157070 181664 152914 201234 152663 206863 150424 149877 144732 143300 149509 140617 153800 138822 137431 133060 130374 127423 129910 134059 127268 124329 122108 118887 116635 115148 117321 112988 112059 109182 127771 100758 100045 97967.5 94055.5 93513.1 89476.2 88838.6 86908.7 85095.8
threshold=107.59518990990986 4.5000000000000009 103.15607843137245 996.85590000000013 129.39153333333331 37.866087515984056 4.5000000000000009 121.51347999999992 72.612545995710136 104.01828967691299 234.32877591516362 10.140000000000002 107.0307971014491 86.675400952380897 18.979859845428372 28.146376271083152 16.500000000000004 128.24125615763543 5.5000000000000009 145.95214077824241 11.345632179200003 22.751711347498041 6.5000000000000009 212.28655829643876 110.17580543859064 24.540404803200001 1.5793726800000003 15.319166666666668 1.5939071300000001 1.5000000000000002 98.58126436781599 50.812600160000009 43.741666666666667 6.7981081256000016 12.785833333333334 6.8942257120000008 267.64547619047613 16.077464539007099 124.55798666666665 4.9825155700000012 1.5368854500000002 1550.1868999999999 40.697902189990394 0.22780900000000001 66.784285400000002 274.88166666666655 4.5000000000000009 2.2000781900000006 49.317525880000012 14.1225 108.34165342836651 104.41549461133721 57.547199957711051 62.418494450593805 144.31833333333327 14.515000000000002 23.979413333333273 289.94666666666666 46.588276836158201 255.55916666666664 262.68152385950543 78.989837554879102
decision_type=2 2 2 2 2 2 2 2 2 2 2 2 2 2 2 2 2 2 2 2 2 2 2 2 2 2 2 2 2 2 2 2 2 2 2 2 2 2 2 2 2 2 2 2 2 2 2 2 2 2 2 2 2 2 2 2 2 2 2 2 2 2
left_child=1 2 29 8 17 6 7 37 -2 33 11 42 -10 61 39 28 -17 -4 20 -20 22 45 23 58 25 -16 27 -6 -13 -1 -11 49 38 34 -9 -12 -27 -5 -33 40 -8 -42 -3 -36 60 46 -22 -37 -49 -32 -34 52 -35 -31 -54 -29 -19 -28 -15 -51 -45 -14
right_child=3 10 4 5 26 -7 14 9 12 30 35 15 13 18 24 16 -18 56 19 -21 21 -23 -24 -25 -26 36 57 55 -30 53 31 32 50 51 43 47 -38 -39 -40 -41 41 -43 -44 44 -46 -47 -48 48 -50 59 -52 -53 54 -55 -56 -57 -58 -59 -60 -61 -62 -63
leaf_value=-0.92879916090057801 -0.25553970986314245 0.99672960938642863 -0.55189997641150812 0.39734948097713407 0.83781893600709734 -0.36722681270866858 0.32078913346784454 1.0963000137779502 -0.15964286400973798 1.1037076429128647 0.96191039840380355 -0.076480652297743493 0.22410956110273086 1.1063640578180551 0.10646472464406531 -0.350929261807161 -0.03882739971529265 0.0067017172718810483 1.3818710510547345 0.28166531715393067 -0.16351494114974449 -0.46981992912292486 -0.37475536070371929 -0.019135494223723175 -0.51883021918932604 0.31690140311108078 -0.55775321085216867 0.54023715279319073 0.58528428696669066 -0.61397091176246577 -0.39398569021906171 0.47233422543321341 0.42686509081033563 0.45315871746309344 1.1386225498603149 -0.22336668631025391 1.1823934769630433 -0.26065804590781527 -0.56999466033208945 1.1886947647008028 0.76968517713195128 -0.070435800118879829 0.039148376856531421 0.50391860116388043 1.0492943712983813 1.0116853555068375 0.62273108305754488 0.078902108669281004 1.0243506828943889 0.74281965874135492 1.0803757632862439 0.27696063859122144 0.74912553060886466 0.11726093405485154 1.3187286278359387 -0.23488250278291248 -0.34672897758735111 0.17443905692260997 0.25154086992144586 -0.14779927662440709 0.035575127502282464 0.86676882988367332
leaf_weight=178 118 23 451 63 40 41 420 62 100 25 24 288 28 25 297 662 244 86 26 50 29 20 76 141 30 43 53 22 39 326 42 28 65 31 33 51 32 60 21 22 139 22 35 227 35 40 54 35 21 24 44 21 43 20 109 63 605 26 24 21 48 78
leaf_count=178 118 23 451 63 40 41 420 62 100 25 24 288 28 25 297 662 244 86 26 50 29 20 76 141 30 43 53 22 39 326 42 28 65 31 33 51 32 60 21 22 139 22 35 227 35 40 54 35 21 24 44 21 43 20 109 63 605 26 24 21 48 78
internal_value=-0.092723 -0.30267 -0.436183 0.358739 -0.336201 0.431967 0.448293 0.564757 0.173362 0.633098 -0.127094 -0.16785 0.246605 0.315344 0.332177 -0.19545 -0.266875 -0.40114 0.231928 0.658051 0.152746 0.419277 0.00946079 0.163147 0.167956 0.223342 0.0273278 0.244803 0.00244544 -0.693007 0.378916 0.304958 0.484419 0.745789 0.637945 0.274558 0.686178 0.0763702 0.0256218 0.441657 0.41337 0.654886 0.418879 0.555093 0.492976 0.563845 0.348019 0.120385 0.433445 -0.0209599 0.690668 0.959892 1.03826 -0.571703 1.15759 -0.0342633 -0.302742 -0.316779 0.687675 0.327197 0.422171 0.69701
internal_weight=6149 3292 1870 2857 1346 2048 2007 1002 809 879 1422 1291 691 591 1005 1233 906 1142 485 76 409 143 266 190 402 372 204 125 327 524 270 245 158 609 405 131 75 123 49 603 581 161 58 343 310 123 83 107 56 87 109 204 183 346 152 85 691 79 49 45 275 106
internal_count=6149 3292 1870 2857 1346 2048 2007 1002 809 879 1422 1291 691 591 1005 1233 906 1142 485 76 409 143 266 190 402 372 204 125 327 524 270 245 158 609 405 131 75 123 49 603 581 161 58 343 310 123 83 107 56 87 109 204 183 346 152 85 691 79 49 45 275 106
is_linear=0
shrinkage=0.01


Tree=10
num_leaves=63
num_cat=0
split_feature=12 68 3 37 20 69 9 12 69 10 19 9 17 68 58 27 25 4 26 66 35 24 1 66 17 20 41 9 13 0 3 37 64 17 10 23 43 44 36 8 18 3 49 67 41 62 42 55 49 31 2 42 39 8 61 36 55 39 25 0 67 61
split_gain=6.55757e+06 715182 437321 408119 329260 229298 222549 227287 236493 186231 170435 169604 178715 173031 162934 157285 155140 151129 153684 145168 143666 152738 141834 138018 131178 130236 129783 129001 127087 133159 120611 119140 168400 118752 118529 117286 114582 187576 113467 109428 109310 107292 104620 103391 102802 102238 102198 121471 134741 104880 101261 100998 99156.5 97543 95819.2 230136 93447.5 93348.4 87623.6 111356 86864.2 86318.7
threshold=110.44793629629628 155.79072186843527 996.85590000000013 120.56943396226416 17.158333333333335 72.963949508714933 4.5000000000000009 121.51347999999992 102.41028110146642 75.967146666666608 15.702500000000001 6.5000000000000009 11.229545454545457 186.40998986005746 205.08777777777775 43.180194805194809 59.275595238095242 13.613351488000001 43.254310344827594 178.84643035219602 169.04954545454544 42.430952380952384 36.123333333333342 258.15250914947285 16.657358490566043 21.889166666666668 9.0480547344000026 1.5000000000000002 151.73471017543852 114.84381333333319 1053.4313666666669 150.25929824561408 239.67496143241272 19.307500000000001 106.38510666666666 52.32500000000001 3.3749862960000008 3.7087637224000001 125.80678571428562 2.5000000000000004 15.595940860215054 1743.9891073170734 50.288800940000009 112.87847778459282 9.7066474384000028 186.04163852838192 2.9243873824000004 1.3121457800000003 51.447420640000011 849.64075925925943 55.093103448275869 7.8473584288000007 148.91482456140349 1.0000000180025095e-35 71.957632625976757 160.72293785310728 2.2244769400000002 124.031156462585 39.186904761904763 109.27268000000002 83.333358353774415 21.476129072817979
decision_type=2 2 2 2 2 2 2 2 2 2 2 2 2 2 2 2 2 2 2 2 2 2 2 2 2 2 2 2 2 2 2 2 2 2 2 2 2 2 2 2 2 2 2 2 2 2 2 2 2 2 2 2 2 2 2 2 2 2 2 2 2 2
left_child=1 3 5 27 10 -2 7 53 19 45 20 13 -13 -11 28 39 -12 18 38 -9 21 -3 30 33 52 -25 34 -1 29 -8 61 -19 -33 36 -17 41 37 -21 -15 -10 -18 -28 -5 46 -35 -7 56 49 -49 60 51 -51 -20 -4 -22 -56 -16 -44 59 -32 -48 -6
right_child=2 4 6 42 22 9 14 8 15 11 16 12 -14 17 43 26 40 31 24 23 54 -23 -24 25 -26 -27 35 -29 -30 -31 58 32 -34 44 -36 -37 -38 -39 -40 -41 -42 -43 57 -45 -46 -47 47 48 -50 50 -52 -53 -54 -55 55 -57 -58 -59 -60 -61 -62 -63
leaf_value=-0.8510415675176155 -0.24454386075169354 0.19507477709195681 0.6532275230038378 -0.65204547356124276 -0.025584513384629699 1.346367076307535 0.051248340369827713 -0.1128071461096406 0.55955428248102013 0.95554659567560463 -0.22788336823052832 0.62977968622531211 -0.24865008666888991 0.18559751451015472 -0.24999722985994247 0.79010563287329161 0.83371292571226763 -0.39078560197353363 -0.51047566509246833 0.67954963252845191 -0.07740281729528746 1.0850058745145799 -0.57202628620283702 0.032155801851464355 0.4683195359728955 0.73204572480822361 0.67166153168678278 -0.54961241612392187 1.0813497009277344 0.5556876957665926 -0.013577492947595707 -0.18635571231713166 0.88919227187832195 0.86864721262958688 0.2047264803820894 0.36621368953159883 0.4187843929338701 1.5980241988758956 1.0277183912446102 -0.28676410827636717 0.0011940008531446042 1.6836633003841746 -0.43758107901908427 -0.24540283883490216 1.3682887264777877 0.47427148202570474 1.171341140985489 0.33741961434926138 0.94216741995564823 -0.13038456623618669 -0.027767396064324157 0.4612792114435717 0.15525656551122666 -0.020859280111997027 -0.19812149700522422 0.88143094016955448 0.43597808196626858 -0.19731653465144702 -0.17883967516268942 0.81807726701100669 0.27023566853740943 -0.3695501815717197
leaf_weight=207 118 54 28 81 85 20 67 20 22 35 360 28 134 24 63 47 24 60 30 108 197 30 142 46 108 63 20 452 35 239 69 37 24 142 131 28 97 28 48 50 46 22 237 41 58 41 20 101 58 37 148 131 88 92 40 39 29 509 276 21 23 515
leaf_count=207 118 54 28 81 85 20 67 20 22 35 360 28 134 24 63 47 24 60 30 108 197 30 142 46 108 63 20 452 35 239 69 37 24 142 131 28 97 28 48 50 46 22 237 41 58 41 20 101 58 37 148 131 88 92 40 39 29 509 276 21 23 515
internal_value=-0.0909156 -0.294347 0.36056 -0.458645 -0.165714 0.162245 0.439628 0.544744 0.600298 0.233148 -0.0097306 0.180956 -0.0968227 0.280075 0.333451 0.383294 -0.144126 0.223651 0.34467 0.723859 0.150797 0.512907 -0.276929 0.754732 0.21649 0.436679 0.50275 -0.644295 0.510529 0.445239 -0.233551 -0.0743941 0.236811 0.834796 0.359293 0.86754 0.681365 0.868647 0.747011 -0.0281668 0.286629 1.20176 -0.310709 0.240696 1.01354 0.760204 0.273368 0.327917 0.558019 0.226006 0.162955 0.330972 -0.0139974 0.136428 0.0405891 0.334822 -0.0337659 -0.273647 -0.0904835 0.180475 0.689354 -0.320822
internal_weight=6173 3384 2789 1486 1898 795 1994 1002 882 677 790 616 162 454 992 320 430 419 298 562 360 84 1108 542 226 109 248 659 341 306 966 121 61 433 178 70 233 136 72 72 70 42 827 651 200 61 610 518 159 359 316 168 118 120 276 79 92 746 366 90 43 600
internal_count=6173 3384 2789 1486 1898 795 1994 1002 882 677 790 616 162 454 992 320 430 419 298 562 360 84 1108 542 226 109 248 659 341 306 966 121 61 433 178 70 233 136 72 72 70 42 827 651 200 61 610 518 159 359 316 168 118 120 276 79 92 746 366 90 43 600
is_linear=0
shrinkage=0.01


Tree=11
num_leaves=63
num_cat=0
split_feature=12 13 9 6 9 69 7 7 19 0 47 63 51 47 41 29 37 28 27 43 18 30 67 69 33 17 39 48 21 4 9 32 0 69 56 66 14 58 9 35 48 66 4 18 5 63 51 19 50 33 67 54 41 55 7 68 51 67 31 46 19 53
split_gain=6.60825e+06 707964 530023 366849 336917 354976 281595 255265 266339 230468 201256 190175 199988 189034 184492 178059 164499 157510 179187 158436 156695 203130 243161 156252 153771 151045 146864 137327 134068 125155 140633 156103 124502 114385 131818 157511 112640 111606 108346 113204 106177 105646 104888 103731 115027 102641 102367 101645 101592 100027 98411.1 97124.4 105152 113192 95092.6 92044.2 91357.3 89889.5 88612.1 85426.3 86979.6 82886.3
threshold=110.44793629629628 112.03470666666665 1.5000000000000002 0.30254843000000003 4.5000000000000009 70.565662421909948 15.500000000000002 5.5000000000000009 28.691136363636371 114.84381333333319 60.79015754000001 53.967533976616856 50.727459720000006 47.939376380000006 3.5896249576000003 978.56791515151519 130.34499999999989 1245.7375636363638 54.781692673960357 3.3749862960000008 17.72666666666667 1160.2749000000001 83.875442235365071 105.90276962143889 778.57835251882454 22.742544680831376 90.475434782608644 52.330133100000005 18.688001288049211 36.493825658400006 4.5000000000000009 705.18643333333341 126.47257333333329 112.86987069254279 2.9264823600000005 227.83443676917207 115.86387999999992 384.29393720808952 4.5000000000000009 126.71130952380943 51.73491932000001 190.75026215688763 8.7942285640000026 20.170833333333338 56.514211740000015 113.17554018370073 51.317189420000005 12.565833333333336 46.148700780000006 1017.8805666666667 111.85397000058232 3.1233006900000002 18.118084529600004 0.44414895000000004 3.5000000000000004 221.1671384058987 53.654402200000007 111.48192951290727 816.61716666666678 52.214144220000001 9.7600000000000033 2.6643068200000006
decision_type=2 2 2 2 2 2 2 2 2 2 2 2 2 2 2 2 2 2 2 2 2 2 2 2 2 2 2 2 2 2 2 2 2 2 2 2 2 2 2 2 2 2 2 2 2 2 2 2 2 2 2 2 2 2 2 2 2 2 2 2 2 2
left_child=1 2 26 -3 5 -2 16 8 28 14 15 -9 13 -13 43 36 -4 19 37 56 21 29 -23 40 -12 49 -1 -25 -7 30 58 -32 -24 34 48 -36 -11 59 39 -8 -15 -33 -22 -6 -45 -16 -34 -40 -17 -21 55 52 53 -38 -44 -20 -14 -29 -5 -19 -61 -31
right_child=4 3 6 20 9 7 38 11 -10 10 24 12 17 23 45 33 -18 18 50 25 42 22 32 27 -26 -27 -28 57 -30 61 31 41 46 -35 35 -37 51 -39 47 -41 -42 -43 54 44 -46 -47 -48 -49 -50 -51 -52 -53 -54 -55 -56 -57 -58 -59 -60 60 -62 -63
leaf_value=-0.9856317438548291 -0.56541445801733059 0.92498264173143796 -0.50885020335247799 -0.57826380071514172 0.21557937313561087 0.23222321129546447 -0.084590521945535194 0.22856323300638509 1.0384402128628323 0.080603739761692633 -0.073112271642684939 1.1716316701277443 1.4941070468200222 1.1123072910876501 -0.084514306860177635 -0.50108672384321695 -0.29718679909838713 1.0775764077603818 1.1061114809679431 0.087046190956805616 0.026140665485617821 1.3703701041425977 0.85870372249966576 -0.55210716187953945 0.7732038117435418 1.1282513732910158 -0.57489662168517952 -0.17373413752425801 -0.3793052392621194 -0.45418405268236856 0.93968894089971278 -0.16708044443527859 -0.27710848355779844 -0.49230293161339234 0.097945347039595898 1.2682717273546302 -0.2323519051593283 -0.23794908706958479 0.50301243621609448 -0.42062694347017748 0.30417795828647082 0.5123365294288944 -0.563595541060948 0.26695853352546695 1.3016572111303157 0.52596462170282998 0.52003756076097485 -0.075778394093083096 0.16183184467523026 0.66074733137391339 1.4324695977710542 -0.10294474135745656 0.81925804212689401 0.53295057769649279 -0.12940948239592617 0.57028754905102741 0.93186015126380062 0.74094263655798775 0.12390416420996189 0.96260662145912645 0.3244453128312052 0.061414522406729788
leaf_weight=133 32 38 673 41 108 85 191 155 28 68 25 23 37 21 336 25 808 20 43 47 89 21 21 38 152 45 252 22 62 107 28 60 49 27 23 23 23 26 34 211 72 37 122 21 22 30 24 282 307 86 21 22 112 121 86 126 132 21 32 24 194 44
leaf_count=133 32 38 673 41 108 85 191 155 28 68 25 23 37 21 336 25 808 20 43 47 89 21 21 38 152 45 252 22 62 107 28 60 49 27 23 23 23 26 34 211 72 37 122 21 22 30 24 282 307 86 21 22 112 121 86 126 132 21 32 24 194 44
internal_value=-0.0909948 -0.294064 -0.374506 -0.0339115 0.362385 0.475354 -0.314579 0.500433 0.144562 0.256061 0.350325 0.554446 0.605059 0.319616 0.0868613 0.278831 -0.393371 0.675262 0.552667 0.835661 -0.0817932 0.0330102 0.397506 0.206993 0.653668 0.627454 -0.716787 -0.114104 -0.0257004 -0.0870958 0.0782779 0.281943 0.180163 0.136509 0.181424 0.683109 0.445422 0.384128 -0.152056 -0.260968 0.486659 0.0920786 -0.261149 0.380961 0.796339 -0.0344751 -0.0150331 -0.0135034 0.111913 0.458011 0.786847 0.534658 0.589452 0.410715 -0.384076 0.706621 1.05496 0.272968 -0.270464 0.452086 0.394702 -0.303943
internal_weight=6188 3383 2584 799 2805 1360 2199 1328 175 1445 928 1153 998 197 517 751 1481 801 454 347 761 464 115 174 177 178 385 81 147 349 198 125 94 405 378 46 346 264 718 402 93 97 297 151 43 366 73 316 332 133 190 278 256 144 208 169 169 43 73 238 218 151
internal_count=6188 3383 2584 799 2805 1360 2199 1328 175 1445 928 1153 998 197 517 751 1481 801 454 347 761 464 115 174 177 178 385 81 147 349 198 125 94 405 378 46 346 264 718 402 93 97 297 151 43 366 73 316 332 133 190 278 256 144 208 169 169 43 73 238 218 151
is_linear=0
shrinkage=0.01


Tree=12
num_leaves=63
num_cat=0
split_feature=12 9 14 3 39 17 7 45 69 12 65 0 61 57 37 4 10 37 28 5 7 17 9 42 9 9 21 7 18 6 40 56 42 20 16 53 49 9 64 53 63 69 2 19 68 35 49 36 64 1 39 13 14 43 57 51 49 14 3 36 26 46
split_gain=6.40878e+06 665750 439758 421163 349449 218242 210372 203714 197328 189760 198989 174661 155315 173532 154872 146050 145216 137598 157183 136670 143118 132501 158257 131870 131210 125463 199352 162732 157124 156193 124584 120799 119862 118091 116141 115443 113617 156092 112652 111255 109686 107563 149736 141320 107084 106016 104981 101999 100457 127294 99426.9 98876.6 98774.5 94493.6 114417 95273.5 98823.8 91292.2 98147.9 87755.6 85823.5 85517
threshold=112.70951999999993 4.5000000000000009 115.86387999999992 996.85590000000013 115.8006410256409 10.514166666666666 4.5000000000000009 2.1053177904000004 72.262779939886471 144.04910666666657 94.188012498642578 108.58217333333329 29.537478207779177 1.5939071300000001 127.50666666666663 5.5886841296000016 79.486733333333277 317.53398669219484 1384.9347575757577 88.314549260000021 16.500000000000004 8.9591666666666701 6.5000000000000009 11.481250827200002 1.5000000000000002 4.5000000000000009 17.534166666666671 9.5000000000000018 16.261034482758625 2.0478797700000002 2.2347237616000006 2.3293634000000005 12.270132723200003 23.9575 15.320833333333335 3.3370049200000005 65.712183040000014 6.5000000000000009 273.86559038125466 0.38684038000000004 114.96396438220484 104.36903262520264 40.252450980392169 22.626666666666669 144.79132971712082 264.25579213097268 55.586040020000006 130.34499999999989 230.87548480083854 18.005555555555556 175.97666666666666 114.79673333333328 111.17398769230765 25.525695043200006 0.40385204000000002 54.25565180000001 49.102100320000005 136.26521333333321 1947.9353666666668 309.37833333333327 47.311394978395207 60.237152360000003
decision_type=2 2 2 2 2 2 2 2 2 2 2 2 2 2 2 2 2 2 2 2 2 2 2 2 2 2 2 2 2 2 2 2 2 2 2 2 2 2 2 2 2 2 2 2 2 2 2 2 2 2 2 2 2 2 2 2 2 2 2 2 2 2
left_child=1 2 4 8 24 47 35 17 -2 10 11 -9 13 -7 -6 -8 23 18 34 20 48 -18 31 -10 -1 27 -27 -11 -29 -30 60 38 33 59 46 -4 37 39 41 -34 -20 42 -23 -43 -16 -44 -5 -3 -14 50 -50 -32 -53 54 -54 56 -56 58 -28 -12 -13 -42
right_child=3 5 6 7 14 12 15 9 16 25 32 30 19 -15 44 -17 21 -19 40 -21 -22 22 -24 -25 -26 26 57 28 29 -31 51 -33 36 -35 -36 -37 -38 -39 -40 -41 61 43 45 -45 -46 -47 -48 -49 49 -51 -52 52 53 -55 55 -57 -58 -59 -60 -61 -62 -63
leaf_value=-0.86311496721214898 -0.28344476718455552 -0.22489456443035086 -0.33716910791452798 -0.087891831801018935 -0.54155995592805029 -0.078895814520972121 0.76328207110103807 0.07355935459202155 0.10140828736383339 1.0002987938195467 -0.28002354123853435 0.3774513600215964 -0.35144119943616475 0.52071444631668562 -0.1483320773259264 0.0072495196110162986 0.9307365683940324 0.91523809839467529 0.15550950701571695 0.52029058968027431 -0.04027898258594579 0.78010411864993245 -0.13330439151861728 0.95890385594456762 -0.56132141765676036 0.60799773848988115 0.0012745539085906848 -0.10306415360314505 0.76182785474202208 -0.16479211852664041 0.092285782938746549 -0.11183395070426258 0.34252000294882678 0.404524325797191 1.0675196013877641 0.40839792798394742 -0.30603120309114457 -0.08382644719090955 1.0089108553799715 1.1800822330542975 0.30716430048147841 -0.34045370940532949 0.085369579694795278 0.56893314385414129 -0.41203403369588126 0.60998255536241353 0.77213088265061369 0.54842334308407525 0.85231721791354087 -0.48555659251553673 -0.098409497521140352 -0.071941905266472275 0.11000854289845416 0.12861399070076321 1.1225113150996622 1.093636493541595 0.49514865191145374 -0.36985597610473636 0.71585860614118901 0.18555773189512351 1.1203811235787968 1.1604719584921133
leaf_weight=219 88 23 214 22 316 315 38 125 29 100 129 23 674 57 335 78 22 122 121 24 258 66 156 47 421 160 57 35 136 21 73 81 29 52 67 23 20 29 22 35 24 54 141 25 285 53 40 66 22 28 22 28 38 46 30 49 154 34 29 59 48 23
leaf_count=219 88 23 214 22 316 315 38 125 29 100 129 23 674 57 335 78 22 122 121 24 258 66 156 47 421 160 57 35 136 21 73 81 29 52 67 23 20 29 22 35 24 54 141 25 285 53 40 66 22 28 22 28 38 46 30 49 154 34 29 59 48 23
internal_value=-0.0901473 -0.290438 -0.413055 0.358582 -0.484513 -0.131588 -0.0940251 0.437005 0.162725 0.383783 0.298381 0.40715 -0.162112 0.01298 -0.361382 0.254915 0.219137 0.632491 0.516346 -0.225473 -0.2433 0.168565 0.140525 0.631702 -0.664591 0.52816 0.376918 0.673187 0.502816 0.637885 0.492424 0.237171 0.109191 -0.0172494 0.778879 -0.264815 0.377738 0.524785 0.315479 0.800562 0.314759 0.270478 0.368666 -0.0526731 -0.26955 0.228692 0.466962 0.348577 -0.313513 0.0415331 0.376954 0.42664 0.497387 0.547675 0.618807 0.701787 0.597436 0.068812 0.242239 -0.13391 0.879714 0.72474
internal_weight=6160 3418 1929 2742 1576 1489 353 1958 784 1539 967 614 1400 372 936 116 696 419 297 1028 1004 620 598 76 640 572 280 292 192 157 489 442 353 240 129 237 113 93 361 64 168 339 260 79 620 194 62 89 746 72 44 418 345 317 271 233 184 120 86 188 71 47
internal_count=6160 3418 1929 2742 1576 1489 353 1958 784 1539 967 614 1400 372 936 116 696 419 297 1028 1004 620 598 76 640 572 280 292 192 157 489 442 353 240 129 237 113 93 361 64 168 339 260 79 620 194 62 89 746 72 44 418 345 317 271 233 184 120 86 188 71 47
is_linear=0
shrinkage=0.01


Tree=13
num_leaves=63
num_cat=0
split_feature=12 9 1 3 6 64 39 69 14 65 5 64 1 34 9 17 50 1 42 9 57 31 10 53 0 45 17 5 54 16 37 65 16 57 43 22 42 47 4 61 14 57 66 3 26 11 34 25 15 50 47 53 10 32 19 28 67 21 38 27 4 0
split_gain=6.2091e+06 708465 468836 437516 278718 256684 251377 246054 232749 217332 166694 165563 164644 171242 162179 189169 163588 161835 153128 165711 187457 150230 144270 143958 143003 144954 141701 137531 134175 131603 131313 197523 130797 124626 164603 122813 122772 121996 166702 121305 118122 136909 113298 113066 112963 112089 108685 108090 107673 109520 106942 106592 106710 106028 103972 102063 97503.8 97028.2 94529.8 91137.7 87503 116081
threshold=110.44793629629628 4.5000000000000009 18.164099099099101 996.85590000000013 4.9825155700000012 243.16572620341273 110.49651515151497 72.963949508714933 86.675400952380897 121.4573309103824 53.256739760000009 150.31028920493159 37.25083333333334 213.31002506265659 2.5000000000000004 11.396574074074076 55.737542140000009 16.350833333333338 1.0996098960000003 4.5000000000000009 0.18929500000000002 846.43396666666683 98.195580564971678 2.2314356600000003 109.27268000000002 1.7063759944000003 10.364230769230771 48.399728440000011 0.73590429000000013 14.226666666666668 127.50666666666663 101.77694557081513 16.261034482758625 0.39965742000000004 5.4733032904000014 41.70714285714287 4.0248418936000006 53.744450480000005 4.5434911808000011 100.19387608668875 129.07766666666657 1.4032327000000002 231.04824620020955 768.45156666666674 43.53601161690009 137.23819999999992 138.06606060606052 78.01666666666668 140.25077885057462 52.053487920000009 59.603804820000008 2.9266382500000003 132.86917600000001 1868.3283333333336 14.177500000000004 2487.3136333333337 82.644163104704276 12.492385057471266 176.91179245283016 41.81904761904763 6.5501886120000004 43.042484137931005
decision_type=2 2 2 2 2 2 2 2 2 2 2 2 2 2 2 2 2 2 2 2 2 2 2 2 2 2 2 2 2 2 2 2 2 2 2 2 2 2 2 2 2 2 2 2 2 2 2 2 2 2 2 2 2 2 2 2 2 2 2 2 2 2
left_child=1 2 4 7 30 26 -4 -2 22 12 23 -10 13 24 16 35 -13 50 -15 20 -20 -21 -9 57 25 -5 27 -3 -19 44 31 -1 59 -23 56 -16 -31 -28 -39 40 -32 54 -11 -34 51 -44 -30 55 -46 -50 -17 52 -26 -38 -42 -22 -35 -7 -36 -8 61 -45
right_child=3 5 6 9 -6 10 32 8 11 42 -12 14 -14 18 15 17 -18 28 19 21 47 33 -24 -25 29 -27 37 -29 46 36 39 -33 43 34 58 -37 53 38 -40 -41 41 -43 45 60 48 -47 -48 -49 49 -51 -52 -53 -54 -55 -56 -57 -58 -59 -60 -61 -62 -63
leaf_value=-0.50014857170672267 -0.24498708937686819 -0.21359251893391565 -0.718124609944646 0.96667772661084717 0.83897036895751953 0.47599087178707122 -0.48947576046630276 0.99637603790090801 0.99775195403532557 -0.68208770957860088 1.1532717793967042 0.225117101777013 -0.11658585908412933 -0.21276132881641388 0.94470682279178586 -0.34165603984975151 1.055581540907583 -0.23769742184877396 -0.16853236392968232 0.80073289155326 0.56966632743754109 0.47465972992777822 0.28489132571638676 0.88693560695648188 1.2343658860693587 0.08280606576707214 -0.26575115006485212 0.73281289942124317 1.0895507299332392 0.30030947778739181 -0.18502122286411507 0.51318147840421824 -0.71663541359624194 0.37451114110324696 -0.061235874474048616 0.075250811874866486 0.73274172284891681 -0.31184981867827871 0.052893231298531525 -0.82165422522503395 1.1196264605522155 -0.2361842450656389 0.52086130493217042 -0.69114871425761126 0.16973103856393532 -0.31452736361273403 0.24994635444262933 0.088915646308805871 1.0384679466969258 0.34217109881598379 0.12634751284300391 0.13084162044525147 0.41481431265672053 1.1726769715377263 0.22471602375442917 1.041739958845652 -0.3550551692114936 -0.37706926393508911 0.43876026204794893 0.17737945518995588 -0.54415687720270312 -0.21651857473212871
leaf_weight=229 131 28 447 23 25 20 32 57 22 22 21 101 50 42 33 180 31 40 36 47 384 120 57 20 47 96 765 34 21 51 252 21 147 23 55 32 252 190 368 23 20 38 36 63 129 29 58 41 37 58 67 20 24 70 37 52 90 40 121 57 266 283
leaf_count=229 131 28 447 23 25 20 32 57 22 22 21 101 50 42 33 180 31 40 36 47 384 120 57 20 47 96 765 34 21 51 252 21 147 23 55 32 252 190 368 23 20 38 36 63 129 29 58 41 37 58 67 20 24 70 37 52 90 40 121 57 266 283
internal_value=-0.0900935 -0.290658 -0.416514 0.345096 -0.196239 -0.126351 -0.526226 0.152734 0.227271 0.426764 0.360341 0.146719 0.449518 0.465087 0.113464 0.0195362 0.42015 -0.068752 0.378377 0.403999 0.527292 0.265295 0.640634 0.152197 0.573716 0.253638 -0.161842 0.305404 0.234198 0.629079 -0.237982 -0.415029 -0.425072 0.203765 0.0912831 0.516667 0.756177 -0.183739 -0.0713024 -0.118355 -0.0717387 0.228758 -0.0617956 -0.4676 0.478578 0.148149 0.473132 0.579807 0.357877 0.61336 -0.214708 0.775688 0.957334 0.82838 0.53872 0.625969 -0.206559 -0.0927159 0.282511 -0.0623887 -0.407782 -0.30294
internal_weight=6211 3426 1940 2785 645 1486 1295 830 699 1955 101 585 1868 1818 563 431 132 366 1011 969 513 456 114 80 807 119 1385 62 119 688 620 250 848 409 289 65 373 1323 558 370 347 95 87 759 315 65 79 477 224 95 247 91 71 322 57 436 113 60 176 89 612 346
internal_count=6211 3426 1940 2785 645 1486 1295 830 699 1955 101 585 1868 1818 563 431 132 366 1011 969 513 456 114 80 807 119 1385 62 119 688 620 250 848 409 289 65 373 1323 558 370 347 95 87 759 315 65 79 477 224 95 247 91 71 322 57 436 113 60 176 89 612 346
is_linear=0
shrinkage=0.01


Tree=14
num_leaves=63
num_cat=0
split_feature=12 71 37 5 3 67 56 3 1 12 40 17 24 47 48 27 41 45 33 11 23 49 21 1 15 45 28 31 20 64 54 50 37 8 25 4 2 25 11 20 24 59 21 39 54 18 0 39 8 47 2 64 35 25 21 57 18 16 27 53 37 17
split_gain=6.32983e+06 770555 572586 445192 321052 252835 243201 186597 221012 185604 177013 174736 157474 206750 181301 155160 149964 149299 148314 145543 144676 141300 132937 128602 128221 126364 126205 120569 116517 132358 170163 121484 115684 114401 110140 107132 103515 101975 112063 101899 100332 100324 108207 100197 133804 117221 100067 99101.2 187353 97455.1 97415.4 95935.6 92246 91247.2 91037.2 96568.5 89674.9 89332 88890.2 88137.1 87941.1 85417.8
threshold=112.70951999999993 -3.645035862922668 117.52191056910566 54.941054000000015 996.85590000000013 80.074071945066308 1.9445299400000002 846.59214597701168 17.830539215686279 121.51347999999992 2.9591973928000006 10.796666666666669 52.975000000000001 60.79015754000001 54.477013220000011 50.350438596491237 1.0733524384000002 1.3894296680000002 1191.7163333333335 155.22275999999994 50.924435028248588 68.626968620000014 11.475833333333336 17.508211382113824 120.91713333333328 5.4278456672000006 1294.0300066666666 1729.8276579398848 20.958333333333332 161.67585245518947 0.29039163000000007 51.915423560000008 171.65678571428563 2.5000000000000004 43.8348484848485 1.9538736712000002 41.229874213836482 46.948684210526324 115.64779487179477 13.403362068965519 54.733333333333341 9.3969247663194846 18.291666666666671 93.509047619047521 3.2171713600000005 13.89372641509434 104.59178666666661 116.79327586206897 1.5000000000000002 45.044786640000005 40.458333333333343 197.34586768449137 128.24125615763543 46.291666666666671 13.602500000000001 0.31206296000000006 14.567500000000003 19.820833333333336 48.375000000000007 0.24221900000000005 312.87166666666667 10.242500000000001
decision_type=2 2 2 2 2 2 2 2 2 2 2 2 2 2 2 2 2 2 2 2 2 2 2 2 2 2 2 2 2 2 2 2 2 2 2 2 2 2 2 2 2 2 2 2 2 2 2 2 2 2 2 2 2 2 2 2 2 2 2 2 2 2
left_child=1 3 35 7 5 47 -5 22 28 37 24 50 13 17 15 19 -15 39 23 34 21 43 33 -4 -7 -22 57 -13 29 -9 -31 -32 -26 -1 -14 -3 -37 56 58 -11 -16 42 -24 -19 45 52 -25 48 -2 -17 -12 -29 -45 -27 59 -56 -6 -18 -39 -47 -41 -10
right_child=4 2 18 6 9 10 -8 8 61 12 11 27 14 16 40 49 26 20 -20 -21 25 -23 41 46 32 53 -28 51 -30 30 31 -33 -34 -35 -36 36 -38 38 -40 60 -42 -43 -44 44 -46 54 -48 -49 -50 -51 -52 -53 -54 -55 55 -57 -58 -59 -60 -61 -62 -63
leaf_value=0.69469262865185744 0.99129534271207054 -0.77065957234994142 -0.16231417630502099 0.29497017598152164 0.78679671592265366 0.81643912958855536 1.4102999110057437 1.1189177002690054 0.34219072333403994 1.1609640860876866 1.1515124002249482 -0.015851075376819644 0.70977372773321334 1.4763843417167664 0.97922623504291884 0.33490515332955584 0.66009202430194081 1.1001750908717514 -0.12129717933449972 1.0800572720633614 0.33196192512792111 -0.12990226663242688 -0.36191246380408609 -0.41579508918935382 0.90081458528949454 -0.64267600066734076 0.33836909522041025 1.040927792787552 -0.37826668327504942 -0.15381546748768199 0.3003473463933915 1.0715582880576451 0.053085404912630717 -0.15242344422773882 0.30696209400541641 -0.31093807067943585 -0.59473776613483798 0.67459491324424747 -0.33314539751102185 0.25858842631801965 0.26607644798867991 -0.4023748654050705 0.60901961304924701 1.1007413315400481 -0.23480236158226475 0.49613398335955067 0.014698947359775673 -0.1844072699546814 -0.34600338971614841 0.9915327142153173 0.30854765575507592 0.22596199526236607 0.50544903764065274 -0.011669132137298584 -0.22403986092377456 0.51914007433455622 0.13939209528591323 1.337470341873169 -0.011404609984042597 -0.26202632485929395 0.88791994403390317 -0.25413691017313822
leaf_weight=25 22 209 370 60 40 98 29 22 28 28 26 233 113 20 22 26 88 20 564 45 74 55 24 782 22 33 114 20 22 55 64 30 60 44 170 185 421 30 58 64 191 273 22 36 33 23 58 182 20 173 29 52 94 75 20 139 46 25 51 46 34 169
leaf_count=25 22 209 370 60 40 98 29 22 28 28 26 233 113 20 22 26 88 20 564 45 74 55 24 782 22 33 114 20 22 55 64 30 60 44 170 185 421 30 58 64 191 273 22 36 33 23 58 182 20 173 29 52 94 75 20 139 46 25 51 46 34 169
internal_value=-0.0867532 -0.269614 -0.356023 -0.0115831 0.373294 0.199088 0.658392 -0.0882255 0.0662453 0.44031 0.316253 0.188229 0.474865 0.39436 0.585942 0.685452 0.646262 0.313972 -0.255224 0.551801 0.252729 0.346109 -0.243493 -0.317649 0.5723 0.0136357 0.573123 0.094673 0.306754 0.394885 0.287981 0.546478 0.280525 0.154503 0.467802 -0.575431 -0.508099 0.169856 0.00240129 0.628936 0.339735 -0.329579 0.102446 0.409809 0.374496 0.43066 -0.386071 -0.0833647 0.354486 0.905742 0.70704 0.452341 0.670299 -0.204477 0.294024 0.425658 0.440511 0.809954 0.242669 -0.00930622 0.476928 -0.16938
internal_weight=6206 3456 2589 867 2750 764 89 778 390 1986 540 360 1761 1021 740 527 247 774 1774 328 648 466 388 1210 180 182 227 305 193 171 149 94 82 69 283 815 606 225 139 126 213 319 46 411 391 358 840 224 42 199 55 72 130 108 228 159 86 113 81 69 98 197
internal_count=6206 3456 2589 867 2750 764 89 778 390 1986 540 360 1761 1021 740 527 247 774 1774 328 648 466 388 1210 180 182 227 305 193 171 149 94 82 69 283 815 606 225 139 126 213 319 46 411 391 358 840 224 42 199 55 72 130 108 228 159 86 113 81 69 98 197
is_linear=0
shrinkage=0.01


Tree=15
num_leaves=63
num_cat=0
split_feature=73 7 9 3 38 7 40 7 31 21 40 69 48 14 11 66 69 6 43 54 28 25 9 12 65 21 54 20 68 45 19 8 57 10 63 39 18 64 55 62 61 32 13 19 69 40 68 66 41 16 20 51 39 45 65 68 35 52 6 61 19 31
split_gain=6.07527e+06 1.44648e+06 597311 331852 326680 251825 214034 203671 192128 173882 166565 152368 146604 288052 138922 138893 141922 129677 153296 129024 126883 162036 157439 137898 120638 116341 143935 131562 112273 110122 197823 154108 136395 126594 106428 106384 104032 118755 99028.1 96591.7 93626.1 88630.2 88378.2 95732.1 87333.2 86319.9 86244.7 143393 197927 85327.8 85221.4 91726.2 84708.4 101401 84115.6 83808.3 117609 82657.6 82235.2 81912 120188 84486.2
threshold=-3.6738375425338741 4.5000000000000009 4.5000000000000009 996.85590000000013 126.71130952380943 8.5000000000000018 2.3940726128000001 15.500000000000002 953.46863333333351 11.381666666666669 1.2740243472000004 100.67461609483227 56.081341820000006 150.01257333333328 25.705679999999912 263.79288722008272 81.236253202620318 0.40901737000000005 15.713946212800002 0.73590429000000013 1245.7375636363638 38.81904761904763 4.5000000000000009 162.56723999999994 107.81163878520989 14.1225 0.33225530000000003 12.785833333333334 229.2015340572672 9.7479290656000028 12.077500000000002 2.5000000000000004 0.24274300000000001 107.09130666666665 122.08651093746717 89.347906602254213 21.108636363636368 214.62755906246556 1.3003531600000002 234.26608085586375 35.18684193073171 1608.0320380952382 145.08486666666667 12.883333333333335 91.558949755710373 11.115756546400002 260.4461059747394 240.96892670903247 7.1256276784000008 16.340833333333332 14.091666666666669 52.322928140000009 257.19666666666666 2.3523183024000009 81.493469789640486 159.89777966643692 132.74666666666664 0.78132853999999996 3.2134378600000004 25.016590237056366 20.349166666666672 1125.9459880952384
decision_type=2 2 2 2 2 2 2 2 2 2 2 2 2 2 2 2 2 2 2 2 2 2 2 2 2 2 2 2 2 2 2 2 2 2 2 2 2 2 2 2 2 2 2 2 2 2 2 2 2 2 2 2 2 2 2 2 2 2 2 2 2 2
left_child=1 9 4 10 35 8 29 40 45 15 -3 59 13 39 -6 16 -1 18 52 50 23 -22 25 -8 -18 28 -27 -28 -23 31 -31 32 -7 -33 -35 -2 37 -32 57 41 -4 -11 43 -24 -34 -5 47 49 -49 -14 51 -19 53 -12 -21 -9 -57 -29 -44 60 -10 -61
right_child=2 3 7 5 14 6 20 55 11 12 17 -13 46 -15 -16 -17 24 19 -20 54 21 22 42 -25 -26 26 27 38 -30 30 36 33 44 34 -36 -37 -38 -39 -40 -41 -42 -43 58 -45 -46 -47 -48 48 -50 -51 -52 -53 -54 -55 -56 56 -58 -59 -60 61 -62 -63
leaf_value=0.79097166257656437 -0.804112936680899 0.53066954589251558 -0.13351800202005573 0.81714482989123394 -0.01276922552385063 0.21937379712394131 0.39477696085086578 -0.23915020595897329 1.0474143262257178 -0.3972417062726043 0.50638169916470843 0.39563453210071781 -0.18899088664462307 0.86251929795040816 -0.39790778016083728 0.94548028571265075 -0.27261919173824639 -0.082383172739119756 0.57612473193336944 0.18521831239621667 0.8540029400892748 -0.32317032652973593 -0.34869833153374497 1.1086118683321724 0.59680501604080205 0.067577641948324732 1.3209577604134879 0.41130019251181155 0.36620015276802909 1.0754712603642391 0.39848502421379089 0.69951466301905696 1.3273428435325623 0.12679647765855875 0.90202884106408987 -0.55058994058166999 0.59300390828040339 -0.40682363223522267 0.11398551645733061 0.2691029116528672 -0.36507601194118344 0.27402912308772404 0.42662067725919606 0.073235495089259195 0.80575882313506941 0.13133676314965273 -0.67823112293525978 -0.38231613278388976 0.6452040137742695 -0.54590862129356654 -0.17083243563440109 0.86388448715209964 -0.43904606990954459 -0.14051788755825587 0.5866603606886569 0.42458588675374076 -0.034607812740716594 1.0015368937927744 -0.24415776460067087 1.5150633364531303 0.13644256523677281 0.93322065752465277
leaf_weight=22 251 118 294 24 107 30 405 88 30 109 30 71 143 34 751 21 79 21 34 97 39 42 75 29 20 61 24 49 54 26 30 116 45 113 21 486 31 47 42 43 430 24 89 190 112 78 54 37 38 126 90 20 68 126 113 84 166 46 23 31 28 128
leaf_count=22 251 118 294 24 107 30 405 88 30 109 30 71 143 34 751 21 79 21 34 97 39 42 75 29 20 61 24 49 54 26 30 116 45 113 21 486 31 47 42 43 430 24 89 190 112 78 54 37 38 126 90 20 68 126 113 84 166 46 23 31 28 128
internal_value=-0.0886235 0.270381 -0.360172 0.373339 -0.482517 0.436004 0.3845 -0.176424 0.665661 -0.12031 0.187266 0.79775 -0.193895 0.0198783 -0.349878 0.194758 0.0644674 0.119617 -0.0495376 0.2476 0.306931 0.226786 0.191589 0.442476 -0.0969779 0.355468 0.481248 0.63798 0.0646006 0.54317 0.292382 0.620071 0.837201 0.457657 0.248288 -0.636932 0.103861 -0.093067 0.518334 -0.142905 -0.271046 -0.27611 0.053358 -0.0461797 0.955257 0.292703 -0.30669 -0.248367 0.138294 -0.356172 0.0013185 0.379211 -0.144504 -0.0161141 0.401232 0.0262577 0.119681 0.697099 0.288872 0.929318 0.607635 1.04666
internal_weight=6253 3596 2657 2846 1595 2129 1739 1062 390 750 717 288 608 210 858 142 121 599 258 341 1168 734 695 434 99 318 222 161 96 571 134 437 187 250 134 737 108 77 137 176 724 133 377 265 157 102 398 344 75 269 131 41 224 156 210 338 250 95 112 217 58 159
internal_count=6253 3596 2657 2846 1595 2129 1739 1062 390 750 717 288 608 210 858 142 121 599 258 341 1168 734 695 434 99 318 222 161 96 571 134 437 187 250 134 737 108 77 137 176 724 133 377 265 157 102 398 344 75 269 131 41 224 156 210 338 250 95 112 217 58 159
is_linear=0
shrinkage=0.01


Tree=16
num_leaves=63
num_cat=0
split_feature=12 9 13 3 6 7 69 9 25 12 69 39 10 43 17 2 36 61 9 49 45 27 24 19 9 21 56 67 62 69 23 9 45 16 19 60 63 54 41 42 50 2 66 2 57 67 55 22 6 18 56 56 42 45 13 63 21 16 59 40 35 68
split_gain=5.86663e+06 699598 504718 378232 293604 267672 231261 220179 235233 251299 210884 209049 195424 176655 169560 199367 160100 184735 158679 143708 141229 158716 165917 143906 173434 158207 139944 136845 132761 173283 135523 131453 129329 128989 219849 143344 127017 126271 125185 120766 120099 118606 115950 115070 110610 109782 122375 131404 100806 100545 98632.4 98551.6 102648 98183.2 95057 94360.1 91883.4 91196.2 89044.9 86453.8 84592.2 99495.3
threshold=110.44793629629628 1.5000000000000002 112.03470666666665 996.85590000000013 0.30254843000000003 15.500000000000002 72.612545995710136 4.5000000000000009 80.421963515448837 121.51347999999992 103.06920379597211 90.475434782608644 77.178987368420962 3.7707228856000001 12.95916666666667 40.458333333333343 148.87815964523278 23.944433433630362 6.5000000000000009 104.76646096 1.1916484712000004 43.180194805194809 58.658333333333339 11.352500000000001 3.5000000000000004 19.068333333333335 2.5226119800000006 112.87847778459282 240.86088257592175 92.523881349468326 47.311394978395207 4.5000000000000009 2.1334414992000004 12.070654761904764 10.896547619047622 263.5834355587437 110.80304935750102 1.3549277600000003 3.0071898032000006 2.4358947184000006 65.207957360000009 38.505319148936174 263.79288722008272 42.870833333333344 0.72267853000000015 69.967659591301214 1.0754445000000004 44.93888888888889 0.41359451000000008 23.285000000000004 0.33887342000000004 4.9825155700000012 2.0096229824000003 3.8701407800000003 144.01771999999994 66.264778615382099 17.627500000000005 10.002631578947371 38.155651158206446 12.278920676000002 138.96076923076916 159.89777966643692
decision_type=2 2 2 2 2 2 2 2 2 2 2 2 2 2 2 2 2 2 2 2 2 2 2 2 2 2 2 2 2 2 2 2 2 2 2 2 2 2 2 2 2 2 2 2 2 2 2 2 2 2 2 2 2 2 2 2 2 2 2 2 2 2
left_child=1 11 5 6 -4 19 -2 8 9 49 42 -1 44 32 15 41 17 -6 26 31 -12 -22 23 -23 25 -25 28 40 29 30 -16 -3 36 34 -18 -36 -9 -34 -26 54 51 -14 45 -13 -8 -11 53 -48 50 59 -39 52 56 -47 -35 -44 -15 -17 -24 -5 61 -7
right_child=3 2 4 7 16 60 12 13 -10 10 20 43 14 27 18 57 33 -19 -20 -21 21 22 58 24 38 -27 -28 -29 -30 -31 -32 -33 37 39 35 -37 -38 48 -40 -41 -42 -43 55 -45 -46 46 47 -49 -50 -51 -52 -53 -54 -55 -56 -57 -58 -59 -60 -61 -62 -63
leaf_value=-0.96552309367073963 -0.25823300830313356 -0.48536201234123694 0.87226783475964453 0.40389062829124622 0.53914134499728683 -0.14741022537665807 1.0199600813057688 0.21049120802145738 -0.19729817475212943 0.063715793348494032 1.2045758249312639 -0.044503937769443426 0.59241722924179496 -0.50541655719280243 0.72954935072046345 0.69136578132708859 -0.24225957630121189 -0.37528172123275305 -0.23206341979980469 0.19996665176891146 -0.09961790895462036 -0.40544188833236694 0.54971936183817249 -0.19675061725080015 0.42826849403381345 0.64580735457249172 -0.25342613504778955 -0.13650136778089736 0.65012146062297471 -0.10620530306323757 0.035346825445184908 -0.29228829894747055 -0.2688575859665871 -0.31856563295834722 0.38740291239666769 1.3309772659483412 1.1906790566444396 0.30171725686206374 1.4625637596303767 0.20035434262639332 1.0035680348532541 1.5179431025981904 -0.16966077357530593 -0.58124414779189837 0.22799186780534941 0.77588438113153835 -0.0093242015736177564 0.72184055873807862 0.41457312903974369 -0.4968287584998391 -0.34849388788728158 1.0578102410923351 0.41466213221556708 1.1322694320744666 0.13659964967690982 0.59567501457370053 0.40033606983366471 -0.021676529629129759 1.3040057156003755 -0.3189667486009144 -0.25577944505860262 0.20148850672385274
leaf_weight=140 116 742 37 78 25 261 45 39 45 21 20 47 45 24 66 24 46 190 125 42 65 25 34 52 25 39 62 45 70 123 49 672 95 156 69 21 20 43 22 129 35 20 24 266 29 211 32 106 92 22 51 22 532 122 65 49 21 71 29 21 337 119
leaf_count=140 116 742 37 78 25 261 45 39 45 21 20 47 45 24 66 24 46 190 125 42 65 25 34 52 25 39 62 45 70 123 49 672 95 156 69 21 20 43 22 129 35 20 24 266 29 211 32 106 92 22 51 22 532 122 65 49 21 71 29 21 337 119
internal_value=-0.0849193 -0.27875 -0.221861 0.334662 0.00408502 -0.298597 0.156489 0.407713 0.509925 0.541845 0.60085 -0.644318 0.222481 0.303193 0.167448 0.450446 -0.0417392 -0.268953 0.075974 -0.376482 0.391722 0.335856 0.461102 0.292654 0.41912 0.164346 0.180041 0.396364 0.267297 0.154702 0.433759 -0.393604 0.117125 0.0587774 0.320128 0.60757 0.542758 0.0277577 0.912407 -0.0427759 0.434186 0.877194 0.715964 -0.500647 0.709594 0.771145 0.802686 0.552295 0.179255 0.114669 -0.0510569 0.400917 0.375871 0.906452 -0.184693 0.344058 -0.082732 0.15846 0.896931 0.250557 -0.140439 -0.0381498
internal_weight=6270 3364 2911 2906 738 2173 845 2061 1042 997 876 453 729 1019 655 160 701 215 495 1456 311 291 226 163 138 91 370 679 308 238 115 1414 340 486 136 90 59 281 47 350 634 65 565 313 74 492 471 138 186 121 94 599 577 333 221 73 45 95 63 99 717 380
internal_count=6270 3364 2911 2906 738 2173 845 2061 1042 997 876 453 729 1019 655 160 701 215 495 1456 311 291 226 163 138 91 370 679 308 238 115 1414 340 486 136 90 59 281 47 350 634 65 565 313 74 492 471 138 186 121 94 599 577 333 221 73 45 95 63 99 717 380
is_linear=0
shrinkage=0.01


Tree=17
num_leaves=63
num_cat=0
split_feature=12 9 1 3 69 10 53 3 1 7 9 64 24 7 7 12 64 1 69 53 69 25 52 47 67 18 58 25 17 2 9 13 68 18 14 63 61 15 55 14 47 0 4 18 17 68 19 45 4 62 52 38 40 9 68 19 2 16 18 6 46 3
split_gain=5.59932e+06 635070 451550 399671 252814 263974 235492 219173 218335 220122 231025 216208 199107 181080 173133 184502 170705 163884 153929 143014 144965 138033 160867 152147 144793 139847 132809 131993 129110 217859 152810 142380 137874 148369 127650 120962 119725 251210 118994 117300 146545 117176 121380 114700 109085 102432 109961 102145 111976 100880 100625 100203 108346 100102 158782 100088 108045 100082 99830.5 98499.2 101074 96911.2
threshold=107.59518990990986 4.5000000000000009 18.164099099099101 996.85590000000013 72.612545995710136 77.178987368420962 3.2171713600000005 900.13557448165875 36.651445823447581 3.5000000000000004 4.5000000000000009 242.29851394371164 37.907446808510649 15.500000000000002 14.500000000000002 147.09361333333331 256.41798165129023 14.177500000000004 97.599580386829771 0.19951300000000002 103.73718742580064 64.716666666666683 1.4625757000000001 59.073305340000005 108.83921431702224 14.337348484848485 212.00458828142092 51.897659242002568 12.853301886792453 40.458333333333343 6.5000000000000009 125.75067999999993 212.80495392462112 17.891403508771933 95.27422666666665 77.559084352625987 29.305560643033868 107.51841537386436 2.0368233700000005 131.24334666666667 53.613933100000004 51.10177333333332 6.5501886120000004 15.595940860215054 17.820833333333336 234.03562181433833 17.224166666666672 17.520505622400005 13.613351488000001 233.25138715530719 0.26495536000000003 182.60927927927932 4.0809650200000016 3.5000000000000004 245.51074542774191 11.415000000000001 60.725000000000001 12.400833333333335 16.505833333333339 0.85880456000000016 57.391027540000003 744.94216666666671
decision_type=2 2 2 2 2 2 2 2 2 2 2 2 2 2 2 2 2 2 2 2 2 2 2 2 2 2 2 2 2 2 2 2 2 2 2 2 2 2 2 2 2 2 2 2 2 2 2 2 2 2 2 2 2 2 2 2 2 2 2 2 2 2
left_child=1 2 6 4 -2 50 39 -4 9 -5 14 13 -13 36 15 18 -14 -17 49 44 -21 22 23 25 55 27 -23 -12 29 31 32 -7 38 61 -22 -36 37 -3 -30 59 -41 -9 -43 -28 -16 46 -19 48 -35 51 -6 -11 -53 54 -20 -24 -57 -31 -42 60 -1 -34
right_child=3 11 7 8 5 28 -8 41 -10 10 21 12 16 -15 19 17 -18 45 53 20 34 26 24 -25 -26 -27 43 -29 30 57 -32 -33 33 47 35 -37 -38 -39 -40 40 58 42 -44 -45 -46 -47 -48 -49 -50 -51 -52 52 -54 -55 -56 56 -58 -59 -60 -61 -62 -63
leaf_value=-0.054350003951248969 -0.27189007006343885 -0.17510786725064142 -0.66511489782425226 -0.27815966743893095 1.0919980243274143 0.49317244052886966 0.7638098045349121 -0.71288248613946936 -0.11068373620869165 0.093900272019432282 0.54381173001665073 1.2155551925897599 0.70144057240979418 0.0067499738264388109 0.32611617271546961 0.19843438774347305 -0.27029546399911242 0.75120593887788278 -0.17576009672433973 0.46034334420041645 0.78158836831152445 1.1915492169931532 0.10463490951352004 0.40507396644657823 -0.3327777619361878 -0.067626303015168074 -0.11718304734963636 -0.19665029410159951 0.6637565430727872 0.42702864186708317 -0.24772050526516498 1.4992845058441162 -0.51496625708682198 0.29684650451347638 0.29637570666230245 -0.38521379067500433 -0.30717426969243244 0.79434859121999435 -0.20198414707183837 -0.1940665163068061 0.94001255013048646 -0.20192417715938163 -0.48250399491043283 0.68430410849943502 1.140821641059149 0.78432943968937308 1.5281355905532836 0.71126877209416739 -0.47724868364334105 1.3053596312046052 0.35409067637992631 0.43479568118574102 1.0964664354616283 0.6881169449655633 0.75811230316162115 0.73282805333303858 -0.011438038024035367 -0.24402740312659224 -0.016602715700864794 -0.49827279182083639 -0.44050557586382022 0.046791992643300223
leaf_weight=188 131 194 554 45 42 39 25 103 83 29 89 20 29 431 27 28 48 27 67 267 20 32 41 201 20 257 26 33 77 43 121 22 56 74 46 60 690 31 20 94 24 295 323 57 42 87 56 38 25 25 33 50 49 38 25 172 22 46 20 166 106 68
leaf_count=188 131 194 554 45 42 39 25 103 83 29 89 20 29 431 27 28 48 27 67 267 20 32 41 201 20 257 26 33 77 43 121 22 56 74 46 60 690 31 20 94 24 295 323 57 42 87 56 38 25 25 33 50 49 38 25 172 22 46 20 166 106 68
internal_value=-0.0857591 -0.287509 -0.407724 0.315524 0.131484 0.206544 -0.187068 -0.515543 0.391562 0.413072 0.429504 -0.129389 0.326585 -0.162249 0.540386 0.673181 0.095683 0.907328 0.509361 0.402129 0.328407 0.319439 0.274705 0.182672 0.484036 0.0647225 0.644245 0.343523 0.139678 0.3957 0.0595047 0.856033 0.163343 0.0437064 0.0488272 -0.0894297 -0.241854 -0.0415383 0.485253 -0.226821 0.028884 -0.400615 -0.34857 0.433236 0.822024 1.02409 1.2754 0.270538 0.101368 0.724338 0.767319 0.610857 0.762289 0.256349 0.0780096 0.553552 0.648427 0.0801907 0.505187 -0.303532 -0.193576 -0.206905
