tree
version=v4
num_class=1
num_tree_per_iteration=1
label_index=0
max_feature_idx=73
objective=regression
feature_names=NO2_quantrac PM25_quantrac O3_quantrac CO_quantrac NO2_cmaq O3_cmaq SO2_cmaq hour dayofweek month NO2_quantrac_lag3 NO2_quantrac_lag6 NO2_quantrac_lag12 NO2_quantrac_lag24 NO2_quantrac_lag48 NO2_quantrac_lag71 PM25_quantrac_lag3 PM25_quantrac_lag6 PM25_quantrac_lag12 PM25_quantrac_lag24 PM25_quantrac_lag48 PM25_quantrac_lag71 O3_quantrac_lag3 O3_quantrac_lag6 O3_quantrac_lag12 O3_quantrac_lag24 O3_quantrac_lag48 O3_quantrac_lag71 CO_quantrac_lag3 CO_quantrac_lag6 CO_quantrac_lag12 CO_quantrac_lag24 CO_quantrac_lag48 CO_quantrac_lag71 SO2_quantrac_lag3 SO2_quantrac_lag6 SO2_quantrac_lag12 SO2_quantrac_lag24 SO2_quantrac_lag48 SO2_quantrac_lag71 NO2_cmaq_lag3 NO2_cmaq_lag6 NO2_cmaq_lag12 NO2_cmaq_lag24 NO2_cmaq_lag48 NO2_cmaq_lag71 O3_cmaq_lag3 O3_cmaq_lag6 O3_cmaq_lag12 O3_cmaq_lag24 O3_cmaq_lag48 O3_cmaq_lag71 SO2_cmaq_lag3 SO2_cmaq_lag6 SO2_cmaq_lag12 SO2_cmaq_lag24 SO2_cmaq_lag48 SO2_cmaq_lag71 SO2_quantrac_roll3_mean SO2_quantrac_roll3_std SO2_quantrac_roll6_mean SO2_quantrac_roll6_std SO2_quantrac_roll12_mean SO2_quantrac_roll12_std SO2_quantrac_roll24_mean SO2_quantrac_roll24_std SO2_quantrac_roll48_mean SO2_quantrac_roll48_std SO2_quantrac_roll71_mean SO2_quantrac_roll71_std station_emb_0 station_emb_1 station_emb_2 station_emb_3
feature_infos=[0.34525333333327057:217.25850666666656] [5.7733333333333317:111.06166666666668] [1.0666666666666669:119.9245283018868] [3.648909090908997:3382.677733333333] [0.155364:79.970357297599989] [33.276389999999999:206.91072220000001] [8.2792000000000003e-06:22.219934420000001] [0:23] [0:6] [1:8] [0.34525333333327057:217.25850666666656] [0.34525333333327057:217.25850666666656] [0.34525333333327057:217.25850666666656] [0.34525333333327057:217.25850666666656] [0.34525333333327057:217.25850666666656] [0.34525333333327057:217.25850666666656] [5.5933333333333337:111.06166666666668] [5.5933333333333337:111.06166666666668] [5.5933333333333337:111.06166666666668] [5.5933333333333337:111.06166666666668] [5.5933333333333337:111.06166666666668] [5.5933333333333337:111.06166666666668] [1.0666666666666669:119.9245283018868] [1.0666666666666669:119.9245283018868] [1.0666666666666669:119.9245283018868] [1.0666666666666669:119.9245283018868] [1.0666666666666669:119.9245283018868] [1.0666666666666669:119.9245283018868] [3.648909090908997:3382.677733333333] [3.648909090908997:3382.677733333333] [3.648909090908997:3382.677733333333] [3.648909090908997:3382.677733333333] [3.648909090908997:3382.677733333333] [3.648909090908997:3382.677733333333] [3.334545454545264:646.06818181818187] [3.334545454545264:646.06818181818187] [3.334545454545264:646.06818181818187] [3.334545454545264:646.06818181818187] [3.334545454545264:646.06818181818187] [3.334545454545264:646.06818181818187] [0.155364:79.970357297599989] [0.155364:79.970357297599989] [0.155364:79.970357297599989] [0.155364:79.970357297599989] [0.155364:79.970357297599989] [0.155364:79.970357297599989] [33.276389999999999:206.91072220000001] [33.276389999999999:206.91072220000001] [33.276389999999999:206.91072220000001] [33.276389999999999:206.91072220000001] [33.276389999999999:206.91072220000001] [33.276389999999999:206.91072220000001] [8.2792000000000003e-06:22.219934420000001] [8.2792000000000003e-06:22.219934420000001] [8.2792000000000003e-06:22.219934420000001] [8.2792000000000003e-06:22.219934420000001] [8.2792000000000003e-06:22.219934420000001] [8.2792000000000003e-06:22.219934420000001] [6.1643722943721748:465.87481481481501] [0:273.57594388115052] [21.131075036074908:438.45764338380792] [0:204.41551784716006] [53.735992063491956:398.77159946968169] [0:160.84216826874314] [68.03573117750669:343.75878145865772] [19.08857856075311:139.03061805946939] [76.315835545075444:325.01675815216589] [23.609914938595523:125.71833290291137] [83.626796689546197:298.54559673954691] [30.611718930237313:119.97800104556202] [-3.9687585830688477:-2.493278980255127] [-3.812009334564209:-3.4780623912811279] [3.4265148639678955:5.4187793731689453] [-4.117218017578125:-3.230457067489624]
tree_sizes=5144 5278 5292 5296 5289 5308 5281 5316 5303 5306 5282 5310 5305 5310 5311 5316 5304 5315 5314 5299 5302 5305 5323 5319 5310 5304 5316 5336 5354 5304 5292 5326 5319 5315 5309 5308 5328 5322 5338 5310 5354 5313 5332 5319 5350 5311 5341 5334 5345 5318 5344 5330 5335 5323 5331 5363 5337 5346 5332 5328 5350 5351 5333 5344 5330 5356 5342 5313 5349 5359 5337 5343 5361 5348 5329 5336 5339 5363 5359 5343 5365 5335 5364 5333 5398 5338 5355 5345 5343 5359 5368 5356 5378 5344 5341 5337 5349 5382 5388 5355 5378 5359 5368 5379 5401 5372 5363 5399 5332 5355 5359 5355 5372 5353

Tree=0
num_leaves=63
num_cat=0
split_feature=73 7 9 9 37 7 69 47 46 45 61 69 7 68 35 63 16 23 19 32 19 60 18 61 5 39 12 52 18 30 35 64 67 64 26 37 62 51 16 17 49 58 49 47 21 54 62 49 33 68 66 19 26 11 45 16 64 44 24 21 6 12
split_gain=7.47765e+06 739115 634094 485871 365036 300794 277326 253130 336191 198613 213216 192876 165478 163176 160633 158703 187649 165942 222393 187399 156571 144429 140999 132580 129603 122648 121204 120684 120323 108743 124149 120925 113576 181581 157559 132867 188046 119188 107124 105715 118510 105549 188810 109526 230851 155236 104935 108013 137476 103727 100758 119547 113553 99929.9 99886 116035 99464 109711 98641.2 109371 97386 95421.8
threshold=-3.6738375425338741 4.5000000000000009 4.5000000000000009 4.5000000000000009 125.80678571428562 20.500000000000004 108.44166864684762 59.148316500000014 48.290503520000009 1.6506436320000002 43.240666524180334 87.633627308887029 15.500000000000002 191.41661577529035 107.88257062146884 88.510250989079239 23.3204460043615 52.975000000000001 15.354166666666668 762.62200000000018 27.031920903954802 229.17790880503139 28.297500000000003 70.779724580838945 93.156580300000016 130.34499999999989 140.2827066666666 2.0771491000000002 11.362175141242941 651.4866545454546 217.56076923076918 250.82145619543391 87.276249124930345 187.52215314490672 52.622650231124815 202.18078616352196 196.69472625190801 59.232998300000013 13.920833333333336 15.590833333333334 53.659112080000007 374.44166666666689 62.655682600000013 50.99472140000001 16.995833333333334 2.5268825800000001 168.40660359808368 53.337895520000011 1468.7094904761905 148.53826087712716 198.33498561205192 21.874166666666671 42.958333333333343 138.90169333333321 50.106384319200011 11.415000000000001 189.8122334442148 1.4686568336000003 58.300000000000004 12.960000000000004 1.4189330500000004 68.549906666666644
decision_type=2 2 2 2 2 2 2 2 2 2 2 2 2 2 2 2 2 2 2 2 2 2 2 2 2 2 2 2 2 2 2 2 2 2 2 2 2 2 2 2 2 2 2 2 2 2 2 2 2 2 2 2 2 2 2 2 2 2 2 2 2 2
left_child=1 15 4 5 22 6 13 8 26 -8 -11 38 -4 -3 -12 17 54 46 19 -19 -20 28 -2 60 29 -6 -5 -21 -9 56 31 32 35 -34 -35 -31 37 -37 -7 40 -30 43 -43 44 45 58 -1 48 -48 -27 -32 52 -52 -28 55 -17 -15 -58 59 -10 -23 -14
right_child=2 3 12 7 25 11 9 21 41 10 14 -13 61 24 -16 16 -18 18 20 27 -22 23 -24 -25 -26 49 53 -29 39 30 50 -33 33 34 -36 36 -38 -39 -40 -41 -42 42 -44 -45 -46 -47 47 -49 -50 -51 51 -53 -54 -55 -56 -57 57 -59 -60 -61 -62 -63
leaf_value=192.80926459397483 191.71879377333602 192.39598724531217 192.00803366148909 192.64560057052921 191.76117291774577 193.54443814907364 193.38366834356594 192.40543017208986 192.37402006522979 193.03058072963415 192.9049344825342 192.29929829004132 192.04975105697866 193.87201809841699 191.9652309978672 192.48651215107407 192.96583355360565 193.45369555639488 192.17052870362923 192.35794065540483 192.98863449604477 192.04794797798829 191.42944169284939 192.84921488458411 193.74681853967436 192.11556978491853 193.45185393178295 193.14393588726881 193.07014043260054 192.22641224798227 193.38699914933409 193.37186067283955 193.98676686218047 193.20736744029168 192.65252956930817 192.20224985425835 193.71727356120746 193.15906853495594 192.54592030815871 193.2277505638225 192.42471058560574 193.46369300922913 192.14811014867985 192.27242444192277 192.19535208369277 192.12193168820107 192.09632791482571 191.58082506102863 192.79962184828824 191.82818016849066 193.12658457760512 192.96018431838999 192.41528696055286 192.74499512541126 192.65113499241599 191.82472841253329 193.41704624864261 192.75524932266438 193.35375954796041 193.0198224811005 192.76030783339363 192.40710118895791
leaf_weight=27 437 49 714 131 328 22 23 40 46 38 23 154 116 21 87 32 23 41 121 56 29 61 274 72 22 332 45 30 66 40 24 84 20 131 84 30 22 23 21 107 50 24 20 505 131 32 135 29 35 202 27 113 133 36 22 154 55 46 35 61 28 210
leaf_count=27 437 49 714 131 328 22 23 40 46 38 23 154 116 21 87 32 23 41 121 56 29 61 274 72 22 332 45 30 66 40 24 84 20 131 84 30 22 23 21 107 50 24 20 505 131 32 135 29 35 202 27 113 133 36 22 154 55 46 35 61 28 210
internal_value=192.215 192.608 191.902 192.682 191.775 192.824 192.889 192.559 192.477 192.519 192.385 192.465 192.093 192.958 192.162 192.326 192.109 192.425 192.589 192.897 192.329 192.766 191.607 192.53 192.989 191.913 192.834 192.632 192.91 192.969 192.923 193.031 192.949 193.075 192.991 192.692 192.94 192.617 193.057 193.001 192.792 192.389 192.866 192.363 192.512 192.751 192.224 192.145 192.241 192.007 192.766 192.711 192.535 193.138 192.014 191.939 193.246 193.116 192.893 192.742 192.272 192.28
internal_weight=6129 3516 2613 2782 1573 1292 1095 1490 1066 171 148 197 1040 924 110 734 231 503 277 127 150 424 711 161 875 862 212 86 263 853 731 434 350 235 215 115 75 53 43 223 116 854 44 810 305 174 226 199 170 534 297 273 160 81 208 186 122 101 142 107 89 326
internal_count=6129 3516 2613 2782 1573 1292 1095 1490 1066 171 148 197 1040 924 110 734 231 503 277 127 150 424 711 161 875 862 212 86 263 853 731 434 350 235 215 115 75 53 43 223 116 854 44 810 305 174 226 199 170 534 297 273 160 81 208 186 122 101 142 107 89 326
is_linear=0
shrinkage=1


Tree=1
num_leaves=63
num_cat=0
split_feature=71 7 9 44 39 28 62 31 7 9 68 9 50 57 11 47 51 8 16 45 19 55 28 15 20 65 69 13 69 68 60 51 64 59 16 67 18 14 16 51 40 43 49 2 25 20 46 56 0 51 47 3 50 7 44 65 27 36 67 66 6 0
split_gain=8.01462e+06 843428 716007 417688 364081 347041 216486 204796 188197 182847 179690 339426 203954 188060 182398 171615 166644 175473 238904 223431 177472 173567 170026 163687 151414 150323 168138 170346 147768 219068 145948 142763 140378 139560 138924 217475 137833 133338 130391 134100 128088 125117 121668 119420 140584 118163 120012 115341 112073 111825 110993 107630 106639 106286 104417 102881 102174 95190.9 94356.9 148133 124670 93347.5
threshold=-3.645035862922668 4.5000000000000009 4.5000000000000009 2.0930958224000005 107.88257062146884 945.63216666666688 163.6780604667762 549.22163333333344 15.500000000000002 1.5000000000000002 231.61960121512249 6.5000000000000009 53.023588940000003 0.33502333000000001 131.61998666666656 68.033372820000011 50.759054920000004 1.5000000000000002 21.550833333333333 20.151641100800003 16.064166666666669 2.2599216100000006 1918.4026528780266 90.095426666666654 11.577500000000002 83.608603738657862 69.992664919216224 126.9433733333333 59.41744667717419 170.78116691482816 99.593751051707713 51.609778220000003 225.23019442055582 51.229766087044176 14.134166666666667 87.544349874224324 22.181151560936886 128.54409333333322 18.675000000000001 56.01180200000001 14.412968565600002 26.771643703200002 66.383736860000013 53.95539215686275 43.53601161690009 23.16 57.910338360000004 3.5760497900000003 38.15049333333328 50.595587000000002 61.113416420000014 1155.4965666666669 52.619446740000008 20.500000000000004 3.3825473440000002 103.30308177014645 38.32500000000001 128.86033333333327 98.895648999512986 213.23844277416671 1.3989516200000003 130.23897333333329
decision_type=2 2 2 2 2 2 2 2 2 2 2 2 2 2 2 2 2 2 2 2 2 2 2 2 2 2 2 2 2 2 2 2 2 2 2 2 2 2 2 2 2 2 2 2 2 2 2 2 2 2 2 2 2 2 2 2 2 2 2 2 2 2
left_child=1 6 4 31 9 28 -1 -7 -4 -2 11 13 45 57 41 51 17 19 20 -8 21 -19 -20 -18 -21 26 27 -13 -5 -30 61 -3 49 38 35 37 52 -25 42 -40 -37 -15 -33 44 56 46 47 -12 -6 -16 -10 -14 -34 -47 -36 -35 -32 -9 59 60 -45 -31
right_child=2 3 8 5 48 7 16 10 50 -11 12 25 15 14 32 -17 23 18 22 24 -22 -23 -24 34 -26 -27 -28 -29 29 30 43 33 36 55 54 40 -38 -39 39 -41 -42 -43 -44 58 -46 53 -48 -49 -50 -51 -52 -53 -54 -55 -56 -57 -58 -59 -60 -61 -62 -63
leaf_value=0.75684903407620407 -1.0340581364976777 0.043938169131676356 -0.31233988999066059 1.2159816788509488 -0.71700923694255647 1.2179806244657154 1.3026852645538747 0.60928836572105471 -0.1435049269175043 -0.63852592553985255 -0.18813200943588471 -0.12892255008220674 -0.20761796145603575 0.48621866800671842 0.60439958251516024 0.82873180916968803 0.56082246003327552 -0.23798505081733068 1.0605174997647604 0.89956781366219118 -0.51046489124712735 0.61894030629060204 -0.082283737555794101 0.048531116008758542 -0.026110828375416017 0.37648546148901402 -0.30028680981491968 0.98557541886965438 -0.2961350038307054 0.53397214837074281 1.2753896427452565 0.47794352993715644 -0.26447123053173227 0.73722689311869827 -0.017577342615937287 -0.7231572835104807 1.1204691853890052 1.2032530193328856 1.2937733540986036 0.60516518093148874 0.1595400890227287 -0.11361450616179443 -0.25601300601775828 0.54112992479883393 0.23858361331392844 0.65555823736531393 -0.63789949218432107 0.46919775053858759 -0.40603661961183696 1.3609963158198768 0.24640133302085676 0.28057174417902442 0.61733037739992147 -0.25828093433380128 -0.53175433791260562 1.2427839206080689 0.51592341916022766 -0.13633187742375616 1.0667003532250723 0.11207641100396915 1.3637407620747886 1.3440714367953215
leaf_weight=37 174 39 689 28 133 21 24 23 245 356 161 32 58 229 30 47 27 60 30 24 92 39 23 20 67 92 139 24 35 25 20 172 24 137 53 35 26 20 37 120 31 41 26 58 269 35 48 32 901 56 104 204 32 20 155 57 155 67 48 49 27 33
leaf_count=37 174 39 689 28 133 21 24 23 245 356 161 32 58 229 30 47 27 60 30 24 92 39 23 20 67 92 139 24 35 25 20 172 24 137 53 35 26 20 37 120 31 41 26 58 269 35 48 32 901 56 104 204 32 20 155 57 155 67 48 49 27 33
internal_value=-0.101441 0.3121 -0.42013 0.391937 -0.55527 0.328348 0.0113806 0.237672 -0.216508 -0.76838 0.223174 0.320095 0.0926116 0.470554 0.556103 0.272315 -0.0280228 0.122352 -0.0294271 0.444388 -0.194258 0.0995916 0.564585 -0.186335 0.218024 0.043293 -0.113906 0.348719 0.503268 0.475513 0.514998 0.628557 0.814805 0.670088 -0.250582 0.0440653 0.518774 0.625892 0.552224 0.767449 -0.308557 0.395133 0.381565 0.470535 0.382106 -0.0949837 -0.190432 -0.0791447 -0.446036 1.09707 -0.0273151 0.172499 0.239415 0.323253 -0.400738 0.885767 0.60272 0.0542155 0.686263 0.549987 0.80243 0.994891
internal_weight=6115 3513 2602 2776 1564 2188 737 1441 1038 530 1420 815 605 528 438 309 700 359 244 115 191 99 53 341 91 287 195 56 747 719 684 588 168 549 314 106 82 40 355 157 66 270 198 626 444 296 241 193 1034 86 349 262 56 55 208 194 175 90 182 134 85 58
internal_count=6115 3513 2602 2776 1564 2188 737 1441 1038 530 1420 815 605 528 438 309 700 359 244 115 191 99 53 341 91 287 195 56 747 719 684 588 168 549 314 106 82 40 355 157 66 270 198 626 444 296 241 193 1034 86 349 262 56 55 208 194 175 90 182 134 85 58
is_linear=0
shrinkage=0.01


Tree=2
num_leaves=63
num_cat=0
split_feature=73 7 9 44 37 68 9 10 69 0 60 12 1 7 38 66 55 18 4 22 65 39 61 24 36 59 4 22 9 18 68 24 7 20 62 46 44 48 68 57 61 10 39 54 39 63 62 51 38 20 32 1 20 51 22 37 39 67 18 66 21 24
split_gain=7.34064e+06 929125 676615 436089 385108 253686 411929 227744 222164 206586 205286 320385 191494 189099 162245 160359 159508 155768 151219 150494 146998 141828 140905 140843 144625 176808 135907 135753 127491 125690 125603 122395 121783 120033 135633 119685 115970 115122 114917 110648 109767 109588 108917 107206 154702 151869 207321 142652 106190 105274 103260 111586 101981 99866.3 97878.5 96358.4 95593.2 95306.8 94924.6 94573 91260.1 88491.7
threshold=-3.6738375425338741 3.5000000000000004 4.5000000000000009 2.0930958224000005 125.80678571428562 243.3369616671142 6.5000000000000009 89.218251929824461 57.406488674474012 136.07689333333323 279.13916666666665 133.33055999999996 10.26 15.500000000000002 230.96034549013535 284.40983843169931 4.3301159200000017 17.65666666666667 27.823401487200005 58.117545558984844 76.093141071686077 158.96146892655358 63.110480808047164 58.117545558984844 141.69833333333327 45.591766566661228 7.0631054384000009 46.991666666666667 2.5000000000000004 26.23516809312936 223.24601684295681 63.319350282485885 19.500000000000004 9.7941666666666691 211.49912356321832 52.584313740000006 5.1570226752000012 50.616169940000006 213.67025541266187 0.27444369000000007 50.501508623303963 135.66886666666656 231.92458333333326 0.24981700000000004 333.17666666666668 74.232288063805171 222.19245083666297 52.651441780000006 198.76130952380944 14.510000000000003 1053.4313666666669 16.243981481481487 17.415047169811324 44.908230500000009 36.182575757575762 297.05313303227393 103.15607843137245 91.09589665260377 14.735282485875709 269.41101305836474 10.100000000000003 40.234848484848492
decision_type=2 2 2 2 2 2 2 2 2 2 2 2 2 2 2 2 2 2 2 2 2 2 2 2 2 2 2 2 2 2 2 2 2 2 2 2 2 2 2 2 2 2 2 2 2 2 2 2 2 2 2 2 2 2 2 2 2 2 2 2 2 2
left_child=1 17 4 23 29 6 10 14 -9 15 11 12 -5 -4 -8 -7 54 19 32 43 28 -6 26 24 42 48 31 -25 -13 -2 33 -22 50 -14 37 -28 -34 39 52 -35 57 -36 55 56 45 46 47 -45 -26 -48 59 -52 -30 -42 -10 58 -1 -19 -3 -11 -12 -62
right_child=2 3 13 5 21 9 7 8 16 18 60 20 30 -15 -16 -17 -18 40 -20 -21 22 -23 -24 27 25 -27 35 -29 38 -31 -32 -33 36 34 41 -37 -38 -39 -40 -41 53 -43 -44 44 -46 -47 49 -49 -50 -51 51 -53 -54 -55 -56 -57 -58 -59 -60 -61 61 -63
leaf_value=0.36108360041689597 -0.58900784316629839 0.38334625456320104 -0.30284641688524022 -0.13619055351806464 -0.49535151997473253 -0.23025848979802477 0.30419260840991447 0.81533445344652455 0.58222060236063866 -0.34948806629294438 -0.22610061743855475 0.99584086090326307 1.221069965364489 -0.017830314439569794 1.2311121921879906 0.53379810780286785 0.62693199819988676 -0.25116623854314957 -0.36787398645954744 0.88984365145365407 1.3145048425019346 -0.22706085299015771 0.55712539346090384 0.32166715047359468 -0.30438996074972929 0.65646396589279177 0.98795319519042968 1.1801231560025895 0.25358310320438482 -0.85703788050264129 0.19260699236622222 0.54956104938800521 0.51827790841034482 0.038524577907694042 1.4404057162676167 0.25407123438641427 -0.2292074715214617 0.18683552617304613 -0.11147143353807165 0.90709864113547578 0.24731221096082168 0.57412476840615267 0.93046631887678277 0.33837588477465846 0.96366900512150355 -0.23403419708428175 0.36394115226609364 -0.66983019818430367 0.30604980958565586 1.3652437555222283 0.27058217788997452 0.94200622464569517 1.1318752174377442 -0.47099599167426925 -0.10315861748862387 -0.050052572774887089 -0.3726874524095784 0.50730291382471715 1.0654873348684872 0.61135134196281438 0.79783643404642746 0.21855675394381952
leaf_weight=22 386 51 720 71 518 194 58 35 22 21 40 30 24 344 28 32 36 37 31 21 107 318 140 25 37 135 50 70 39 320 156 26 35 20 23 40 51 135 47 55 22 40 121 36 21 92 21 23 124 21 38 71 20 161 394 25 92 30 34 20 30 218
leaf_count=22 386 51 720 71 518 194 58 35 22 21 40 30 24 344 28 32 36 37 31 21 107 318 140 25 37 135 50 70 39 320 156 26 35 20 23 40 51 135 47 55 22 40 121 36 21 92 21 23 124 21 38 71 20 161 394 25 92 30 34 20 30 218
internal_value=-0.0986192 0.292246 -0.404678 0.364064 -0.538526 0.302379 0.355225 0.131562 0.0477836 0.100426 0.452982 0.519377 0.346681 -0.210698 0.60598 -0.122073 -0.0116506 -0.0673222 0.288758 0.069162 0.700725 -0.393298 0.805781 0.599796 0.535906 0.389562 0.961888 0.954214 0.420318 -0.710495 0.422363 1.16497 0.375011 0.543043 0.483436 0.661783 0.0750017 0.361351 0.257435 0.675479 -0.257854 0.890386 0.72343 0.0166183 0.148571 0.0598817 0.327607 -0.0546536 0.165762 0.864592 0.547016 0.707932 0.551309 -0.384642 -0.0669126 0.49569 -0.231083 0.0884468 0.656203 0.119214 0.21714 0.288631
internal_weight=6204 3598 2606 2999 1542 2377 1884 573 487 493 1311 1023 524 1064 86 226 452 599 267 349 499 836 363 622 527 296 223 95 136 706 453 133 236 297 273 90 86 210 106 75 250 63 231 328 214 193 101 59 161 42 150 109 59 183 416 110 114 67 85 41 288 248
internal_count=6204 3598 2606 2999 1542 2377 1884 573 487 493 1311 1023 524 1064 86 226 452 599 267 349 499 836 363 622 527 296 223 95 136 706 453 133 236 297 273 90 86 210 106 75 250 63 231 328 214 193 101 59 161 42 150 109 59 183 416 110 114 67 85 41 288 248
is_linear=0
shrinkage=0.01


Tree=3
num_leaves=63
num_cat=0
split_feature=73 48 9 9 37 3 4 7 67 35 30 9 27 44 21 13 22 23 69 36 68 44 20 8 41 18 65 60 64 40 64 30 38 24 44 68 54 64 18 5 12 68 54 44 8 21 27 3 18 9 12 49 51 3 69 63 63 4 58 61 32 14
split_gain=7.57126e+06 874835 607595 410026 357155 354575 250395 196069 194224 191363 187856 192489 164817 164383 193041 177693 157503 157431 150885 167704 147637 156147 140773 207966 140184 140171 131270 334311 139034 171907 132931 131098 129444 128621 126829 159104 124946 123214 161549 122595 119366 119151 112743 104805 101266 183154 101823 101092 99966.8 98646.3 97899.2 96890.6 118045 104942 100051 127753 94904.7 98017.1 94856.2 147476 94456.6 94333.1
threshold=-3.6738375425338741 54.959785720000006 4.5000000000000009 4.5000000000000009 124.9022619047618 1049.7042666666669 6.3559581888000016 4.5000000000000009 109.20766665099497 265.61329214567428 1632.0875333333333 1.5000000000000002 72.102640260608268 1.9964669472000003 17.895789473684214 82.928402051281992 42.958333333333343 50.171052631578952 105.16463329824305 186.14353070175423 245.16673673529883 4.9081408464000011 12.068988095238096 1.5000000000000002 3.6456398000000005 27.605111212199272 73.756409571017159 249.08415389895782 265.84653556240676 5.2095244080000009 221.15060910177425 1783.8474000000003 206.10666666666665 61.526190476190486 5.249209081600001 250.98080789501728 0.27461399000000003 263.81933862479644 11.645000000000003 54.212240740000006 89.917325581395346 225.91842594371209 0.55650503000000018 21.556600577600005 5.5000000000000009 15.415203252032523 40.391666666666673 786.23820980392168 12.099166666666669 6.5000000000000009 140.2827066666666 57.145899160000006 57.722767340000011 732.94797123118235 103.73718742580064 78.758962767485116 47.140767174516462 9.982208561600002 356.2549762347071 48.913065433996316 1408.0792666666669 118.06094666666657
decision_type=2 2 2 2 2 2 2 2 2 2 2 2 2 2 2 2 2 2 2 2 2 2 2 2 2 2 2 2 2 2 2 2 2 2 2 2 2 2 2 2 2 2 2 2 2 2 2 2 2 2 2 2 2 2 2 2 2 2 2 2 2 2
left_child=1 3 4 9 25 22 13 17 26 10 11 -1 16 15 31 -5 39 -8 19 32 61 -22 23 40 47 -2 44 28 29 30 -28 41 -11 42 -29 58 -31 38 -9 -13 -3 49 56 -38 46 -46 -7 -4 -25 -15 -33 53 -53 -18 55 -55 57 -24 59 60 -36 -12
right_child=2 5 24 6 -6 8 7 37 -10 18 20 12 -14 14 -16 -17 51 -19 -20 -21 21 -23 33 48 -26 -27 27 34 -30 36 -32 50 -34 -35 35 -37 43 -39 -40 -41 -42 -43 -44 -45 45 -47 -48 -49 -50 -51 -52 52 -54 54 -56 -57 -58 -59 -60 -61 -62 -63
leaf_value=0.95174875195963038 -0.58059850402907187 1.3256633039173624 -0.33979053934803233 1.0796234853791171 -0.3946823324706501 0.50066946405917412 -0.23274980994604402 0.046295959888878517 -0.12366681477715892 1.1602171156307062 0.50509022498130796 0.34597861442030692 -0.41220612907409665 0.55484996047319779 -0.13557165658674561 0.2539719614063401 0.081745836612505798 0.67779193786904213 0.014214306744662198 0.093525247314701923 1.0334642517155614 -0.013487614563533239 0.75737808956341313 -0.5560857304079192 -0.30436478760721491 -0.86672572521094626 1.4737157813166126 0.55880038229512496 1.4067743602165808 1.0952364544868469 0.47019624861803921 0.049008113354444501 0.50923826126115668 -0.50184003654453491 0.13684182317360588 -0.40528354557055346 0.025561474053697155 1.0559600958532216 0.6308377523832962 0.94651138486088937 0.24620164942741393 -0.14427094623122527 0.48711002327501773 0.85189154016971591 -0.15313469457626344 1.1690939253026789 -0.12457152352801391 0.038770262217079118 0.16381759064812815 0.1079622893255265 0.87924305409801251 -0.17250563364604424 0.50583357159210285 0.52810674127605228 0.3053862427246003 1.4116863571008045 -0.21277837412574077 -0.081354181766510006 0.71216630972921846 -0.10550412641330199 1.0533725773204456 1.2550037577519051
leaf_weight=105 418 21 96 38 862 32 59 59 124 42 20 49 20 83 208 83 39 28 88 69 29 28 22 28 694 290 33 71 26 20 22 20 112 90 23 53 66 49 238 111 20 92 32 20 20 22 140 266 62 122 49 58 46 36 42 30 275 38 32 99 22 104
leaf_count=105 418 21 96 38 862 32 59 59 124 42 20 49 20 83 208 83 39 28 88 69 29 28 22 28 694 290 33 71 26 20 22 20 112 90 23 53 66 49 238 111 20 92 32 20 20 22 140 266 62 122 49 58 46 36 42 30 275 38 32 99 22 104
internal_value=-0.0964699 0.300808 -0.406623 0.427554 -0.531374 0.107414 0.295904 0.484662 0.241149 0.572012 0.661869 0.567808 0.474272 0.178303 0.107692 0.513267 0.51741 0.0602981 0.364849 0.503215 0.940414 0.519172 -0.0802245 0.208773 -0.221152 -0.697798 0.305681 0.396393 0.72825 0.618674 1.07231 0.24594 0.686778 -0.163066 0.189536 0.0750478 0.383298 0.591367 0.514717 0.762598 0.799097 0.154717 -0.0799882 0.217731 0.0992466 0.539461 -0.00824762 -0.0616216 -0.0601523 0.288897 0.638595 0.361115 0.127529 0.526372 0.686932 0.929734 -0.134159 0.226181 0.219693 0.110255 0.584924 1.13405
internal_weight=6195 3569 2626 2156 1570 1413 1128 433 825 1028 717 536 431 695 574 121 411 87 311 223 181 57 588 131 1056 708 701 487 187 161 55 366 154 457 300 229 106 346 297 160 41 297 367 86 214 42 172 362 90 205 69 251 104 147 108 66 335 60 176 144 45 124
internal_count=6195 3569 2626 2156 1570 1413 1128 433 825 1028 717 536 431 695 574 121 411 87 311 223 181 57 588 131 1056 708 701 487 187 161 55 366 154 457 300 229 106 346 297 160 41 297 367 86 214 42 172 362 90 205 69 251 104 147 108 66 335 60 176 144 45 124
is_linear=0
shrinkage=0.01


Tree=4
num_leaves=63
num_cat=0
split_feature=71 7 9 9 7 39 67 69 27 62 9 68 67 68 25 18 9 44 7 47 65 22 67 20 19 52 27 63 68 45 63 67 11 67 21 50 23 32 42 50 10 40 25 48 7 64 68 37 20 47 8 60 43 11 64 11 12 9 0 2 56 55
split_gain=7.10789e+06 837923 672873 423527 425201 408090 287305 253535 243337 285097 235183 287811 257873 227104 203692 279595 195568 194425 190295 185289 173941 203905 169392 165365 164940 143452 139923 138610 138260 136951 131338 150086 130883 130839 162342 130192 129856 221728 127070 125448 124329 123961 122207 121444 121198 129574 159283 117984 115233 114972 112696 108217 104874 101692 99992.1 97337.9 97017.1 117532 110051 100997 94886.6 105000
threshold=-3.645035862922668 3.5000000000000004 4.5000000000000009 6.5000000000000009 21.500000000000004 107.88257062146884 111.48192951290727 57.213936222519358 39.982575757575759 192.38723499854407 1.5000000000000002 212.61447822341128 103.21767111927785 246.03124161566026 43.420238356027596 16.111287878787884 1.5000000000000002 9.8477330160000012 15.500000000000002 57.910338360000004 115.68343024474235 64.813905925138428 93.23883609554035 13.12527777777778 15.214517543859651 0.92683548000000004 46.778730574595549 50.509504697263843 241.18833702723461 10.063494064800002 41.163764718489936 70.047980543423677 144.06479999999993 98.193274270949658 15.690833333333336 87.822957740000007 52.975000000000001 706.14396398424333 22.132717596000003 50.721836480000007 98.860566315789399 22.132717596000003 61.908333333333339 55.520909220000007 4.5000000000000009 162.09742774464499 180.10311524542649 116.79327586206897 23.678092326806567 61.113416420000014 1.5000000000000002 308.02201374151167 14.912528796000002 120.91713333333328 248.66601785174447 145.19471999999993 142.54254666666657 5.5000000000000009 140.65934666666658 49.23947368421053 1.1583596400000002 0.73548902000000005
decision_type=2 2 2 2 2 2 2 2 2 2 2 2 2 2 2 2 2 2 2 2 2 2 2 2 2 2 2 2 2 2 2 2 2 2 2 2 2 2 2 2 2 2 2 2 2 2 2 2 2 2 2 2 2 2 2 2 2 2 2 2 2 2
left_child=1 24 5 4 6 16 10 38 9 -9 11 -3 48 14 44 26 -2 33 -4 22 39 -22 -10 -21 36 54 -16 29 42 -26 -17 -32 -14 50 -35 47 -1 -38 -5 -8 -33 -28 -25 -29 -12 -46 -47 -7 -13 -20 -15 -50 -11 -52 -6 -24 58 59 -42 -58 -48 -62
right_child=2 3 18 7 25 35 20 8 19 52 13 12 32 17 15 30 -18 -19 49 23 21 -23 55 28 27 -27 41 43 -30 -31 31 40 -34 34 -36 -37 37 -39 -40 -41 56 -43 -44 -45 45 46 60 -49 51 -51 53 -53 -54 -55 -56 -57 57 -59 -60 -61 61 -63
leaf_value=-0.14979118739384958 -1.0036755008179139 1.6616973547095604 -0.2878395844486748 1.3106052693172736 1.0483709727014814 -0.5929601110105176 -0.51755599799363505 -0.0012473240106002145 -0.25036514690817513 0.58339360719031474 0.15372931938064663 0.605745431636319 -0.31690452828126797 0.65006321722269067 0.50424493071547261 1.3464693064598934 -0.60704715240229057 -0.24668178538481397 -0.12391480947774937 -0.22644087426516474 0.79188400276245619 -0.24930927523860225 0.051547885704040529 0.43865221780337643 -0.35666109137914398 -0.082718024314357541 0.037373919754472233 0.24804676598793751 -0.25197729276574177 0.65590933743645163 -0.046467258327433633 0.97840109991841018 0.65982638524926229 1.3495397232532502 0.34839646259079809 0.2226015228778124 0.98601033243693803 0.10299564066565538 0.27343460855029877 0.13210109798681169 0.18563102645033572 0.76444857047154358 1.2867383411952429 -0.36627784900337096 1.4209333547397895 0.11584364208869818 0.67728927482229961 -0.35516290065001227 1.3313477124865094 0.27757980583378905 0.3409497185676329 0.60162531057993573 1.3326849239103258 -0.43083336014496654 0.083662742159583345 0.77205832405090336 1.363392926301275 0.27071876525878907 0.7393907409544207 0.65701112332753842 1.7013500502109529 0.86806984726700098
leaf_weight=93 188 33 714 27 21 296 46 69 269 47 37 99 34 30 135 23 367 72 227 49 62 27 75 89 22 197 239 37 23 34 36 80 23 25 46 32 38 113 21 84 107 26 21 247 27 41 240 707 63 104 31 30 31 38 22 25 35 36 54 48 20 62
leaf_count=93 188 33 714 27 21 296 46 69 269 47 37 99 34 30 135 23 367 72 227 49 62 27 75 89 22 197 239 37 23 34 36 80 23 25 46 32 38 113 21 84 107 26 21 247 27 41 240 707 63 104 31 30 31 38 22 25 35 36 54 48 20 62
internal_value=-0.0965727 0.292102 -0.393073 0.360085 0.429111 -0.522623 0.477087 0.15384 0.105496 0.466984 0.519363 0.784148 0.667846 0.469182 0.523627 0.431306 -0.741401 0.188857 -0.19596 0.00905589 0.135408 0.476016 -0.119731 0.270167 -0.0542161 0.0315038 0.242203 -0.196584 0.453128 0.258114 0.611835 0.569167 0.077215 0.37332 0.700912 -0.405307 0.144165 0.325211 0.856843 -0.0977776 0.63073 0.10871 0.60056 -0.286243 0.700701 0.752594 0.702882 -0.42534 0.84319 0.00223456 0.138381 1.09595 0.881189 -0.0840902 0.554799 0.231675 0.531396 0.747909 0.371364 0.954883 0.77763 1.07131
internal_weight=6194 3559 2635 2975 2229 1590 1989 746 698 147 1770 282 249 1488 1246 819 555 242 1045 551 219 89 369 182 584 240 400 340 133 56 419 396 57 170 71 1035 244 151 48 130 360 265 110 284 427 390 363 1003 192 331 99 93 78 69 43 100 280 119 161 83 322 82
internal_count=6194 3559 2635 2975 2229 1590 1989 746 698 147 1770 282 249 1488 1246 819 555 242 1045 551 219 89 369 182 584 240 400 340 133 56 419 396 57 170 71 1035 244 151 48 130 360 265 110 284 427 390 363 1003 192 331 99 93 78 69 43 100 280 119 161 83 322 82
is_linear=0
shrinkage=0.01


Tree=5
num_leaves=63
num_cat=0
split_feature=71 7 9 9 62 37 47 46 4 69 49 50 60 64 62 69 65 18 62 49 8 20 36 7 15 50 19 63 49 21 33 36 4 4 5 49 67 57 51 62 15 59 11 30 18 52 39 60 57 26 6 8 62 41 39 31 54 56 31 20 12 55
split_gain=7.18527e+06 823526 654385 449693 328774 322631 272552 270690 238287 234297 308765 178463 175562 174754 156430 156299 152874 151068 146997 148739 153420 258271 144093 137047 133544 128426 117074 121796 135677 113046 145971 112729 121419 110941 108556 145059 168543 134649 106301 103955 118231 117235 109653 105812 101499 100225 99871.1 99223.9 123691 99131.1 97260.5 97213.6 94852.8 93865.5 91962.3 90837 142460 92929.1 89476 115262 89177.1 104263
threshold=-3.645035862922668 4.5000000000000009 4.5000000000000009 4.5000000000000009 274.78711285873976 125.80678571428562 59.596099080000009 48.570931500000007 5.2095244080000009 105.90276962143889 60.753657440000005 52.817141160000013 247.11609621761812 165.18473245406062 196.69472625190801 63.000842868701632 105.56319362602119 27.347500000000007 162.38045454545448 53.495797040000006 1.5000000000000002 10.479166666666668 158.10452380952373 15.500000000000002 122.14121333333328 47.257825580000009 14.270833333333336 96.300686653278689 49.922374040000008 11.475833333333336 1305.3450999999998 182.60927927927932 19.141011463200005 1.9836178736000003 64.328517120000029 61.345442200000001 86.532571077014197 0.37671670000000007 57.722767340000011 126.30344652684779 129.89158498416663 40.058389069238991 125.02878666666665 840.08043103448279 14.007500000000002 0.27005257000000005 121.51809523809517 210.03583014048527 1.1649921700000003 61.458333333333343 1.9491568600000002 3.5000000000000004 182.40580357142852 7.7258948536000016 246.93499999999992 1620.1085772100735 0.27461399000000003 0.44008533000000005 1730.4010579398848 18.881666666666671 132.92253333333329 0.37840267000000005
decision_type=2 2 2 2 2 2 2 2 2 2 2 2 2 2 2 2 2 2 2 2 2 2 2 2 2 2 2 2 2 2 2 2 2 2 2 2 2 2 2 2 2 2 2 2 2 2 2 2 2 2 2 2 2 2 2 2 2 2 2 2 2 2
left_child=1 15 5 4 8 17 7 22 9 34 14 54 -13 -10 -11 -1 33 -2 -17 20 21 -20 -5 -4 38 -26 27 28 50 -14 -31 -23 -33 -8 35 37 -37 52 -24 -9 42 43 58 -42 -35 -25 -7 -46 -49 55 -22 -30 -3 -21 -6 56 -15 -57 -41 -60 61 -39
right_child=2 3 23 6 11 46 16 39 13 10 -12 12 29 49 -16 18 -18 -19 19 53 26 31 24 45 25 -27 -28 -29 51 30 -32 32 -34 44 -36 36 -38 60 -40 40 41 -43 -44 -45 47 -47 -48 48 -50 -51 -52 -53 -54 -55 -56 57 -58 -59 59 -61 -62 -63
leaf_value=0.86421208322048193 -0.55504682742983891 0.16952744889731816 -0.28077158319380047 -0.15299269881700314 -0.25499865308220004 -0.5507215620965098 -0.13243747418417651 -0.48690916350732244 -0.43543758846819403 0.44463765722254045 1.0863090055416793 1.3197611860074101 -0.3226398610356061 1.1516227224826812 -0.37142754914859927 0.65207745297749842 1.0421393159378407 -0.84815417230129242 1.2810706097739084 -0.77769743095744748 1.1266043010652065 -0.23016231021573469 1.4031018614967665 0.1707315314895865 -0.12096682196313685 0.5888458072234477 -0.24213844564200368 -0.41485744216862847 -0.68609126424789424 0.84620286236344666 0.19630337352554006 0.064260313767939808 0.84342260432243354 0.20696158543671711 1.1124517696474989 -0.38621537693522195 0.63701944788297016 0.17840456016063691 0.46191093492507934 0.28077413321437694 0.453492256524888 0.14736389517784118 0.091706987244505725 -0.28561513863595916 0.78999886214476212 -0.17586130858597596 -0.31810241778742293 0.60698475645549255 -0.14097009442069314 0.14817237569791514 0.3037984552570418 0.26718496073847231 0.76770685670375827 -0.089171232514911228 0.26404075865018167 0.37847419452667241 0.34157439564574854 1.2423309691927649 1.1985953984941755 0.20463245010375977 1.1337778893787496 0.95298188493962865
leaf_weight=20 419 41 711 31 81 269 34 30 24 46 39 20 23 25 48 30 43 303 21 44 20 62 30 138 33 112 259 34 20 54 96 60 30 101 96 22 60 25 20 133 22 213 252 162 116 211 588 67 33 82 51 23 75 36 59 20 165 33 28 20 137 57
leaf_count=20 419 41 711 31 81 269 34 30 24 46 39 20 23 25 48 30 43 303 21 44 20 62 30 138 33 112 259 34 20 54 96 60 30 101 96 22 60 25 20 133 22 213 252 162 116 211 588 67 33 82 51 23 75 36 59 20 165 33 28 20 137 57
internal_value=-0.0962151 0.297001 -0.3933 0.373936 0.507531 -0.52232 0.254061 0.172322 0.598556 0.712302 0.338277 0.23555 0.432718 0.388013 0.0279235 -0.0072695 0.479361 -0.678054 -0.0325298 -0.0636483 -0.00789493 0.241565 0.480298 -0.201108 0.580975 0.427302 -0.113931 0.110433 0.267099 0.33017 0.430267 0.0979489 0.323981 0.410416 0.809271 0.739474 0.362493 0.83175 1.02663 0.0913894 0.112292 -0.0123534 0.226574 -0.197244 0.46864 -0.0388131 -0.391118 0.590999 0.36016 0.448821 0.535575 -0.176199 0.556281 -0.467861 -0.0362606 0.550275 0.44816 0.916347 0.414344 0.784444 0.977661 0.71683
internal_weight=6157 3518 2639 2808 1328 1579 1480 1086 995 646 133 333 193 349 94 710 394 722 690 660 580 173 226 1060 195 145 407 148 114 173 150 152 90 351 513 417 82 335 50 860 830 397 433 184 317 349 857 216 100 325 71 43 116 80 140 243 190 53 181 48 219 82
internal_count=6157 3518 2639 2808 1328 1579 1480 1086 995 646 133 333 193 349 94 710 394 722 690 660 580 173 226 1060 195 145 407 148 114 173 150 152 90 351 513 417 82 335 50 860 830 397 433 184 317 349 857 216 100 325 71 43 116 80 140 243 190 53 181 48 219 82
is_linear=0
shrinkage=0.01


Tree=6
num_leaves=63
num_cat=0
split_feature=70 7 9 39 44 34 7 50 9 69 23 9 51 16 4 7 9 69 68 68 6 9 2 16 8 19 15 16 65 42 37 11 11 13 24 3 27 42 69 51 3 31 14 67 67 64 59 15 25 52 16 20 22 9 59 25 17 13 14 42 27 58
split_gain=6.91264e+06 773411 710886 364063 351355 269944 241252 228535 213426 263253 207552 172209 170926 272805 170019 168269 166961 190979 159207 188498 143283 141241 149096 147847 163826 147507 137933 136874 148221 178465 134069 131707 159406 128558 168923 152549 125099 122841 137282 114774 124864 114018 113830 113599 203961 119443 107917 107233 103812 102589 100669 106692 98913.7 96270.2 108030 94941.9 108399 94929.3 93569.7 106620 91398.4 90787.2
threshold=-3.2310187816619869 4.5000000000000009 4.5000000000000009 90.475434782608644 2.0930958224000005 209.63457617407784 6.5000000000000009 50.721836480000007 6.5000000000000009 57.213936222519358 58.117545558984844 1.5000000000000002 49.852918500000008 11.415000000000001 19.141011463200005 15.500000000000002 5.5000000000000009 87.366906104575477 179.3131392772508 227.86171273935796 1.0089384200000002 7.5000000000000009 38.291666666666671 23.828360839736824 1.5000000000000002 14.270833333333336 161.59425333333328 20.34 78.369540732109812 7.2702480224000015 127.50666666666663 144.55129333333329 125.37403999999991 86.675400952380897 60.158333333333339 1783.4651333333334 46.339080459770123 1.1269765584000002 108.44166864684762 56.837944940000007 1301.5224333333335 1585.7039705882355 74.621799999999908 85.927030679879394 108.52297854847268 248.66601785174447 60.413008236573042 90.095426666666654 45.3204954954955 0.28206396000000006 10.814166666666669 26.555606060606063 46.991666666666667 7.5000000000000009 29.665359575716316 41.725000000000001 18.804105691056911 164.76430666666667 138.17921596560254 2.1085823176000003 58.419550864771267 223.505753968254
decision_type=2 2 2 2 2 2 2 2 2 2 2 2 2 2 2 2 2 2 2 2 2 2 2 2 2 2 2 2 2 2 2 2 2 2 2 2 2 2 2 2 2 2 2 2 2 2 2 2 2 2 2 2 2 2 2 2 2 2 2 2 2 2
left_child=1 12 3 11 33 8 -7 -8 18 -10 31 -2 21 14 -14 -4 17 41 -6 27 36 22 -1 24 58 -26 43 28 55 48 -5 32 53 46 35 39 -18 -19 50 40 61 -9 -17 -21 -45 -46 -3 -15 -30 -44 -39 -52 -36 -11 -55 -20 60 -49 59 -24 -57 -35
right_child=2 4 15 30 5 6 7 16 9 10 -12 -13 13 47 -16 42 20 37 19 26 -22 -23 23 -25 25 -27 -28 -29 29 -31 -32 -33 -34 34 52 -37 -38 38 -40 -41 -42 -43 49 44 45 -47 -48 57 -50 -51 51 -53 -54 54 -56 56 -58 -59 -60 -61 -62 -63
leaf_value=1.0716210827009665 -1.0919762812629343 0.6943577700397594 -0.27521523154654559 -0.57425765285106123 0.12994154186143228 1.2305475280772558 -0.069865512172903932 0.59616280377891506 0.94715553538050756 -0.12276512948589194 0.9185404715044746 -0.62926722540927293 -0.16738083698749542 0.3653310076892376 0.90013194873526292 0.22685529512625477 0.19804591146911063 -0.17713259371713949 0.94986814555914512 -0.15523790618971639 0.36983442189045318 -0.29783810085720486 1.3054456351548434 0.85225438658396402 0.32767081349503763 -0.34684253716736702 0.94808502609665324 1.0635618853363498 0.87349360375719909 1.1690719266970953 -0.36055897681523719 0.6570243229468663 -0.3704377940614173 1.2340426088174186 0.35624565646761935 0.72174430211003016 -0.32320335429623015 1.1309321639612318 -0.037739953092626621 0.12187318162671451 0.084151671491563315 1.4447567138671875 0.1233176740365369 0.65109405969142908 -0.25439551983560837 0.52754861327012381 1.3548588568369548 -0.3554381731131766 0.11288930469437651 -0.32574344555536905 0.31537370613217358 0.93336141012609009 1.1740752172470093 0.071859991737440523 0.7816471564447558 0.29179971992082537 0.8883872590746198 0.27558403031184125 0.04428818072042158 0.34212179493021083 -0.4228124854445458 0.3767536263238816
leaf_weight=21 135 141 724 482 96 22 285 76 43 72 29 199 25 26 37 130 82 52 23 46 103 54 20 30 51 89 37 87 34 75 751 30 94 30 21 104 105 20 74 174 32 20 84 125 56 30 30 287 38 129 220 32 50 51 37 63 21 26 31 27 25 21
leaf_count=21 135 141 724 482 96 22 285 76 43 72 29 199 25 26 37 130 82 52 23 46 103 54 20 30 51 89 37 87 34 75 751 30 94 30 21 104 105 20 74 174 32 20 84 125 56 30 30 287 38 129 220 32 50 51 37 63 21 26 31 27 25 21
internal_value=-0.0967264 0.289086 -0.387866 -0.523429 0.364273 0.305729 0.193973 0.172641 0.415374 0.213488 0.112696 -0.81629 -0.00231606 -0.140216 0.469683 -0.188779 0.260797 0.372608 0.510443 0.565788 0.0703323 0.168885 0.262576 0.194069 0.103492 -0.101127 0.377229 0.717254 0.609266 0.82768 -0.444097 0.0304095 -0.0436001 0.578157 0.486292 0.398596 -0.0946342 0.276042 0.344149 0.267828 0.573807 0.772953 -0.00632954 0.295043 0.393209 0.0183757 0.810235 -0.251761 0.472064 -0.148649 0.448046 0.393848 0.932182 0.148417 0.370293 0.366032 0.242837 -0.303021 0.470758 0.752047 0.0887849 0.881041
internal_weight=6164 3530 2634 1567 2806 2203 1091 1069 1112 356 313 334 724 401 62 1067 784 494 756 660 290 323 269 248 218 140 294 366 279 147 1233 284 254 603 432 361 187 398 346 257 83 96 343 257 211 86 171 339 72 213 272 252 71 160 88 132 109 313 78 47 88 51
internal_count=6164 3530 2634 1567 2806 2203 1091 1069 1112 356 313 334 724 401 62 1067 784 494 756 660 290 323 269 248 218 140 294 366 279 147 1233 284 254 603 432 361 187 398 346 257 83 96 343 257 211 86 171 339 72 213 272 252 71 160 88 132 109 313 78 47 88 51
is_linear=0
shrinkage=0.01


Tree=7
num_leaves=63
num_cat=0
split_feature=73 7 9 44 7 39 9 52 62 19 65 62 21 5 34 57 62 31 44 5 20 9 23 1 24 30 3 58 35 27 18 11 52 21 17 21 53 1 18 55 47 56 62 14 47 36 69 33 43 64 62 38 59 56 47 64 65 62 12 24 12 69
split_gain=7.34756e+06 754374 596481 408032 334280 322569 262930 327458 259189 209109 183376 234641 192909 159497 221603 157958 165600 155539 151358 234277 144446 143316 140087 187088 138478 135241 154224 130541 124344 122568 121545 118180 117014 108899 190076 250202 198286 176117 148876 144734 143542 137827 128397 115071 112203 110735 108707 105791 102663 101096 99059.2 98491.4 139714 114294 97933.1 97802.1 97798.2 97313.5 94708 131958 111021 90466
threshold=-3.6738375425338741 3.5000000000000004 4.5000000000000009 2.0930958224000005 21.500000000000004 93.438427672955825 1.5000000000000002 4.9825155700000012 290.74708793804263 16.064166666666669 80.9609643054538 222.19245083666297 13.692500000000004 68.033372820000011 141.69833333333327 0.22335500000000003 124.01327885623989 821.58663333333345 16.304423572800005 47.188218140000011 16.333333333333336 1.5000000000000002 39.267261904761916 11.352500000000001 60.466666666666676 660.07896666666682 1928.6633497393248 98.931896135265802 114.42964912280682 44.681376733398174 11.112083333333336 48.442691929824512 0.27669558000000005 17.993787878787881 18.675000000000001 11.212701149425289 2.4294801500000003 12.886666666666668 10.193333333333335 0.44800035000000005 87.822957740000007 0.56789286000000005 208.91861109774479 82.534093333333246 46.603231640000011 384.92166666666668 90.591476312010641 779.25060000000019 1.5202254408000002 225.23019442055582 168.91978006189208 136.68615942028973 25.634726085553272 1.3679360600000001 59.04504312000001 194.22786765249211 102.82376936724309 202.7377988794731 132.92253333333329 44.290789473684221 135.66886666666656 89.479140122944543
decision_type=2 2 2 2 2 2 2 2 2 2 2 2 2 2 2 2 2 2 2 2 2 2 2 2 2 2 2 2 2 2 2 2 2 2 2 2 2 2 2 2 2 2 2 2 2 2 2 2 2 2 2 2 2 2 2 2 2 2 2 2 2 2
left_child=1 9 5 22 6 21 8 13 17 10 11 12 -1 15 -15 -8 -17 -5 46 -20 -9 -2 32 29 25 30 -27 50 -7 -24 -25 -4 -3 34 36 61 37 38 -29 -38 41 43 -41 -35 -39 -40 -12 -19 -30 57 -18 -37 -53 -54 56 -49 -46 -6 59 -43 -60 -36
right_child=2 3 31 4 49 28 7 20 -10 -11 18 -13 -14 14 -16 16 27 47 19 -21 -22 -23 23 24 -26 26 -28 33 48 -31 -32 -33 -34 40 35 51 39 44 45 42 -42 58 -44 -45 54 -47 -48 55 -50 -51 -52 52 53 -55 -56 -57 -58 -59 60 -61 -62 -63
leaf_value=0.83167358286146609 -1.0293127509780069 1.586096183872697 -0.0028506700855654636 0.20816214438414934 -0.073471030187793079 -0.31638977692402903 -0.034796081020544142 1.4123778745061473 -0.09850380818049112 -0.19779827755834883 0.2941912735104561 1.3366485095977783 -0.10841664889763142 0.75277392532676457 -0.16781036305260827 -0.44657936820043964 0.45412191301998162 0.32588671250776813 -0.28856074429847101 0.82933829498918432 0.3789577903634026 -0.62055225304194861 0.62035723837939172 0.2586779547196168 1.0269972858428955 0.29876176933618065 0.8175259628421383 -0.25217552748508754 -0.85273128256740338 -0.30488562944458752 1.0521135739803316 -0.262738428000027 0.75412547846363009 0.76092861846089366 0.70723023602366453 0.42855634255612152 1.4037596514269157 0.85405305159091949 0.49562170077424023 0.059532351255416865 -0.50667736530303953 0.50281575645368126 0.98472302754720054 -0.053030334765260874 -0.116350155548476 1.2185145843029022 -0.55536172074372647 1.7189048941135405 -0.47851421843526093 -0.20268196091359975 -0.18686311124938809 1.3231676321452666 0.93803869733939294 0.21475242757028148 0.35562519461578795 0.95761115352312731 0.57528625304608239 0.50295101695590549 1.2966706800460817 -0.055738580894470216 0.49635578790077794 -0.090864125855114997
leaf_weight=35 139 22 222 33 64 500 118 38 36 318 20 25 58 32 143 26 36 22 37 38 21 224 22 26 65 233 76 24 83 41 75 826 73 20 20 47 27 20 181 30 23 97 30 132 184 24 61 20 628 147 73 62 74 31 90 108 23 54 20 75 130 49
leaf_count=35 139 22 222 33 64 500 118 38 36 318 20 25 58 32 143 26 36 22 37 38 21 224 22 26 65 233 76 24 83 41 75 826 73 20 20 47 27 20 181 30 23 97 30 132 184 24 61 20 628 147 73 62 74 31 90 108 23 54 20 75 130 49
internal_value=-0.0930899 0.30304 -0.392529 0.367084 0.307159 -0.515601 0.349034 0.311216 0.677136 -0.0233418 0.17913 0.476582 0.245381 0.287714 0.00052505 0.317881 0.344765 0.829721 -0.0458662 0.277841 1.04455 -0.777075 0.592773 0.53026 0.598174 0.530189 0.426354 0.358283 -0.437224 0.0182151 0.847863 -0.207686 0.946792 0.384005 0.448671 0.66411 0.352353 0.281704 0.493012 0.795738 0.264824 0.302259 0.522128 0.0540695 0.129055 0.580253 -0.345596 0.966464 -0.522199 -0.0276869 0.0248384 0.832947 0.946758 0.724497 0.0802337 1.07656 -0.0395017 0.190315 0.419417 0.25926 0.603064 0.140468
internal_weight=6231 3609 2622 3017 2384 1574 2119 1900 219 592 274 118 93 1841 175 1666 1548 183 156 75 59 363 633 538 475 410 309 1522 1211 63 101 1048 95 1413 916 283 633 546 229 87 497 474 60 152 317 205 81 150 711 265 109 214 167 105 297 128 207 118 322 172 150 69
internal_count=6231 3609 2622 3017 2384 1574 2119 1900 219 592 274 118 93 1841 175 1666 1548 183 156 75 59 363 633 538 475 410 309 1522 1211 63 101 1048 95 1413 916 283 633 546 229 87 497 474 60 152 317 205 81 150 711 265 109 214 167 105 297 128 207 118 322 172 150 69
is_linear=0
shrinkage=0.01


Tree=8
num_leaves=63
num_cat=0
split_feature=70 48 9 9 39 69 3 44 34 9 53 68 64 67 9 23 17 46 8 17 29 65 60 68 44 69 35 19 55 65 7 65 35 1 7 21 16 56 68 46 22 52 18 11 57 47 22 63 61 11 66 5 64 52 24 31 31 56 50 34 59 24
split_gain=6.74689e+06 719265 671430 368441 367644 286361 252219 239987 282873 266412 224500 185842 192455 179436 175723 168635 187650 163858 161262 235037 160178 159868 219685 159372 228566 151810 140647 139085 137979 137807 130024 129478 127563 125072 120732 119095 118180 115635 148788 130814 114832 113930 113882 112663 111082 111049 110198 114080 111216 108912 106580 106235 108408 109474 104025 103258 100620 98607 120865 104488 95285.1 94772.4
threshold=-3.2310187816619869 54.959785720000006 4.5000000000000009 1.5000000000000002 89.347906602254213 57.952394788561655 889.44064327485387 1.4686568336000003 213.1852631578947 6.5000000000000009 0.26082100000000003 245.16673673529883 258.82316774243469 102.79425302509964 1.5000000000000002 40.433647798742143 14.062500000000002 43.449894460000003 1.5000000000000002 14.583333333333337 2000.4266157894738 73.756409571017159 242.49555555555551 236.90763509630133 5.0340666640000009 59.41744667717419 283.8406926364467 14.759166666666667 0.79178627000000013 91.178813017211624 20.500000000000004 59.850775361623327 135.80778911564619 25.866352201257865 15.500000000000002 15.562500000000002 19.65666666666667 0.24248100000000003 236.90763509630133 47.366349800000009 38.947727272727285 0.27348608000000002 20.179288499025343 145.19471999999993 3.9797695200000005 51.825531100000013 51.375000000000007 52.865185216167482 49.925012909254441 125.78206666666667 235.79591056475505 68.033372820000011 255.2108976557964 0.27669558000000005 44.489247108038562 898.51780000000008 1114.4047254145466 0.39483662000000008 56.967328460000004 263.03101851851835 20.65312075992367 46.486347517730501
decision_type=2 2 2 2 2 2 2 2 2 2 2 2 2 2 2 2 2 2 2 2 2 2 2 2 2 2 2 2 2 2 2 2 2 2 2 2 2 2 2 2 2 2 2 2 2 2 2 2 2 2 2 2 2 2 2 2 2 2 2 2 2 2
left_child=1 3 4 13 14 -3 18 15 9 11 56 26 -13 20 -2 -5 -17 -10 19 45 60 -8 27 46 -25 -12 36 28 -23 42 -29 -19 55 -15 -4 -30 37 -9 39 -39 -41 -36 -26 49 -20 -7 48 -48 -24 -27 -38 52 61 -54 -28 -6 -11 58 59 -18 -1 -33
right_child=2 5 34 7 32 6 21 8 17 10 25 12 -14 33 -16 16 57 31 44 -21 -22 22 23 24 29 43 54 30 35 -31 -32 51 -34 -35 41 -37 50 38 -40 40 -42 -43 -44 -45 -46 -47 47 -49 -50 -51 -52 -53 53 -55 -56 -57 -58 -59 -60 -61 -62 -63
leaf_value=0.64715720319450187 -1.0747477010115341 1.2999217429906131 -0.25619309200305429 0.99152475593903333 -0.50142245391873941 0.10260270009792986 -0.033760656071797839 0.0085621297077247589 0.96033711109472364 0.33491345818553653 0.69061145134270197 -0.2797272196299625 0.63910944724082952 0.091520929689760569 -0.60793495079905724 -0.069743980414727166 1.1796547832140107 -0.48985217664071495 -0.29772553757945103 -0.14420026304929154 0.3901632695198059 0.11263570427894593 0.63462490513565994 0.46956667438267718 0.7074021655321121 0.12619136115736213 0.64872190198153268 0.50346374299500019 0.68499997138977053 -0.40911760384474344 -0.23762214615941049 0.2696051471353304 -0.53847841849651024 0.88048534363508224 0.18411500998275124 1.5141312335332233 1.1077492361918968 0.97013724972009518 1.2462932363663402 0.88605090154898347 0.35051813996846404 -0.1817847039375235 -0.31431970286369326 0.56319298882638258 0.39925212841033936 1.0224313285010203 1.1217621860296831 0.36332890393833317 -0.21667692510705244 -0.3117552064735199 0.29640000110864639 -0.18664661342606823 1.0523705693334342 0.30442623501959837 -0.18629398771234459 -0.24685949348328109 1.2827482477823893 1.2593443243844169 0.33019045282293247 0.32537648482756182 1.2676329331446177 -0.0724778380219359
leaf_weight=33 138 20 708 83 247 21 241 33 23 21 36 53 40 54 194 51 41 35 268 92 40 21 21 63 24 121 25 91 41 123 32 164 575 32 146 30 85 62 35 50 201 204 20 31 25 35 23 144 57 107 20 85 24 106 37 449 24 21 108 22 99 160
leaf_count=33 138 20 708 83 247 21 241 33 23 21 36 53 40 54 194 51 41 35 268 92 40 21 21 63 24 121 25 91 41 123 32 164 575 32 146 30 85 62 35 50 201 204 20 31 25 35 23 144 57 107 20 85 24 106 37 449 24 21 108 22 99 160
internal_value=-0.0941119 0.289263 -0.37661 0.403413 -0.505659 0.111969 0.0946519 0.355359 0.30433 0.408777 0.182504 0.528797 0.115471 0.758047 -0.801972 0.602364 0.46944 0.132702 -0.102349 0.166712 0.944525 0.187968 0.265412 0.145366 -0.0436848 0.0821435 0.598941 0.530631 0.82472 -0.237307 0.310661 0.0995385 -0.428258 0.385089 -0.181085 1.03534 0.656162 0.574299 0.627947 0.558803 0.457198 -0.0291523 0.242983 -0.00243116 -0.238256 0.677496 0.322843 0.467784 0.0125197 -0.0793362 0.953207 0.137811 0.198557 0.442508 0.150406 -0.3372 0.840425 0.612661 0.533244 0.881335 1.11251 0.100675
internal_weight=6215 3554 2661 2162 1603 1392 1372 1904 1578 981 340 641 93 258 332 326 243 597 441 148 172 931 690 475 230 295 548 215 92 167 123 574 1271 86 1058 71 486 381 348 313 251 350 44 259 293 56 245 167 78 228 105 539 454 130 62 696 45 192 171 63 132 324
internal_count=6215 3554 2661 2162 1603 1392 1372 1904 1578 981 340 641 93 258 332 326 243 597 441 148 172 931 690 475 230 295 548 215 92 167 123 574 1271 86 1058 71 486 381 348 313 251 350 44 259 293 56 245 167 78 228 105 539 454 130 62 696 45 192 171 63 132 324
is_linear=0
shrinkage=0.01


Tree=9
num_leaves=63
num_cat=0
split_feature=73 7 9 9 39 7 69 1 60 66 27 67 22 69 52 10 15 64 9 60 17 54 67 35 51 68 16 68 44 61 11 2 18 9 3 50 25 69 36 37 62 21 16 62 11 63 18 14 55 1 61 60 22 37 30 43 38 42 61 38 19 68
split_gain=6.38595e+06 670639 666936 408890 349816 281163 266802 193750 267228 190948 240090 190298 186094 165802 158622 159217 152841 150475 150397 146094 144761 174567 205787 248266 158976 140195 139190 132072 181111 130985 130108 123591 164519 156337 143462 146281 133824 156370 119216 117366 114908 144321 137093 110471 110155 107644 132619 129087 119874 106230 144582 105729 103205 103073 131387 113077 99512.4 94680.8 93248.1 89240.3 86971.2 86827.8
threshold=-3.6738375425338741 3.5000000000000004 4.5000000000000009 6.5000000000000009 111.34999999999989 20.500000000000004 57.213936222519358 19.740833333333338 248.07685823754781 168.05697605581278 39.982575757575759 109.74681117896391 51.241666666666667 90.978374882140699 0.29578228000000001 82.928402051281992 116.59876091954011 271.44660818581093 1.5000000000000002 99.593751051707713 13.134166666666667 0.44229399000000003 92.394740072881419 248.56257575757573 50.68887320000001 229.45913583978174 23.828360839736824 231.61960121512249 5.0340666640000009 67.798942279490987 48.442691929824512 40.82500000000001 15.118562017972975 1.5000000000000002 922.92983765812994 51.985648400000009 46.25055863123881 82.695969819011509 148.05847826086963 127.50666666666663 184.70803958165178 13.602500000000001 13.920833333333336 196.69472625190801 144.55129333333329 111.54184758596473 18.317499999999999 114.4499216027874 1.1751590800000002 18.982500000000005 43.240666524180334 240.45777777777775 43.254310344827594 134.99775862068961 1053.718066666667 16.394923573600003 129.3780952380952 2.8877591424000006 30.422514564091468 138.96076923076916 17.837916666666668 227.86171273935796
decision_type=2 2 2 2 2 2 2 2 2 2 2 2 2 2 2 2 2 2 2 2 2 2 2 2 2 2 2 2 2 2 2 2 2 2 2 2 2 2 2 2 2 2 2 2 2 2 2 2 2 2 2 2 2 2 2 2 2 2 2 2 2 2
left_child=1 20 4 5 18 7 16 11 12 -8 43 19 38 -10 15 -12 -5 58 -2 -3 21 22 23 57 26 -23 53 40 -29 -17 60 -21 33 -33 61 51 37 -35 -9 -6 -7 -42 -43 52 -16 46 -37 -47 -48 50 -26 -36 -11 -22 -55 -56 -14 -1 -13 -38 -4 -34
right_child=2 3 30 6 39 27 9 8 13 10 14 17 56 -15 44 29 -18 -19 -20 31 24 25 -24 -25 49 -27 -28 28 -30 -31 -32 32 34 36 35 45 59 -39 -40 -41 41 42 -44 -45 -46 47 48 -49 -50 -51 -52 -53 -54 54 55 -57 -58 -59 -60 -61 -62 -63
leaf_value=0.33960552545078104 -0.92445428199177759 1.1239801730523851 0.28791680088178034 0.29292080182731151 -0.53444135931700298 -0.16994475962484587 -0.36381801061423091 1.1056561467672388 0.82332144219534742 0.73596907126531008 0.95118844323498863 0.28694542344127383 0.56902528181220546 0.27697314409241358 -0.11685654916989108 -0.19728513088491226 1.398692437171936 0.51754415212675586 -0.58518218801479149 0.60287356355110133 0.24490941368481692 1.1494444705700051 -0.47900243070390491 0.96656905746459953 0.51383492326736457 0.076584572054090957 0.72044736453465053 0.42671424197462893 -0.28642334811455383 0.70549855310916898 -0.23822489094007948 0.90068669024322723 0.4623650213743144 -0.15265699549782569 0.49962394015794553 0.91598676727312367 0.44170896945461152 0.58743939633065079 0.46981357177890887 -0.30789131755677257 -0.0050131534337997446 1.2134836216533886 0.38352837130427364 0.79886959059370899 0.29934753309322309 1.7579567016065121 0.15601608457043767 0.62179166409373277 0.91749611883327875 -0.65722725125796655 -0.32656707840683186 -0.23308059007890763 -0.1977908428167475 -0.78382919155701536 -0.4161507946891444 0.4996883751795842 1.1919902629748635 -0.42105519526534607 -0.40175924386038925 -0.14480437125706075 -0.11446009523116502 -0.12802975420681936
leaf_weight=30 195 29 84 25 358 34 82 36 70 20 35 28 33 269 326 45 25 43 396 238 68 29 54 35 25 21 28 52 113 25 792 28 47 41 54 82 31 94 163 633 40 34 48 72 79 20 72 20 29 68 113 31 29 32 28 26 115 36 66 159 149 53
leaf_count=30 195 29 84 25 358 34 82 36 70 20 35 28 33 269 326 45 25 43 396 238 68 29 54 35 25 21 28 52 113 25 792 28 47 41 54 82 31 94 163 633 40 34 48 72 79 20 72 20 29 68 113 31 29 32 28 26 115 36 66 159 149 53
internal_value=-0.0934546 0.276835 -0.375823 0.338808 -0.504568 0.408765 0.139664 0.456145 0.589473 0.0901451 0.149139 0.377637 0.784553 0.389788 0.0541264 0.400488 0.845807 0.0275384 -0.697125 0.424294 -0.0298955 0.185054 0.0193159 0.285744 -0.143464 0.698843 0.0718874 0.135553 -0.061677 0.125138 -0.177116 0.403983 0.34178 0.183707 0.478545 0.585392 0.121937 0.362669 0.58484 -0.389733 0.344161 0.487437 0.727656 0.549604 -0.0356711 0.719939 0.617221 1.18987 0.374659 -0.333727 -0.17432 0.232402 0.183336 -0.0460326 -0.27608 0.0248088 1.05309 -0.0753003 -0.196613 -0.0491101 0.0306028 0.149456
internal_weight=6135 3528 2607 2935 1582 2172 763 1851 686 713 631 1165 347 339 510 105 50 137 591 1028 593 205 155 101 388 50 182 321 165 70 1025 999 761 353 408 308 325 135 199 991 156 122 82 121 405 223 183 40 101 206 138 85 49 154 86 54 148 66 94 190 233 100
internal_count=6135 3528 2607 2935 1582 2172 763 1851 686 713 631 1165 347 339 510 105 50 137 591 1028 593 205 155 101 388 50 182 321 165 70 1025 999 761 353 408 308 325 135 199 991 156 122 82 121 405 223 183 40 101 206 138 85 49 154 86 54 148 66 94 190 233 100
is_linear=0
shrinkage=0.01


Tree=10
num_leaves=63
num_cat=0
split_feature=70 7 9 44 39 68 9 69 60 12 13 1 64 9 7 17 51 37 30 13 42 66 10 57 0 64 46 0 61 44 2 8 16 3 37 27 23 24 61 24 22 38 24 42 8 64 40 10 50 3 12 29 44 38 21 60 37 60 23 51 10 5
split_gain=6.72374e+06 663808 556821 407810 381718 279309 395271 310821 282360 237924 211358 205191 183349 179811 158536 156230 201789 156954 168795 149562 139619 135012 143295 142393 132329 130310 129277 127633 127529 127483 123325 133104 151835 141441 120399 119391 118958 118486 116785 116327 118049 112490 111036 105401 295050 176392 111188 104517 104203 106802 99570.8 98971.7 97399.3 89945 88747.5 87111.2 86895.3 85828.7 85645.8 85633.7 85626.4 97242.8
threshold=-3.2310187816619869 3.5000000000000004 4.5000000000000009 2.0643581904000006 107.88257062146884 243.3369616671142 6.5000000000000009 57.213936222519358 279.13916666666665 133.33055999999996 151.11110666666659 23.472945543566613 264.80149349091749 1.5000000000000002 21.500000000000004 13.134166666666667 50.595587000000002 134.99775862068961 1040.5617222222224 89.743495319148948 19.1201361912 168.05697605581278 89.218251929824461 0.79497219000000008 38.15049333333328 276.06117687953696 52.019250640000003 113.02481333333326 41.496383058911853 5.1570226752000012 41.97291666666667 5.5000000000000009 20.34 1550.1868999999999 118.8045238095237 37.852272727272734 39.908333333333339 44.93888888888889 65.180318386019692 58.117545558984844 48.741666666666667 152.99864285714284 65.869696969696989 10.415078088800003 2.5000000000000004 242.64316883530731 3.2978965624000005 89.917325581395346 47.828398240000006 1731.0302387755103 52.49305463264853 1508.5198333333337 17.809286809600003 259.16166666666658 16.602542372881359 249.08415389895782 161.60786163521996 119.72006120527301 52.975000000000001 49.180206320000003 150.79723999999993 50.011658900000008
decision_type=2 2 2 2 2 2 2 2 2 2 2 2 2 2 2 2 2 2 2 2 2 2 2 2 2 2 2 2 2 2 2 2 2 2 2 2 2 2 2 2 2 2 2 2 2 2 2 2 2 2 2 2 2 2 2 2 2 2 2 2 2 2
left_child=1 15 4 19 13 6 8 20 9 11 56 36 21 -2 25 26 17 58 -19 38 -8 -9 23 -23 -6 29 60 -4 -18 -12 -11 32 42 -34 -10 -24 -5 -14 47 41 -41 -21 -32 45 46 53 -45 -3 -36 -50 -26 -37 -20 -38 -13 -42 -7 -44 -17 -35 61 -1
right_child=2 3 27 5 24 10 7 12 34 30 14 54 37 -15 -16 16 28 18 52 39 -22 22 35 -25 50 -27 -28 -29 -30 -31 31 -33 33 59 48 51 43 -39 -40 40 55 -43 57 44 -46 -47 -48 -49 49 -51 -52 -53 -54 -55 -56 -57 -58 -59 -60 -61 -62 -63
leaf_value=0.085841346150669059 -0.97907782652857323 0.93663373256546711 -0.22440223814683585 -0.074216412970260395 -0.68682833295415036 -0.36456228896032405 1.3649577386732454 -0.38911263034313542 0.78297554164060534 1.0159248659556561 0.8468091728687287 1.2686289817094802 0.028584440469741824 -0.59085479611256086 -0.22426116784413655 0.054167759839226219 0.21666515111265813 -0.70331207451721034 -0.28454441145062448 -0.22021663342203415 0.29176559274846858 0.1267156999952653 0.52005769510526922 1.1592094904726202 -0.53916493718093939 1.0005293736457825 0.852685541930022 0.44831913093040732 -0.45141519673376779 0.048426437914371498 0.50562603936304706 1.0547382143565587 1.2029563720271272 1.0365760308220273 -0.50776179350339445 -0.17996499392547105 0.0047276647507354915 1.0222569039662679 1.0512717205716162 0.33668196256955463 1.5768196344375611 0.4427300284892921 0.52302764606475838 -0.32207220348304716 1.0848268085718156 0.92450764272361996 0.45915877820277701 0.29267366938671824 -0.016848193628384786 0.42575366430230188 -0.28926647181383813 0.26781468482244586 0.50674469961438862 0.50167006053030494 0.46943367362022403 0.69664692705327813 0.017602811803562081 -0.29006079847748217 0.71304886158476477 0.26322197903527156 -0.40874358371452046 0.78565362655868132
leaf_weight=115 177 44 1026 73 131 79 27 79 28 88 30 33 20 366 36 34 34 36 28 28 22 34 37 22 207 40 27 29 179 60 169 56 53 21 26 228 151 30 97 30 23 298 20 29 64 32 49 59 136 91 694 63 35 48 24 22 241 37 47 45 27 24
leaf_count=115 177 44 1026 73 131 79 27 79 28 88 30 33 20 366 36 34 34 36 28 28 22 34 37 22 207 40 27 29 179 60 169 56 53 21 26 228 151 30 97 30 23 298 20 29 64 32 49 59 136 91 694 63 35 48 24 22 241 37 47 45 27 24
internal_value=-0.0942877 0.285128 -0.383695 0.346731 -0.502782 0.286615 0.34307 0.122181 0.440588 0.519854 0.0734557 0.367156 0.0494988 -0.717403 0.362998 -0.0220448 -0.136468 0.110025 -0.157075 0.578892 0.883116 -0.0126275 0.0648265 0.532338 -0.389857 0.525623 0.210953 -0.20591 -0.344773 0.314554 0.676924 0.602529 0.529127 0.818233 0.160761 -0.0149926 0.294951 0.624788 0.802265 0.467484 0.822581 0.38579 0.376899 0.367201 0.581603 0.235404 0.168701 0.567763 0.0918989 0.160583 -0.346679 -0.083023 0.155061 0.124593 0.932126 1.14651 -0.0767442 -0.00476661 0.436481 0.509289 0.106574 0.206672
internal_weight=6138 3508 2630 2922 1575 2321 1835 562 1273 992 486 503 513 543 166 586 393 180 99 601 49 463 384 56 1032 130 193 1055 213 90 489 401 345 119 281 328 446 50 200 401 75 326 226 373 142 231 78 103 253 227 901 291 63 199 57 45 320 57 81 66 166 139
internal_count=6138 3508 2630 2922 1575 2321 1835 562 1273 992 486 503 513 543 166 586 393 180 99 601 49 463 384 56 1032 130 193 1055 213 90 489 401 345 119 281 328 446 50 200 401 75 326 226 373 142 231 78 103 253 227 901 291 63 199 57 45 320 57 81 66 166 139
is_linear=0
shrinkage=0.01


Tree=11
num_leaves=63
num_cat=0
split_feature=70 7 9 9 68 44 11 9 68 15 69 27 7 0 35 39 47 2 19 26 19 11 38 15 57 11 36 37 60 24 29 26 23 28 18 23 63 16 2 57 32 55 12 46 66 14 58 38 53 67 21 13 27 25 21 28 22 49 4 0 69 54
split_gain=6.35543e+06 656185 485059 312944 274920 289648 243408 199357 195248 192238 182789 181780 175708 182999 172614 169086 165099 161932 160358 158858 158280 139992 135834 124983 118047 183356 150910 138553 154009 134928 131831 117895 110997 120837 110568 110115 127399 124856 115529 139576 138314 104655 103506 102505 100685 100104 131915 98973.6 98506.1 96812.4 95810.6 93730.1 97931.5 92545.7 91859.6 112959 168095 104947 151360 133089 89289.6 110204
threshold=-3.2310187816619869 3.5000000000000004 1.5000000000000002 6.5000000000000009 231.61960121512249 1.9711162504000004 48.442691929824512 4.5000000000000009 264.91340744712716 167.25954666666658 57.213936222519358 39.982575757575759 20.500000000000004 136.72031999999993 135.80778911564619 90.475434782608644 57.825241040000009 40.82500000000001 23.44916666666667 77.416666666666671 17.68350340136055 144.55129333333329 157.41784811437506 116.59876091954011 0.36170672000000009 103.08950666666665 375.09666666666669 134.25852201257854 105.95736122714186 46.175000000000004 1193.4638380952383 42.521491228070182 54.550000000000004 1468.0951333333335 25.555133928571433 49.858333333333341 81.632271385230197 19.068333333333335 46.784523809523812 2.8365089400000003 1053.4313666666669 1.3621890900000002 129.0148933333333 46.900479360000006 229.36522641169358 104.81018757062135 280.41277777777793 128.24125615763543 0.6003206000000002 108.52297854847268 21.449677697009545 140.60144367816079 46.14160401002507 61.526190476190486 13.187500000000002 866.53482222222226 43.865052054440532 61.56966228000001 2.2034381600000006 151.94285333333329 88.870748287407864 0.30254843000000003
decision_type=2 2 2 2 2 2 2 2 2 2 2 2 2 2 2 2 2 2 2 2 2 2 2 2 2 2 2 2 2 2 2 2 2 2 2 2 2 2 2 2 2 2 2 2 2 2 2 2 2 2 2 2 2 2 2 2 2 2 2 2 2 2
left_child=1 8 15 4 9 49 -4 47 20 19 23 41 13 17 -15 -2 21 31 -16 24 35 -13 -18 -5 29 -26 27 43 -29 -3 48 -7 33 -19 -17 42 37 38 39 -37 -40 -12 -1 -27 -23 -24 -47 -8 -31 -6 -11 -22 -53 -51 -30 56 -56 59 -59 -57 -54 -62
right_child=2 3 6 10 5 12 7 -9 -10 50 11 16 -14 14 18 34 22 32 -20 -21 51 44 45 -25 25 26 -28 28 54 30 -32 -33 -34 -35 -36 36 -38 -39 40 -41 -42 -43 -44 -45 -46 46 -48 -49 -50 53 -52 52 60 -55 55 57 -58 58 -60 -61 61 -63
leaf_value=-0.39405468104915187 -0.99340423473163997 0.61414344748648919 -0.12766214149831895 0.19768461308780719 0.4723608445756613 1.0591363490581513 -0.58508676456100828 -0.26544384942654364 -0.69726420018731095 -0.35059255532729316 0.26638095687816638 -0.18846046778738956 -0.14433848077845243 1.0645542071994982 0.16388069604927641 -0.27164032813906669 -0.12418510058830524 0.029155254966595719 0.75024247971448033 -0.11322945754779014 -0.36239596525984491 -0.0007575007106946863 0.92422564969343302 1.2217997635327853 0.33265540177879088 0.84133939873930574 1.3003313298998891 1.5548177770220419 0.43891451060180914 0.97139102170162872 -0.20231519452312538 0.20598259138024372 0.30262003363881795 -0.51112363801781946 -0.70737447362235106 0.075721444444822483 -0.070048726069691938 -0.15877161526679992 1.530575610091063 0.96291755733489992 0.46241052362653945 0.87626990000406912 0.44601785558462143 0.23356749342100042 0.74388914759953817 0.49978881407371711 -0.38644592111760923 -0.37726152466498636 0.23890475586220458 1.3775726949251614 0.452451171875 0.45546708494626187 -0.69188406467437746 0.47276670646667485 0.83039434472388696 1.093959971057463 -0.13597146209081015 -0.19356552816927433 1.0219852760859898 0.36005120547424108 -0.47505965926430443 0.46352406452442041
leaf_weight=55 133 134 503 22 188 25 449 835 41 39 101 293 144 38 159 90 58 114 66 38 127 46 34 26 187 37 38 22 104 23 57 46 70 65 165 61 76 30 22 25 27 39 20 111 30 71 22 468 91 26 24 37 23 20 45 167 30 20 21 29 22 29
leaf_count=55 133 134 503 22 188 25 449 835 41 39 101 293 144 38 159 90 58 114 66 38 127 46 34 26 187 37 38 22 104 23 57 46 70 65 165 61 76 30 22 25 27 39 20 111 30 71 22 468 91 26 24 37 23 20 45 167 30 20 21 29 22 29
internal_value=-0.0918225 0.271298 -0.377756 0.332974 0.393399 0.266967 -0.321562 -0.377231 -0.0313817 0.493236 0.155609 0.114331 0.168472 0.245735 0.441164 -0.704348 0.032973 0.0851177 0.33588 0.522602 0.0178984 -0.0892604 0.276779 0.752414 0.544252 0.607324 0.689636 0.650035 0.739418 0.376543 0.190353 0.506389 -0.0350038 -0.167035 -0.553586 0.164589 0.268725 0.424767 0.554442 0.333627 0.941995 0.436279 -0.170035 0.38551 0.293182 0.459897 0.290142 -0.479021 0.386687 0.572975 -0.0446711 -0.176867 0.0354039 0.984179 0.696295 0.782089 0.443848 0.889127 0.429034 0.985371 -0.174628 0.0586448
internal_weight=6158 3515 2643 2920 2178 961 2255 1752 595 1217 742 694 727 583 263 388 554 320 225 1154 554 369 185 48 1116 811 624 586 438 305 171 71 249 179 255 316 241 165 135 86 49 140 75 148 76 127 93 917 114 234 63 238 111 46 416 312 75 237 41 196 74 51
internal_count=6158 3515 2643 2920 2178 961 2255 1752 595 1217 742 694 727 583 263 388 554 320 225 1154 554 369 185 48 1116 811 624 586 438 305 171 71 249 179 255 316 241 165 135 86 49 140 75 148 76 127 93 917 114 234 63 238 111 46 416 312 75 237 41 196 74 51
is_linear=0
shrinkage=0.01


Tree=12
num_leaves=63
num_cat=0
split_feature=72 9 12 9 39 7 47 52 5 9 47 68 44 18 45 20 36 69 9 69 44 47 69 19 47 38 18 5 22 45 7 60 13 68 68 26 20 27 64 29 61 12 57 15 65 13 57 10 69 12 55 30 44 64 14 31 24 54 55 51 52 17
split_gain=6.04521e+06 579099 570864 443979 331483 244373 228825 201760 196509 181911 177181 176928 325418 159287 168664 152338 149376 169291 260957 180883 195966 178064 155393 152593 150475 145624 170520 140027 134550 141853 147909 131624 128251 126003 124836 124686 142023 222183 167100 147274 143315 128406 141319 123354 121333 120675 120658 117374 114912 164050 107879 107726 107390 104714 143829 103271 101444 98905.3 98025.4 100295 96828.3 96570.8
threshold=4.4226471185684213 4.5000000000000009 115.11894063775257 4.5000000000000009 107.88257062146884 21.500000000000004 59.04504312000001 1.09546392 104.76646096 1.5000000000000002 60.95213978000001 245.16673673529883 5.0340666640000009 21.222500000000007 20.903789297600003 12.625833333333334 155.58515723270435 87.366906104575477 4.5000000000000009 95.479293064669847 12.025235745600002 53.049901940000005 57.213936222519358 16.280000000000005 60.585474740000009 138.96076923076916 18.804105691056911 53.407598020000002 36.636111111111113 52.735666728800005 4.5000000000000009 244.60517736899666 133.69150666666658 217.36636575139286 263.08914417822058 80.464024290711635 13.983333333333334 58.419550864771267 185.97316453538772 2440.6771000000003 79.813221634489778 121.94916949152537 0.37671670000000007 123.86747999999993 72.005639002395881 44.108157422969093 1.1269759700000004 134.87834824858746 108.44166864684762 139.65497333333329 0.6003206000000002 2059.3444880200782 1.7213191864000004 170.21064461996275 137.17542666666668 1460.1004628879784 43.53601161690009 0.60269432000000012 0.37063830000000003 63.97947640000001 1.2740378800000001 17.78916666666667
decision_type=2 2 2 2 2 2 2 2 2 2 2 2 2 2 2 2 2 2 2 2 2 2 2 2 2 2 2 2 2 2 2 2 2 2 2 2 2 2 2 2 2 2 2 2 2 2 2 2 2 2 2 2 2 2 2 2 2 2 2 2 2 2
left_child=1 4 13 5 9 8 7 33 11 -1 -3 35 44 16 -15 -16 22 18 21 57 32 -18 -2 -22 53 -8 56 -12 -9 30 -30 -28 61 58 -14 36 37 39 47 40 41 -4 -43 -32 -13 -6 -42 -38 -40 -50 -39 -44 -35 -24 55 -55 -27 -19 59 -5 -47 -21
right_child=2 10 3 6 45 -7 25 28 -10 -11 27 12 34 14 15 -17 17 19 -20 20 23 -23 24 -25 -26 26 31 -29 29 -31 43 -33 -34 52 -36 -37 38 50 48 -41 46 42 51 -45 -46 60 -48 -49 49 -51 -52 -53 -54 54 -56 -57 -58 -59 -60 -61 -62 -63
leaf_value=-0.94394201059458749 0.81474311417317946 -0.24079610241591731 0.01615457816515118 0.20412825568858534 -0.63979421413713888 -0.099295134884970535 0.037103318440008769 0.91577949725106012 1.4042501509189607 -0.55884868310845426 0.48845745832674092 -0.16612203577089879 -0.30093825907810873 -0.38339516867559853 0.73857798337936398 -0.24502117320895195 0.49440101917088031 -0.26853194138099407 0.23400320009751752 -0.68188075560110595 1.2155330446031358 1.7845598129604172 -0.38669908022058425 0.17278730122939401 0.72090152513413208 0.53380949584612003 1.0490468896793415 -0.12082986928205541 -0.26007811793049829 0.95295961306645327 0.60456986431919391 0.38509745828807357 0.47863939952850343 0.22011511066893363 0.46164496251514986 -0.16522405655487724 0.80998644986655566 0.41707199323745003 0.68292068228979108 -0.24670267148451375 0.59922974850192212 0.32604666434801544 0.88443540654399178 0.14957224831784643 0.64234048618702222 -0.29668441547867874 -0.29326919725963047 1.7465302011241084 -0.26738858520984649 0.70240499349864749 -0.48480005323886871 1.6890726892948151 -0.29169888259297577 0.45563867153440207 -0.32476186945013802 -0.34392141217277167 0.04829135710230241 0.35193254832065463 -0.049397000229876975 0.91483792190750435 -0.61681060779977726 0.23491998958587648
leaf_weight=184 20 887 21 115 155 70 79 32 24 368 63 21 92 141 31 32 20 116 88 27 36 23 116 23 21 96 79 94 61 26 84 48 40 53 28 23 32 21 419 22 33 39 99 205 160 755 28 23 33 37 36 20 181 70 73 21 78 33 138 24 108 20
leaf_count=184 20 887 21 115 155 70 79 32 24 368 63 21 92 141 31 32 20 116 88 27 36 23 116 23 21 96 79 94 61 26 84 48 40 53 28 23 32 21 419 22 33 39 99 205 160 755 28 23 33 37 36 20 181 70 73 21 78 33 138 24 108 20
internal_value=-0.0905947 -0.368513 0.265889 0.343086 -0.489887 0.475185 0.212817 0.127471 0.508392 -0.687213 -0.185988 0.490279 0.280816 0.0564603 -0.191194 0.238972 0.124093 0.246844 0.545994 0.114002 0.364154 1.18449 -0.0388117 0.809039 -0.0955263 0.419218 0.519508 0.123661 0.293292 0.240315 0.187375 0.798105 0.0624505 -0.00492627 -0.123002 0.56144 0.580806 0.413282 0.679042 0.536379 0.608161 0.750814 0.848458 0.281821 0.548541 -0.382888 0.189558 1.20163 0.620264 0.245217 -0.152531 1.01967 -0.175775 -0.156758 0.00588257 0.271125 0.316163 -0.131114 0.139401 0.326841 -0.336747 -0.291753
internal_weight=6145 2614 3531 2580 1570 1281 1299 919 1211 552 1044 1187 301 951 204 63 747 426 131 295 146 43 321 59 301 380 301 157 408 376 350 127 87 511 120 886 863 319 544 262 240 179 158 289 181 1018 61 55 489 70 57 119 234 280 164 91 174 149 277 139 863 47
internal_count=6145 2614 3531 2580 1570 1281 1299 919 1211 552 1044 1187 301 951 204 63 747 426 131 295 146 43 321 59 301 380 301 157 408 376 350 127 87 511 120 886 863 319 544 262 240 179 158 289 181 1018 61 55 489 70 57 119 234 280 164 91 174 149 277 139 863 47
is_linear=0
shrinkage=0.01


Tree=13
num_leaves=63
num_cat=0
split_feature=70 48 9 9 3 37 34 59 19 6 5 69 47 69 65 68 2 9 51 44 68 4 24 18 28 65 65 66 18 30 47 27 66 68 5 63 39 12 16 57 32 65 17 66 11 6 38 17 42 57 59 61 64 21 57 51 30 67 1 23 1 69
split_gain=6.37378e+06 777646 589126 416594 300676 299944 208525 197903 186080 183274 210712 181418 161300 159316 155352 154759 149058 147416 147357 146723 140486 133187 132282 127307 122738 145830 130253 132240 196837 121084 120989 119498 118587 121916 116526 129217 115354 114536 113778 152097 123598 111692 110576 132823 126056 109972 107006 105246 105107 104351 112927 101587 94956 94366.8 107950 105903 93134.4 91932.1 89539.3 89188.7 94023.3 112142
threshold=-3.2310187816619869 54.959785720000006 4.5000000000000009 4.5000000000000009 863.30831592367508 124.9022619047618 264.25579213097268 13.114776800956209 15.07543103448276 1.6557561600000001 43.067050600000009 111.13009742611773 60.777848740000003 99.058446131912845 80.9609643054538 201.47813505560217 52.991666666666667 1.5000000000000002 63.064969800000007 15.795905901600003 245.16673673529883 6.6136373864000015 61.908333333333339 27.347500000000007 940.56713333333357 74.458144438998403 85.093073001793371 219.19597137669837 16.182500000000005 1632.0875333333333 52.934991060000009 61.175000000000004 277.84067461160026 237.30202583328372 68.626968620000014 79.217194152160204 129.3780952380952 143.07611999999992 10.720000000000001 2.6936953600000004 839.36203333333344 121.4573309103824 16.035833333333336 235.79591056475505 125.02878666666665 0.42430114000000002 89.347906602254213 12.015833333333333 1.7988881944000001 1.8022351200000002 70.843494331603367 42.704319351864655 221.15060910177425 16.602542372881359 0.29923675000000005 53.451013980000006 1419.9009189656847 35.750951399373506 14.370000000000001 37.341666666666676 23.069540229885057 83.926650441272301
decision_type=2 2 2 2 2 2 2 2 2 2 2 2 2 2 2 2 2 2 2 2 2 2 2 2 2 2 2 2 2 2 2 2 2 2 2 2 2 2 2 2 2 2 2 2 2 2 2 2 2 2 2 2 2 2 2 2 2 2 2 2 2 2
left_child=1 3 5 6 8 23 7 19 14 24 -11 16 -4 -8 15 -3 32 -9 41 31 29 -14 -18 46 25 37 34 28 -28 59 -16 -1 33 49 35 53 -7 58 -12 40 -40 -15 -27 44 -44 -22 57 -10 -24 -6 51 -51 -21 54 -26 -56 -42 -2 -5 -19 61 -61
right_child=2 4 12 9 11 36 13 17 47 10 38 -13 21 18 30 -17 22 20 -20 52 45 -23 48 -25 26 42 27 -29 -30 -31 -32 -33 -34 -35 -36 -37 -38 -39 39 -41 56 -43 43 -45 -46 -47 -48 -49 -50 50 -52 -53 -54 -55 55 -57 -58 -59 -60 60 -62 -63
leaf_value=0.31503071202701044 -0.2616626917981093 -0.0075484813211692701 -0.23269646769383115 0.73764644702326931 0.33656217547580602 -0.50328921268836535 0.56052648249971737 1.0294163630543833 0.36492945937883287 -0.26670925296545028 0.13302379864912767 -0.35449600066457476 -0.12269433617018737 -0.10855614615649711 -0.3886442969784592 0.901683662976974 0.4756443691009381 1.1975763303995133 0.82636763939490698 0.34312088426947596 0.79863241439515886 0.44645271600032338 -0.39363078196133883 -0.79538243979623868 -0.28588535106474799 -0.037563993560376568 0.19073936339834471 0.15651034356826959 1.2523650397023847 1.1044700419384501 0.33204933445486762 -0.52771764755249029 0.70620084704774799 -0.16863880408379964 -0.46463273109792141 0.50680380724511054 -0.26806804732842876 1.1925460960314824 0.23736168166001637 1.6579829703569413 1.33208398139838 0.66506865544752647 1.1584741174309483 -0.079150055497884758 0.22386036669766463 -0.070634499102137815 -0.41752587643397954 -0.37724029864342712 0.36591080753426802 -0.21631536692714279 -0.39403853188542765 0.38602163762241215 1.2760894394914311 -0.3311985517595265 -0.20977040910084424 0.58859054077554629 0.52290956452488901 -0.89837570043710557 0.22567681948343915 -0.015334538794480837 0.94517639714128832 0.59395244334615882
leaf_weight=106 29 36 874 65 200 340 178 137 21 25 26 56 104 123 66 39 305 25 26 20 22 68 35 292 42 107 40 215 31 69 36 20 33 136 49 53 539 26 36 20 33 22 31 32 27 43 293 212 38 44 51 77 24 74 24 54 25 104 72 39 51 134
leaf_count=106 29 36 874 65 200 340 178 137 21 25 26 56 104 123 66 39 305 25 26 20 22 68 35 292 42 107 40 215 31 69 36 20 33 136 49 53 539 26 36 20 33 22 31 32 27 43 293 212 38 44 51 77 24 74 24 54 25 104 72 39 51 134
internal_value=-0.0890053 0.287273 -0.362085 0.406494 0.102545 -0.482914 0.55031 0.651063 -0.124669 0.271512 0.578952 0.198092 -0.177608 0.351113 0.119758 0.465252 0.231764 0.747896 0.133127 0.354867 0.647196 0.102317 0.384125 -0.634549 0.217661 0.362796 0.127886 0.280079 0.654266 0.733784 -0.134282 0.181261 0.125309 0.0875736 -0.0191651 0.069207 -0.359052 0.584061 0.729963 0.866107 0.697623 0.00882141 0.17972 0.438046 0.723395 0.223579 -0.524306 -0.310349 0.00174703 0.181243 0.000638516 0.16699 0.852013 -0.0503427 0.122852 0.342941 0.983302 -0.759544 0.468582 0.631064 0.567837 0.456599
internal_weight=6174 3531 2643 2146 1385 1597 1039 690 410 1107 165 975 1046 349 177 75 919 520 171 170 383 172 378 718 942 360 582 286 71 318 102 126 541 508 296 247 879 163 140 114 94 145 197 90 58 65 426 233 73 372 172 121 44 194 120 78 58 133 137 249 224 173
internal_count=6174 3531 2643 2146 1385 1597 1039 690 410 1107 165 975 1046 349 177 75 919 520 171 170 383 172 378 718 942 360 582 286 71 318 102 126 541 508 296 247 879 163 140 114 94 145 197 90 58 65 426 233 73 372 172 121 44 194 120 78 58 133 137 249 224 173
is_linear=0
shrinkage=0.01


Tree=14
num_leaves=63
num_cat=0
split_feature=70 48 39 69 3 44 34 36 11 64 67 19 13 68 65 42 50 67 67 27 19 46 35 36 51 69 38 3 57 16 68 10 12 19 46 20 23 29 18 57 64 51 68 54 12 39 19 22 44 43 59 63 49 4 46 24 20 18 67 64 43 35
split_gain=5.78511e+06 543668 425708 302545 281528 242553 218489 189421 181465 170360 191334 170080 166478 155957 148538 216338 144031 140809 132224 131001 137504 187890 127127 123961 122948 117704 160378 117172 113691 123957 121592 136845 126575 123789 110932 106650 106269 106247 111182 103622 106018 103366 101497 161930 112301 101177 99101.2 98341.9 96222.2 124348 95866.4 95346.9 94566.5 94256.7 91725.8 181783 111962 107300 91514.8 202913 91171.1 90510.6
threshold=-3.2310187816619869 54.625383260000007 103.15607843137245 57.213936222519358 882.6855888888889 2.0643581904000006 278.48416666666668 266.55785539277673 46.012853333333275 166.6868812318958 113.52227231335024 17.68350340136055 85.952386666666555 125.82084039299194 80.9609643054538 1.5578272952000003 57.137205580000007 39.997020354236412 81.78222233097965 40.286924939467319 15.931666666666668 51.97307304000001 184.2963157894736 161.60786163521996 50.191231160000008 90.444927137815469 123.32714285714282 1770.2769333333333 0.26186900000000007 18.134166666666673 231.19756822249551 116.19426596491216 139.65497333333329 19.124166666666671 56.316223320000013 26.387500000000006 40.891666666666673 632.74690000000021 16.243981481481487 1.9297583800000002 269.29520611898027 59.232998300000013 224.70905499409824 0.57160933000000014 118.87699999999992 326.81141025641023 22.18031822760355 51.375000000000007 5.0340666640000009 12.125549101600003 57.278426584169218 102.08840408002604 47.406258340000001 1.9192915280000002 47.892384400000005 46.373809523809534 14.363333333333335 13.294166666666667 90.502596262448137 227.23667958337032 1.6969684688000002 91.133020581113712
decision_type=2 2 2 2 2 2 2 2 2 2 2 2 2 2 2 2 2 2 2 2 2 2 2 2 2 2 2 2 2 2 2 2 2 2 2 2 2 2 2 2 2 2 2 2 2 2 2 2 2 2 2 2 2 2 2 2 2 2 2 2 2 2
left_child=1 5 13 -3 11 12 7 28 -4 -6 19 14 50 17 15 -5 18 -2 -14 22 21 -21 -11 60 -16 26 -17 36 -7 35 31 -31 -33 -32 45 37 -18 38 61 40 46 52 43 44 -23 53 51 58 -22 -50 -1 -36 -39 -8 56 57 -54 -56 -9 -60 -10 -30
right_child=2 3 8 4 9 6 34 47 23 10 -12 -13 16 -15 24 25 27 -19 -20 20 48 42 -24 -25 -26 -27 -28 -29 29 30 33 32 -34 -35 39 -37 -38 41 -40 -41 -42 -43 -44 -45 -46 -47 -48 -49 49 -51 -52 -53 54 -55 55 -57 -58 -59 59 -61 -62 -63
leaf_value=0.71714506976515058 -0.39832002398661448 1.1779368029190944 -0.12356872513921506 1.11012433771182 -0.23186418187866609 -0.0079495779806826299 0.68222339034080504 0.21980938912022349 -0.61141230188271134 1.3197746833271924 -0.30288799375295639 -0.34770621940810631 1.3031617399056754 -0.48530139726331778 0.23372698269107126 0.46092462403433665 0.56006738630068653 -0.99943072316476278 0.52599585449254072 0.13629192277864757 0.33641620467357136 1.7273357896208763 0.40961244491108678 -0.23136756527882354 -0.35285674908581904 0.61741366661511932 -0.67850576559702558 0.63010624318183228 0.53638151622861618 1.0538751371577382 -0.15856218373233621 0.084117321471373241 0.8223426455391778 0.60515461072689147 -0.26891468141917829 -0.18380623463127349 0.024802364807795074 -0.10326904474447171 0.05631828149159749 -0.5289176665011206 -0.33792392088557188 -0.16616797389912194 0.36487019928955583 0.20534746679766425 0.81332738155271955 0.97402381646633152 0.58668800783711805 0.83990529261278302 -0.23029029337161067 0.20467090620377729 1.4071714079380035 0.36636856726237704 0.17997877614838736 -0.0056973436431608342 0.17994250779566556 -0.14451597760404858 1.1256639413679801 0.713595646016569 1.1348377019286155 0.38020880750350416 -0.36776801100979578 1.4389308829307554
leaf_weight=125 54 26 477 27 90 119 28 102 191 21 64 188 30 391 55 21 51 140 81 197 109 20 57 585 102 26 30 79 25 60 44 48 45 41 54 54 136 51 21 38 53 58 107 29 41 20 43 89 134 129 24 42 21 69 69 70 31 83 50 124 784 20
leaf_count=125 54 26 477 27 90 119 28 102 191 21 64 188 30 391 55 21 51 140 81 197 109 20 57 585 102 26 30 79 25 60 44 48 45 41 54 54 136 51 21 38 53 58 107 29 41 20 43 89 134 129 24 42 21 69 69 70 31 83 50 124 784 20
internal_value=-0.0881014 0.256037 -0.362542 0.108781 0.0895699 0.359425 0.297228 0.359974 -0.294257 0.183129 0.224262 -0.118385 0.545306 -0.600312 0.0467968 0.339907 0.433463 -0.832111 0.736041 0.264236 0.22448 0.354667 0.654656 -0.346449 -0.147366 0.0698312 -0.209329 0.307199 0.278963 0.32504 0.513068 0.68154 0.441323 0.209819 0.0757189 0.236072 0.170784 0.28657 0.657134 -0.0518051 0.0426235 0.222713 0.573042 0.820536 1.113 0.326407 0.187724 0.550849 0.0865941 -0.0169443 0.82829 0.00902174 0.292113 0.192878 0.365706 0.277155 0.743753 0.471345 0.457639 0.597056 -0.415497 0.937515
internal_weight=6193 3571 2622 1473 1447 2098 1572 1225 2037 998 908 449 526 585 261 104 377 194 111 844 766 394 78 1560 157 77 51 266 860 741 238 153 93 85 347 503 187 449 66 230 192 383 197 90 61 117 139 365 372 263 149 96 325 97 274 222 52 152 276 174 975 45
internal_count=6193 3571 2622 1473 1447 2098 1572 1225 2037 998 908 449 526 585 261 104 377 194 111 844 766 394 78 1560 157 77 51 266 860 741 238 153 93 85 347 503 187 449 66 230 192 383 197 90 61 117 139 365 372 263 149 96 325 97 274 222 52 152 276 174 975 45
is_linear=0
shrinkage=0.01


Tree=15
num_leaves=63
num_cat=0
split_feature=72 7 9 44 34 9 9 16 11 62 20 43 8 53 52 37 39 7 68 25 69 18 13 27 64 3 50 9 69 4 54 51 8 8 11 3 18 30 35 62 54 42 30 68 1 18 9 63 64 32 7 68 57 11 66 19 27 26 54 31 41 32
split_gain=5.84308e+06 696770 566270 435351 275819 271988 265687 235488 224502 164737 198867 250990 242734 159382 158335 158261 151423 149040 147130 141881 134489 134451 128915 145015 173896 144938 123054 123770 159774 147536 134187 121882 112062 119763 108212 108064 110624 108013 140739 151500 107399 99957.7 98394.7 95568.2 93942.4 99820.6 162842 95245 92829.6 92097.7 92085 110703 93474.3 91171 87799.8 109092 87161.8 96323.4 92409.6 86146.4 133762 85886.5
threshold=4.4226471185684213 4.5000000000000009 1.5000000000000002 2.0930958224000005 213.1852631578947 4.5000000000000009 6.5000000000000009 19.740833333333338 104.90073379310343 163.6780604667762 11.820833333333336 14.333446679200003 2.5000000000000004 5.9101108500000006 2.6620038400000001 127.50666666666663 90.475434782608644 15.500000000000002 226.82526798582248 43.53601161690009 63.320023157924631 15.118562017972975 115.26753333333329 42.225000000000001 177.68686391993768 716.08103333333338 50.721836480000007 5.5000000000000009 87.366906104575477 8.2530882192000004 0.53984314 51.489512620000006 2.5000000000000004 5.5000000000000009 133.69150666666658 1155.4965666666669 14.735282485875709 575.36754901960796 265.61329214567428 136.97901252504678 0.38467102000000003 5.6993710928000008 884.44826296296299 148.53826087712716 28.297500000000003 21.545000000000005 2.5000000000000004 82.071261752785972 106.47149023229935 776.67030000000011 8.5000000000000018 237.30202583328372 1.2318008600000003 88.023906666666662 233.45290280893968 18.108773584905666 50.75833333333334 42.347727272727276 1.0131068400000003 1030.495366666667 3.0407427776000007 801.51763333333349
decision_type=2 2 2 2 2 2 2 2 2 2 2 2 2 2 2 2 2 2 2 2 2 2 2 2 2 2 2 2 2 2 2 2 2 2 2 2 2 2 2 2 2 2 2 2 2 2 2 2 2 2 2 2 2 2 2 2 2 2 2 2 2 2
left_child=2 9 16 31 6 15 7 19 40 42 11 -11 14 26 -13 48 -1 -7 -9 32 -10 54 25 24 -24 -12 50 28 59 34 -31 -3 -5 -34 -29 36 -30 -33 39 -39 -8 -20 -2 -17 45 46 47 -25 -4 -37 -6 52 -52 -54 55 -21 57 -41 -59 -28 -61 -23
right_child=1 3 5 4 13 17 8 18 20 10 22 12 -14 -15 -16 43 -18 -19 41 21 -22 61 23 44 -26 -27 27 29 35 30 -32 37 33 -35 -36 49 -38 38 -40 56 -42 -43 -44 -45 -46 -47 -48 -49 -50 -51 51 -53 53 -55 -56 -57 -58 58 -60 60 -62 -63
leaf_value=-0.98762987526051482 0.10231691664271057 0.035636196745559574 0.13199363671056927 0.36151060645793937 0.60132574050731602 -0.2647649822099889 1.2239817807972433 1.0430278030732303 0.6560413904275213 -0.31637070449639337 -0.13348277862255389 0.59667181044816975 -0.068820508321126295 0.92869259027334372 1.6697631187438964 -0.20564488103050343 -0.56902237218643548 -0.0090447935762245271 -0.019934080833638158 0.028551762189443518 -0.077470931236836016 0.015514703927561642 -0.49874165641034351 0.7066508973638217 0.33820392863905951 0.98349380107153028 0.18173818596673233 -0.33049627758838512 0.35408248144037585 0.035256049318133663 0.80249118763208394 0.98702561216823981 1.1155032148517545 0.29368621826171876 0.14190747903151946 -0.17800929418868489 -0.36904017135234818 -0.052853805930526167 0.30039101301431659 0.84400341033526172 0.39563553571701049 0.70906246823649255 1.0823777480352492 -0.44088344959393139 0.31374283283948901 -0.55535356232523914 -0.33863085999283743 -0.15915121292074522 -0.56291744776205588 0.35987280670837929 0.39148597110595018 -0.38581281844307397 0.31324695555063392 -0.26011288234964014 -0.52381182497197931 0.74148902159470775 0.94331789461232851 0.88252401053905494 0.23493705643228738 0.4338327717781067 1.3095360688729718 0.52557229129686245
leaf_weight=136 20 40 20 83 21 713 20 103 28 49 26 44 39 26 20 407 237 335 27 123 233 40 34 27 92 21 27 108 34 53 40 66 61 25 88 36 56 27 150 91 72 62 21 300 25 120 186 24 495 275 56 85 39 96 22 26 118 30 83 37 33 189
leaf_count=136 20 40 20 83 21 713 20 103 28 49 26 44 39 26 20 407 237 335 27 123 233 40 34 27 92 21 27 108 34 53 40 66 61 25 88 36 56 27 150 91 72 62 21 300 25 120 186 24 495 275 56 85 39 96 22 26 118 30 83 37 33 189
internal_value=-0.0881168 0.259467 -0.360556 0.331233 0.266532 -0.301222 0.377696 0.482877 0.150946 -0.0119585 -0.0476962 0.272781 0.553057 0.154967 0.932013 -0.402591 -0.721651 -0.183022 0.785706 0.380692 0.00122005 0.278051 -0.135466 -0.181824 0.112361 0.365592 0.13641 0.201862 0.297395 0.0372404 0.36525 0.569078 0.623629 0.876603 -0.118397 0.2093 -0.0958605 0.606844 0.556559 0.66666 0.575711 0.487906 0.604299 -0.305463 -0.278859 -0.320358 -0.201373 0.299215 -0.535931 0.29761 -0.0370277 -0.0855981 0.0480053 -0.0944756 0.0658873 0.152957 0.726992 0.601862 0.406863 0.661582 0.846664 0.436479
internal_weight=6220 3577 2643 2829 2224 2270 1114 761 353 748 707 152 103 1110 64 1222 373 1048 192 569 261 400 555 508 126 47 1084 787 498 289 93 605 169 86 196 401 90 565 499 349 92 89 41 707 382 357 237 51 515 311 297 276 191 135 171 149 322 204 113 97 70 229
internal_count=6220 3577 2643 2829 2224 2270 1114 761 353 748 707 152 103 1110 64 1222 373 1048 192 569 261 400 555 508 126 47 1084 787 498 289 93 605 169 86 196 401 90 565 499 349 92 89 41 707 382 357 237 51 515 311 297 276 191 135 171 149 322 204 113 97 70 229
is_linear=0
shrinkage=0.01


Tree=16
num_leaves=63
num_cat=0
split_feature=72 7 9 9 39 62 2 40 9 23 30 21 63 21 61 37 41 8 24 17 55 10 21 61 24 12 9 7 63 24 39 13 17 22 31 45 36 60 29 18 9 52 9 3 8 44 12 23 38 14 63 50 15 25 69 2 64 14 61 68 24 52
split_gain=5.75937e+06 769467 585466 364571 318433 250423 212716 187789 186057 215973 268489 197237 192635 179078 163404 163081 152218 152054 163870 151827 162979 168359 140548 151183 135760 131557 130620 126972 124961 130278 122394 119641 114228 123108 171659 134898 109092 114491 137149 120922 107423 105029 127942 103760 102642 102274 101537 149497 120485 101155 99359.8 98659.9 98544 97520.8 97512.9 96735.7 99206.9 93439 92117.9 91996.4 91391.8 90783
threshold=4.4226471185684213 3.5000000000000004 4.5000000000000009 4.5000000000000009 89.347906602254213 271.67940569955414 66.500000000000014 34.32466456320001 1.5000000000000002 44.632456140350882 1529.0267944724073 21.235862708719853 65.146779677393752 17.895789473684214 18.762969157317624 125.80678571428562 1.4736915688000003 3.5000000000000004 41.894444444444453 15.84166666666667 3.3493438100000006 101.39462666666655 11.310833333333335 90.132625832117341 57.902380952380959 139.27279450980384 1.5000000000000002 14.500000000000002 113.77937670935194 61.025595238095242 349.96286137338075 75.072577471264282 13.280833333333335 53.658333333333339 679.2878666666669 13.236071200000003 128.24125615763543 302.13767936347864 1550.1868999999999 11.645000000000003 6.5000000000000009 1.0460834700000001 6.5000000000000009 982.84955609756105 5.5000000000000009 20.345199221600005 131.61998666666656 39.186904761904763 276.84666666666669 126.47257333333329 97.736952493854361 50.802278800000011 133.59734666666668 64.208333333333357 88.870748287407864 53.658333333333339 240.33635280205479 42.758921049018106 63.504507057937765 148.53826087712716 49.23947368421053 0.27348608000000002
decision_type=2 2 2 2 2 2 2 2 2 2 2 2 2 2 2 2 2 2 2 2 2 2 2 2 2 2 2 2 2 2 2 2 2 2 2 2 2 2 2 2 2 2 2 2 2 2 2 2 2 2 2 2 2 2 2 2 2 2 2 2 2 2
left_child=2 32 4 5 26 8 7 13 11 12 53 50 44 19 -9 -6 -8 18 -18 -5 21 -21 52 28 31 40 -1 57 29 -24 43 -15 36 -34 -35 -36 -2 38 39 -38 -16 54 51 -12 -10 -37 60 -48 49 -49 55 -43 -7 -11 -23 -3 -57 -4 -55 -17 -14 -29
right_child=1 3 27 6 15 22 16 14 9 10 30 -13 46 24 25 59 17 -19 -20 20 -22 41 23 -25 -26 -27 -28 61 -30 -31 -32 -33 33 34 35 45 37 -39 -40 -41 -42 42 -44 -45 -46 -47 47 48 -50 -51 -52 -53 -54 58 -56 56 -58 -59 -60 -61 -62 -63
leaf_value=-0.99067710951964061 -0.43525137614972637 1.0717194558036598 -0.51522005570706275 0.099339228957331396 -0.5454112163002901 -0.5991647919470614 -0.1444183466911316 1.0542786813723415 0.11054219306969061 0.24481441164383225 0.26078805580139164 1.027543987248295 0.7142466282844544 0.64875768348698815 0.36961056620424443 -0.22282456965856653 1.1542001256346703 1.1630037892118414 0.17878623516833195 0.65110821920757489 0.9875902696144887 0.25384014132799526 0.41926208737755072 -0.30082084662205466 -0.45275639299245984 0.64737154189854451 -0.58560233204635148 0.1495885893305586 1.0400387213780331 -0.1953002947852725 -0.003340473480167843 -0.011779348484027348 -0.28932356066324494 0.8917387153614651 -0.48002299096990136 -0.15696757158264518 -0.38000869520008562 -0.36637597896434643 0.77095437103388265 0.38573788110552165 -0.31147056579589844 0.33930627135932445 0.045704970586867566 0.99175092081914007 0.79414673360188803 0.66295635157618027 1.5571130100067925 0.69010348793338327 0.29689019651123971 1.5187006330490114 -0.0010539488358931109 1.3325833492279053 0.24298630200326443 0.13540825849771498 -0.28193129059246608 -0.0060117257436116539 0.82163572720118938 -0.199452294754526 -0.65936555042266842 -0.45001791724193985 -0.018382702959435327 -0.16099071612494573
leaf_weight=135 29 33 113 439 482 33 25 38 82 309 25 129 90 30 55 465 24 47 61 96 39 66 193 37 65 73 194 168 26 42 21 319 264 22 47 32 32 27 49 58 40 20 42 87 30 29 34 34 33 26 33 20 24 35 70 30 28 549 25 289 21 214
leaf_count=135 29 33 113 439 482 33 25 38 82 309 25 129 90 30 55 465 24 47 61 96 39 66 193 37 65 73 194 168 26 42 21 319 264 22 47 32 32 27 49 58 40 20 42 87 30 29 34 34 33 26 33 20 24 35 70 30 28 549 25 289 21 214
internal_value=-0.0857062 0.263402 -0.352988 0.327711 -0.475339 0.441441 0.221881 0.183056 0.515674 0.444963 0.312021 0.753797 0.63564 0.135393 0.46209 -0.401745 0.571067 0.706575 0.454197 0.223495 0.377898 0.302172 0.21038 0.297401 -0.0331499 0.328142 -0.751818 -0.169579 0.382207 0.309425 0.697232 0.0450003 -0.0673118 -0.165283 0.0866149 -0.0773917 0.13064 0.229501 0.345247 0.113472 0.0828396 0.148512 0.431188 0.82859 0.293651 0.232832 0.796576 0.989677 0.782227 1.04916 0.469011 0.835945 -0.244575 0.173178 -0.0219246 0.639475 0.393542 -0.253352 -0.195747 -0.309905 0.575641 -0.0244009
internal_weight=6227 3618 2609 3029 1565 1460 1569 1412 1105 852 502 253 350 1206 206 1236 157 132 85 792 353 314 355 298 414 168 329 1044 261 235 133 349 589 394 130 108 195 166 139 90 95 218 82 112 112 61 238 127 93 60 124 40 57 369 136 91 58 662 60 754 111 382
internal_count=6227 3618 2609 3029 1565 1460 1569 1412 1105 852 502 253 350 1206 206 1236 157 132 85 792 353 314 355 298 414 168 329 1044 261 235 133 349 589 394 130 108 195 166 139 90 95 218 82 112 112 61 238 127 93 60 124 40 57 369 136 91 58 662 60 754 111 382
is_linear=0
shrinkage=0.01


Tree=17
num_leaves=63
num_cat=0
split_feature=73 7 9 7 9 6 7 69 50 6 16 51 16 20 16 8 20 37 65 53 15 67 36 47 69 68 64 35 21 14 0 40 12 18 69 3 2 58 24 5 60 44 43 64 68 3 62 22 1 62 67 62 3 55 60 46 62 68 56 62 52 32
split_gain=5.5386e+06 685791 531659 359032 341159 311310 240960 201480 189180 237077 170413 160667 223068 170484 164701 172577 234359 154696 154039 198115 145641 142593 134012 133038 131842 129412 168216 125187 121768 223465 194738 134838 120885 117929 108282 106483 103181 101035 99529.7 98836.7 139655 98308.3 131971 94815.9 92221.1 91620.1 109552 91271.5 90896.2 87861.2 87861 87505.6 85970.7 109904 88800.2 85812.9 109990 120842 104468 115307 104135 97863.2
threshold=-3.6738375425338741 4.5000000000000009 1.5000000000000002 19.500000000000004 4.5000000000000009 1.3775711100000003 15.500000000000002 108.44166864684762 63.432977440000009 0.32627515000000007 14.725833333333334 50.595587000000002 12.410833333333334 14.817500000000001 23.828360839736824 1.5000000000000002 11.820833333333336 89.536515151514962 72.212017794385318 1.8938329400000002 90.095426666666654 78.202770978807322 161.60786163521996 58.824359860000008 111.13009742611773 191.41661577529035 185.47974267573349 148.87815964523278 17.895789473684214 83.22885308176096 69.694093333333285 17.212802041600003 140.2827066666666 18.804105691056911 80.557149497887053 863.30831592367508 64.158333333333346 218.63817610062907 61.908333333333339 63.966583520000007 320.64915115358298 20.345199221600005 15.862678524000001 186.95613430836625 174.40800920001439 1928.6633497393248 168.91978006189208 49.767261904761916 24.332374213836481 325.44739295540285 87.276249124930345 245.38142508533437 782.97770000000003 0.22335500000000003 139.30659090909089 54.529532400000001 200.75200733752612 173.61488501652249 1.9410938100000001 255.10934780938189 0.96844501000000005 1452.9956000000002
decision_type=2 2 2 2 2 2 2 2 2 2 2 2 2 2 2 2 2 2 2 2 2 2 2 2 2 2 2 2 2 2 2 2 2 2 2 2 2 2 2 2 2 2 2 2 2 2 2 2 2 2 2 2 2 2 2 2 2 2 2 2 2 2
left_child=1 11 17 4 7 28 22 18 9 -9 27 14 13 -13 15 16 -1 -2 19 34 -14 -18 -4 -8 35 -20 -27 -7 30 -30 -6 36 -33 -23 -3 -5 -32 -38 47 41 -41 42 -28 -25 -17 46 -31 -37 -11 55 -15 -12 -24 54 -54 56 57 -49 59 60 -58 -61
right_child=2 3 6 24 5 10 23 8 -10 48 51 12 20 50 -16 44 21 -19 25 -21 -22 33 52 43 -26 26 39 -29 29 45 31 32 -34 -35 -36 38 37 -39 -40 40 -42 -43 -44 -45 -46 -47 -48 49 -50 -51 -52 -53 53 -55 -56 -57 58 -59 -60 61 -62 -63
leaf_value=1.0247589938624484 -0.96784425608396762 0.56722309473516608 -0.43770015989446104 -0.45445804461038541 1.0509880742622959 0.79220674303973593 -0.24084100386430699 -0.57814048483258207 0.99343757553100587 0.087843671798706058 0.68251258678436277 -0.22639849962332309 0.43818024014433227 1.1286187100952321 0.73614829111099245 0.38171245872974396 -0.58370834738016131 -0.54703981518270495 -0.062647357818025814 1.0836861303578254 -0.37693013763121463 0.76452069220871766 -0.43337579731377418 -0.042574428802839029 -0.51197044014930726 1.2406590320234714 0.5672603109667459 0.084436472076922661 0.77948196216612242 0.1460663251532722 0.078971877477347519 0.22832470802354141 0.82761112682521343 -0.23362596178054809 -0.15946606758662632 -0.079759448903955907 1.0576392131501979 0.24921549187256742 -0.12291117250109496 1.1098302360012746 0.2509569375038147 0.99864016443490988 -0.076672527790069583 0.48745954389683904 -0.20138330711407609 0.33263973505408678 -0.2783738778851515 0.69132737523033516 0.72909014368057257 -0.18635231438805075 0.28413197347096036 1.3191356199666076 -0.053841144993901253 -0.066628610041737563 -0.64005307406595313 -0.21896449351310729 1.4994485565594264 -0.20502133304218079 0.15161089053487076 0.19243909399251682 0.68125729723771411 0.85430769629776482
leaf_weight=37 134 29 940 28 31 41 492 42 25 60 50 39 24 22 40 32 24 251 26 23 253 29 171 216 32 46 498 64 37 97 354 71 64 20 70 76 22 52 92 78 25 48 34 40 178 54 163 21 35 34 28 38 40 300 73 25 21 53 68 74 60 32
leaf_count=37 134 29 940 28 31 41 492 42 25 60 50 39 24 22 40 32 24 251 26 23 253 29 171 216 32 46 498 64 37 97 354 71 64 20 70 76 22 52 92 78 25 48 34 40 178 54 163 21 35 34 28 38 40 300 73 25 21 53 68 74 60 32
internal_value=-0.086542 0.254982 -0.349869 0.326155 0.386466 0.266851 -0.291639 0.517478 0.193474 0.0474954 0.632835 -0.0188307 -0.166369 0.269166 0.131167 0.0555445 0.376415 -0.693502 0.577329 0.247636 -0.306307 0.0478025 -0.363787 -0.144641 0.113013 0.630604 0.655329 0.360804 0.192105 0.0444355 0.279364 0.236877 0.512431 0.357114 0.0534025 0.147259 0.149961 0.489558 0.177561 0.615907 0.901366 0.565213 0.526107 0.0402434 -0.112531 -0.0421782 -0.120025 0.237137 0.324092 0.29921 0.655706 0.957418 -0.244817 -0.166746 -0.432544 0.345846 0.388764 0.0493479 0.487262 0.609317 0.893381 0.392248
internal_weight=6176 3519 2657 2793 2177 1138 2272 1039 162 137 193 726 366 89 360 320 110 385 877 122 277 73 1524 748 616 755 729 105 945 351 594 563 135 49 99 584 428 74 556 683 103 580 532 256 210 314 260 464 95 388 50 88 584 413 113 354 329 74 255 187 81 106
internal_count=6176 3519 2657 2793 2177 1138 2272 1039 162 137 193 726 366 89 360 320 110 385 877 122 277 73 1524 748 616 755 729 105 945 351 594 563 135 49 99 584 428 74 556 683 103 580 532 256 210 314 260 464 95 388 50 88 584 413 113 354 329 74 255 187 81 106
is_linear=0
shrinkage=0.01


Tree=18
